{"learner":{"attributes":{"scikit_learn":"{\"_estimator_type\": \"regressor\"}"},"feature_names":["lagging1","lagging2","lagging3","temperature_2m_mean","precipitation_sum","wind_speed_10m_max","wind_direction_10m_dominant"],"feature_types":["float","float","float","float","float","float","float"],"gradient_booster":{"model":{"gbtree_model_param":{"num_parallel_tree":"1","num_trees":"100"},"iteration_indptr":[0,1,2,3,4,5,6,7,8,9,10,11,12,13,14,15,16,17,18,19,20,21,22,23,24,25,26,27,28,29,30,31,32,33,34,35,36,37,38,39,40,41,42,43,44,45,46,47,48,49,50,51,52,53,54,55,56,57,58,59,60,61,62,63,64,65,66,67,68,69,70,71,72,73,74,75,76,77,78,79,80,81,82,83,84,85,86,87,88,89,90,91,92,93,94,95,96,97,98,99,100],"tree_info":[0,0,0,0,0,0,0,0,0,0,0,0,0,0,0,0,0,0,0,0,0,0,0,0,0,0,0,0,0,0,0,0,0,0,0,0,0,0,0,0,0,0,0,0,0,0,0,0,0,0,0,0,0,0,0,0,0,0,0,0,0,0,0,0,0,0,0,0,0,0,0,0,0,0,0,0,0,0,0,0,0,0,0,0,0,0,0,0,0,0,0,0,0,0,0,0,0,0,0,0],"trees":[{"base_weights":[-1.7190722E-8,-2.298436E-1,1.3289572E0,-3.9937344E-1,1.2694149E-1,1.819548E0,4.6482822E-1,-1.884735E-1,-5.1331866E-1,3.738844E-1,-8.6378075E-2,1.6327385E0,5.725265E0,3.879889E-1,1.939385E0,-2.0645723E-1,6.137612E-1,1.909484E-2,-5.360016E-1,1.8362433E-1,6.392147E-1,1.3448502E-1,-2.9341352E-1,1.259014E0,2.09094E0,1.9213024E0,1.457597E-1,1.1238574E0,2.2759333E-1,-2.2240296E-2,7.3838955E-1,-2.8564724E-1,-2.0825703E-2,-1.0161045E-1,1.1464428E0,1.5338954E-1,-5.1901925E-2,-4.2127508E-1,-6.058185E-1,9.8804325E-2,6.878393E-1,1.8326208E-1,7.737097E-1,-1.04103036E-1,3.177097E-1,-3.3170518E-1,8.8338506E-1,2.1972482E0,1.0675933E0,1.6052269E0,2.9009552E0,1.3602827E0,-4.37015E-2,1.0894541E-1,1.1065582E0,-1.1125898E-1,-6.413305E-2,1.8858807E-1,-1.8369164E-2,5.013463E-1,1.3988955E-1,-4.3606568E-2,4.846169E-2,8.530235E-2,-1.3151667E-1,-1.960899E-1,-1.512967E-1,7.766818E-2,-9.332983E-3,2.730848E-1,3.387378E-2,1.6207948E-1,4.323881E-3,2.8932816E-1,1.0215328E-1,1.2832947E-1,-5.3871863E-2,1.4285575E-1,1.9534422E-2,-1.0626697E-1,1.5128365E-2,-2.6653731E-2,4.683463E-1,7.0888484E-1,-4.3240305E-2,2.3424228E-1,4.702021E-1,5.064461E-1,6.2639564E-2,1.0880848E0,5.7476807E-1,1.8938957E-1,4.4697613E-1,6.47597E-2,-6.065374E-2,1.4723596E-1,-1.6712436E-2,8.588955E-2,4.251595E-1],"categories":[],"categories_nodes":[],"categories_segments":[],"categories_sizes":[],"default_left":[0,0,0,0,0,0,0,0,0,0,0,0,0,0,0,0,0,0,0,0,0,0,0,0,0,0,0,0,0,0,0,0,0,0,0,0,0,0,0,0,0,0,0,0,0,0,0,0,0,0,0,0,0,0,0,0,0,0,0,0,0,0,0,0,0,0,0,0,0,0,0,0,0,0,0,0,0,0,0,0,0,0,0,0,0,0,0,0,0,0,0,0,0,0,0,0,0,0,0],"id":0,"left_children":[1,3,5,7,9,11,13,15,17,19,21,23,25,27,29,31,33,35,37,39,41,43,45,47,49,-1,-1,51,53,-1,-1,55,57,-1,59,-1,61,63,65,67,69,71,73,75,77,79,81,83,85,87,89,91,93,95,97,-1,-1,-1,-1,-1,-1,-1,-1,-1,-1,-1,-1,-1,-1,-1,-1,-1,-1,-1,-1,-1,-1,-1,-1,-1,-1,-1,-1,-1,-1,-1,-1,-1,-1,-1,-1,-1,-1,-1,-1,-1,-1,-1,-1],"loss_changes":[5.9868646E2,1.0112233E2,1.2167105E2,2.7130432E1,2.8425604E1,1.2490314E2,1.1257763E1,5.8831577E0,8.886627E0,1.2503067E1,1.3300142E1,2.7677155E1,2.535196E1,1.1783279E1,5.43688E0,5.7418156E0,4.954536E0,1.1098282E0,5.3917084E0,6.218863E0,6.235836E0,6.1969204E0,7.0522556E0,1.5613983E1,2.603125E1,0E0,0E0,5.0281734E0,8.743872E0,0E0,0E0,1.598835E0,3.1349328E0,0E0,1.3620205E0,0E0,5.8198965E-1,3.3851051E0,1.7862701E0,2.6493907E0,2.5828772E0,1.4992038E0,6.28109E0,2.565494E0,3.1714144E0,1.2741776E0,3.4334426E0,6.5480957E0,1.0958427E1,5.5533905E0,1.3075317E1,4.7697258E-1,2.0818588E-1,4.805574E0,2.142315E0,0E0,0E0,0E0,0E0,0E0,0E0,0E0,0E0,0E0,0E0,0E0,0E0,0E0,0E0,0E0,0E0,0E0,0E0,0E0,0E0,0E0,0E0,0E0,0E0,0E0,0E0,0E0,0E0,0E0,0E0,0E0,0E0,0E0,0E0,0E0,0E0,0E0,0E0,0E0,0E0,0E0,0E0,0E0,0E0],"parents":[2147483647,0,0,1,1,2,2,3,3,4,4,5,5,6,6,7,7,8,8,9,9,10,10,11,11,12,12,13,13,14,14,15,15,16,16,17,17,18,18,19,19,20,20,21,21,22,22,23,23,24,24,27,27,28,28,31,31,32,32,34,34,36,36,37,37,38,38,39,39,40,40,41,41,42,42,43,43,44,44,45,45,46,46,47,47,48,48,49,49,50,50,51,51,52,52,53,53,54,54],"right_children":[2,4,6,8,10,12,14,16,18,20,22,24,26,28,30,32,34,36,38,40,42,44,46,48,50,-1,-1,52,54,-1,-1,56,58,-1,60,-1,62,64,66,68,70,72,74,76,78,80,82,84,86,88,90,92,94,96,98,-1,-1,-1,-1,-1,-1,-1,-1,-1,-1,-1,-1,-1,-1,-1,-1,-1,-1,-1,-1,-1,-1,-1,-1,-1,-1,-1,-1,-1,-1,-1,-1,-1,-1,-1,-1,-1,-1,-1,-1,-1,-1,-1,-1],"split_conditions":[1.8E0,9E-1,2.2122443E2,2.4181009E2,2.1948328E2,6.1E0,3.4309753E2,2.46E0,-1.0896165E1,1.3E0,1.4081477E1,1.82E0,1.39E1,1.0948973E1,2.45E0,6.8E-1,1.6449667E1,8.707237E0,1.4372974E1,1.636842E1,5.3E-1,1.19E0,1.971425E1,9.178235E0,3.35E0,1.9213024E0,1.457597E-1,3.35E0,1.8966333E1,-2.2240296E-2,7.3838955E-1,4.7E-1,8.217153E0,-1.0161045E-1,1.1828439E2,1.5338954E-1,7.8E-1,7.2E0,5.2E-1,1.2599998E1,1.7860086E1,2.2413337E0,3.8E0,-1.0896165E1,1.33E0,1.7449667E1,1.3E0,4.4999995E0,1.636842E1,4.4E0,8E-1,9.6E-1,2.52E0,-1.7565833E0,2.27E0,-1.1125898E-1,-6.413305E-2,1.8858807E-1,-1.8369164E-2,5.013463E-1,1.3988955E-1,-4.3606568E-2,4.846169E-2,8.530235E-2,-1.3151667E-1,-1.960899E-1,-1.512967E-1,7.766818E-2,-9.332983E-3,2.730848E-1,3.387378E-2,1.6207948E-1,4.323881E-3,2.8932816E-1,1.0215328E-1,1.2832947E-1,-5.3871863E-2,1.4285575E-1,1.9534422E-2,-1.0626697E-1,1.5128365E-2,-2.6653731E-2,4.683463E-1,7.0888484E-1,-4.3240305E-2,2.3424228E-1,4.702021E-1,5.064461E-1,6.2639564E-2,1.0880848E0,5.7476807E-1,1.8938957E-1,4.4697613E-1,6.47597E-2,-6.065374E-2,1.4723596E-1,-1.6712436E-2,8.588955E-2,4.251595E-1],"split_indices":[0,0,6,6,6,0,6,1,3,0,5,2,4,5,0,0,3,5,5,3,2,0,3,5,0,0,0,2,3,0,0,0,5,0,6,0,2,5,0,5,3,3,4,3,1,3,0,4,3,2,4,2,0,3,0,0,0,0,0,0,0,0,0,0,0,0,0,0,0,0,0,0,0,0,0,0,0,0,0,0,0,0,0,0,0,0,0,0,0,0,0,0,0,0,0,0,0,0,0],"split_type":[0,0,0,0,0,0,0,0,0,0,0,0,0,0,0,0,0,0,0,0,0,0,0,0,0,0,0,0,0,0,0,0,0,0,0,0,0,0,0,0,0,0,0,0,0,0,0,0,0,0,0,0,0,0,0,0,0,0,0,0,0,0,0,0,0,0,0,0,0,0,0,0,0,0,0,0,0,0,0,0,0,0,0,0,0,0,0,0,0,0,0,0,0,0,0,0,0,0,0],"sum_hessian":[1.958E3,1.67E3,2.88E2,1.132E3,5.38E2,1.83E2,1.05E2,3.98E2,7.34E2,2.49E2,2.89E2,1.76E2,7E0,1.01E2,4E0,3.9E2,8E0,3E1,7.04E2,1.46E2,1.03E2,1.4E2,1.49E2,9.9E1,7.7E1,6E0,1E0,1.7E1,8.4E1,1E0,3E0,2.73E2,1.17E2,3E0,5E0,3E0,2.7E1,2.69E2,4.35E2,1.26E2,2E1,2.4E1,7.9E1,6.1E1,7.9E1,1.45E2,4E0,1.5E1,8.4E1,5E1,2.7E1,1.4E1,3E0,7.5E1,9E0,1.23E2,1.5E2,6E0,1.11E2,2E0,3E0,1.9E1,8E0,6E0,2.63E2,2.92E2,1.43E2,5.6E1,7E1,1.4E1,6E0,7E0,1.7E1,5.4E1,2.5E1,7E0,5.4E1,4.8E1,3.1E1,1.37E2,8E0,2E0,2E0,1.4E1,1E0,5.5E1,2.9E1,4.7E1,3E0,1.4E1,1.3E1,3E0,1.1E1,1E0,2E0,2.2E1,5.3E1,3E0,6E0],"tree_param":{"num_deleted":"0","num_feature":"7","num_nodes":"99","size_leaf_vector":"1"}},{"base_weights":[4.8427475E-3,-1.4297509E-1,1.074328E0,-2.6571846E-1,1.5335044E-1,9.240476E-1,2.8597524E0,-1.1217206E-1,-3.558583E-1,3.41016E-1,-1.7897643E-2,1.1845765E0,4.312242E-1,3.6517673E0,7.016037E-2,-1.605458E-1,1.2926312E-1,-6.805592E-2,-3.8466477E-1,1.172533E-1,5.3117293E-1,5.8395565E-1,-8.3023846E-2,1.3122083E0,4.1715452E-1,2.4705689E-1,1.3330563E0,1.8268892E0,2.0676591E0,1.397294E-1,-1.4518186E-1,7.554289E-1,-1.6744548E-1,-8.4055305E-2,3.56384E-1,3.2968986E-1,-1.3111079E-1,-4.4703206E-1,-3.1354564E-1,2.6042205E-1,-1.9222581E-1,1.04276866E-1,6.219611E-1,1.0284702E0,3.2925647E-1,-1.1958432E-1,7.6982546E-1,7.906378E-1,1.479361E0,2.2200544E-1,6.772928E-1,8.5664445E-1,6.646321E-2,1.7037654E0,3.9916885E-1,4.315826E-1,9.25934E-1,-1.0291713E-1,6.726657E-2,3.1847152E-1,2.1471495E-2,-6.1901737E-2,-3.5144084E-3,-4.568039E-2,1.2716609E-1,8.229853E-2,4.965578E-1,1.3754368E-4,1.4121707E-1,4.8090942E-2,-5.3175543E-2,-1.3560985E-1,2.089872E-1,-6.825012E-2,-1.1751572E-1,-1.422936E-2,1.2548907E-1,9.195332E-2,-7.4056126E-2,1.1057297E-1,-7.870018E-3,3.3348668E-1,1.4009379E-1,1.5715379E-1,3.9822012E-1,-6.4889856E-2,1.358363E-1,8.195466E-5,-7.030963E-2,6.144845E-2,4.6983436E-1,3.1216329E-2,2.741787E-1,3.594733E-1,5.074603E-1,1.175675E-1,-1.20002635E-1,1.2825736E-1,2.9214668E-1,7.3441125E-2,-6.933655E-2,1.9828095E-1,6.345072E-1,2.7098578E-1,1.4195439E-2,-8.255477E-2,2.9834607E-1],"categories":[],"categories_nodes":[],"categories_segments":[],"categories_sizes":[],"default_left":[0,0,0,0,0,0,0,0,0,0,0,0,0,0,0,0,0,0,0,0,0,0,0,0,0,0,0,0,0,0,0,0,0,0,0,0,0,0,0,0,0,0,0,0,0,0,0,0,0,0,0,0,0,0,0,0,0,0,0,0,0,0,0,0,0,0,0,0,0,0,0,0,0,0,0,0,0,0,0,0,0,0,0,0,0,0,0,0,0,0,0,0,0,0,0,0,0,0,0,0,0,0,0,0,0,0,0],"id":1,"left_children":[1,3,5,7,9,11,13,15,17,19,21,23,25,27,29,31,33,35,37,39,41,43,45,47,49,51,53,-1,55,-1,57,59,61,63,65,67,69,71,73,75,77,79,81,83,85,87,89,91,93,95,-1,97,99,101,103,105,-1,-1,-1,-1,-1,-1,-1,-1,-1,-1,-1,-1,-1,-1,-1,-1,-1,-1,-1,-1,-1,-1,-1,-1,-1,-1,-1,-1,-1,-1,-1,-1,-1,-1,-1,-1,-1,-1,-1,-1,-1,-1,-1,-1,-1,-1,-1,-1,-1,-1,-1],"loss_changes":[3.0984995E2,6.2673332E1,6.1216278E1,1.6817986E1,1.6235474E1,2.7864426E1,3.9512955E1,5.299716E0,6.332695E0,1.019228E1,1.0435534E1,1.3557053E1,1.2625524E1,4.1474472E1,4.9357215E-1,2.5091057E0,3.7120857E0,1.823892E0,2.9513855E0,5.0125265E0,4.973564E0,2.6050234E0,7.5753965E0,9.553741E0,7.400522E0,7.208851E0,3.8205166E0,0E0,1.5336082E1,0E0,3.6930427E-1,5.5209565E-1,2.2689352E0,1.4504683E0,3.48919E0,4.6411133E-1,8.620744E-1,2.4252625E0,2.1238823E0,3.762216E0,1.0564822E0,8.375206E-1,7.600975E0,6.622734E-1,1.3110148E0,3.1780179E0,4.1782274E0,2.6136913E0,3.4605255E0,2.3758645E0,0E0,3.3791542E-1,2.8162956E0,2.4619522E0,8.4412795E-1,2.2628713E0,0E0,0E0,0E0,0E0,0E0,0E0,0E0,0E0,0E0,0E0,0E0,0E0,0E0,0E0,0E0,0E0,0E0,0E0,0E0,0E0,0E0,0E0,0E0,0E0,0E0,0E0,0E0,0E0,0E0,0E0,0E0,0E0,0E0,0E0,0E0,0E0,0E0,0E0,0E0,0E0,0E0,0E0,0E0,0E0,0E0,0E0,0E0,0E0,0E0,0E0,0E0],"parents":[2147483647,0,0,1,1,2,2,3,3,4,4,5,5,6,6,7,7,8,8,9,9,10,10,11,11,12,12,13,13,14,14,15,15,16,16,17,17,18,18,19,19,20,20,21,21,22,22,23,23,24,24,25,25,26,26,28,28,30,30,31,31,32,32,33,33,34,34,35,35,36,36,37,37,38,38,39,39,40,40,41,41,42,42,43,43,44,44,45,45,46,46,47,47,48,48,49,49,51,51,52,52,53,53,54,54,55,55],"right_children":[2,4,6,8,10,12,14,16,18,20,22,24,26,28,30,32,34,36,38,40,42,44,46,48,50,52,54,-1,56,-1,58,60,62,64,66,68,70,72,74,76,78,80,82,84,86,88,90,92,94,96,-1,98,100,102,104,106,-1,-1,-1,-1,-1,-1,-1,-1,-1,-1,-1,-1,-1,-1,-1,-1,-1,-1,-1,-1,-1,-1,-1,-1,-1,-1,-1,-1,-1,-1,-1,-1,-1,-1,-1,-1,-1,-1,-1,-1,-1,-1,-1,-1,-1,-1,-1,-1,-1,-1,-1],"split_conditions":[2E0,9.8E-1,5.56E0,2.4444008E2,2.2122443E2,2.2122443E2,2.0327156E2,1.572675E1,-8.212834E0,7.1017513E0,-1.1531583E1,1.7123669E1,3.72E0,1.3493999E1,5.75E0,6.989936E0,5.7E-1,2.7521786E2,5E-1,3.3999991E0,5E-1,2.847436E2,1.971425E1,2.33E0,2.2932877E1,1.1503113E1,2.42E0,1.8268892E0,1.5430917E1,1.397294E-1,1.168E1,7.2E-1,7.9E-1,2.0255917E1,3.83E0,4.1E-1,9.3876505E0,1.971425E1,1.5676544E1,1E-1,1.0990322E1,1.12E0,7.8E-1,-1.5519082E1,5.1E-1,1.4372974E1,1.21E0,7.911471E1,1.1501687E2,6.399999E0,6.772928E-1,1.32E0,2.9549274E2,-1.7565833E0,4.2E0,2.42E0,9.25934E-1,-1.0291713E-1,6.726657E-2,3.1847152E-1,2.1471495E-2,-6.1901737E-2,-3.5144084E-3,-4.568039E-2,1.2716609E-1,8.229853E-2,4.965578E-1,1.3754368E-4,1.4121707E-1,4.8090942E-2,-5.3175543E-2,-1.3560985E-1,2.089872E-1,-6.825012E-2,-1.1751572E-1,-1.422936E-2,1.2548907E-1,9.195332E-2,-7.4056126E-2,1.1057297E-1,-7.870018E-3,3.3348668E-1,1.4009379E-1,1.5715379E-1,3.9822012E-1,-6.4889856E-2,1.358363E-1,8.195466E-5,-7.030963E-2,6.144845E-2,4.6983436E-1,3.1216329E-2,2.741787E-1,3.594733E-1,5.074603E-1,1.175675E-1,-1.20002635E-1,1.2825736E-1,2.9214668E-1,7.3441125E-2,-6.933655E-2,1.9828095E-1,6.345072E-1,2.7098578E-1,1.4195439E-2,-8.255477E-2,2.9834607E-1],"split_indices":[0,0,0,6,6,6,6,3,3,3,3,5,0,5,0,5,0,6,0,4,2,6,3,0,5,5,1,0,3,0,0,0,0,3,1,1,5,3,5,4,5,0,1,3,1,5,2,6,6,4,0,1,6,3,0,1,0,0,0,0,0,0,0,0,0,0,0,0,0,0,0,0,0,0,0,0,0,0,0,0,0,0,0,0,0,0,0,0,0,0,0,0,0,0,0,0,0,0,0,0,0,0,0,0,0,0,0],"split_type":[0,0,0,0,0,0,0,0,0,0,0,0,0,0,0,0,0,0,0,0,0,0,0,0,0,0,0,0,0,0,0,0,0,0,0,0,0,0,0,0,0,0,0,0,0,0,0,0,0,0,0,0,0,0,0,0,0,0,0,0,0,0,0,0,0,0,0,0,0,0,0,0,0,0,0,0,0,0,0,0,0,0,0,0,0,0,0,0,0,0,0,0,0,0,0,0,0,0,0,0,0,0,0,0,0,0,0],"sum_hessian":[1.958E3,1.721E3,2.37E2,1.217E3,5.04E2,2.2E2,1.7E1,4.51E2,7.66E2,2.4E2,2.64E2,1.43E2,7.7E1,1.3E1,4E0,3.76E2,7.5E1,7E1,6.96E2,1.11E2,1.29E2,2.5E1,2.39E2,1.22E2,2.1E1,6.5E1,1.2E1,4E0,9E0,1E0,3E0,2E0,3.74E2,3.9E1,3.6E1,9E0,6.1E1,3.68E2,3.28E2,7.6E1,3.5E1,2.3E1,1.06E2,8E0,1.7E1,2.3E2,9E0,3.1E1,9.1E1,2E1,1E0,1.4E1,5.1E1,8E0,4E0,4E0,5E0,2E0,1E0,1E0,1E0,2.99E2,7.5E1,3.5E1,4E0,3.5E1,1E0,3E0,6E0,8E0,5.3E1,3.67E2,1E0,1.58E2,1.7E2,2.6E1,5E1,3E0,3.2E1,7E0,1.6E1,2.4E1,8.2E1,4E0,4E0,3E0,1.4E1,1.13E2,1.17E2,6E0,3E0,5E0,2.6E1,4.2E1,4.9E1,1.6E1,4E0,4E0,1E1,3.2E1,1.9E1,3E0,5E0,1E0,3E0,2E0,2E0],"tree_param":{"num_deleted":"0","num_feature":"7","num_nodes":"107","size_leaf_vector":"1"}},{"base_weights":[8.093313E-3,-1.19528435E-1,6.645798E-1,-2.0831947E-1,2.932614E-2,5.7250124E-1,2.1725318E0,-1.1412143E-1,-2.7695218E-1,-3.962322E-2,1.97106E-1,7.720122E-1,2.5920293E-1,2.768281E0,6.9928035E-2,-1.20867856E-1,4.2207414E-1,-1.9591297E-1,-3.1457973E-1,5.438545E-2,-1.2721705E-1,2.7131912E-1,-1.8052985E-1,6.797251E-1,1.3317686E0,1.6445202E-1,1.0191371E0,1.5490378E0,1.6456451E0,1.1876999E-1,-1.1053993E-1,-2.2149748E-1,-3.8602676E-2,-2.339203E-1,-6.361757E-2,-2.8062117E-1,-3.443114E-1,3.8096048E-2,5.2127403E-1,-1.735844E-1,1.6640704E-2,2.313108E-1,9.525533E-1,-2.4633048E-1,7.0862316E-2,5.003512E-1,8.814252E-1,1.0988343E0,6.8398964E-1,7.0019525E-1,1.7551465E-2,1.2851678E0,3.3645442E-1,-2.2014602E-1,2.084726E0,-8.233369E-2,5.717658E-2,-6.919426E-2,1.3229592E-1,1.7641487E-2,-3.4056976E-2,-8.533425E-2,-4.83701E-2,1.3697684E-1,-2.9778156E-2,-2.0619255E-2,-8.939801E-2,-1.0611314E-1,1.0732738E-2,2.5282724E-2,-6.642365E-2,-3.048308E-2,-7.742911E-2,5.1143292E-2,-3.9739598E-2,1.0370375E-1,-1.0162319E-2,1.1012258E-1,3.2596004E-1,-9.5027454E-2,2.539391E-2,5.5327605E-2,-9.1577366E-2,1.7192417E-1,-5.809356E-2,1.9201267E-1,3.701744E-1,-2.0192064E-2,3.4727097E-1,3.6238188E-1,1.589178E-1,-2.7321357E-2,1.280786E-1,1.5366773E-1,4.7588035E-1,2.3033789E-1,1.1001465E-2,-8.107229E-2,-1.799342E-2,6.838091E-1,7.914384E-2],"categories":[],"categories_nodes":[],"categories_segments":[],"categories_sizes":[],"default_left":[0,0,0,0,0,0,0,0,0,0,0,0,0,0,0,0,0,0,0,0,0,0,0,0,0,0,0,0,0,0,0,0,0,0,0,0,0,0,0,0,0,0,0,0,0,0,0,0,0,0,0,0,0,0,0,0,0,0,0,0,0,0,0,0,0,0,0,0,0,0,0,0,0,0,0,0,0,0,0,0,0,0,0,0,0,0,0,0,0,0,0,0,0,0,0,0,0,0,0,0,0],"id":2,"left_children":[1,3,5,7,9,11,13,15,17,19,21,23,25,27,29,31,-1,33,35,37,39,41,43,45,47,49,51,-1,53,-1,55,57,59,61,63,65,67,69,-1,71,73,75,77,79,81,83,85,87,-1,89,91,93,95,97,99,-1,-1,-1,-1,-1,-1,-1,-1,-1,-1,-1,-1,-1,-1,-1,-1,-1,-1,-1,-1,-1,-1,-1,-1,-1,-1,-1,-1,-1,-1,-1,-1,-1,-1,-1,-1,-1,-1,-1,-1,-1,-1,-1,-1,-1,-1],"loss_changes":[1.6420828E2,2.1695124E1,4.3049377E1,6.614483E0,7.110755E0,1.8676834E1,2.235366E1,4.6338253E0,1.7496567E0,3.5971951E0,5.065553E0,8.599884E0,8.400932E0,2.914756E1,3.3790022E-1,3.5842385E0,0E0,9.455037E-1,3.1127548E-1,5.7190523E0,1.5103772E0,3.8679209E0,5.137085E-1,5.34774E0,3.0163841E0,8.408715E0,1.9285879E0,0E0,9.4705105E0,0E0,2.4973293E-1,1.2837505E0,1.7581563E0,4.9768925E-1,8.6115646E-1,6.936321E-1,7.6644325E-1,2.535302E0,0E0,1.0139203E0,1.3071111E0,4.348728E0,2.2869968E-1,5.862509E-1,3.552907E-1,4.502203E0,5.506531E0,1.5847816E0,0E0,1.3508844E0,3.81863E0,1.2820692E0,6.183833E-1,7.862285E-3,2.58844E0,0E0,0E0,0E0,0E0,0E0,0E0,0E0,0E0,0E0,0E0,0E0,0E0,0E0,0E0,0E0,0E0,0E0,0E0,0E0,0E0,0E0,0E0,0E0,0E0,0E0,0E0,0E0,0E0,0E0,0E0,0E0,0E0,0E0,0E0,0E0,0E0,0E0,0E0,0E0,0E0,0E0,0E0,0E0,0E0,0E0,0E0],"parents":[2147483647,0,0,1,1,2,2,3,3,4,4,5,5,6,6,7,7,8,8,9,9,10,10,11,11,12,12,13,13,14,14,15,15,17,17,18,18,19,19,20,20,21,21,22,22,23,23,24,24,25,25,26,26,28,28,30,30,31,31,32,32,33,33,34,34,35,35,36,36,37,37,39,39,40,40,41,41,42,42,43,43,44,44,45,45,46,46,47,47,49,49,50,50,51,51,52,52,53,53,54,54],"right_children":[2,4,6,8,10,12,14,16,18,20,22,24,26,28,30,32,-1,34,36,38,40,42,44,46,48,50,52,-1,54,-1,56,58,60,62,64,66,68,70,-1,72,74,76,78,80,82,84,86,88,-1,90,92,94,96,98,100,-1,-1,-1,-1,-1,-1,-1,-1,-1,-1,-1,-1,-1,-1,-1,-1,-1,-1,-1,-1,-1,-1,-1,-1,-1,-1,-1,-1,-1,-1,-1,-1,-1,-1,-1,-1,-1,-1,-1,-1,-1,-1,-1,-1,-1,-1],"split_conditions":[1.7E0,7.9E-1,5.56E0,1.375558E1,1.3E0,2.2122443E2,2.0327156E2,3.83E0,2.5685043E2,1.38049555E1,1.8218275E1,1.9626753E1,3.72E0,6.316334E0,5.75E0,5E-1,4.2207414E-1,1.2635083E1,1E-1,1.3797912E1,1.2635083E1,1.971425E1,7.8999996E0,1.66E0,3.67E0,-7.1836677E0,2.42E0,1.5490378E0,2.42E0,1.1876999E-1,1.168E1,1.9243418E1,2.062901E2,5.6E-1,1.3003834E1,1.4372974E1,1.7068419E1,1.5E0,5.2127403E-1,2.9330006E0,2.3597868E2,2.6788327E2,1.2074766E1,2.3933907E1,2.43E1,1.0200001E1,1.2774395E2,3.8E-1,6.8398964E-1,2.6724646E2,1.6549667E1,-1.7565833E0,4.2E0,6E0,9.77E0,-8.233369E-2,5.717658E-2,-6.919426E-2,1.3229592E-1,1.7641487E-2,-3.4056976E-2,-8.533425E-2,-4.83701E-2,1.3697684E-1,-2.9778156E-2,-2.0619255E-2,-8.939801E-2,-1.0611314E-1,1.0732738E-2,2.5282724E-2,-6.642365E-2,-3.048308E-2,-7.742911E-2,5.1143292E-2,-3.9739598E-2,1.0370375E-1,-1.0162319E-2,1.1012258E-1,3.2596004E-1,-9.5027454E-2,2.539391E-2,5.5327605E-2,-9.1577366E-2,1.7192417E-1,-5.809356E-2,1.9201267E-1,3.701744E-1,-2.0192064E-2,3.4727097E-1,3.6238188E-1,1.589178E-1,-2.7321357E-2,1.280786E-1,1.5366773E-1,4.7588035E-1,2.3033789E-1,1.1001465E-2,-8.107229E-2,-1.799342E-2,6.838091E-1,7.914384E-2],"split_indices":[0,0,0,5,0,6,6,1,6,5,5,3,0,3,0,0,0,3,4,5,3,3,4,2,0,3,1,0,1,0,0,3,6,0,3,5,3,1,0,3,6,6,5,5,4,4,6,1,0,6,3,3,0,0,0,0,0,0,0,0,0,0,0,0,0,0,0,0,0,0,0,0,0,0,0,0,0,0,0,0,0,0,0,0,0,0,0,0,0,0,0,0,0,0,0,0,0,0,0,0,0],"split_type":[0,0,0,0,0,0,0,0,0,0,0,0,0,0,0,0,0,0,0,0,0,0,0,0,0,0,0,0,0,0,0,0,0,0,0,0,0,0,0,0,0,0,0,0,0,0,0,0,0,0,0,0,0,0,0,0,0,0,0,0,0,0,0,0,0,0,0,0,0,0,0,0,0,0,0,0,0,0,0,0,0,0,0,0,0,0,0,0,0,0,0,0,0,0,0,0,0,0,0,0,0],"sum_hessian":[1.958E3,1.64E3,3.18E2,1.027E3,6.13E2,3.01E2,1.7E1,4.34E2,5.93E2,4.35E2,1.78E2,1.83E2,1.18E2,1.3E1,4E0,4.33E2,1E0,1.9E2,4.03E2,2.1E2,2.25E2,1.49E2,2.9E1,1.59E2,2.4E1,1.06E2,1.2E1,3E0,1E1,1E0,3E0,1.94E2,2.39E2,1.47E2,4.3E1,1.93E2,2.1E2,2.09E2,1E0,1.7E2,5.5E1,1.42E2,7E0,2.3E1,6E0,8.6E1,7.3E1,2.1E1,3E0,2.2E1,8.4E1,8E0,4E0,2E0,8E0,2E0,1E0,1.92E2,2E0,1.04E2,1.35E2,8.5E1,6.2E1,2E0,4.1E1,1.5E1,1.78E2,2.05E2,5E0,1.78E2,3.1E1,9.3E1,7.7E1,2.7E1,2.8E1,9.9E1,4.3E1,2E0,5E0,1.9E1,4E0,5E0,1E0,7.8E1,8E0,4.5E1,2.8E1,1E0,2E1,4E0,1.8E1,6.7E1,1.7E1,3E0,5E0,1E0,3E0,1E0,1E0,7E0,1E0],"tree_param":{"num_deleted":"0","num_feature":"7","num_nodes":"101","size_leaf_vector":"1"}},{"base_weights":[8.999058E-3,-5.983523E-2,6.6546696E-1,-1.10307045E-1,1.7702408E-1,5.932199E-1,2.1988118E0,-2.6518546E-2,-1.6722584E-1,3.578645E-1,5.9022002E-2,1.2931935E0,4.9200064E-1,3.4020753E0,1.4502953E-1,-1.185194E-1,3.005404E-2,2.1017145E-1,-1.809382E-1,1.59316E-1,5.9256864E-1,2.015373E-1,-1.271307E-1,9.334704E-1,2.3295574E0,2.7538455E-1,7.162931E-1,1.1632268E0,2.2510286E-1,7.724823E-2,-2.8854625E-2,-1.7307225E-1,-3.864197E-2,-6.937508E-3,2.8914568E-1,-9.55155E-3,3.3149666E-1,7.858492E-2,-1.9297917E-1,-2.4075384E-1,2.1667121E-1,5.115612E-1,5.5595374E-1,2.7444136E-1,-1.5440498E-1,-1.7274478E-1,6.189978E-1,2.8026852E-1,1.4280052E0,1.00921E-1,8.2312363E-1,4.068739E-1,-2.1473737E-1,1.0911585E0,4.3994558E-1,-6.744692E-2,-3.3887085E-2,-5.455473E-2,1.7767299E-2,-5.2920192E-2,1.068559E-2,1.7328443E-1,1.9453876E-4,-1.0410254E-1,2.7792204E-2,1.4491607E-1,-5.6921304E-3,1.3435537E-1,1.0241332E-2,-6.9935046E-2,-4.400118E-2,1.1314739E-2,-9.771138E-2,1.1221007E-1,-1.0487117E-2,3.2069588E-1,1.03231214E-1,1.6908461E-1,4.8224278E-2,-1.2957586E-1,2.070964E-3,-1.6573298E-1,-3.844705E-2,6.730487E-2,3.2963863E-1,1.9736895E-1,-4.6023946E-2,5.0613236E-2,5.16522E-1,-1.2755154E-1,1.5438713E-1,-8.0652796E-2,1.05757825E-1,1.7064999E-1,4.555719E-1,5.5514896E-1,1.0013188E-1],"categories":[],"categories_nodes":[],"categories_segments":[],"categories_sizes":[],"default_left":[0,0,0,0,0,0,0,0,0,0,0,0,0,0,0,0,0,0,0,0,0,0,0,0,0,0,0,0,0,0,0,0,0,0,0,0,0,0,0,0,0,0,0,0,0,0,0,0,0,0,0,0,0,0,0,0,0,0,0,0,0,0,0,0,0,0,0,0,0,0,0,0,0,0,0,0,0,0,0,0,0,0,0,0,0,0,0,0,0,0,0,0,0,0,0,0,0],"id":3,"left_children":[1,3,5,7,9,11,13,15,17,19,21,23,25,27,29,31,33,35,37,39,41,43,45,47,49,51,53,-1,-1,-1,-1,55,57,59,61,63,65,67,69,71,73,75,-1,77,79,81,83,85,87,-1,-1,89,91,93,95,-1,-1,-1,-1,-1,-1,-1,-1,-1,-1,-1,-1,-1,-1,-1,-1,-1,-1,-1,-1,-1,-1,-1,-1,-1,-1,-1,-1,-1,-1,-1,-1,-1,-1,-1,-1,-1,-1,-1,-1,-1,-1],"loss_changes":[8.8562126E1,2.12272E1,1.9300644E1,6.9728184E0,6.636816E0,1.204604E1,1.9276527E1,3.0899644E0,4.545458E0,5.637414E0,5.066247E0,6.027115E0,7.479229E0,3.393074E0,1.3327736E-1,9.7811675E-1,3.5289917E0,8.2956266E-1,2.6432152E0,1.6124986E0,4.7706394E0,2.8449364E0,2.9317477E0,5.4143324E0,3.2046928E0,5.371929E0,7.49662E0,0E0,0E0,0E0,0E0,3.9148092E-1,1.314179E0,2.3356614E0,3.8278608E0,4.4597274E-1,1.0714893E0,6.083989E-1,1.4602165E0,2.2518998E-1,2.388884E0,4.672777E0,0E0,2.8683553E0,8.535237E-1,1.266669E0,7.0024204E-1,1.5748627E0,3.4085102E0,0E0,0E0,6.046236E0,6.4722884E-1,6.2801666E0,6.2714043E0,0E0,0E0,0E0,0E0,0E0,0E0,0E0,0E0,0E0,0E0,0E0,0E0,0E0,0E0,0E0,0E0,0E0,0E0,0E0,0E0,0E0,0E0,0E0,0E0,0E0,0E0,0E0,0E0,0E0,0E0,0E0,0E0,0E0,0E0,0E0,0E0,0E0,0E0,0E0,0E0,0E0,0E0],"parents":[2147483647,0,0,1,1,2,2,3,3,4,4,5,5,6,6,7,7,8,8,9,9,10,10,11,11,12,12,13,13,14,14,15,15,16,16,17,17,18,18,19,19,20,20,21,21,22,22,23,23,24,24,25,25,26,26,31,31,32,32,33,33,34,34,35,35,36,36,37,37,38,38,39,39,40,40,41,41,43,43,44,44,45,45,46,46,47,47,48,48,51,51,52,52,53,53,54,54],"right_children":[2,4,6,8,10,12,14,16,18,20,22,24,26,28,30,32,34,36,38,40,42,44,46,48,50,52,54,-1,-1,-1,-1,56,58,60,62,64,66,68,70,72,74,76,-1,78,80,82,84,86,88,-1,-1,90,92,94,96,-1,-1,-1,-1,-1,-1,-1,-1,-1,-1,-1,-1,-1,-1,-1,-1,-1,-1,-1,-1,-1,-1,-1,-1,-1,-1,-1,-1,-1,-1,-1,-1,-1,-1,-1,-1,-1,-1,-1,-1,-1,-1],"split_conditions":[2.29E0,1.3E0,6.47E0,2.4752995E2,1.559589E2,9.346143E0,6.09E0,5.2E-1,8.707237E0,1.05880196E2,1.4081477E1,9.007196E0,1.82E0,1.7005919E1,1.139E1,6.7E-1,1.6449667E1,6.2E-1,-1.0896165E1,4.8E-1,2.96E0,3.1936295E2,1.971425E1,1.5205002E0,-3.2440832E0,1.6923828E1,2.46E0,1.1632268E0,2.2510286E-1,7.724823E-2,-2.8854625E-2,5E-1,2.0663335E0,5.1282482E1,1.8085085E1,7.2E0,1.42E0,-1.7585749E1,5.2E-1,4.1E-1,1.35E0,8.1E-1,5.5595374E-1,1.42E0,7.2E-1,1.9744725E2,1.6135872E1,6.989936E0,5.6E-1,1.00921E-1,8.2312363E-1,8.925108E1,1.7249666E1,2.92E0,1.91E0,-6.744692E-2,-3.3887085E-2,-5.455473E-2,1.7767299E-2,-5.2920192E-2,1.068559E-2,1.7328443E-1,1.9453876E-4,-1.0410254E-1,2.7792204E-2,1.4491607E-1,-5.6921304E-3,1.3435537E-1,1.0241332E-2,-6.9935046E-2,-4.400118E-2,1.1314739E-2,-9.771138E-2,1.1221007E-1,-1.0487117E-2,3.2069588E-1,1.03231214E-1,1.6908461E-1,4.8224278E-2,-1.2957586E-1,2.070964E-3,-1.6573298E-1,-3.844705E-2,6.730487E-2,3.2963863E-1,1.9736895E-1,-4.6023946E-2,5.0613236E-2,5.16522E-1,-1.2755154E-1,1.5438713E-1,-8.0652796E-2,1.05757825E-1,1.7064999E-1,4.555719E-1,5.5514896E-1,1.0013188E-1],"split_indices":[0,0,0,6,6,5,1,2,5,6,5,5,2,3,1,0,3,2,3,2,2,6,3,3,3,5,1,0,0,0,0,4,3,6,3,5,2,3,0,1,2,1,0,0,2,6,5,5,1,0,0,6,3,0,2,0,0,0,0,0,0,0,0,0,0,0,0,0,0,0,0,0,0,0,0,0,0,0,0,0,0,0,0,0,0,0,0,0,0,0,0,0,0,0,0,0,0],"split_type":[0,0,0,0,0,0,0,0,0,0,0,0,0,0,0,0,0,0,0,0,0,0,0,0,0,0,0,0,0,0,0,0,0,0,0,0,0,0,0,0,0,0,0,0,0,0,0,0,0,0,0,0,0,0,0,0,0,0,0,0,0,0,0,0,0,0,0,0,0,0,0,0,0,0,0,0,0,0,0,0,0,0,0,0,0,0,0,0,0,0,0,0,0,0,0,0,0],"sum_hessian":[1.958E3,1.773E3,1.85E2,1.462E3,3.11E2,1.78E2,7E0,5.92E2,8.7E2,1.22E2,1.89E2,2.1E1,1.57E2,4E0,3E0,2.25E2,3.67E2,3E1,8.4E2,6.7E1,5.5E1,1.07E2,8.2E1,1.7E1,4E0,8.1E1,7.6E1,3E0,1E0,2E0,1E0,1.33E2,9.2E1,3.22E2,4.5E1,1.1E1,1.9E1,3.7E1,8.03E2,8E0,5.9E1,5.3E1,2E0,8.9E1,1.8E1,7.8E1,4E0,8E0,9E0,1E0,3E0,6.4E1,1.7E1,3.1E1,4.5E1,7E1,6.3E1,3.7E1,5.5E1,6.4E1,2.58E2,2.2E1,2.3E1,2E0,9E0,1.3E1,6E0,3E0,3.4E1,4.28E2,3.75E2,2E0,6E0,3.6E1,2.3E1,1.1E1,4.2E1,2.4E1,6.5E1,6E0,1.2E1,7E0,7.1E1,3E0,1E0,4E0,4E0,2E0,7E0,7E0,5.7E1,1.6E1,1E0,1.5E1,1.6E1,2E0,4.3E1],"tree_param":{"num_deleted":"0","num_feature":"7","num_nodes":"97","size_leaf_vector":"1"}},{"base_weights":[9.248369E-3,-5.581108E-2,3.8539055E-1,-1.2857862E-1,-2.5712294E-3,3.2185784E-1,1.3240299E0,-1.3463205E-1,3.0620304E-1,5.5725757E-2,-8.449965E-2,7.31655E-1,2.3300397E-1,8.995872E-1,9.272917E-1,-2.4595478E-1,-1.1335189E-1,1.3166087E-2,2.227401E-1,3.0740554E-2,2.0045017E-1,-1.7471641E-1,-4.2200573E-2,5.267236E-1,1.0439448E0,4.3282384E-1,8.631778E-2,2.0412812E0,2.3536174E-1,-1.5988646E-1,-3.000909E-1,1.4901371E-1,-1.1628666E-1,7.017236E-2,-4.9330734E-2,4.32297E-1,2.0466363E-2,9.641129E-2,5.233521E-1,1.2726635E-1,-1.8802683E-1,-8.755977E-2,8.936048E-2,2.8935137E-1,6.82084E-1,1.217344E0,1.3271159E-1,2.8979304E-1,1.0285783E0,-1.1237871E-2,7.8820133E-1,7.1786636E-1,2.6761365E-1,5.7808536E-1,-1.4658885E-1,-5.8411956E-2,7.6483786E-3,1.8229991E-2,-9.194375E-2,-3.0933646E-2,-6.2182855E-2,2.6994348E-2,-4.3307394E-3,-1.5844204E-2,2.7786312E-1,8.988792E-2,1.4527661E-3,1.881835E-2,3.3277035E-1,3.436233E-1,5.2482117E-2,-7.847321E-3,4.8954815E-2,-4.817441E-2,-9.4105996E-2,-3.1480595E-2,1.0602898E-1,-7.5872436E-2,5.335903E-2,1.1583901E-1,-5.826414E-2,2.8878415E-1,1.0841968E-1,5.024062E-1,1.8234985E-1,-2.4755217E-2,6.958812E-2,-3.8445987E-2,1.14966355E-1,8.8341075E-1,1.8150567E-1,2.3935875E-2,-9.4270624E-2,8.838484E-2,3.4180975E-1,2.3389415E-1,3.4992363E-2,7.779642E-2,-8.389056E-2],"categories":[],"categories_nodes":[],"categories_segments":[],"categories_sizes":[],"default_left":[0,0,0,0,0,0,0,0,0,0,0,0,0,0,0,0,0,0,0,0,0,0,0,0,0,0,0,0,0,0,0,0,0,0,0,0,0,0,0,0,0,0,0,0,0,0,0,0,0,0,0,0,0,0,0,0,0,0,0,0,0,0,0,0,0,0,0,0,0,0,0,0,0,0,0,0,0,0,0,0,0,0,0,0,0,0,0,0,0,0,0,0,0,0,0,0,0,0,0],"id":4,"left_children":[1,3,5,7,9,11,13,15,17,19,21,23,25,-1,27,29,31,33,-1,35,37,39,41,43,45,47,49,51,53,55,57,-1,59,61,-1,63,65,67,69,71,73,75,77,79,81,83,85,87,89,91,93,-1,-1,95,97,-1,-1,-1,-1,-1,-1,-1,-1,-1,-1,-1,-1,-1,-1,-1,-1,-1,-1,-1,-1,-1,-1,-1,-1,-1,-1,-1,-1,-1,-1,-1,-1,-1,-1,-1,-1,-1,-1,-1,-1,-1,-1,-1,-1],"loss_changes":[4.7961384E1,6.4733467E0,1.6808167E1,1.8993597E0,4.618499E0,9.733603E0,9.178162E0,1.6232891E0,1.268639E0,2.0368607E0,1.5266936E0,2.5220299E0,6.5575743E0,0E0,1.1852405E1,4.6921396E-1,1.1087251E0,8.2409784E-2,0E0,1.9838498E0,2.737874E0,5.384271E-1,1.6488878E0,9.458647E-1,2.6825752E0,7.7969933E0,8.978782E0,2.8990746E-1,1.5246794E0,2.9543793E-1,1.730752E-1,0E0,6.798916E-1,1.1354862E-2,0E0,2.9241502E0,2.057197E0,2.1138046E0,4.1342735E0,3.733109E-2,3.738289E-1,1.6078864E0,2.1956997E0,7.30175E-1,1.2714224E0,3.1634064E0,1.04585625E-1,3.094852E0,1.2827061E1,3.224361E0,2.4375992E0,0E0,0E0,4.6711826E-1,3.9654458E-1,0E0,0E0,0E0,0E0,0E0,0E0,0E0,0E0,0E0,0E0,0E0,0E0,0E0,0E0,0E0,0E0,0E0,0E0,0E0,0E0,0E0,0E0,0E0,0E0,0E0,0E0,0E0,0E0,0E0,0E0,0E0,0E0,0E0,0E0,0E0,0E0,0E0,0E0,0E0,0E0,0E0,0E0,0E0,0E0],"parents":[2147483647,0,0,1,1,2,2,3,3,4,4,5,5,6,6,7,7,8,8,9,9,10,10,11,11,12,12,14,14,15,15,16,16,17,17,19,19,20,20,21,21,22,22,23,23,24,24,25,25,26,26,27,27,28,28,29,29,30,30,32,32,33,33,35,35,36,36,37,37,38,38,39,39,40,40,41,41,42,42,43,43,44,44,45,45,46,46,47,47,48,48,49,49,50,50,53,53,54,54],"right_children":[2,4,6,8,10,12,14,16,18,20,22,24,26,-1,28,30,32,34,-1,36,38,40,42,44,46,48,50,52,54,56,58,-1,60,62,-1,64,66,68,70,72,74,76,78,80,82,84,86,88,90,92,94,-1,-1,96,98,-1,-1,-1,-1,-1,-1,-1,-1,-1,-1,-1,-1,-1,-1,-1,-1,-1,-1,-1,-1,-1,-1,-1,-1,-1,-1,-1,-1,-1,-1,-1,-1,-1,-1,-1,-1,-1,-1,-1,-1,-1,-1,-1,-1],"split_conditions":[1.8E0,5.7E-1,5.56E0,1.9243418E1,1.4986553E1,9.96524E0,1.5704999E0,2.6E-1,7.2E-1,1.5826751E1,5.2E-1,1.0941333E1,1.5800543E2,8.995872E-1,1.3945412E2,3.5975835E0,6.2613096E0,1.02E0,2.227401E-1,6.989936E0,1.3287122E1,-9.271166E0,1.3E0,1.21E0,2.0964252E1,2.9E0,3.78E0,1.7005919E1,1.8595702E2,9.1E-1,7.5942073E0,1.4901371E-1,4.3E0,6.2E-1,-4.9330734E-2,1.5E0,-1.2241998E1,3.83E0,1.3428265E2,4.4E-1,1.21E0,3.3766306E2,8.362478E1,1.82E0,2.42E0,9.178235E0,3.8E-1,1.08955765E1,2.92E0,2.04E0,1.5147584E1,7.1786636E-1,2.6761365E-1,2.0929594E1,5.75E0,-5.8411956E-2,7.6483786E-3,1.8229991E-2,-9.194375E-2,-3.0933646E-2,-6.2182855E-2,2.6994348E-2,-4.3307394E-3,-1.5844204E-2,2.7786312E-1,8.988792E-2,1.4527661E-3,1.881835E-2,3.3277035E-1,3.436233E-1,5.2482117E-2,-7.847321E-3,4.8954815E-2,-4.817441E-2,-9.4105996E-2,-3.1480595E-2,1.0602898E-1,-7.5872436E-2,5.335903E-2,1.1583901E-1,-5.826414E-2,2.8878415E-1,1.0841968E-1,5.024062E-1,1.8234985E-1,-2.4755217E-2,6.958812E-2,-3.8445987E-2,1.14966355E-1,8.8341075E-1,1.8150567E-1,2.3935875E-2,-9.4270624E-2,8.838484E-2,3.4180975E-1,2.3389415E-1,3.4992363E-2,7.779642E-2,-8.389056E-2],"split_indices":[0,0,0,3,5,5,3,0,1,3,2,3,6,0,6,3,5,2,0,5,5,3,0,2,3,2,0,3,6,2,5,0,4,2,0,4,3,1,6,2,0,6,6,1,2,5,1,5,2,2,3,0,0,5,0,0,0,0,0,0,0,0,0,0,0,0,0,0,0,0,0,0,0,0,0,0,0,0,0,0,0,0,0,0,0,0,0,0,0,0,0,0,0,0,0,0,0,0,0],"split_type":[0,0,0,0,0,0,0,0,0,0,0,0,0,0,0,0,0,0,0,0,0,0,0,0,0,0,0,0,0,0,0,0,0,0,0,0,0,0,0,0,0,0,0,0,0,0,0,0,0,0,0,0,0,0,0,0,0,0,0,0,0,0,0,0,0,0,0,0,0,0,0,0,0,0,0,0,0,0,0,0,0,0,0,0,0,0,0,0,0,0,0,0,0,0,0,0,0,0,0],"sum_hessian":[1.958E3,1.67E3,2.88E2,7.05E2,9.65E2,2.71E2,1.7E1,6.96E2,9E0,5.64E2,4.01E2,4.7E1,2.24E2,2E0,1.5E1,1.1E2,5.86E2,6E0,3E0,4.82E2,8.2E1,1.27E2,2.74E2,3E1,1.7E1,9.4E1,1.3E2,5E0,1E1,4.4E1,6.6E1,2E0,5.84E2,5E0,1E0,1.1E1,4.71E2,6.3E1,1.9E1,5E0,1.22E2,2.04E2,7E1,1.3E1,1.7E1,1.4E1,3E0,7.7E1,1.7E1,1.15E2,1.5E1,3E0,2E0,5E0,5E0,3.7E1,7E0,1E0,6.5E1,5.12E2,7.2E1,4E0,1E0,6E0,5E0,2.4E1,4.47E2,6.2E1,1E0,6E0,1.3E1,1E0,4E0,1.02E2,2E1,1.97E2,7E0,1.4E1,5.6E1,1.1E1,2E0,8E0,9E0,7E0,7E0,1E0,2E0,1.4E1,6.3E1,2E0,1.5E1,8.9E1,2.6E1,7E0,8E0,3E0,2E0,1E0,4E0],"tree_param":{"num_deleted":"0","num_feature":"7","num_nodes":"99","size_leaf_vector":"1"}},{"base_weights":[9.543236E-3,-2.8566044E-2,3.7296432E-1,-5.920465E-2,8.4362864E-2,2.9905754E-1,1.0461465E0,2.3413802E-2,-8.935137E-2,1.299759E-1,-5.3364277E-2,4.9969932E-1,1.6885164E-1,7.196697E-1,7.2712123E-1,-1.1213393E-1,8.1048526E-2,-1.877481E-2,-1.12516426E-1,2.0597352E-1,2.3762735E-2,-9.814669E-2,3.8546175E-1,4.1639537E-1,2.1102834E0,-1.9086028E-2,4.467379E-1,1.5931436E0,1.8864344E-1,-1.24907374E-1,3.9360374E-1,1.3405819E-1,-5.1147103E-2,6.2179152E-2,-7.2621405E-2,-9.861633E-2,-1.8345198E-1,-6.0635004E-2,3.026244E-1,-1.06101006E-1,1.5110801E-1,1.8597579E-1,-1.4171673E-1,6.468115E-2,6.2915E-1,7.0932853E-1,2.4606544E-1,1.1365544E0,-1.8692675E-1,3.3962423E-1,-1.9382624E-1,7.478573E-1,2.69469E-1,2.1178895E-1,1.8602431E0,4.494742E-1,-1.03627875E-1,-4.8016578E-2,1.5556931E-2,1.633784E-1,1.3743291E-2,-3.431397E-3,8.390283E-2,-1.9962268E-2,1.036846E-1,1.03163235E-1,9.366128E-3,-3.1630237E-2,2.751338E-2,-3.0684318E-2,7.51597E-2,9.246652E-2,-5.8185767E-2,9.560246E-2,-4.9294367E-2,7.2909705E-2,1.838655E-1,-7.6434775E-3,-1.1868702E-1,2.2346917E-1,-1.2484272E-2,8.334914E-2,-2.0157337E-2,6.406087E-2,-4.7772396E-2,3.6693845E-2,-2.4876827E-2,2.2737634E-1,1.7109811E-2,2.8901964E-1,6.2119104E-2,2.9315147E-1,4.943125E-2,4.4805717E-2,4.294414E-1,-1.3930729E-1,-9.69436E-3,2.6431763E-1,-2.3590362E-2,-1.7360697E-3,2.5536233E-1,6.433003E-1,1.511954E-1,-8.445329E-3,1.6518883E-1,-1.2466364E-1,1.255942E-2],"categories":[],"categories_nodes":[],"categories_segments":[],"categories_sizes":[],"default_left":[0,0,0,0,0,0,0,0,0,0,0,0,0,0,0,0,0,0,0,0,0,0,0,0,0,0,0,0,0,0,0,0,0,0,0,0,0,0,0,0,0,0,0,0,0,0,0,0,0,0,0,0,0,0,0,0,0,0,0,0,0,0,0,0,0,0,0,0,0,0,0,0,0,0,0,0,0,0,0,0,0,0,0,0,0,0,0,0,0,0,0,0,0,0,0,0,0,0,0,0,0,0,0,0,0,0,0],"id":5,"left_children":[1,3,5,7,9,11,13,15,17,19,21,23,25,-1,27,29,31,33,35,37,39,41,43,45,47,49,51,53,55,57,59,61,63,65,67,69,71,73,75,77,79,81,83,85,87,89,91,-1,-1,93,95,97,99,-1,101,103,105,-1,-1,-1,-1,-1,-1,-1,-1,-1,-1,-1,-1,-1,-1,-1,-1,-1,-1,-1,-1,-1,-1,-1,-1,-1,-1,-1,-1,-1,-1,-1,-1,-1,-1,-1,-1,-1,-1,-1,-1,-1,-1,-1,-1,-1,-1,-1,-1,-1,-1],"loss_changes":[2.7142246E1,6.1430063E0,8.941149E0,3.4790745E0,2.3878722E0,4.3307056E0,6.0238304E0,2.930872E0,1.6704016E0,2.2956104E0,1.904742E0,7.9763756E0,5.439957E0,0E0,7.1608057E0,7.726854E-1,1.8498679E0,1.1117258E0,7.411375E-1,4.2958302E0,2.0005364E0,1.1033487E0,6.6284E-1,3.0187569E0,1.6122272E1,4.014738E0,2.0403976E0,1.0852814E-1,8.851447E-1,6.9171596E-1,1.3259223E-1,3.9863255E0,4.8718092E-1,8.7880814E-1,8.346763E-1,8.5220385E-1,7.051368E-1,1.8220632E0,2.1067152E0,1.3904457E0,7.011618E0,2.977224E-1,5.07154E-1,5.267581E-2,3.2513463E-1,2.7355576E0,2.33526E0,0E0,0E0,4.148909E0,1.8638359E0,1.7206297E0,4.4884825E0,0E0,4.604931E-1,3.0538678E-1,2.8968695E-1,0E0,0E0,0E0,0E0,0E0,0E0,0E0,0E0,0E0,0E0,0E0,0E0,0E0,0E0,0E0,0E0,0E0,0E0,0E0,0E0,0E0,0E0,0E0,0E0,0E0,0E0,0E0,0E0,0E0,0E0,0E0,0E0,0E0,0E0,0E0,0E0,0E0,0E0,0E0,0E0,0E0,0E0,0E0,0E0,0E0,0E0,0E0,0E0,0E0,0E0],"parents":[2147483647,0,0,1,1,2,2,3,3,4,4,5,5,6,6,7,7,8,8,9,9,10,10,11,11,12,12,14,14,15,15,16,16,17,17,18,18,19,19,20,20,21,21,22,22,23,23,24,24,25,25,26,26,27,27,28,28,29,29,30,30,31,31,32,32,33,33,34,34,35,35,36,36,37,37,38,38,39,39,40,40,41,41,42,42,43,43,44,44,45,45,46,46,49,49,50,50,51,51,52,52,54,54,55,55,56,56],"right_children":[2,4,6,8,10,12,14,16,18,20,22,24,26,-1,28,30,32,34,36,38,40,42,44,46,48,50,52,54,56,58,60,62,64,66,68,70,72,74,76,78,80,82,84,86,88,90,92,-1,-1,94,96,98,100,-1,102,104,106,-1,-1,-1,-1,-1,-1,-1,-1,-1,-1,-1,-1,-1,-1,-1,-1,-1,-1,-1,-1,-1,-1,-1,-1,-1,-1,-1,-1,-1,-1,-1,-1,-1,-1,-1,-1,-1,-1,-1,-1,-1,-1,-1,-1,-1,-1,-1,-1,-1,-1],"split_conditions":[2.29E0,1.2E0,5.56E0,1.9118674E2,2.847436E2,1.2031756E1,1.5704999E0,6.664103E1,-1.7565833E0,1.44E1,1.8501753E1,1.1988594E1,1.636842E1,7.196697E-1,1.3945412E2,2.54E0,4.4E0,2.9006018E2,2.3E0,5.9E-1,1.7000003E0,-1.372325E1,1E-1,1.09E0,3.45E0,1.4311125E2,1.38049555E1,6.2E0,1.8595702E2,1.081425E1,4.1E-1,2E-1,2.8E0,-1.2727418E1,3.3669073E2,2.1000001E0,7.2E0,4.1E-1,1.3397612E1,8.000001E-1,3.2999997E0,1.2879752E1,6.989936E0,1.73E0,1.6E0,2.0889857E2,2.2273756E1,1.1365544E0,-1.8692675E-1,1.2774395E2,2.2969817E2,4.18E0,2.1E0,2.1178895E-1,1.7005919E1,2.42E0,1.52E0,-4.8016578E-2,1.5556931E-2,1.633784E-1,1.3743291E-2,-3.431397E-3,8.390283E-2,-1.9962268E-2,1.036846E-1,1.03163235E-1,9.366128E-3,-3.1630237E-2,2.751338E-2,-3.0684318E-2,7.51597E-2,9.246652E-2,-5.8185767E-2,9.560246E-2,-4.9294367E-2,7.2909705E-2,1.838655E-1,-7.6434775E-3,-1.1868702E-1,2.2346917E-1,-1.2484272E-2,8.334914E-2,-2.0157337E-2,6.406087E-2,-4.7772396E-2,3.6693845E-2,-2.4876827E-2,2.2737634E-1,1.7109811E-2,2.8901964E-1,6.2119104E-2,2.9315147E-1,4.943125E-2,4.4805717E-2,4.294414E-1,-1.3930729E-1,-9.69436E-3,2.6431763E-1,-2.3590362E-2,-1.7360697E-3,2.5536233E-1,6.433003E-1,1.511954E-1,-8.445329E-3,1.6518883E-1,-1.2466364E-1,1.255942E-2],"split_indices":[0,0,0,6,6,5,3,6,3,5,3,5,3,0,6,2,4,6,4,2,4,3,4,2,0,6,5,0,6,3,0,4,2,3,6,4,5,1,5,4,4,5,5,0,0,6,6,0,0,6,6,0,4,0,3,1,1,0,0,0,0,0,0,0,0,0,0,0,0,0,0,0,0,0,0,0,0,0,0,0,0,0,0,0,0,0,0,0,0,0,0,0,0,0,0,0,0,0,0,0,0,0,0,0,0,0,0],"split_type":[0,0,0,0,0,0,0,0,0,0,0,0,0,0,0,0,0,0,0,0,0,0,0,0,0,0,0,0,0,0,0,0,0,0,0,0,0,0,0,0,0,0,0,0,0,0,0,0,0,0,0,0,0,0,0,0,0,0,0,0,0,0,0,0,0,0,0,0,0,0,0,0,0,0,0,0,0,0,0,0,0,0,0,0,0,0,0,0,0,0,0,0,0,0,0,0,0,0,0,0,0,0,0,0,0,0,0],"sum_hessian":[1.958E3,1.773E3,1.85E2,1.395E3,3.78E2,1.68E2,1.7E1,3.73E2,1.022E3,2.84E2,9.4E1,6.5E1,1.03E2,2E0,1.5E1,1.11E2,2.62E2,2.53E2,7.69E2,1.65E2,1.19E2,8.6E1,8E0,6.3E1,2E0,6.2E1,4.1E1,5E0,1E1,1.09E2,2E0,1.87E2,7.5E1,1.01E2,1.52E2,6.45E2,1.24E2,4.4E1,1.21E2,5.9E1,6E1,1.1E1,7.5E1,4E0,4E0,2.2E1,4.1E1,1E0,1E0,2E1,4.2E1,1.4E1,2.7E1,2E0,3E0,5E0,5E0,9.1E1,1.8E1,1E0,1E0,9.4E1,9.3E1,7.3E1,2E0,9E0,9.2E1,1.27E2,2.5E1,6.39E2,6E0,2E0,1.22E2,9E0,3.5E1,1.03E2,1.8E1,4.7E1,1.2E1,1.4E1,4.6E1,8E0,3E0,3E0,7.2E1,3E0,1E0,3E0,1E0,1.4E1,8E0,3E0,3.8E1,1.8E1,2E0,1.5E1,2.7E1,1.2E1,2E0,1.9E1,8E0,2E0,1E0,1E0,4E0,1E0,4E0],"tree_param":{"num_deleted":"0","num_feature":"7","num_nodes":"107","size_leaf_vector":"1"}},{"base_weights":[9.463865E-3,-1.89428E-2,2.9032165E-1,-3.9248753E-2,7.453692E-2,2.2887029E-1,8.306688E-1,-1.1261287E-2,-8.147467E-2,4.2458825E-2,3.0292997E-1,1.730272E-1,5.612618E-1,5.757358E-1,5.746676E-1,-4.7059484E-2,2.8866647E-2,-8.382549E-2,1.9300562E-1,7.762421E-2,-1.3811341E-1,9.138991E-2,6.013069E-1,1.2473542E-2,3.063124E-1,3.9905462E-1,4.246893E-1,1.2829145E0,1.3610855E-1,-5.4793026E-2,3.5172078E-1,6.8866394E-2,-7.2733276E-2,1.435293E-1,-9.175315E-2,1.2169585E-1,-5.8968477E-2,1.9567147E-1,-1.9307293E-1,2.7210474E-1,1.6492441E-2,2.569142E-1,7.822511E-1,2.0439585E-1,-3.0277798E-1,9.36373E-2,5.0069594E-1,-3.2738186E-2,4.8662403E-1,1.6943112E-1,1.500794E0,-3.6181707E-3,1.5297575E-1,-1.7511735E-2,1.5226291E-1,5.1138427E-2,2.7026936E-1,1.4940352E-2,2.0329703E-1,-1.3238627E-2,-1.1317477E-1,-1.11911595E-2,8.0158025E-2,-4.816139E-3,-3.328118E-2,4.7665186E-2,-7.942917E-2,-2.601132E-2,1.0114278E-1,-4.001205E-3,1.4363872E-1,-2.5337216E-2,-9.633996E-2,-4.8542522E-2,5.8025673E-2,1.0753724E-1,6.112099E-4,8.619368E-2,2.8599697E-1,1.555638E-1,6.689333E-3,-1.9184588E-1,-3.2013062E-2,1.2525697E-1,-2.1572134E-2,7.12417E-1,1.0187107E-1,2.6674408E-1,9.600245E-2,5.146403E-1,1.2851608E-1,5.6583893E-2,-5.8537703E-2],"categories":[],"categories_nodes":[],"categories_segments":[],"categories_sizes":[],"default_left":[0,0,0,0,0,0,0,0,0,0,0,0,0,0,0,0,0,0,0,0,0,0,0,0,0,0,0,0,0,0,0,0,0,0,0,0,0,0,0,0,0,0,0,0,0,0,0,0,0,0,0,0,0,0,0,0,0,0,0,0,0,0,0,0,0,0,0,0,0,0,0,0,0,0,0,0,0,0,0,0,0,0,0,0,0,0,0,0,0,0,0,0,0],"id":6,"left_children":[1,3,5,7,9,11,13,15,17,19,21,23,25,-1,27,29,31,33,-1,35,37,39,41,43,45,-1,47,49,51,53,55,57,59,61,63,65,67,69,71,-1,73,75,77,79,81,83,85,-1,87,-1,89,91,-1,-1,-1,-1,-1,-1,-1,-1,-1,-1,-1,-1,-1,-1,-1,-1,-1,-1,-1,-1,-1,-1,-1,-1,-1,-1,-1,-1,-1,-1,-1,-1,-1,-1,-1,-1,-1,-1,-1,-1,-1],"loss_changes":[1.5634858E1,3.381712E0,5.7867966E0,1.7280505E0,2.316937E0,2.9284534E0,3.9127483E0,1.2669216E0,1.0473256E0,1.7886906E0,2.406675E0,3.0134983E0,1.8503923E0,0E0,4.795114E0,1.4564085E0,1.695621E0,1.0621605E0,0E0,1.421844E0,8.816331E-1,1.4511606E0,7.960825E-1,3.9946337E0,3.1363387E0,0E0,7.474017E-1,9.120941E-2,5.763896E-1,9.5150566E-1,7.4232316E-1,3.4366624E0,1.0111952E0,4.5721874E-1,8.158221E-1,2.60023E0,6.6644907E-1,4.2061412E-1,5.292516E-1,0E0,7.5685793E-1,1.8043691E-1,5.7280064E-1,2.333889E0,1.5822012E0,2.0674882E0,1.1271775E1,0E0,9.8973274E-1,0E0,1.8598557E-1,3.6812654E-1,0E0,0E0,0E0,0E0,0E0,0E0,0E0,0E0,0E0,0E0,0E0,0E0,0E0,0E0,0E0,0E0,0E0,0E0,0E0,0E0,0E0,0E0,0E0,0E0,0E0,0E0,0E0,0E0,0E0,0E0,0E0,0E0,0E0,0E0,0E0,0E0,0E0,0E0,0E0,0E0,0E0],"parents":[2147483647,0,0,1,1,2,2,3,3,4,4,5,5,6,6,7,7,8,8,9,9,10,10,11,11,12,12,14,14,15,15,16,16,17,17,19,19,20,20,21,21,22,22,23,23,24,24,26,26,27,27,28,28,29,29,30,30,31,31,32,32,33,33,34,34,35,35,36,36,37,37,38,38,40,40,41,41,42,42,43,43,44,44,45,45,46,46,48,48,50,50,51,51],"right_children":[2,4,6,8,10,12,14,16,18,20,22,24,26,-1,28,30,32,34,-1,36,38,40,42,44,46,-1,48,50,52,54,56,58,60,62,64,66,68,70,72,-1,74,76,78,80,82,84,86,-1,88,-1,90,92,-1,-1,-1,-1,-1,-1,-1,-1,-1,-1,-1,-1,-1,-1,-1,-1,-1,-1,-1,-1,-1,-1,-1,-1,-1,-1,-1,-1,-1,-1,-1,-1,-1,-1,-1,-1,-1,-1,-1,-1,-1],"split_conditions":[2.33E0,1.3E0,5.56E0,2.852479E2,1.8085085E1,1.971425E1,1.5704999E0,6.8E-1,4.28E0,1.8359999E1,1E-1,3E-1,7.330068E1,5.757358E-1,1.3945412E2,2.88E0,2.1999998E0,8.217153E0,1.9300562E-1,2.847436E2,4.1E-1,7.5942073E0,1.8666334E1,1.38049555E1,6.0517507E0,3.9905462E-1,9.128078E1,6.2E0,1.9472586E1,2.19E1,1.6449667E1,1.9E0,2.02E1,6.2E-1,-4.3545E0,1.6191336E1,1.7068419E1,1.67E0,1.8000001E0,2.7210474E-1,1.971425E1,1.84E0,9.1E-1,5.7049996E-1,1.5192682E1,1.030883E1,7.3975835E0,-3.2738186E-2,1.2657314E2,1.6943112E-1,1.7005919E1,1.8595702E2,1.5297575E-1,-1.7511735E-2,1.5226291E-1,5.1138427E-2,2.7026936E-1,1.4940352E-2,2.0329703E-1,-1.3238627E-2,-1.1317477E-1,-1.11911595E-2,8.0158025E-2,-4.816139E-3,-3.328118E-2,4.7665186E-2,-7.942917E-2,-2.601132E-2,1.0114278E-1,-4.001205E-3,1.4363872E-1,-2.5337216E-2,-9.633996E-2,-4.8542522E-2,5.8025673E-2,1.0753724E-1,6.112099E-4,8.619368E-2,2.8599697E-1,1.555638E-1,6.689333E-3,-1.9184588E-1,-3.2013062E-2,1.2525697E-1,-2.1572134E-2,7.12417E-1,1.0187107E-1,2.6674408E-1,9.600245E-2,5.146403E-1,1.2851608E-1,5.6583893E-2,-5.8537703E-2],"split_indices":[0,0,0,6,3,3,3,0,1,5,4,4,6,0,6,2,4,5,0,6,2,5,3,5,3,0,6,0,3,4,3,4,4,2,3,3,3,0,4,0,3,1,1,3,5,5,3,0,6,0,3,6,0,0,0,0,0,0,0,0,0,0,0,0,0,0,0,0,0,0,0,0,0,0,0,0,0,0,0,0,0,0,0,0,0,0,0,0,0,0,0,0,0],"split_type":[0,0,0,0,0,0,0,0,0,0,0,0,0,0,0,0,0,0,0,0,0,0,0,0,0,0,0,0,0,0,0,0,0,0,0,0,0,0,0,0,0,0,0,0,0,0,0,0,0,0,0,0,0,0,0,0,0,0,0,0,0,0,0,0,0,0,0,0,0,0,0,0,0,0,0,0,0,0,0,0,0,0,0,0,0,0,0,0,0,0,0,0,0],"sum_hessian":[1.958E3,1.779E3,1.79E2,1.462E3,3.17E2,1.62E2,1.7E1,8.8E2,5.82E2,2.79E2,3.8E1,1.4E2,2.2E1,2E0,1.5E1,4.65E2,4.15E2,5.81E2,1E0,2.34E2,4.5E1,2.3E1,1.5E1,6.4E1,7.6E1,2E0,2E1,5E0,1E1,4.57E2,8E0,2.98E2,1.17E2,1.9E1,5.62E2,1.77E2,5.7E1,6E0,3.9E1,1E0,2.2E1,6E0,9E0,4E1,2.4E1,3.7E1,3.9E1,2E0,1.8E1,2E0,3E0,8E0,2E0,4.55E2,2E0,7E0,1E0,2.9E2,8E0,1.08E2,9E0,8E0,1.1E1,1.14E2,4.48E2,1.62E2,1.5E1,5.4E1,3E0,4E0,2E0,2.2E1,1.7E1,1.1E1,1.1E1,4E0,2E0,3E0,6E0,1.4E1,2.6E1,8E0,1.6E1,1.2E1,2.5E1,2E0,3.7E1,4E0,1.4E1,2E0,1E0,4E0,4E0],"tree_param":{"num_deleted":"0","num_feature":"7","num_nodes":"93","size_leaf_vector":"1"}},{"base_weights":[9.034036E-3,-6.97394E-3,3.130934E-1,-1.3283311E-2,2.8075E-1,3.7528262E-1,2.7030933E-1,5.3872272E-2,-3.678539E-2,3.1474555E-1,-1.5676135E-1,1.4946675E-1,5.852582E-1,2.9344985E-2,5.115142E-1,1.594106E-1,-4.6186447E-2,9.23587E-2,4.6543384E-1,-1.4394407E-1,3.6051205E-1,1.0939618E0,2.5159374E-1,1.5307874E-2,5.404239E-1,2.255777E-1,1.3317274E0,1.962334E-1,9.472638E-2,4.32173E-3,-6.650422E-2,-1.0550174E-1,1.422932E-1,5.508204E-1,-7.7857524E-2,-2.6187173E-1,4.9806863E-1,5.066464E-1,-1.4316903E-1,1.2961912E0,1.9002952E-1,-1.5013783E-1,6.2537044E-1,-2.2541836E-2,2.165985E-2,2.8148738E-1,6.726116E-2,-3.8841445E-2,1.3304372E-1,4.9592683E-1,-4.1262362E-2,3.849548E-3,9.531482E-2,5.583962E-2,-4.551243E-3,-1.7654615E-2,-7.9280056E-2,1.4257658E-2,-5.1705804E-2,5.510349E-2,-2.126719E-3,1.8353745E-1,4.1620733E-4,9.206969E-3,-3.728099E-2,1.7140861E-1,-1.065344E-1,2.2724919E-1,2.1785142E-2,7.858649E-2,3.623929E-1,2.9470734E-3,-1.1253416E-1,1.3239318E-1,5.162573E-1,9.055939E-2,-5.0461027E-3,-1.3819017E-1,5.7115737E-2,4.0087715E-2,2.9761234E-1],"categories":[],"categories_nodes":[],"categories_segments":[],"categories_sizes":[],"default_left":[0,0,0,0,0,0,0,0,0,0,0,0,0,0,0,0,0,0,0,0,0,0,0,0,0,0,0,0,0,0,0,0,0,0,0,0,0,0,0,0,0,0,0,0,0,0,0,0,0,0,0,0,0,0,0,0,0,0,0,0,0,0,0,0,0,0,0,0,0,0,0,0,0,0,0,0,0,0,0,0,0],"id":7,"left_children":[1,3,5,7,9,-1,11,13,15,17,-1,19,21,23,25,27,29,31,33,35,37,39,41,43,45,47,49,-1,51,53,55,57,59,61,63,65,67,69,71,73,75,77,79,-1,-1,-1,-1,-1,-1,-1,-1,-1,-1,-1,-1,-1,-1,-1,-1,-1,-1,-1,-1,-1,-1,-1,-1,-1,-1,-1,-1,-1,-1,-1,-1,-1,-1,-1,-1,-1,-1],"loss_changes":[9.537371E0,3.3839247E0,3.5941076E0,2.879215E0,1.256794E0,0E0,3.5281506E0,5.2942796E0,2.4992144E0,1.263946E0,0E0,4.386502E0,4.137911E0,3.2200599E0,5.3282866E0,1.9219966E0,1.3241034E0,1.8297324E-1,1.1098509E0,2.401762E0,3.0903463E0,1.5817013E0,2.646576E0,2.2643847E0,1.2993948E0,1.5273659E0,3.0603695E0,0E0,1.018575E0,1.3176274E0,1.3773031E0,4.911122E-2,8.7852865E-2,6.691413E-1,2.396563E-2,2.2229204E0,4.9686408E-1,5.175066E0,3.5854337E-1,2.1448793E0,7.44767E-2,1.0392793E0,1.4902132E0,0E0,0E0,0E0,0E0,0E0,0E0,0E0,0E0,0E0,0E0,0E0,0E0,0E0,0E0,0E0,0E0,0E0,0E0,0E0,0E0,0E0,0E0,0E0,0E0,0E0,0E0,0E0,0E0,0E0,0E0,0E0,0E0,0E0,0E0,0E0,0E0,0E0,0E0],"parents":[2147483647,0,0,1,1,2,2,3,3,4,4,6,6,7,7,8,8,9,9,11,11,12,12,13,13,14,14,15,15,16,16,17,17,18,18,19,19,20,20,21,21,22,22,23,23,24,24,25,25,26,26,28,28,29,29,30,30,31,31,32,32,33,33,34,34,35,35,36,36,37,37,38,38,39,39,40,40,41,41,42,42],"right_children":[2,4,6,8,10,-1,12,14,16,18,-1,20,22,24,26,28,30,32,34,36,38,40,42,44,46,48,50,-1,52,54,56,58,60,62,64,66,68,70,72,74,76,78,80,-1,-1,-1,-1,-1,-1,-1,-1,-1,-1,-1,-1,-1,-1,-1,-1,-1,-1,-1,-1,-1,-1,-1,-1,-1,-1,-1,-1,-1,-1,-1,-1,-1,-1,-1,-1,-1,-1],"split_conditions":[3.1E0,2.00955E1,3.17E0,1.559589E2,3.33E0,3.7528262E-1,4.5E0,3.05E0,-1.1531583E1,9.1E-1,-1.5676135E-1,3E-1,1.3493999E1,1.5365622E2,1.3428265E2,2.6724646E2,1.2522619E1,3.8E-1,2.29E0,1.9626753E1,4.2E0,2.46E0,1.5430917E1,7.3E-1,4.2830005E0,1.0105681E1,4.28E0,1.962334E-1,1.21E0,1.806948E2,2.19E0,4.8E-1,2.2418417E1,3.5E0,7.6E-1,7.7043357E0,2.1349669E1,2.9E0,2.15E0,2.35E0,6.09E0,6E0,1.6068466E1,-2.2541836E-2,2.165985E-2,2.8148738E-1,6.726116E-2,-3.8841445E-2,1.3304372E-1,4.9592683E-1,-4.1262362E-2,3.849548E-3,9.531482E-2,5.583962E-2,-4.551243E-3,-1.7654615E-2,-7.9280056E-2,1.4257658E-2,-5.1705804E-2,5.510349E-2,-2.126719E-3,1.8353745E-1,4.1620733E-4,9.206969E-3,-3.728099E-2,1.7140861E-1,-1.065344E-1,2.2724919E-1,2.1785142E-2,7.858649E-2,3.623929E-1,2.9470734E-3,-1.1253416E-1,1.3239318E-1,5.162573E-1,9.055939E-2,-5.0461027E-3,-1.3819017E-1,5.7115737E-2,4.0087715E-2,2.9761234E-1],"split_indices":[0,3,0,6,1,0,0,2,3,1,0,4,5,6,6,6,5,1,2,3,0,2,3,0,3,5,2,0,1,6,0,0,3,4,0,5,3,2,2,1,0,0,5,0,0,0,0,0,0,0,0,0,0,0,0,0,0,0,0,0,0,0,0,0,0,0,0,0,0,0,0,0,0,0,0,0,0,0,0,0,0],"split_type":[0,0,0,0,0,0,0,0,0,0,0,0,0,0,0,0,0,0,0,0,0,0,0,0,0,0,0,0,0,0,0,0,0,0,0,0,0,0,0,0,0,0,0,0,0,0,0,0,0,0,0,0,0,0,0,0,0,0,0,0,0,0,0,0,0,0,0,0,0,0,0,0,0,0,0,0,0,0,0,0,0],"sum_hessian":[1.958E3,1.861E3,9.7E1,1.822E3,3.9E1,3E0,9.4E1,4.72E2,1.35E3,3.8E1,1E0,6.9E1,2.5E1,4.49E2,2.3E1,6.1E1,1.289E3,1.6E1,2.2E1,2.9E1,4E1,9E0,1.6E1,4.38E2,1.1E1,1.8E1,5E0,6E0,5.5E1,3.7E2,9.19E2,3E0,1.3E1,1.9E1,3E0,2.5E1,4E0,3.1E1,9E0,7E0,2E0,8E0,8E0,1.69E2,2.69E2,4E0,7E0,7E0,1.1E1,4E0,1E0,4.1E1,1.4E1,3.5E1,3.35E2,8.86E2,3.3E1,1E0,2E0,1E1,3E0,1.7E1,2E0,1E0,2E0,2E0,2.3E1,2E0,2E0,2.4E1,7E0,6E0,3E0,3E0,4E0,1E0,1E0,4E0,4E0,4E0,4E0],"tree_param":{"num_deleted":"0","num_feature":"7","num_nodes":"81","size_leaf_vector":"1"}},{"base_weights":[7.943274E-3,-4.258166E-3,2.3968959E-1,-1.5387005E-2,1.0311177E-1,2.9084405E-1,2.0643853E-1,2.2411916E-1,-1.9708764E-2,7.135248E-2,5.7012725E-1,1.5718122E-1,7.2246397E-1,1.5290149E-1,2.4423331E-1,1.0860747E-1,-2.6022896E-2,9.127599E-2,-4.7183326E-1,2.9353315E-1,1.9702585E-1,5.983051E-1,1.0559002E-1,3.258869E-1,8.706589E-2,-6.1195493E-3,2.7254975E-1,4.3315956E-1,5.4509226E-2,-2.3526732E-2,-3.0391276E-1,1.2461877E-1,-1.127492E-1,3.3536628E-2,-6.109154E-1,-3.7746428E-4,1.3810684E-1,3.463311E-2,1.0423161E0,-5.2436286E-1,1.4564495E-1,9.586036E-3,4.792582E-2,3.4569897E-2,-9.2391305E-2,9.718775E-2,-1.7463231E-2,1.4166178E-1,6.4044357E-3,4.9977776E-2,-8.434183E-3,7.2359135E-3,-1.1857207E-2,-9.833996E-2,9.92918E-4,2.3902284E-2,1.5510227E-1,-5.4881588E-2,3.498319E-2,-2.329057E-1,7.6248054E-3,-2.355272E-2,4.682234E-2,-1.1981032E-1,1.3712688E-1,3.8818008E-1,1.3297799E-1,2.7519464E-4,-1.967737E-1,8.355562E-2,-5.3894487E-3,8.6028995E-3,-4.2891833E-3],"categories":[],"categories_nodes":[],"categories_segments":[],"categories_sizes":[],"default_left":[0,0,0,0,0,0,0,0,0,0,0,0,0,0,0,0,0,0,0,0,0,0,0,0,0,0,0,0,0,0,0,0,0,0,0,0,0,0,0,0,0,0,0,0,0,0,0,0,0,0,0,0,0,0,0,0,0,0,0,0,0,0,0,0,0,0,0,0,0,0,0,0,0],"id":8,"left_children":[1,3,5,7,9,-1,11,13,15,17,19,21,23,25,-1,27,29,31,33,-1,35,37,39,-1,41,43,45,47,49,51,53,55,57,-1,59,61,-1,63,65,67,69,71,-1,-1,-1,-1,-1,-1,-1,-1,-1,-1,-1,-1,-1,-1,-1,-1,-1,-1,-1,-1,-1,-1,-1,-1,-1,-1,-1,-1,-1,-1,-1],"loss_changes":[5.5403657E0,2.2264953E0,2.1779604E0,1.7516453E0,2.554934E0,0E0,2.3011541E0,1.1360565E0,1.3469574E0,1.8287249E0,1.4829996E0,1.9395387E0,1.7548141E0,5.344123E-1,0E0,1.3458893E0,1.090218E0,1.102493E0,5.5532193E-1,0E0,3.6404955E-1,2.2163906E0,2.0949883E0,0E0,2.0995665E-2,5.1168406E-1,2.9092526E-1,1.667962E-1,6.3440996E-1,1.196867E0,1.03826165E-1,2.3925366E0,3.916012E-1,0E0,5.4609525E-1,7.337245E-2,0E0,1.0992792E0,1.801157E-1,3.4610307E-1,1.6572014E0,1.777812E-3,0E0,0E0,0E0,0E0,0E0,0E0,0E0,0E0,0E0,0E0,0E0,0E0,0E0,0E0,0E0,0E0,0E0,0E0,0E0,0E0,0E0,0E0,0E0,0E0,0E0,0E0,0E0,0E0,0E0,0E0,0E0],"parents":[2147483647,0,0,1,1,2,2,3,3,4,4,6,6,7,7,8,8,9,9,10,10,11,11,12,12,13,13,15,15,16,16,17,17,18,18,20,20,21,21,22,22,24,24,25,25,26,26,27,27,28,28,29,29,30,30,31,31,32,32,34,34,35,35,37,37,38,38,39,39,40,40,41,41],"right_children":[2,4,6,8,10,-1,12,14,16,18,20,22,24,26,-1,28,30,32,34,-1,36,38,40,-1,42,44,46,48,50,52,54,56,58,-1,60,62,-1,64,66,68,70,72,-1,-1,-1,-1,-1,-1,-1,-1,-1,-1,-1,-1,-1,-1,-1,-1,-1,-1,-1,-1,-1,-1,-1,-1,-1,-1,-1,-1,-1,-1,-1],"split_conditions":[3.1E0,1.6926748E1,3.17E0,7.2E0,3.35E0,2.9084405E-1,6.47E0,3.55E0,-1.0494083E1,2.9E0,1.1828439E2,9.178235E0,6.09E0,2E-1,2.4423331E-1,2.6788327E2,2.5299997E1,2.29E0,5.6E-1,2.9353315E-1,2.31E0,7.8954163E0,4.823309E1,3.258869E-1,1.168E1,1.18E0,3.24E0,1.8E0,1.1384199E1,1.559589E2,2E0,1.91E0,2.4963826E2,3.3536628E-2,2.1349669E1,2.5E0,1.3810684E-1,3.53E0,2.46E0,3.6E0,2.46E0,1.12E1,4.792582E-2,3.4569897E-2,-9.2391305E-2,9.718775E-2,-1.7463231E-2,1.4166178E-1,6.4044357E-3,4.9977776E-2,-8.434183E-3,7.2359135E-3,-1.1857207E-2,-9.833996E-2,9.92918E-4,2.3902284E-2,1.5510227E-1,-5.4881588E-2,3.498319E-2,-2.329057E-1,7.6248054E-3,-2.355272E-2,4.682234E-2,-1.1981032E-1,1.3712688E-1,3.8818008E-1,1.3297799E-1,2.7519464E-4,-1.967737E-1,8.355562E-2,-5.3894487E-3,8.6028995E-3,-4.2891833E-3],"split_indices":[0,3,0,5,1,0,0,2,3,0,6,5,1,4,0,6,4,2,2,0,0,5,6,0,0,2,1,4,5,6,0,1,6,0,3,2,0,0,1,0,1,0,0,0,0,0,0,0,0,0,0,0,0,0,0,0,0,0,0,0,0,0,0,0,0,0,0,0,0,0,0,0,0],"split_type":[0,0,0,0,0,0,0,0,0,0,0,0,0,0,0,0,0,0,0,0,0,0,0,0,0,0,0,0,0,0,0,0,0,0,0,0,0,0,0,0,0,0,0,0,0,0,0,0,0,0,0,0,0,0,0,0,0,0,0,0,0,0,0,0,0,0,0,0,0,0,0,0,0],"sum_hessian":[1.958E3,1.861E3,9.7E1,1.687E3,1.74E2,3E0,9.4E1,2.9E1,1.658E3,1.64E2,1E1,8.7E1,7E0,2.7E1,2E0,7.7E1,1.581E3,1.59E2,5E0,4E0,6E0,8E0,7.9E1,4E0,3E0,1.2E1,1.5E1,1E1,6.7E1,1.568E3,1.3E1,1.37E2,2.2E1,1E0,4E0,4E0,2E0,4E0,4E0,4E0,7.5E1,2E0,1E0,9E0,3E0,1.3E1,2E0,9E0,1E0,2.8E1,3.9E1,3.94E2,1.174E3,1.2E1,1E0,1.24E2,1.3E1,1.7E1,5E0,3E0,1E0,3E0,1E0,2E0,2E0,2E0,2E0,1E0,3E0,4.1E1,3.4E1,1E0,1E0],"tree_param":{"num_deleted":"0","num_feature":"7","num_nodes":"73","size_leaf_vector":"1"}},{"base_weights":[6.5123914E-3,1.7529724E-3,3.6028945E-1,-4.2143285E-2,2.4789345E-2,8.798714E-1,1.604213E-1,-4.6424787E-2,2.7556458E-1,6.250048E-2,-9.340492E-3,3.3989078E-1,1.6475122E-1,-6.4318795E-3,5.508174E-1,-3.8263336E-2,-1.3019387E-1,2.1924107E-1,4.1095775E-2,5.653654E-2,5.6221E-1,-3.677287E-1,-3.3258635E-3,7.778385E-2,-3.6458017E-3,-2.4524274E-1,1.8002456E-1,7.461437E-1,1.06776476E-1,-9.0704165E-2,-2.3880398E-2,-2.9002482E-1,-3.1640492E-2,2.3353007E-2,-1.0154635E-2,6.379759E-2,-3.027563E-1,2.7797654E-1,5.727914E-2,-2.3217067E-1,-1.9554801E-1,-1.0088282E-2,3.3244994E-1,-2.9601026E-1,8.904362E-3,-1.0938864E-1,2.9368484E-1,5.4342486E-2,2.6222917E-1,7.312471E-3,4.0736943E-2,-1.079108E-2,-3.965972E-2,-5.5879904E-3,-6.250499E-2,-3.132791E-2,-1.23144984E-1,2.4581583E-2,-5.575027E-2,1.4611118E-2,1.6984005E-1,-1.7235954E-1,-2.8515624E-2,-2.755014E-2,4.1278414E-2,-8.909858E-2,-2.3067338E-2,-4.0136162E-2,7.783059E-4,1.6652495E-1,-5.940807E-3,-1.7080057E-2,-9.973168E-2,1.1119675E-1,-3.6766812E-2],"categories":[],"categories_nodes":[],"categories_segments":[],"categories_sizes":[],"default_left":[0,0,0,0,0,0,0,0,0,0,0,0,0,0,0,0,0,0,0,0,0,0,0,0,0,0,0,0,0,0,0,0,0,0,0,0,0,0,0,0,0,0,0,0,0,0,0,0,0,0,0,0,0,0,0,0,0,0,0,0,0,0,0,0,0,0,0,0,0,0,0,0,0,0,0],"id":9,"left_children":[1,3,5,7,9,11,13,15,17,19,21,-1,23,25,27,29,31,-1,33,35,37,39,41,-1,-1,43,45,47,49,51,53,55,57,-1,-1,59,61,-1,63,65,-1,67,69,71,-1,-1,73,-1,-1,-1,-1,-1,-1,-1,-1,-1,-1,-1,-1,-1,-1,-1,-1,-1,-1,-1,-1,-1,-1,-1,-1,-1,-1,-1,-1],"loss_changes":[3.2978802E0,1.9567258E0,2.5588953E0,9.187305E-1,1.6338813E0,1.0803099E0,1.3063192E0,4.4487798E-1,9.306211E-1,1.7652957E0,1.4365437E0,0E0,5.3318188E-2,7.1206707E-1,4.407264E-1,4.511401E-1,9.044326E-1,0E0,2.191312E-2,1.5767953E0,1.234827E0,2.722944E-1,1.4951749E0,0E0,0E0,1.0648638E-1,6.6423494E-1,1.3084054E-1,3.8623698E-3,2.8822672E-1,4.5453152E-1,4.489864E-1,6.6321486E-1,0E0,0E0,4.415593E0,6.2277675E-1,0E0,6.0540214E-2,6.775713E-2,0E0,1.0122411E0,1.030493E0,3.3328533E-2,0E0,0E0,3.0173385E-1,0E0,0E0,0E0,0E0,0E0,0E0,0E0,0E0,0E0,0E0,0E0,0E0,0E0,0E0,0E0,0E0,0E0,0E0,0E0,0E0,0E0,0E0,0E0,0E0,0E0,0E0,0E0,0E0],"parents":[2147483647,0,0,1,1,2,2,3,3,4,4,5,5,6,6,7,7,8,8,9,9,10,10,12,12,13,13,14,14,15,15,16,16,18,18,19,19,20,20,21,21,22,22,25,25,26,26,27,27,28,28,29,29,30,30,31,31,32,32,35,35,36,36,38,38,39,39,41,41,42,42,43,43,46,46],"right_children":[2,4,6,8,10,12,14,16,18,20,22,-1,24,26,28,30,32,-1,34,36,38,40,42,-1,-1,44,46,48,50,52,54,56,58,-1,-1,60,62,-1,64,66,-1,68,70,72,-1,-1,74,-1,-1,-1,-1,-1,-1,-1,-1,-1,-1,-1,-1,-1,-1,-1,-1,-1,-1,-1,-1,-1,-1,-1,-1,-1,-1,-1,-1],"split_conditions":[4.5E0,5.3E-1,1.0990322E1,1.971425E1,1.38049555E1,2.42E0,6.47E0,1.05E0,2.0255917E1,1.3797912E1,1.3948548E1,3.3989078E-1,6.09E0,1.1000001E0,6.09E0,3.2E-1,3E-1,2.1924107E-1,1.12E0,3.89E0,8E-1,1.77E0,3.75E0,7.778385E-2,-3.6458017E-3,1.8966333E1,1.0422583E1,3.89E0,1.12E1,4.22675E0,1.6400002E1,9.5E-1,3.4E0,2.3353007E-2,-1.0154635E-2,3.35E0,9.757535E1,2.7797654E-1,4.1E-1,7.1017513E0,-1.9554801E-1,7.448668E1,4.18E0,4.78E0,8.904362E-3,-1.0938864E-1,2.0929594E1,5.4342486E-2,2.6222917E-1,7.312471E-3,4.0736943E-2,-1.079108E-2,-3.965972E-2,-5.5879904E-3,-6.250499E-2,-3.132791E-2,-1.23144984E-1,2.4581583E-2,-5.575027E-2,1.4611118E-2,1.6984005E-1,-1.7235954E-1,-2.8515624E-2,-2.755014E-2,4.1278414E-2,-8.909858E-2,-2.3067338E-2,-4.0136162E-2,7.783059E-4,1.6652495E-1,-5.940807E-3,-1.7080057E-2,-9.973168E-2,1.1119675E-1,-3.6766812E-2],"split_indices":[0,2,5,3,5,2,0,1,3,5,5,0,0,4,1,0,4,0,0,0,2,0,0,0,0,3,3,1,0,3,4,0,4,0,0,0,6,0,1,3,0,6,0,0,0,0,5,0,0,0,0,0,0,0,0,0,0,0,0,0,0,0,0,0,0,0,0,0,0,0,0,0,0,0,0],"split_type":[0,0,0,0,0,0,0,0,0,0,0,0,0,0,0,0,0,0,0,0,0,0,0,0,0,0,0,0,0,0,0,0,0,0,0,0,0,0,0,0,0,0,0,0,0,0,0,0,0,0,0,0,0,0,0,0,0,0,0,0,0,0,0,0,0,0,0,0,0,0,0,0,0,0,0],"sum_hessian":[1.958E3,1.933E3,2.5E1,6.65E2,1.268E3,6E0,1.9E1,6.57E2,8E0,6.02E2,6.66E2,4E0,2E0,1.4E1,5E0,6E2,5.7E1,2E0,6E0,5.96E2,6E0,1E1,6.56E2,1E0,1E0,6E0,8E0,3E0,2E0,1.28E2,4.72E2,2.1E1,3.6E1,4E0,2E0,5.85E2,1.1E1,3E0,3E0,8E0,2E0,6.44E2,1.2E1,5E0,1E0,1E0,7E0,1E0,2E0,1E0,1E0,5.6E1,7.2E1,4.6E2,1.2E1,9E0,1.2E1,2.1E1,1.5E1,5.69E2,1.6E1,4E0,7E0,1E0,2E0,5E0,3E0,5.9E1,5.85E2,7E0,5E0,1E0,4E0,6E0,1E0],"tree_param":{"num_deleted":"0","num_feature":"7","num_nodes":"75","size_leaf_vector":"1"}},{"base_weights":[4.891922E-3,-6.479257E-3,9.526786E-2,1.9247782E-1,-8.786262E-3,6.0465586E-1,7.055763E-2,1.18850626E-1,2.3870921E-1,6.2930738E-3,-3.4609146E-2,8.5986805E-1,-8.3238594E-2,1.7422305E-1,-3.2795444E-2,1.9572276E-1,-1.0691251E-1,1.9319233E-1,1.535472E-3,-3.7639387E-2,1.358464E-1,1.0510644E0,1.908528E-1,-4.65891E-2,3.2217067E-1,2.8278561E-2,-1.8146735E-1,4.8825082E-1,9.816312E-2,1.3742243E-1,1.7806323E-1,1.5304323E-2,-4.8338395E-2,-4.6707273E-2,5.465433E-2,4.4147813E-1,1.418704E-1,-5.352284E-2,1.394066E-1,2.3500244E-1,-2.793075E-1,7.668404E-1,2.4491102E-1,3.4961656E-3,1.8904544E-1,-3.7567234E-1,-3.9039344E-2,3.5250325E-2,1.7180012E-1,2.6312328E-3,7.719456E-2,1.6425194E-2,6.285698E-2,6.629406E-2,2.4420808E-3,-2.8078528E-2,2.1934021E-2,-8.810801E-3,-2.8463332E-2,-5.129571E-3,8.2877874E-2,-3.5337135E-2,1.4400408E-1,-1.0625016E-1,1.0882979E-1,-1.9955931E-2,1.0371574E-1,-1.0837127E-2,1.1636279E-1,-1.2786458E-1,3.462641E-2,-2.6261589E-2,3.4279905E-2],"categories":[],"categories_nodes":[],"categories_segments":[],"categories_sizes":[],"default_left":[0,0,0,0,0,0,0,0,0,0,0,0,0,0,0,0,0,0,0,0,0,0,0,0,0,0,0,0,0,0,0,0,0,0,0,0,0,0,0,0,0,0,0,0,0,0,0,0,0,0,0,0,0,0,0,0,0,0,0,0,0,0,0,0,0,0,0,0,0,0,0,0,0],"id":10,"left_children":[1,3,5,7,9,11,13,15,-1,17,19,21,-1,23,25,27,-1,29,31,33,-1,35,37,39,41,43,45,47,49,51,-1,53,55,57,59,-1,-1,-1,-1,61,63,-1,65,67,-1,69,71,-1,-1,-1,-1,-1,-1,-1,-1,-1,-1,-1,-1,-1,-1,-1,-1,-1,-1,-1,-1,-1,-1,-1,-1,-1,-1],"loss_changes":[2.0138443E0,8.008014E-1,2.71391E0,7.936982E-1,6.707507E-1,2.4898531E0,2.2556832E0,7.638513E-1,0E0,9.671445E-1,9.5495933E-1,8.2270765E-1,0E0,3.445216E0,9.676105E-1,4.372337E-1,0E0,5.212784E-1,7.3002136E-1,5.314792E-1,0E0,7.6288843E-1,3.8625658E-1,2.883494E0,1.0247475E1,1.1314018E0,8.428011E-1,5.790019E-2,1.969208E-1,1.3754609E-1,0E0,1.2256043E0,1.2710395E0,4.7827554E-1,9.110702E-1,0E0,0E0,0E0,0E0,1.7853048E0,1.2820497E0,0E0,1.9694717E0,1.1409646E0,0E0,3.7187135E-1,1.512718E-1,0E0,0E0,0E0,0E0,0E0,0E0,0E0,0E0,0E0,0E0,0E0,0E0,0E0,0E0,0E0,0E0,0E0,0E0,0E0,0E0,0E0,0E0,0E0,0E0,0E0,0E0],"parents":[2147483647,0,0,1,1,2,2,3,3,4,4,5,5,6,6,7,7,9,9,10,10,11,11,13,13,14,14,15,15,17,17,18,18,19,19,21,21,22,22,23,23,24,24,25,25,26,26,27,27,28,28,29,29,31,31,32,32,33,33,34,34,39,39,40,40,42,42,43,43,45,45,46,46],"right_children":[2,4,6,8,10,12,14,16,-1,18,20,22,-1,24,26,28,-1,30,32,34,-1,36,38,40,42,44,46,48,50,52,-1,54,56,58,60,-1,-1,-1,-1,62,64,-1,66,68,-1,70,72,-1,-1,-1,-1,-1,-1,-1,-1,-1,-1,-1,-1,-1,-1,-1,-1,-1,-1,-1,-1,-1,-1,-1,-1,-1,-1],"split_conditions":[2.08E0,6.989936E0,2.15E0,3.24E0,2.852479E2,4.4E0,1.7191649E2,1.42E0,2.3870921E-1,-1.0494083E1,2.8E0,2.46E0,-8.3238594E-2,1.1720751E1,3.14E0,7.2E-1,-1.0691251E-1,1.5E0,1.17E0,3.393123E2,1.358464E-1,2.0889857E2,2.5E0,9.96524E0,1.2031756E1,3.08E0,2.6724646E2,3.9E-1,1.21E0,8.8E-1,1.7806323E-1,1.1512083E1,2.2969817E2,8.3E-1,9.9E-1,4.4147813E-1,1.418704E-1,-5.352284E-2,1.394066E-1,2.33E0,4.47E0,7.668404E-1,7.448668E1,4.47E0,1.8904544E-1,6.47E0,8.000001E-1,3.5250325E-2,1.7180012E-1,2.6312328E-3,7.719456E-2,1.6425194E-2,6.285698E-2,6.629406E-2,2.4420808E-3,-2.8078528E-2,2.1934021E-2,-8.810801E-3,-2.8463332E-2,-5.129571E-3,8.2877874E-2,-3.5337135E-2,1.4400408E-1,-1.0625016E-1,1.0882979E-1,-1.9955931E-2,1.0371574E-1,-1.0837127E-2,1.1636279E-1,-1.2786458E-1,3.462641E-2,-2.6261589E-2,3.4279905E-2],"split_indices":[1,5,1,2,6,4,6,2,0,3,0,0,0,5,2,0,0,2,1,6,0,6,0,5,5,2,6,0,1,1,0,6,6,0,1,0,0,0,0,0,1,0,6,0,0,0,4,0,0,0,0,0,0,0,0,0,0,0,0,0,0,0,0,0,0,0,0,0,0,0,0,0,0],"split_type":[0,0,0,0,0,0,0,0,0,0,0,0,0,0,0,0,0,0,0,0,0,0,0,0,0,0,0,0,0,0,0,0,0,0,0,0,0,0,0,0,0,0,0,0,0,0,0,0,0,0,0,0,0,0,0,0,0,0,0,0,0,0,0,0,0,0,0,0,0,0,0,0,0],"sum_hessian":[1.958E3,1.74E3,2.18E2,1.9E1,1.721E3,9E0,2.09E2,1.8E1,1E0,1.087E3,6.34E2,7E0,2E0,1.04E2,1.05E2,1.6E1,2E0,2.6E1,1.061E3,6.31E2,3E0,5E0,2E0,4.2E1,6.2E1,7.5E1,3E1,3E0,1.3E1,2.4E1,2E0,8.32E2,2.29E2,5.75E2,5.6E1,2E0,3E0,1E0,1E0,1.9E1,2.3E1,1E0,6.1E1,7.3E1,2E0,1.2E1,1.8E1,1E0,2E0,9E0,4E0,1.2E1,1.2E1,2.7E1,8.05E2,1.67E2,6.2E1,4.24E2,1.51E2,4.3E1,1.3E1,8E0,1.1E1,2.1E1,2E0,1.5E1,4.6E1,6.7E1,6E0,1.1E1,1E0,1.4E1,4E0],"tree_param":{"num_deleted":"0","num_feature":"7","num_nodes":"73","size_leaf_vector":"1"}},{"base_weights":[4.788368E-3,-1.0893475E-2,5.0940778E-2,-3.0521364E-3,-6.4712495E-2,1.0554925E-1,1.0615594E-2,-8.4201224E-2,2.4371194E-3,-4.8106413E-2,-3.0149186E-1,-1.1040647E-2,1.9753146E-1,1.6454527E-1,-2.3346094E-2,-1.0784134E-2,-1.3982762E-1,4.0143915E-2,-9.269074E-3,-9.0714656E-2,3.720327E-2,-1.2268296E-1,-1.6632044E-1,5.7524446E-2,-4.8436248E-1,1.1032272E-1,5.175351E-1,3.9132857E-1,2.211462E-2,2.0275697E-1,-5.7257984E-2,6.136892E-2,-1.1588967E-1,-9.8646596E-2,-6.807285E-2,-2.9310307E-2,1.0151293E-1,3.8864018E-4,-6.3188314E-2,4.1133475E-2,-1.1998491E-1,-2.504405E-2,2.3907281E-1,-7.039851E-3,-6.563068E-2,-2.7062058E-2,3.6447915E-1,-6.604464E-1,2.640381E-1,3.4693992E-1,2.8785605E-2,8.340821E-1,-4.0693738E-2,5.5999196E-1,-9.555139E-2,-1.6242506E-1,1.849213E-1,1.3273628E-1,4.2386556E-1,-9.458901E-2,1.937362E-1,4.031E-2,-1.1899512E-2,-4.147426E-2,5.887282E-3,-5.5234786E-2,-2.0566272E-2,-1.7400274E-2,5.1468115E-2,1.5535649E-2,7.2897635E-2,9.010176E-3,-9.741381E-3,1.8366481E-3,-3.4772005E-2,-1.7228711E-2,7.816291E-2,1.268719E-2,-4.1803777E-2,-5.302922E-2,1.8529627E-2,1.9787093E-1,1.9329282E-2,7.330034E-2,-3.7861936E-2,1.5293628E-1,-3.458404E-2,-5.1072408E-2,-2.0879938E-1,4.9710275E-6,1.1881217E-1,3.0881525E-3,1.7599984E-1,-2.8847657E-2,5.793185E-2,5.1171463E-2,3.993581E-1,-1.23241305E-1,8.235422E-2,2.503705E-1,8.526339E-2,1.3440223E-2,-7.525113E-2,1.25534665E-2,-7.7723734E-2,9.299089E-2,-1.675939E-2,5.996195E-2,-2.6478847E-3,1.939842E-1,6.1633024E-2,-3.4633808E-2,4.2760372E-2,1.400955E-1,9.350456E-3],"categories":[],"categories_nodes":[],"categories_segments":[],"categories_sizes":[],"default_left":[0,0,0,0,0,0,0,0,0,0,0,0,0,0,0,0,0,0,0,0,0,0,0,0,0,0,0,0,0,0,0,0,0,0,0,0,0,0,0,0,0,0,0,0,0,0,0,0,0,0,0,0,0,0,0,0,0,0,0,0,0,0,0,0,0,0,0,0,0,0,0,0,0,0,0,0,0,0,0,0,0,0,0,0,0,0,0,0,0,0,0,0,0,0,0,0,0,0,0,0,0,0,0,0,0,0,0,0,0,0,0,0,0,0,0],"id":11,"left_children":[1,3,5,7,9,11,13,15,17,19,21,23,25,27,29,31,33,35,37,39,41,-1,43,45,47,49,51,53,55,57,59,61,63,65,-1,67,69,71,73,75,77,79,81,-1,-1,83,85,87,89,91,93,95,97,99,101,103,105,107,109,111,113,-1,-1,-1,-1,-1,-1,-1,-1,-1,-1,-1,-1,-1,-1,-1,-1,-1,-1,-1,-1,-1,-1,-1,-1,-1,-1,-1,-1,-1,-1,-1,-1,-1,-1,-1,-1,-1,-1,-1,-1,-1,-1,-1,-1,-1,-1,-1,-1,-1,-1,-1,-1,-1,-1],"loss_changes":[1.4183909E0,6.1720777E-1,1.0933213E0,5.694879E-1,7.168442E-1,2.2649868E0,1.5041946E0,3.2929027E-1,5.291729E-1,6.3948166E-1,1.0627651E-1,3.078478E0,3.2359438E0,1.6709921E0,1.8211588E0,2.801247E-1,1.4257765E-1,1.2134792E0,4.7649857E-1,4.5646518E-1,7.473718E-1,0E0,4.731378E-2,2.164894E0,1.7557585E0,1.8035629E0,4.451584E0,1.6958847E0,1.0214974E0,4.236852E-1,1.9485185E0,1.675852E-1,4.816003E-2,7.225323E-2,0E0,7.8220624E-1,1.0497612E0,7.5788295E-1,5.0860655E-1,4.9072495E-1,3.075074E-1,6.167717E-1,9.856126E-1,0E0,0E0,1.8067278E0,1.3136032E0,5.578804E-2,1.045479E-1,1.9308302E0,1.4762658E0,5.050356E0,1.2793888E0,8.986492E-1,1.4200579E-1,3.2673737E-1,5.592942E-1,2.3936582E-1,2.077297E-1,9.066795E-1,1.1848257E0,0E0,0E0,0E0,0E0,0E0,0E0,0E0,0E0,0E0,0E0,0E0,0E0,0E0,0E0,0E0,0E0,0E0,0E0,0E0,0E0,0E0,0E0,0E0,0E0,0E0,0E0,0E0,0E0,0E0,0E0,0E0,0E0,0E0,0E0,0E0,0E0,0E0,0E0,0E0,0E0,0E0,0E0,0E0,0E0,0E0,0E0,0E0,0E0,0E0,0E0,0E0,0E0,0E0,0E0],"parents":[2147483647,0,0,1,1,2,2,3,3,4,4,5,5,6,6,7,7,8,8,9,9,10,10,11,11,12,12,13,13,14,14,15,15,16,16,17,17,18,18,19,19,20,20,22,22,23,23,24,24,25,25,26,26,27,27,28,28,29,29,30,30,31,31,32,32,33,33,35,35,36,36,37,37,38,38,39,39,40,40,41,41,42,42,45,45,46,46,47,47,48,48,49,49,50,50,51,51,52,52,53,53,54,54,55,55,56,56,57,57,58,58,59,59,60,60],"right_children":[2,4,6,8,10,12,14,16,18,20,22,24,26,28,30,32,34,36,38,40,42,-1,44,46,48,50,52,54,56,58,60,62,64,66,-1,68,70,72,74,76,78,80,82,-1,-1,84,86,88,90,92,94,96,98,100,102,104,106,108,110,112,114,-1,-1,-1,-1,-1,-1,-1,-1,-1,-1,-1,-1,-1,-1,-1,-1,-1,-1,-1,-1,-1,-1,-1,-1,-1,-1,-1,-1,-1,-1,-1,-1,-1,-1,-1,-1,-1,-1,-1,-1,-1,-1,-1,-1,-1,-1,-1,-1,-1,-1,-1,-1,-1,-1],"split_conditions":[1.3E0,4.5E0,1.5800543E2,2.2E-1,1.18E0,9.757535E1,1.42E0,4.22675E0,1.9118674E2,1.21E1,1.3684735E1,8.735407E1,2.4E0,2.664873E2,-6.5961666E0,3.0954562E2,9.1E-1,2E-1,1.42E0,3.9E-1,1.21E0,-1.2268296E-1,7.2E-1,7.448668E1,1.9626753E1,1.02E0,1.7005919E1,1.6454008E1,6.2675E-1,1.5E0,3.78E0,6.2E-1,9.1E-1,2.3E-1,-6.807285E-2,1.7614328E2,1.4910838E2,1E-1,6.2E-1,6.2E-1,1.0514218E1,1.05880196E2,1.4986553E1,-7.039851E-3,-6.563068E-2,8.1E-1,7.5E0,1.52E0,2.72E0,1.3539633E2,1.5522584E1,6.701751E0,1.8360083E1,9.475834E-1,2.3919109E2,9.1E-1,6E-1,1.05E0,2.4963826E2,2.00955E1,6E-1,4.031E-2,-1.1899512E-2,-4.147426E-2,5.887282E-3,-5.5234786E-2,-2.0566272E-2,-1.7400274E-2,5.1468115E-2,1.5535649E-2,7.2897635E-2,9.010176E-3,-9.741381E-3,1.8366481E-3,-3.4772005E-2,-1.7228711E-2,7.816291E-2,1.268719E-2,-4.1803777E-2,-5.302922E-2,1.8529627E-2,1.9787093E-1,1.9329282E-2,7.330034E-2,-3.7861936E-2,1.5293628E-1,-3.458404E-2,-5.1072408E-2,-2.0879938E-1,4.9710275E-6,1.1881217E-1,3.0881525E-3,1.7599984E-1,-2.8847657E-2,5.793185E-2,5.1171463E-2,3.993581E-1,-1.23241305E-1,8.235422E-2,2.503705E-1,8.526339E-2,1.3440223E-2,-7.525113E-2,1.25534665E-2,-7.7723734E-2,9.299089E-2,-1.675939E-2,5.996195E-2,-2.6478847E-3,1.939842E-1,6.1633024E-2,-3.4633808E-2,4.2760372E-2,1.400955E-1,9.350456E-3],"split_indices":[0,4,6,0,0,6,0,3,6,4,5,6,2,6,3,6,2,4,2,0,2,0,2,6,3,1,3,5,3,2,0,2,2,2,0,6,6,4,0,1,5,6,5,0,0,1,4,0,0,6,3,3,3,3,6,1,4,2,6,3,4,0,0,0,0,0,0,0,0,0,0,0,0,0,0,0,0,0,0,0,0,0,0,0,0,0,0,0,0,0,0,0,0,0,0,0,0,0,0,0,0,0,0,0,0,0,0,0,0,0,0,0,0,0,0],"split_type":[0,0,0,0,0,0,0,0,0,0,0,0,0,0,0,0,0,0,0,0,0,0,0,0,0,0,0,0,0,0,0,0,0,0,0,0,0,0,0,0,0,0,0,0,0,0,0,0,0,0,0,0,0,0,0,0,0,0,0,0,0,0,0,0,0,0,0,0,0,0,0,0,0,0,0,0,0,0,0,0,0,0,0,0,0,0,0,0,0,0,0,0,0,0,0,0,0,0,0,0,0,0,0,0,0,0,0,0,0,0,0,0,0,0,0],"sum_hessian":[1.958E3,1.462E3,4.96E2,1.277E3,1.85E2,2.1E2,2.86E2,8E1,1.197E3,1.74E2,1.1E1,9.3E1,1.17E2,5.1E1,2.35E2,3.5E1,4.5E1,2.83E2,9.14E2,1.16E2,5.8E1,5E0,6E0,8.2E1,1.1E1,9.3E1,2.4E1,1.9E1,3.2E1,3E1,2.05E2,2.1E1,1.4E1,3.2E1,1.3E1,1.33E2,1.5E2,7.76E2,1.38E2,2.1E1,9.5E1,4.5E1,1.3E1,2E0,4E0,6.5E1,1.7E1,9E0,2E0,2.3E1,7E1,1.5E1,9E0,1.4E1,5E0,1.5E1,1.7E1,2.4E1,6E0,1.79E2,2.6E1,1.2E1,9E0,1.2E1,2E0,7E0,2.5E1,1.17E2,1.6E1,1.12E2,3.8E1,4.08E2,3.68E2,6E1,7.8E1,1.5E1,6E0,1E1,8.5E1,1.6E1,2.9E1,3E0,1E1,1.7E1,4.8E1,1.3E1,4E0,1E0,8E0,1E0,1E0,1E1,1.3E1,4E1,3E1,7E0,8E0,4E0,5E0,6E0,8E0,3E0,2E0,5E0,1E1,1.1E1,6E0,1.6E1,8E0,2E0,4E0,1.65E2,1.4E1,9E0,1.7E1],"tree_param":{"num_deleted":"0","num_feature":"7","num_nodes":"115","size_leaf_vector":"1"}},{"base_weights":[4.0373467E-3,-2.6902448E-2,2.164676E-2,-3.0262148E-2,1.7132193E-1,6.401173E-2,2.6947644E-3,-2.834053E-2,-1.0726161E-1,1.7085269E-1,3.4733623E-2,5.5020954E-2,7.3810434E-1,-2.5960961E-2,5.1009562E-2,-1.14805445E-1,-2.14811E-2,-5.337487E-2,8.011939E-2,2.4575931E-1,2.817654E-2,1.5781411E0,-3.4796724E-1,-7.943582E-3,-1.0473065E-1,-4.36432E-2,9.831881E-2,-2.3268326E-1,-3.754414E-2,1.5006873E-1,-2.4959315E-2,6.1256113E-3,-2.5433691E-2,3.8377192E-2,3.5412766E-2,5.0209886E-1,-4.355585E-2,1.8526806E-2,4.7906741E-1,1.1825291E-1,5.919106E-1,5.17264E-3,-1.617579E-1,-2.017833E-2,1.3093755E-1,2.4894236E-1,-1.2968834E-1,-7.233104E-2,1.258326E-1,2.595022E-1,5.168118E-2,-3.883977E-2,-8.72118E-2,-2.7697578E-2,2.4910058E-1,4.126413E-3,1.0962607E-1,-6.664923E-2,-5.948971E-3,1.2808648E-2,9.4227795E-4,9.527797E-2,3.5298085E-1,-3.1208355E-2,3.2858096E-2,3.678199E-2,-4.252473E-3,2.0911051E-1,-1.3170326E-2,2.1496105E-3,-2.7487721E-2,-1.0832346E-2,2.4844228E-1,-1.3767507E-2,1.4446226E-1,-4.6445155E-3,-4.97868E-2,-2.8799787E-2,4.7771756E-2,1.14723025E-2,6.989621E-2,2.8333753E-2,1.8489896E-1,-6.486123E-2,2.498168E-2],"categories":[],"categories_nodes":[],"categories_segments":[],"categories_sizes":[],"default_left":[0,0,0,0,0,0,0,0,0,0,0,0,0,0,0,0,0,0,0,0,0,0,0,0,0,0,0,0,0,0,0,0,0,0,0,0,0,0,0,0,0,0,0,0,0,0,0,0,0,0,0,0,0,0,0,0,0,0,0,0,0,0,0,0,0,0,0,0,0,0,0,0,0,0,0,0,0,0,0,0,0,0,0,0,0],"id":12,"left_children":[1,3,5,7,9,11,13,15,-1,-1,17,19,21,23,25,27,29,31,33,35,37,39,41,43,45,47,49,51,53,55,57,-1,-1,-1,59,61,63,65,67,-1,-1,-1,-1,69,71,73,75,77,79,81,83,-1,-1,-1,-1,-1,-1,-1,-1,-1,-1,-1,-1,-1,-1,-1,-1,-1,-1,-1,-1,-1,-1,-1,-1,-1,-1,-1,-1,-1,-1,-1,-1,-1,-1],"loss_changes":[1.0679076E0,4.786924E-1,1.0026504E0,4.300977E-1,6.3287115E-1,2.2987852E0,1.1975285E0,4.109246E-1,0E0,0E0,4.4265077E-2,1.9490144E0,5.1108418E0,7.698064E-1,1.4461911E0,4.5574123E-1,3.8980225E-1,1.1000757E-2,1.0430127E-2,3.5075269E0,1.4530528E0,6.248989E-1,2.1880913E-1,7.55377E-1,9.2379797E-1,5.341863E-1,1.6027892E0,8.214259E-2,1.5980498E0,3.765943E-1,6.379253E-1,0E0,0E0,0E0,1.0410319E-3,2.7375636E0,2.2430998E-1,1.1249222E0,8.28532E-1,0E0,0E0,0E0,0E0,7.977401E-1,4.2226276E0,5.0214434E-1,3.9092135E-1,5.2500683E-1,1.4126402E-1,2.7688305E0,1.4397519E0,0E0,0E0,0E0,0E0,0E0,0E0,0E0,0E0,0E0,0E0,0E0,0E0,0E0,0E0,0E0,0E0,0E0,0E0,0E0,0E0,0E0,0E0,0E0,0E0,0E0,0E0,0E0,0E0,0E0,0E0,0E0,0E0,0E0,0E0],"parents":[2147483647,0,0,1,1,2,2,3,3,4,4,5,5,6,6,7,7,10,10,11,11,12,12,13,13,14,14,15,15,16,16,17,17,18,18,19,19,20,20,21,21,22,22,23,23,24,24,25,25,26,26,27,27,28,28,29,29,30,30,34,34,35,35,36,36,37,37,38,38,43,43,44,44,45,45,46,46,47,47,48,48,49,49,50,50],"right_children":[2,4,6,8,10,12,14,16,-1,-1,18,20,22,24,26,28,30,32,34,36,38,40,42,44,46,48,50,52,54,56,58,-1,-1,-1,60,62,64,66,68,-1,-1,-1,-1,70,72,74,76,78,80,82,84,-1,-1,-1,-1,-1,-1,-1,-1,-1,-1,-1,-1,-1,-1,-1,-1,-1,-1,-1,-1,-1,-1,-1,-1,-1,-1,-1,-1,-1,-1,-1,-1,-1,-1],"split_conditions":[5.9E-1,1.971425E1,1.2031756E1,5.7E-1,2.0255917E1,1.1988594E1,1.0283E1,6.3917362E1,-1.0726161E-1,1.7085269E-1,3.8E-1,6.9E-1,7.3975835E0,3.3999991E0,7.6E-1,1.1542478E1,8.362478E1,4.8E-1,2.0964252E1,1.8218417E2,4.5E0,1.14E0,3.1E-1,2.2E0,1.2413477E1,5.2000003E0,1.38049555E1,4E-1,1.72E0,4.680917E0,9.757535E1,6.1256113E-3,-2.5433691E-2,3.8377192E-2,1.18E0,1.6218102E2,8.1E-1,-3.2440832E0,2.42E0,1.1825291E-1,5.919106E-1,5.17264E-3,-1.617579E-1,1.32E0,1.36E0,1.2245294E1,-1.0107498E0,2.2E0,1.562675E1,1.3287122E1,7.448668E1,-3.883977E-2,-8.72118E-2,-2.7697578E-2,2.4910058E-1,4.126413E-3,1.0962607E-1,-6.664923E-2,-5.948971E-3,1.2808648E-2,9.4227795E-4,9.527797E-2,3.5298085E-1,-3.1208355E-2,3.2858096E-2,3.678199E-2,-4.252473E-3,2.0911051E-1,-1.3170326E-2,2.1496105E-3,-2.7487721E-2,-1.0832346E-2,2.4844228E-1,-1.3767507E-2,1.4446226E-1,-4.6445155E-3,-4.97868E-2,-2.8799787E-2,4.7771756E-2,1.14723025E-2,6.989621E-2,2.8333753E-2,1.8489896E-1,-6.486123E-2,2.498168E-2],"split_indices":[2,3,5,2,3,5,3,6,0,0,2,2,3,4,0,5,6,0,3,6,0,0,0,4,5,4,5,2,0,3,6,0,0,0,0,6,0,3,2,0,0,0,0,2,0,5,3,1,3,5,6,0,0,0,0,0,0,0,0,0,0,0,0,0,0,0,0,0,0,0,0,0,0,0,0,0,0,0,0,0,0,0,0,0,0],"split_type":[0,0,0,0,0,0,0,0,0,0,0,0,0,0,0,0,0,0,0,0,0,0,0,0,0,0,0,0,0,0,0,0,0,0,0,0,0,0,0,0,0,0,0,0,0,0,0,0,0,0,0,0,0,0,0,0,0,0,0,0,0,0,0,0,0,0,0,0,0,0,0,0,0,0,0,0,0,0,0,0,0,0,0,0,0],"sum_hessian":[1.958E3,7.1E2,1.248E3,6.99E2,1.1E1,3.85E2,8.63E2,6.96E2,3E0,2E0,9E0,3.81E2,4E0,5.42E2,3.21E2,5E1,6.46E2,3E0,6E0,4.6E1,3.35E2,2E0,2E0,4.42E2,1E2,1.07E2,2.14E2,1.9E1,3.1E1,1.2E1,6.34E2,1E0,2E0,2E0,4E0,2.4E1,2.2E1,3.29E2,6E0,1E0,1E0,1E0,1E0,4.07E2,3.5E1,6E0,9.4E1,9.2E1,1.5E1,4.7E1,1.67E2,8E0,1.1E1,3E1,1E0,8E0,4E0,1.5E1,6.19E2,3E0,1E0,2E1,4E0,1.6E1,6E0,7.8E1,2.51E2,4E0,2E0,2.95E2,1.12E2,2.9E1,6E0,3E0,3E0,2.3E1,7.1E1,8.4E1,8E0,9E0,6E0,3.3E1,1.4E1,1.7E1,1.5E2],"tree_param":{"num_deleted":"0","num_feature":"7","num_nodes":"85","size_leaf_vector":"1"}},{"base_weights":[3.8609048E-3,-7.682015E-4,7.9490095E-2,-7.1259364E-2,4.3901345E-3,6.838292E-1,3.3129692E-2,6.929993E-2,-1.3047278E-1,5.0808273E-2,-4.162753E-3,1.1353451E-1,4.7894266E-1,-8.9108616E-2,1.1797661E-1,-8.482989E-2,4.10317E-1,-2.0701711E-1,-6.938058E-2,3.1078663E-2,3.2310405E-1,-9.038992E-2,-7.7470404E-4,-2.7127922E-2,7.897188E-2,-2.9049844E-1,-2.1332245E-2,3.3643985E-1,-1.605075E-2,1.7288962E-2,-2.139192E-1,2.405712E-2,9.4626945E-1,-2.8953925E-1,-5.5679042E-2,-1.2142489E-1,1.3091008E-1,5.7468068E-2,-7.3536016E-2,4.1943455E-1,-8.950801E-2,-1.6947761E-1,2.0713077E-1,1.4775799E-1,-5.361174E-3,1.5329599E-2,-3.9271154E-2,-3.415829E-1,3.3051915E-2,3.0206826E-1,-8.750711E-2,4.852586E-1,-9.429979E-2,-3.0275288E-1,7.695158E-2,-1.8250369E-2,4.7290176E-2,1.037094E-2,-9.0176985E-2,1.1255884E-1,-4.6656575E-2,3.2445002E-1,6.080205E-2,2.1863408E-2,-9.7266726E-2,1.4559257E-2,-6.602471E-2,-8.154686E-3,-6.873518E-2,1.5837298E-1,-2.518608E-2,-6.294606E-3,3.3848062E-2,-1.4162663E-1,-2.9714387E-3,1.9378923E-1,6.567612E-2,1.2952542E-2,-9.984622E-2,1.2040537E-1,-8.449437E-2,1.4953394E-1,-2.6166387E-2,-2.3233702E-3,4.6414025E-2,-4.7668967E-2,-1.3106732E-1,1.1199916E-1,-8.136463E-3,-1.1575395E-3,-1.2225515E-1,2.7397925E-2,2.6071304E-1,6.29832E-2,-1.124906E-1,9.198015E-3,-1.3500725E-1,1.7032611E-1,-1.1781037E-2],"categories":[],"categories_nodes":[],"categories_segments":[],"categories_sizes":[],"default_left":[0,0,0,0,0,0,0,0,0,0,0,0,0,0,0,0,0,0,0,0,0,0,0,0,0,0,0,0,0,0,0,0,0,0,0,0,0,0,0,0,0,0,0,0,0,0,0,0,0,0,0,0,0,0,0,0,0,0,0,0,0,0,0,0,0,0,0,0,0,0,0,0,0,0,0,0,0,0,0,0,0,0,0,0,0,0,0,0,0,0,0,0,0,0,0,0,0,0,0],"id":13,"left_children":[1,3,5,7,9,11,13,15,17,19,21,23,-1,25,27,29,31,33,35,37,39,41,43,45,-1,47,49,51,53,55,57,59,61,63,65,67,69,71,73,75,-1,77,79,81,83,-1,-1,85,-1,87,89,91,93,95,97,-1,-1,-1,-1,-1,-1,-1,-1,-1,-1,-1,-1,-1,-1,-1,-1,-1,-1,-1,-1,-1,-1,-1,-1,-1,-1,-1,-1,-1,-1,-1,-1,-1,-1,-1,-1,-1,-1,-1,-1,-1,-1,-1,-1],"loss_changes":[6.858983E-1,6.719136E-1,3.1433115E0,1.057739E0,6.838612E-1,3.9825635E0,1.1098964E0,2.0321214E0,4.01824E-1,1.4297318E0,4.2499644E-1,1.3348842E-1,0E0,5.943798E-1,1.8500434E0,3.5962465E-1,2.461439E0,4.7093976E-1,5.475192E-1,6.971664E-1,1.2027298E0,1.3292664E0,9.552105E-1,3.9161153E-2,0E0,2.6278228E-1,7.540666E-1,1.5842111E0,1.089856E0,1.8501747E-1,2.688321E-1,5.628089E-1,2.8359318E-1,3.3787322E-1,2.676676E-1,4.0988976E-1,9.826293E-1,8.7529093E-1,1.288704E0,5.8534336E-1,0E0,1.5427251E0,1.2522092E0,3.5044649E0,5.200663E-1,0E0,0E0,1.04694486E-1,0E0,1.5087819E-1,7.747114E-1,2.6419673E0,6.764647E-1,5.0481915E-1,1.7905931E0,0E0,0E0,0E0,0E0,0E0,0E0,0E0,0E0,0E0,0E0,0E0,0E0,0E0,0E0,0E0,0E0,0E0,0E0,0E0,0E0,0E0,0E0,0E0,0E0,0E0,0E0,0E0,0E0,0E0,0E0,0E0,0E0,0E0,0E0,0E0,0E0,0E0,0E0,0E0,0E0,0E0,0E0,0E0,0E0],"parents":[2147483647,0,0,1,1,2,2,3,3,4,4,5,5,6,6,7,7,8,8,9,9,10,10,11,11,13,13,14,14,15,15,16,16,17,17,18,18,19,19,20,20,21,21,22,22,23,23,25,25,26,26,27,27,28,28,29,29,30,30,31,31,32,32,33,33,34,34,35,35,36,36,37,37,38,38,39,39,41,41,42,42,43,43,44,44,47,47,49,49,50,50,51,51,52,52,53,53,54,54],"right_children":[2,4,6,8,10,12,14,16,18,20,22,24,-1,26,28,30,32,34,36,38,40,42,44,46,-1,48,50,52,54,56,58,60,62,64,66,68,70,72,74,76,-1,78,80,82,84,-1,-1,86,-1,88,90,92,94,96,98,-1,-1,-1,-1,-1,-1,-1,-1,-1,-1,-1,-1,-1,-1,-1,-1,-1,-1,-1,-1,-1,-1,-1,-1,-1,-1,-1,-1,-1,-1,-1,-1,-1,-1,-1,-1,-1,-1,-1,-1,-1,-1,-1,-1],"split_conditions":[2.85E0,5.1282482E1,2.95E0,1.1512083E1,1.3428265E2,3.21E0,2E-1,3.2E0,1.1542478E1,2.9E0,1.4816861E2,6E-1,4.7894266E-1,1.0390226E1,3.7E0,8.9E-1,1.4018418E1,9.1E-1,7.1017513E0,1.82E0,2.63E0,1.6546299E1,1.559589E2,2.04E0,7.897188E-2,2.00955E1,1.3945412E2,1.3485082E1,3.94E0,5.1E-1,1.0464797E1,4.3E0,1.52E0,-5.2899165E0,2E0,3.5774647E1,5.7E-1,7.5E-1,1.08E0,1.91E0,-8.950801E-2,1E-1,1.15E0,4.2830005E0,3.78E0,1.5329599E-2,-3.9271154E-2,2.8716674E-1,3.3051915E-2,4.53E0,3.33E0,5.1788335E0,1.84E0,1.35E0,1.2599998E1,-1.8250369E-2,4.7290176E-2,1.037094E-2,-9.0176985E-2,1.1255884E-1,-4.6656575E-2,3.2445002E-1,6.080205E-2,2.1863408E-2,-9.7266726E-2,1.4559257E-2,-6.602471E-2,-8.154686E-3,-6.873518E-2,1.5837298E-1,-2.518608E-2,-6.294606E-3,3.3848062E-2,-1.4162663E-1,-2.9714387E-3,1.9378923E-1,6.567612E-2,1.2952542E-2,-9.984622E-2,1.2040537E-1,-8.449437E-2,1.4953394E-1,-2.6166387E-2,-2.3233702E-3,4.6414025E-2,-4.7668967E-2,-1.3106732E-1,1.1199916E-1,-8.136463E-3,-1.1575395E-3,-1.2225515E-1,2.7397925E-2,2.6071304E-1,6.29832E-2,-1.124906E-1,9.198015E-3,-1.3500725E-1,1.7032611E-1,-1.1781037E-2],"split_indices":[2,6,2,6,6,0,4,4,5,1,6,4,0,5,2,0,3,2,3,0,2,5,6,0,0,3,6,3,2,1,5,4,0,3,1,6,1,0,1,2,0,4,1,3,0,0,0,3,0,2,0,3,1,0,5,0,0,0,0,0,0,0,0,0,0,0,0,0,0,0,0,0,0,0,0,0,0,0,0,0,0,0,0,0,0,0,0,0,0,0,0,0,0,0,0,0,0,0,0],"split_type":[0,0,0,0,0,0,0,0,0,0,0,0,0,0,0,0,0,0,0,0,0,0,0,0,0,0,0,0,0,0,0,0,0,0,0,0,0,0,0,0,0,0,0,0,0,0,0,0,0,0,0,0,0,0,0,0,0,0,0,0,0,0,0,0,0,0,0,0,0,0,0,0,0,0,0,0,0,0,0,0,0,0,0,0,0,0,0,0,0,0,0,0,0,0,0,0,0,0,0],"sum_hessian":[1.958E3,1.846E3,1.12E2,1.25E2,1.721E3,7E0,1.05E2,3.7E1,8.8E1,2.67E2,1.454E3,5E0,2E0,4.3E1,6.2E1,2.6E1,1.1E1,3.8E1,5E1,2.5E2,1.7E1,5.4E1,1.4E3,3E0,2E0,1E1,3.3E1,2.3E1,3.9E1,1.5E1,1.1E1,7E0,4E0,2.4E1,1.4E1,4E1,1E1,2E2,5E1,1.5E1,2E0,4.3E1,1.1E1,4.1E1,1.359E3,2E0,1E0,9E0,1E0,5E0,2.8E1,1.7E1,6E0,9E0,3E1,1E1,5E0,3E0,8E0,2E0,5E0,3E0,1E0,2E0,2.2E1,9E0,5E0,2.2E1,1.8E1,3E0,7E0,8.3E1,1.17E2,6E0,4.4E1,6E0,9E0,1.9E1,2.4E1,8E0,3E0,1.6E1,2.5E1,1.34E3,1.9E1,4E0,5E0,4E0,1E0,2.3E1,5E0,9E0,8E0,3E0,3E0,3E0,6E0,5E0,2.5E1],"tree_param":{"num_deleted":"0","num_feature":"7","num_nodes":"99","size_leaf_vector":"1"}},{"base_weights":[3.2842031E-3,-1.7391313E-2,1.3947223E-2,-1.978696E-2,1.5995553E-1,3.9825104E-2,-6.3374144E-4,-1.3565086E-2,-8.0559336E-2,1.3714682E-1,9.733098E-3,-1.1126051E-1,5.0847895E-2,-1.8301908E-2,4.4028062E-2,-1.8869027E-2,1.2640055E-1,-1.7732671E-1,-1.732312E-2,5.3261258E-2,-1.981746E-2,1.9304074E-1,-2.5835386E-1,1.4076461E-1,1.8094186E-2,-1.1968262E-1,-4.5302804E-3,2.298239E-1,1.6756687E-2,-1.6260218E-2,-3.145866E-1,4.2445177E-1,-1.1896899E-2,-5.7776574E-2,-2.4520501E-1,1.04819156E-1,-1.1091837E-1,5.6945626E-3,2.8556818E-2,-1.9028932E-2,5.689199E-1,-3.8937965E-1,-2.5829945E-2,9.52685E-2,3.8317293E-1,3.822045E-2,-7.543964E-2,-6.66177E-2,-3.3097425E-1,3.8926397E-2,-2.81625E-2,-1.2555802E-2,4.4269088E-1,-9.579456E-2,6.932141E-2,-5.3559677E-3,1.3447988E-1,-1.1631576E-1,-4.0977553E-2,-3.247905E-2,2.5531623E-1,-4.0206052E-2,3.8093667E-2,1.5040835E-2,-5.2714948E-2,-9.4468154E-2,-2.6456846E-2,-3.10436E-3,1.14986874E-1,-3.939429E-2,4.7609407E-2,2.8228084E-2,-4.6702463E-2,2.4414146E-2,3.0473074E-1,-1.3317914E-1,-1.2414932E-2,3.734009E-2,-1.8052628E-2,-5.0849747E-3,6.445611E-2,2.553565E-1,2.3469862E-2,1.3875251E-2,-9.443838E-2,-3.8573347E-2,1.1281192E-2,-2.6944967E-2,5.917605E-2,-2.4657475E-2,-1.3801634E-1,4.089022E-2,1.1444835E-3,-1.0978234E-2,5.1236246E-2,2.241731E-2,-8.1377216E-2,1.6796894E-1,2.1857787E-2,7.009257E-3,-6.0600817E-2,1.2670277E-1,1.3473464E-2],"categories":[],"categories_nodes":[],"categories_segments":[],"categories_sizes":[],"default_left":[0,0,0,0,0,0,0,0,0,0,0,0,0,0,0,0,0,0,0,0,0,0,0,0,0,0,0,0,0,0,0,0,0,0,0,0,0,0,0,0,0,0,0,0,0,0,0,0,0,0,0,0,0,0,0,0,0,0,0,0,0,0,0,0,0,0,0,0,0,0,0,0,0,0,0,0,0,0,0,0,0,0,0,0,0,0,0,0,0,0,0,0,0,0,0,0,0,0,0,0,0,0,0],"id":14,"left_children":[1,3,5,7,9,11,13,15,17,-1,19,21,23,25,27,29,31,33,35,37,-1,39,41,43,45,47,49,51,53,55,57,59,61,63,65,67,69,-1,-1,71,73,75,77,79,81,83,85,87,89,91,93,95,97,99,101,-1,-1,-1,-1,-1,-1,-1,-1,-1,-1,-1,-1,-1,-1,-1,-1,-1,-1,-1,-1,-1,-1,-1,-1,-1,-1,-1,-1,-1,-1,-1,-1,-1,-1,-1,-1,-1,-1,-1,-1,-1,-1,-1,-1,-1,-1,-1,-1],"loss_changes":[4.3213043E-1,2.8654677E-1,4.8790574E-1,2.4808699E-1,3.973661E-1,7.817269E-1,6.5417415E-1,4.4706446E-1,3.7019947E-1,0E0,2.6611732E-2,1.4822148E0,1.2785741E0,8.2878697E-1,1.1868722E0,4.40795E-1,9.118836E-1,1.8058956E-1,4.4604E-1,5.3794803E-3,0E0,8.876643E-1,6.602082E-1,1.2428172E0,6.05279E-1,7.7401567E-1,5.3923255E-1,1.5533973E0,1.2253829E0,4.327594E-1,1.2126803E-2,1.682941E0,2.8837714E-1,1.3608187E-1,1.3636309E-1,5.4916656E-1,1.4181897E-1,0E0,0E0,1.3830991E-1,7.887627E-1,2.4739766E-1,5.3948022E-2,1.3321884E0,2.5023084E0,7.629591E-1,3.4723014E-1,3.7276423E-1,4.117682E-1,6.319865E-1,5.7658935E-1,3.589623E-1,6.5274763E-1,8.399912E-1,1.196057E0,0E0,0E0,0E0,0E0,0E0,0E0,0E0,0E0,0E0,0E0,0E0,0E0,0E0,0E0,0E0,0E0,0E0,0E0,0E0,0E0,0E0,0E0,0E0,0E0,0E0,0E0,0E0,0E0,0E0,0E0,0E0,0E0,0E0,0E0,0E0,0E0,0E0,0E0,0E0,0E0,0E0,0E0,0E0,0E0,0E0,0E0,0E0,0E0],"parents":[2147483647,0,0,1,1,2,2,3,3,4,4,5,5,6,6,7,7,8,8,10,10,11,11,12,12,13,13,14,14,15,15,16,16,17,17,18,18,19,19,21,21,22,22,23,23,24,24,25,25,26,26,27,27,28,28,29,29,30,30,31,31,32,32,33,33,34,34,35,35,36,36,39,39,40,40,41,41,42,42,43,43,44,44,45,45,46,46,47,47,48,48,49,49,50,50,51,51,52,52,53,53,54,54],"right_children":[2,4,6,8,10,12,14,16,18,-1,20,22,24,26,28,30,32,34,36,38,-1,40,42,44,46,48,50,52,54,56,58,60,62,64,66,68,70,-1,-1,72,74,76,78,80,82,84,86,88,90,92,94,96,98,100,102,-1,-1,-1,-1,-1,-1,-1,-1,-1,-1,-1,-1,-1,-1,-1,-1,-1,-1,-1,-1,-1,-1,-1,-1,-1,-1,-1,-1,-1,-1,-1,-1,-1,-1,-1,-1,-1,-1,-1,-1,-1,-1,-1,-1,-1,-1,-1,-1],"split_conditions":[5.3E-1,1.971425E1,8.9E-1,1.02E0,2.0255917E1,4.5985645E1,1.7E0,9.5E-1,3E-1,1.3714682E-1,1.12E0,1.1512083E1,1.9621216E2,9.6E-1,1.09E0,2.04E0,1E0,9.5E-1,2.5705001E0,9.1E-1,-1.981746E-2,6.4803786E0,8.1E-1,1.7614328E2,1.3E0,1.3787169E1,1.25E0,1.52E0,1.66E0,1.91E0,2.5E0,7.5E-1,1.44E1,2.912706E2,2.7453366E2,6.2675E-1,2.7300001E1,5.6945626E-3,2.8556818E-2,4.8538327E0,1.21E0,3.8386566E1,5.1E-1,1.5E0,6.2E-1,2.04E0,8E-1,1.2437167E1,8.9E-1,1.5444817E2,3.3766306E2,1.4004185E1,2.4605957E2,2.13E0,1.25E0,-5.3559677E-3,1.3447988E-1,-1.1631576E-1,-4.0977553E-2,-3.247905E-2,2.5531623E-1,-4.0206052E-2,3.8093667E-2,1.5040835E-2,-5.2714948E-2,-9.4468154E-2,-2.6456846E-2,-3.10436E-3,1.14986874E-1,-3.939429E-2,4.7609407E-2,2.8228084E-2,-4.6702463E-2,2.4414146E-2,3.0473074E-1,-1.3317914E-1,-1.2414932E-2,3.734009E-2,-1.8052628E-2,-5.0849747E-3,6.445611E-2,2.553565E-1,2.3469862E-2,1.3875251E-2,-9.443838E-2,-3.8573347E-2,1.1281192E-2,-2.6944967E-2,5.917605E-2,-2.4657475E-2,-1.3801634E-1,4.089022E-2,1.1444835E-3,-1.0978234E-2,5.1236246E-2,2.241731E-2,-8.1377216E-2,1.6796894E-1,2.1857787E-2,7.009257E-3,-6.0600817E-2,1.2670277E-1,1.3473464E-2],"split_indices":[2,3,2,1,3,6,0,1,4,0,0,6,6,2,2,0,1,0,3,0,0,6,1,6,4,3,2,1,2,0,0,0,5,6,6,3,4,0,0,3,0,6,0,4,2,1,2,3,0,6,6,5,6,0,1,0,0,0,0,0,0,0,0,0,0,0,0,0,0,0,0,0,0,0,0,0,0,0,0,0,0,0,0,0,0,0,0,0,0,0,0,0,0,0,0,0,0,0,0,0,0,0,0],"split_type":[0,0,0,0,0,0,0,0,0,0,0,0,0,0,0,0,0,0,0,0,0,0,0,0,0,0,0,0,0,0,0,0,0,0,0,0,0,0,0,0,0,0,0,0,0,0,0,0,0,0,0,0,0,0,0,0,0,0,0,0,0,0,0,0,0,0,0,0,0,0,0,0,0,0,0,0,0,0,0,0,0,0,0,0,0,0,0,0,0,0,0,0,0,0,0,0,0,0,0,0,0,0,0],"sum_hessian":[1.958E3,6.66E2,1.292E3,6.58E2,8E0,4.65E2,8.27E2,5.98E2,6E1,2E0,6E0,3.1E1,4.34E2,5.93E2,2.34E2,5.77E2,2.1E1,2.3E1,3.7E1,4E0,2E0,1E1,2.1E1,1.15E2,3.19E2,7E1,5.23E2,2.9E1,2.05E2,5.73E2,4E0,6E0,1.5E1,9E0,1.4E1,1.6E1,2.1E1,3E0,1E0,7E0,3E0,1.3E1,8E0,9.8E1,1.7E1,2.63E2,5.6E1,5.7E1,1.3E1,1.84E2,3.39E2,1.4E1,1.5E1,6.5E1,1.4E2,5.72E2,1E0,2E0,2E0,3E0,3E0,8E0,7E0,5E0,4E0,9E0,5E0,1.2E1,4E0,2E1,1E0,4E0,3E0,2E0,1E0,1.1E1,2E0,1E0,7E0,5.1E1,4.7E1,6E0,1.1E1,2.58E2,5E0,3.8E1,1.8E1,5.3E1,4E0,5E0,8E0,4.8E1,1.36E2,3.26E2,1.3E1,1.1E1,3E0,1.1E1,4E0,3.1E1,3.4E1,8E0,1.32E2],"tree_param":{"num_deleted":"0","num_feature":"7","num_nodes":"103","size_leaf_vector":"1"}},{"base_weights":[2.7530645E-3,9.581652E-3,-3.927522E-2,4.365247E-2,-3.3150366E-4,-5.6170583E-2,1.781044E-1,-2.5737816E-2,1.1465605E-1,-1.8203981E-3,1.6049673E-1,-1.5554117E-1,-1.698117E-2,7.431136E-2,4.0790296E-1,-4.6263686E-3,-2.3073098E-1,8.211083E-2,3.9981562E-1,7.145875E-4,-1.3620442E-1,1.4365691E-1,1.1706054E-3,-5.24238E-2,-2.6305312E-1,1.3732196E-1,-4.0984903E-2,7.317467E-2,-9.537036E-3,2.057377E-1,9.751022E-2,-3.0436022E-2,2.3856016E-1,-3.2419628E-1,1.774466E-1,2.4572293E-1,2.9878467E-2,5.4453284E-1,-4.493753E-3,-9.320603E-3,3.873999E-2,9.6790805E-2,-2.378372E-1,9.810334E-2,-1.3864255E-1,-1.1586948E-1,1.3681105E-1,-7.909906E-2,-3.2368726E-1,2.9575738E-1,1.1981199E-2,-9.385471E-2,1.5799444E-2,-7.067188E-2,1.1511691E-1,6.102598E-3,3.493569E-2,-1.6056877E-2,2.7182665E-2,-3.0411474E-2,1.1659381E-1,5.640736E-2,-1.1226414E-1,7.693668E-2,-8.93705E-3,1.3085533E-2,1.6763553E-1,3.5488956E-2,-3.282071E-2,7.249956E-2,3.1240848E-1,-5.997845E-2,7.7275015E-2,-7.4499846E-4,-3.3552095E-2,3.1618513E-2,-3.5834045E-3,-2.2163674E-2,6.419053E-2,-9.2176795E-2,-2.8432144E-2,-9.612737E-2,2.334003E-2,-4.4256844E-2,6.2290106E-2,-6.948363E-2,6.104449E-2,-4.4093054E-2,7.977015E-2,-3.8943943E-2,-1.16484694E-1,4.0010917E-3,1.1999937E-1,-2.1809448E-2,5.876386E-2,8.770523E-2,-3.2099977E-2,2.496632E-2,-2.6731495E-2,-3.747595E-2,-3.9417422E-3,4.5557577E-2,7.337809E-4],"categories":[],"categories_nodes":[],"categories_segments":[],"categories_sizes":[],"default_left":[0,0,0,0,0,0,0,0,0,0,0,0,0,0,0,0,0,0,0,0,0,0,0,0,0,0,0,0,0,0,0,0,0,0,0,0,0,0,0,0,0,0,0,0,0,0,0,0,0,0,0,0,0,0,0,0,0,0,0,0,0,0,0,0,0,0,0,0,0,0,0,0,0,0,0,0,0,0,0,0,0,0,0,0,0,0,0,0,0,0,0,0,0,0,0,0,0,0,0,0,0,0,0],"id":15,"left_children":[1,3,5,7,9,11,13,15,17,19,21,23,25,27,29,31,33,35,37,39,41,-1,43,45,47,49,51,-1,53,-1,55,57,59,61,63,65,67,69,71,73,75,77,79,-1,81,83,85,87,89,91,93,95,97,99,101,-1,-1,-1,-1,-1,-1,-1,-1,-1,-1,-1,-1,-1,-1,-1,-1,-1,-1,-1,-1,-1,-1,-1,-1,-1,-1,-1,-1,-1,-1,-1,-1,-1,-1,-1,-1,-1,-1,-1,-1,-1,-1,-1,-1,-1,-1,-1,-1],"loss_changes":[5.6259716E-1,5.694598E-1,1.0163262E0,1.8751956E0,3.132615E-1,9.903988E-1,4.4671798E-1,8.341791E-1,1.71192E0,4.4159472E-1,6.0811543E-1,7.8442705E-1,6.8713677E-1,2.1564183E-1,4.5065725E-1,1.1119354E0,7.4423534E-1,1.4454522E0,1.1141467E0,4.8612785E-1,5.9133935E-1,0E0,4.5534876E-1,4.7208533E-1,3.647828E-1,4.9291688E-1,4.8183128E-1,0E0,9.196322E-2,0E0,3.4780316E-3,4.5197785E-1,9.067196E-1,4.546616E-1,7.3134124E-2,2.5697484E0,1.613884E0,1.8549662E0,3.588115E-1,7.062853E-1,8.9991045E-1,1.7579713E-1,1.3971204E-1,0E0,3.003467E-1,3.2758933E-1,2.927586E-1,2.7325925E-1,2.752018E-1,3.1850135E-1,2.4782597E-1,4.5265192E-1,5.590958E-1,2.3326926E-2,1.6187444E-2,0E0,0E0,0E0,0E0,0E0,0E0,0E0,0E0,0E0,0E0,0E0,0E0,0E0,0E0,0E0,0E0,0E0,0E0,0E0,0E0,0E0,0E0,0E0,0E0,0E0,0E0,0E0,0E0,0E0,0E0,0E0,0E0,0E0,0E0,0E0,0E0,0E0,0E0,0E0,0E0,0E0,0E0,0E0,0E0,0E0,0E0,0E0,0E0],"parents":[2147483647,0,0,1,1,2,2,3,3,4,4,5,5,6,6,7,7,8,8,9,9,10,10,11,11,12,12,13,13,14,14,15,15,16,16,17,17,18,18,19,19,20,20,22,22,23,23,24,24,25,25,26,26,28,28,30,30,31,31,32,32,33,33,34,34,35,35,36,36,37,37,38,38,39,39,40,40,41,41,42,42,44,44,45,45,46,46,47,47,48,48,49,49,50,50,51,51,52,52,53,53,54,54],"right_children":[2,4,6,8,10,12,14,16,18,20,22,24,26,28,30,32,34,36,38,40,42,-1,44,46,48,50,52,-1,54,-1,56,58,60,62,64,66,68,70,72,74,76,78,80,-1,82,84,86,88,90,92,94,96,98,100,102,-1,-1,-1,-1,-1,-1,-1,-1,-1,-1,-1,-1,-1,-1,-1,-1,-1,-1,-1,-1,-1,-1,-1,-1,-1,-1,-1,-1,-1,-1,-1,-1,-1,-1,-1,-1,-1,-1,-1,-1,-1,-1,-1,-1,-1,-1,-1,-1],"split_conditions":[4.5E0,1.5800543E2,1.7449667E1,3E-1,4.5E0,6.399999E0,2.42E0,3.3E0,1.4816861E2,3.33E0,1.0990322E1,7.6E-1,7.2E0,1.1283369E2,2.95E0,2.88E0,3.53E0,8E-1,1.02E0,1.25E0,1.32E0,1.4365691E-1,1.7191649E2,6.4E-1,1.2287555E1,1.3661038E1,1.6808569E1,7.317467E-2,2.7521786E2,2.057377E-1,2.19E0,1.57E0,7.330068E1,5.7049996E-1,4.53E0,6E-1,1.09E0,7.2E-1,2.4E0,1.43E0,2.9330006E0,3.53E0,3.78E0,9.810334E-2,2.262231E2,1.367675E1,3.1E-1,3.45E0,7.2E-1,9.726665E0,6.9E0,6.4803786E0,1.6400002E1,1.5509274E1,1.12E0,6.102598E-3,3.493569E-2,-1.6056877E-2,2.7182665E-2,-3.0411474E-2,1.1659381E-1,5.640736E-2,-1.1226414E-1,7.693668E-2,-8.93705E-3,1.3085533E-2,1.6763553E-1,3.5488956E-2,-3.282071E-2,7.249956E-2,3.1240848E-1,-5.997845E-2,7.7275015E-2,-7.4499846E-4,-3.3552095E-2,3.1618513E-2,-3.5834045E-3,-2.2163674E-2,6.419053E-2,-9.2176795E-2,-2.8432144E-2,-9.612737E-2,2.334003E-2,-4.4256844E-2,6.2290106E-2,-6.948363E-2,6.104449E-2,-4.4093054E-2,7.977015E-2,-3.8943943E-2,-1.16484694E-1,4.0010917E-3,1.1999937E-1,-2.1809448E-2,5.876386E-2,8.770523E-2,-3.2099977E-2,2.496632E-2,-2.6731495E-2,-3.747595E-2,-3.9417422E-3,4.5557577E-2,7.337809E-4],"split_indices":[4,6,3,4,0,4,1,0,6,0,5,1,4,6,2,1,2,4,1,1,1,0,6,1,5,5,5,0,6,0,0,2,6,3,2,4,2,2,2,0,3,0,0,0,6,3,2,2,2,5,4,6,4,5,0,0,0,0,0,0,0,0,0,0,0,0,0,0,0,0,0,0,0,0,0,0,0,0,0,0,0,0,0,0,0,0,0,0,0,0,0,0,0,0,0,0,0,0,0,0,0,0,0],"split_type":[0,0,0,0,0,0,0,0,0,0,0,0,0,0,0,0,0,0,0,0,0,0,0,0,0,0,0,0,0,0,0,0,0,0,0,0,0,0,0,0,0,0,0,0,0,0,0,0,0,0,0,0,0,0,0,0,0,0,0,0,0,0,0,0,0,0,0,0,0,0,0,0,0,0,0,0,0,0,0,0,0,0,0,0,0,0,0,0,0,0,0,0,0,0,0,0,0,0,0,0,0,0,0],"sum_hessian":[1.958E3,1.685E3,2.73E2,3.79E2,1.306E3,2.54E2,1.9E1,1.92E2,1.87E2,1.295E3,1.1E1,7.1E1,1.83E2,1.4E1,5E0,1.75E2,1.7E1,1.69E2,1.8E1,1.272E3,2.3E1,3E0,8E0,3.7E1,3.4E1,2.4E1,1.59E2,4E0,1E1,2E0,3E0,1.59E2,1.6E1,1.4E1,3E0,4E1,1.29E2,1.3E1,5E0,1.007E3,2.65E2,7E0,1.6E1,2E0,6E0,2.8E1,9E0,9E0,2.5E1,1E1,1.4E1,8.2E1,7.7E1,7E0,3E0,1E0,2E0,1.34E2,2.5E1,5E0,1.1E1,1E0,1.3E1,2E0,1E0,2.5E1,1.5E1,7.9E1,5E1,9E0,4E0,3E0,2E0,9.45E2,6.2E1,1.14E2,1.51E2,3E0,4E0,1E1,6E0,3E0,3E0,2.6E1,2E0,1E0,8E0,8E0,1E0,7E0,1.8E1,3E0,7E0,1E1,4E0,2E0,8E1,4.7E1,3E1,3E0,4E0,2E0,1E0],"tree_param":{"num_deleted":"0","num_feature":"7","num_nodes":"103","size_leaf_vector":"1"}},{"base_weights":[2.544112E-3,4.7899387E-4,8.475165E-2,5.253845E-3,-2.8578633E-2,3.955625E-1,5.524065E-2,2.4812766E-3,8.2355805E-2,-3.890907E-2,1.3784888E-1,3.2477852E-2,1.365731E-1,1.4458326E-1,-3.650372E-2,-8.385188E-2,7.4228016E-3,2.811848E-1,-7.076785E-2,-1.10408776E-1,-1.0719462E-2,1.3631845E-1,8.6452834E-2,-3.836354E-2,1.851175E-1,-4.7817E-3,-2.4638994E-1,8.803807E-3,-1.198606E-1,1.6010962E-1,4.83512E-3,2.0951271E-2,4.8415747E-1,-1.9541553E-1,3.136284E-2,-3.644418E-2,-1.8755867E-1,1.14819326E-1,-2.7597584E-2,1.9178765E-1,1.4606672E-2,4.098348E-2,-3.1476814E-2,2.2105323E-1,-8.022412E-2,-8.1486344E-2,1.3004914E-1,-1.0809878E-1,-2.7766945E-3,-1.5513208E-2,3.6639232E-2,-1.5789736E-2,-4.8280627E-2,-2.4043217E-2,9.00784E-2,-8.65618E-2,1.8080537E-3,8.314175E-2,-4.253552E-2,2.914383E-1,9.659555E-2,4.2287026E-2,-7.740238E-2,1.24698244E-1,-2.000155E-2,-1.6912598E-2,1.05151236E-1,-1.5540485E-2,-6.9767736E-2,6.4356305E-2,-7.88244E-3,-1.7630965E-2,1.0923781E-2,1.6939599E-2,6.2267713E-2,-5.916312E-3,3.0383503E-2,1.0029138E-3,1.7439652E-2,5.0276997E-3,7.415256E-2,-3.6724556E-2,6.23703E-4,-1.9588471E-4,-5.6746617E-2,1.1853877E-1,-7.249725E-3],"categories":[],"categories_nodes":[],"categories_segments":[],"categories_sizes":[],"default_left":[0,0,0,0,0,0,0,0,0,0,0,0,0,0,0,0,0,0,0,0,0,0,0,0,0,0,0,0,0,0,0,0,0,0,0,0,0,0,0,0,0,0,0,0,0,0,0,0,0,0,0,0,0,0,0,0,0,0,0,0,0,0,0,0,0,0,0,0,0,0,0,0,0,0,0,0,0,0,0,0,0,0,0,0,0,0,0],"id":16,"left_children":[1,3,5,7,9,11,13,15,17,19,21,-1,-1,23,25,27,29,31,33,35,37,-1,39,41,43,45,47,49,51,53,55,57,59,61,63,65,67,69,71,73,75,77,-1,79,81,83,85,-1,-1,-1,-1,-1,-1,-1,-1,-1,-1,-1,-1,-1,-1,-1,-1,-1,-1,-1,-1,-1,-1,-1,-1,-1,-1,-1,-1,-1,-1,-1,-1,-1,-1,-1,-1,-1,-1,-1,-1],"loss_changes":[3.3253548E-1,2.6543218E-1,4.1842112E-1,3.5102051E-1,4.6956626E-1,1.9301891E-2,3.7412843E-1,6.776643E-1,1.755288E0,5.127814E-1,2.2102365E-1,0E0,0E0,1.7766082E-1,1.5195619E-1,2.879867E-1,5.9267336E-1,1.3103638E0,4.2623037E-1,4.0402246E-1,3.9303878E-1,0E0,1.10717155E-1,3.0706456E-2,1.9890338E-1,2.2778241E-1,7.7721685E-2,1.7776358E-1,1.627354E-1,8.6586314E-1,5.1848E-1,5.395872E-1,7.9358387E-1,3.5218322E-1,7.435287E-1,3.1282803E-1,2.0177281E-1,3.151176E-1,3.273811E-1,1.0854304E-3,3.1749718E-2,1.7421143E-3,0E0,8.65792E-2,1.0671873E-2,1.2172204E-1,3.365829E-1,0E0,0E0,0E0,0E0,0E0,0E0,0E0,0E0,0E0,0E0,0E0,0E0,0E0,0E0,0E0,0E0,0E0,0E0,0E0,0E0,0E0,0E0,0E0,0E0,0E0,0E0,0E0,0E0,0E0,0E0,0E0,0E0,0E0,0E0,0E0,0E0,0E0,0E0,0E0,0E0],"parents":[2147483647,0,0,1,1,2,2,3,3,4,4,5,5,6,6,7,7,8,8,9,9,10,10,13,13,14,14,15,15,16,16,17,17,18,18,19,19,20,20,22,22,23,23,24,24,25,25,26,26,27,27,28,28,29,29,30,30,31,31,32,32,33,33,34,34,35,35,36,36,37,37,38,38,39,39,40,40,41,41,43,43,44,44,45,45,46,46],"right_children":[2,4,6,8,10,12,14,16,18,20,22,-1,-1,24,26,28,30,32,34,36,38,-1,40,42,44,46,48,50,52,54,56,58,60,62,64,66,68,70,72,74,76,78,-1,80,82,84,86,-1,-1,-1,-1,-1,-1,-1,-1,-1,-1,-1,-1,-1,-1,-1,-1,-1,-1,-1,-1,-1,-1,-1,-1,-1,-1,-1,-1,-1,-1,-1,-1,-1,-1,-1,-1,-1,-1,-1,-1],"split_conditions":[2.00955E1,4.5E0,7.330068E1,3.7E0,1.7449667E1,1.18E0,2.0964252E1,5.1282482E1,1.5800543E2,6.399999E0,5.3999987E0,3.2477852E-2,1.365731E-1,5.6E-1,2.95E0,-3.1065834E0,7.0359566E1,1.1663333E0,2.177858E2,7.6E-1,7.0999994E0,1.3631845E-1,1.1283369E2,6.2E-1,3.8E0,2.35E0,2.95E0,7.5E-1,2E-1,7.5E-1,7.330068E1,4.1E-1,3.8999999E0,2.2E-1,2.3597868E2,1.48E0,1.2287555E1,1.656489E1,1.18E0,1.32E0,2.6223132E2,5.1E-1,-3.1476814E-2,1.05880196E2,2.52E0,1.52E0,2.1349669E1,-1.0809878E-1,-2.7766945E-3,-1.5513208E-2,3.6639232E-2,-1.5789736E-2,-4.8280627E-2,-2.4043217E-2,9.00784E-2,-8.65618E-2,1.8080537E-3,8.314175E-2,-4.253552E-2,2.914383E-1,9.659555E-2,4.2287026E-2,-7.740238E-2,1.24698244E-1,-2.000155E-2,-1.6912598E-2,1.05151236E-1,-1.5540485E-2,-6.9767736E-2,6.4356305E-2,-7.88244E-3,-1.7630965E-2,1.0923781E-2,1.6939599E-2,6.2267713E-2,-5.916312E-3,3.0383503E-2,1.0029138E-3,1.7439652E-2,5.0276997E-3,7.415256E-2,-3.6724556E-2,6.23703E-4,-1.9588471E-4,-5.6746617E-2,1.1853877E-1,-7.249725E-3],"split_indices":[3,4,6,4,3,0,3,6,6,4,4,0,0,1,1,3,6,3,6,1,4,0,6,2,4,0,0,1,4,2,6,2,4,1,6,0,5,5,2,0,6,0,0,6,0,0,3,0,0,0,0,0,0,0,0,0,0,0,0,0,0,0,0,0,0,0,0,0,0,0,0,0,0,0,0,0,0,0,0,0,0,0,0,0,0,0,0],"split_type":[0,0,0,0,0,0,0,0,0,0,0,0,0,0,0,0,0,0,0,0,0,0,0,0,0,0,0,0,0,0,0,0,0,0,0,0,0,0,0,0,0,0,0,0,0,0,0,0,0,0,0,0,0,0,0,0,0,0,0,0,0,0,0,0,0,0,0,0,0,0,0,0,0,0,0,0,0,0,0,0,0,0,0,0,0,0,0],"sum_hessian":[1.958E3,1.911E3,4.7E1,1.642E3,2.69E2,3E0,4.4E1,1.586E3,5.6E1,2.54E2,1.5E1,1E0,2E0,2.2E1,2.2E1,8.5E1,1.501E3,2.4E1,3.2E1,7.1E1,1.83E2,1E0,1.4E1,4E0,1.8E1,2E1,2E0,2.4E1,6.1E1,2.4E1,1.477E3,1.1E1,1.3E1,1.4E1,1.8E1,3.7E1,3.4E1,2.1E1,1.62E2,5E0,9E0,2E0,2E0,1.6E1,2E0,1.3E1,7E0,1E0,1E0,1.6E1,8E0,2.4E1,3.7E1,9E0,1.5E1,5E0,1.472E3,4E0,7E0,2E0,1.1E1,2E0,1.2E1,3E0,1.5E1,3.6E1,1E0,9E0,2.5E1,1.2E1,9E0,1.09E2,5.3E1,1E0,4E0,7E0,2E0,1E0,1E0,2E0,1.4E1,1E0,1E0,8E0,5E0,2E0,5E0],"tree_param":{"num_deleted":"0","num_feature":"7","num_nodes":"87","size_leaf_vector":"1"}},{"base_weights":[2.2259066E-3,-4.272131E-4,4.640061E-2,5.066548E-3,-2.4477147E-2,5.786662E-1,1.5834628E-2,1.2711993E-3,4.849867E-2,-2.5057372E-1,-1.6256018E-2,1.5593949E-1,4.0384498E-1,-1.9569245E-1,4.2387158E-2,7.754894E-3,-2.2528458E-2,3.1128564E-1,2.549979E-3,-7.964676E-2,-4.0822622E-1,1.3234319E-1,-2.6682064E-2,-3.763558E-2,2.5765032E-1,-2.4894927E-1,4.7061127E-2,3.637721E-1,1.2688672E-2,4.046961E-3,2.5639695E-1,2.7142668E-1,-3.0559883E-2,4.0474632E-1,-1.2661457E-2,-6.44448E-2,1.4864314E-1,2.8573252E-2,-1.24669276E-1,-1.5133782E-1,1.0940946E-2,3.3919185E-1,-1.0084046E-2,-7.525328E-2,8.88745E-3,2.1410216E-2,8.8786654E-2,-1.5584828E-2,-7.95198E-2,2.253778E-2,-1.3602735E-3,6.901039E-1,2.995224E-2,2.0717645E-1,-3.67968E-2,1.9304785E-3,-4.348422E-2,3.881475E-2,1.8152842E-1,7.6168524E-3,2.0190763E-1,-4.1668717E-2,-1.4728366E-4,1.7279944E-1,2.4123287E-2,3.9467134E-2,-2.4481613E-2,1.2390075E-1,-2.3095906E-2,-1.1859872E-2,6.625691E-2,-4.5542777E-2,-1.4077873E-2,1.5554023E-1,-4.355836E-3,-6.454193E-2,3.832206E-2,-2.704708E-2,6.1128926E-2,8.319752E-2,-4.58308E-3,5.001501E-2,2.4269822E-1,5.190325E-2,-8.134232E-2,2.0031663E-2,1.2548184E-1,-7.442099E-2,-4.043461E-3],"categories":[],"categories_nodes":[],"categories_segments":[],"categories_sizes":[],"default_left":[0,0,0,0,0,0,0,0,0,0,0,0,0,0,0,0,0,0,0,0,0,0,0,0,0,0,0,0,0,0,0,0,0,0,0,0,0,0,0,0,0,0,0,0,0,0,0,0,0,0,0,0,0,0,0,0,0,0,0,0,0,0,0,0,0,0,0,0,0,0,0,0,0,0,0,0,0,0,0,0,0,0,0,0,0,0,0,0,0],"id":17,"left_children":[1,3,5,7,9,11,13,15,17,19,21,23,-1,25,27,29,31,33,35,37,39,41,43,-1,45,47,49,51,53,55,57,59,61,63,65,67,69,-1,71,-1,-1,73,75,77,79,-1,-1,-1,-1,-1,-1,81,83,85,87,-1,-1,-1,-1,-1,-1,-1,-1,-1,-1,-1,-1,-1,-1,-1,-1,-1,-1,-1,-1,-1,-1,-1,-1,-1,-1,-1,-1,-1,-1,-1,-1,-1,-1],"loss_changes":[2.2961614E-1,2.4442239E-1,1.7967205E0,2.4818745E-1,6.353433E-1,1.7366974E0,6.0365224E-1,2.1404797E-1,1.460247E0,2.9085088E-1,5.194489E-1,1.754255E-1,0E0,1.6685525E-1,9.021256E-1,1.0038859E0,7.094755E-1,5.5009866E-1,1.0274771E0,6.699222E-2,2.7516454E-1,6.5155977E-1,5.3969693E-1,0E0,7.420838E-3,1.797986E-2,4.6846815E-3,8.5081816E-1,8.545636E-1,3.834109E-1,6.303458E-1,7.7337795E-1,9.446195E-1,7.312856E-1,6.045073E-2,4.6292633E-1,4.5716137E-1,0E0,5.5358186E-3,0E0,0E0,5.782341E-1,4.231451E-1,5.672748E-1,1.1783166E0,0E0,0E0,0E0,0E0,0E0,0E0,1.14029646E-1,2.6228023E-1,5.0556976E-1,3.4644464E-1,0E0,0E0,0E0,0E0,0E0,0E0,0E0,0E0,0E0,0E0,0E0,0E0,0E0,0E0,0E0,0E0,0E0,0E0,0E0,0E0,0E0,0E0,0E0,0E0,0E0,0E0,0E0,0E0,0E0,0E0,0E0,0E0,0E0,0E0],"parents":[2147483647,0,0,1,1,2,2,3,3,4,4,5,5,6,6,7,7,8,8,9,9,10,10,11,11,13,13,14,14,15,15,16,16,17,17,18,18,19,19,20,20,21,21,22,22,24,24,25,25,26,26,27,27,28,28,29,29,30,30,31,31,32,32,33,33,34,34,35,35,36,36,38,38,41,41,42,42,43,43,44,44,51,51,52,52,53,53,54,54],"right_children":[2,4,6,8,10,12,14,16,18,20,22,24,-1,26,28,30,32,34,36,38,40,42,44,-1,46,48,50,52,54,56,58,60,62,64,66,68,70,-1,72,-1,-1,74,76,78,80,-1,-1,-1,-1,-1,-1,82,84,86,88,-1,-1,-1,-1,-1,-1,-1,-1,-1,-1,-1,-1,-1,-1,-1,-1,-1,-1,-1,-1,-1,-1,-1,-1,-1,-1,-1,-1,-1,-1,-1,-1,-1,-1],"split_conditions":[2.88E0,1.35E0,2.95E0,1.6926748E1,1.39E0,9.497467E1,6.4E-1,1.0562167E1,1.7160084E1,4.7725835E0,8.4963045E0,-1.128334E-1,4.0384498E-1,2.29E0,3.14E0,1.018925E1,8.130006E0,3.4999995E0,5E-1,-1.4662834E1,3.1E0,1.4663362E2,1.9744725E2,-3.763558E-2,1.42E0,2.96E0,2.52E0,1.52E0,1.72E0,1.0078834E1,6.3E-1,6.4803786E0,1.1503113E1,3.0854117E2,3.3E-1,8.78872E0,1.7683E1,2.8573252E-2,1.21E0,-1.5133782E-1,1.0940946E-2,2.02E0,2E-1,4E0,2.1948328E2,2.1410216E-2,8.8786654E-2,-1.5584828E-2,-7.95198E-2,2.253778E-2,-1.3602735E-3,6.2E-1,2.22E0,1.17E0,3.24E0,1.9304785E-3,-4.348422E-2,3.881475E-2,1.8152842E-1,7.6168524E-3,2.0190763E-1,-4.1668717E-2,-1.4728366E-4,1.7279944E-1,2.4123287E-2,3.9467134E-2,-2.4481613E-2,1.2390075E-1,-2.3095906E-2,-1.1859872E-2,6.625691E-2,-4.5542777E-2,-1.4077873E-2,1.5554023E-1,-4.355836E-3,-6.454193E-2,3.832206E-2,-2.704708E-2,6.1128926E-2,8.319752E-2,-4.58308E-3,5.001501E-2,2.4269822E-1,5.190325E-2,-8.134232E-2,2.0031663E-2,1.2548184E-1,-7.442099E-2,-4.043461E-3],"split_indices":[2,2,2,3,2,6,1,3,3,3,5,3,0,0,2,3,6,4,4,3,0,6,6,0,0,2,0,0,1,3,1,6,5,6,0,5,3,0,1,0,0,0,4,1,6,0,0,0,0,0,0,0,0,1,2,0,0,0,0,0,0,0,0,0,0,0,0,0,0,0,0,0,0,0,0,0,0,0,0,0,0,0,0,0,0,0,0,0,0],"split_type":[0,0,0,0,0,0,0,0,0,0,0,0,0,0,0,0,0,0,0,0,0,0,0,0,0,0,0,0,0,0,0,0,0,0,0,0,0,0,0,0,0,0,0,0,0,0,0,0,0,0,0,0,0,0,0,0,0,0,0,0,0,0,0,0,0,0,0,0,0,0,0,0,0,0,0,0,0,0,0,0,0,0,0,0,0,0,0,0,0],"sum_hessian":[1.958E3,1.848E3,1.1E2,1.505E3,3.43E2,5E0,1.05E2,1.385E3,1.2E2,1.1E1,3.32E2,4E0,1E0,1.1E1,9.4E1,1.089E3,2.96E2,1.7E1,1.03E2,6E0,5E0,2.1E1,3.11E2,1E0,3E0,9E0,2E0,7E0,8.7E1,1.074E3,1.5E1,7E0,2.89E2,1.3E1,4E0,7.1E1,3.2E1,1E0,5E0,4E0,1E0,8E0,1.3E1,1.31E2,1.8E2,1E0,2E0,1E0,8E0,1E0,1E0,3E0,4E0,1.7E1,7E1,1.058E3,1.6E1,1.2E1,3E0,5E0,2E0,6.2E1,2.27E2,8E0,5E0,1E0,3E0,1E0,7E1,9E0,2.3E1,3E0,2E0,5E0,3E0,5E0,8E0,1.25E2,6E0,1.4E1,1.66E2,1E0,2E0,3E0,1E0,1.1E1,6E0,6E0,6.4E1],"tree_param":{"num_deleted":"0","num_feature":"7","num_nodes":"89","size_leaf_vector":"1"}},{"base_weights":[2.3302832E-3,-4.0805377E-2,4.9185622E-3,-1.1840697E-1,-2.1382706E-2,-8.815055E-3,1.3845313E-2,-1.8586361E-1,9.2454694E-2,6.348948E-2,-4.3482553E-2,3.4820907E-2,-3.532323E-2,1.514281E-1,6.6047115E-3,1.1322028E-2,-2.1819344E-1,2.4397666E-2,6.491098E-2,-4.346191E-2,1.8715346E-1,7.803173E-2,-5.9891082E-2,-2.0392996E-3,1.0856348E-1,-4.445453E-3,-8.407082E-2,2.4432406E-1,7.5198133E-3,-3.1488385E-2,1.4431084E-2,-2.301763E-1,-7.5650276E-3,-1.0470647E-2,4.794816E-2,1.2013978E-2,-6.646898E-2,-1.811462E-2,2.665039E-1,8.093442E-3,4.902937E-2,-1.10637434E-1,-3.7628654E-2,4.4291273E-2,-8.240648E-2,1.7070894E-1,-1.3293886E-2,-4.3261845E-2,4.3032087E-2,-4.4835847E-2,-1.8484643E-1,1.252294E-1,7.7922755E-1,1.5929423E-1,-4.348943E-2,2.0869339E-1,-4.5189712E-2,3.4988952E-1,1.1743211E-2,-3.9539237E-2,-7.690442E-2,2.2476492E-2,4.1949362E-3,-3.4669526E-2,-1.2237257E-3,1.05082765E-1,3.483179E-2,1.5165786E-2,-7.7322903E-3,-3.5939734E-2,8.140925E-3,3.8452193E-2,-1.6941344E-2,-2.446748E-5,3.8288284E-2,4.7724177E-3,-5.6148462E-2,1.9408962E-2,1.2049412E-1,2.3325473E-2,-4.077181E-2,-7.1420646E-3,-5.1725928E-2,-2.8680744E-2,1.7948171E-2,-1.5645767E-2,1.3265789E-1,-1.0338609E-1,-2.9081183E-2,1.0736016E-1,7.947153E-4,1.1786773E-1,4.066355E-1,-8.292023E-3,6.0662735E-2,-5.016226E-2,5.086971E-3,-5.9705973E-5,1.2528768E-1,-5.3094197E-2,-7.1405694E-3,2.7789134E-1,-1.9781198E-2,1.5043816E-2,6.320544E-5],"categories":[],"categories_nodes":[],"categories_segments":[],"categories_sizes":[],"default_left":[0,0,0,0,0,0,0,0,0,0,0,0,0,0,0,0,0,0,0,0,0,0,0,0,0,0,0,0,0,0,0,0,0,0,0,0,0,0,0,0,0,0,0,0,0,0,0,0,0,0,0,0,0,0,0,0,0,0,0,0,0,0,0,0,0,0,0,0,0,0,0,0,0,0,0,0,0,0,0,0,0,0,0,0,0,0,0,0,0,0,0,0,0,0,0,0,0,0,0,0,0,0,0,0,0],"id":18,"left_children":[1,3,5,7,9,11,13,15,17,19,21,23,25,27,29,-1,31,33,-1,35,37,39,41,43,45,47,49,51,53,55,57,59,-1,-1,61,-1,63,-1,65,67,-1,69,71,73,75,77,79,81,83,85,87,89,91,93,95,97,99,101,103,-1,-1,-1,-1,-1,-1,-1,-1,-1,-1,-1,-1,-1,-1,-1,-1,-1,-1,-1,-1,-1,-1,-1,-1,-1,-1,-1,-1,-1,-1,-1,-1,-1,-1,-1,-1,-1,-1,-1,-1,-1,-1,-1,-1,-1,-1],"loss_changes":[2.1891741E-1,1.6477068E-1,2.2680312E-1,3.3011243E-1,1.7157029E-1,8.444712E-1,1.11572E0,1.3112885E-1,4.5320902E-2,2.594287E-1,1.4823212E-1,7.5043535E-1,6.8299484E-1,7.467985E-1,3.182618E-1,0E0,2.8881907E-2,8.656194E-3,0E0,2.3795998E-2,1.9287056E-1,5.2431542E-2,6.814003E-2,6.9248956E-1,6.989745E-1,5.1603264E-1,6.876037E-1,2.0683587E0,1.8499129E-1,6.0835797E-1,7.938688E-1,2.2604465E-3,0E0,0E0,2.616983E-3,0E0,2.7096502E-2,0E0,4.752478E-2,9.930937E-3,0E0,2.7233467E-2,1.5094829E-1,4.36359E-1,7.0330566E-1,1.4674354E0,3.6779183E-1,3.828607E-1,2.990965E-1,4.791826E-1,6.548271E-1,8.260397E-1,8.031473E-1,5.372265E-2,1.3744399E-1,4.3652666E-1,4.834261E-1,1.7388996E0,3.8928252E-1,0E0,0E0,0E0,0E0,0E0,0E0,0E0,0E0,0E0,0E0,0E0,0E0,0E0,0E0,0E0,0E0,0E0,0E0,0E0,0E0,0E0,0E0,0E0,0E0,0E0,0E0,0E0,0E0,0E0,0E0,0E0,0E0,0E0,0E0,0E0,0E0,0E0,0E0,0E0,0E0,0E0,0E0,0E0,0E0,0E0,0E0],"parents":[2147483647,0,0,1,1,2,2,3,3,4,4,5,5,6,6,7,7,8,8,9,9,10,10,11,11,12,12,13,13,14,14,16,16,17,17,19,19,20,20,21,21,22,22,23,23,24,24,25,25,26,26,27,27,28,28,29,29,30,30,31,31,34,34,36,36,38,38,39,39,41,41,42,42,43,43,44,44,45,45,46,46,47,47,48,48,49,49,50,50,51,51,52,52,53,53,54,54,55,55,56,56,57,57,58,58],"right_children":[2,4,6,8,10,12,14,16,18,20,22,24,26,28,30,-1,32,34,-1,36,38,40,42,44,46,48,50,52,54,56,58,60,-1,-1,62,-1,64,-1,66,68,-1,70,72,74,76,78,80,82,84,86,88,90,92,94,96,98,100,102,104,-1,-1,-1,-1,-1,-1,-1,-1,-1,-1,-1,-1,-1,-1,-1,-1,-1,-1,-1,-1,-1,-1,-1,-1,-1,-1,-1,-1,-1,-1,-1,-1,-1,-1,-1,-1,-1,-1,-1,-1,-1,-1,-1,-1,-1,-1],"split_conditions":[2.6E-1,2.489744E2,2.0059164E0,1.7935081E1,5.7049996E-1,1.2074766E1,2.5705001E0,1.3E-1,5.6E-1,-2.2586663E0,2.737152E2,1.2E0,-1.0107498E0,8.9E-1,1.0990322E1,1.1322028E-2,1.6926748E1,3.8E-1,6.491098E-2,2.949812E2,1.1177405E1,2.5498155E2,2.920677E2,7.5E-1,2.664873E2,7.5E-1,1.08E0,6.9E-1,1.2096214E1,1.1512083E1,1.1043261E1,1.2121668E0,-7.5650276E-3,-1.0470647E-2,2.2E-1,1.2013978E-2,1E-1,-1.811462E-2,1.48257065E1,2E-1,4.902937E-2,1.1000001E0,2.949812E2,5E-1,-3.3774168E0,1.9621216E2,-7.4378333E0,6.9E-1,1.27279215E1,2.9949316E1,9.5499925E-2,2.0495284E2,1.12E0,7.2E-1,1.09E0,2.2E0,4.680917E0,7.3975835E0,1.4663362E2,-3.9539237E-2,-7.690442E-2,2.2476492E-2,4.1949362E-3,-3.4669526E-2,-1.2237257E-3,1.05082765E-1,3.483179E-2,1.5165786E-2,-7.7322903E-3,-3.5939734E-2,8.140925E-3,3.8452193E-2,-1.6941344E-2,-2.446748E-5,3.8288284E-2,4.7724177E-3,-5.6148462E-2,1.9408962E-2,