{"learner":{"attributes":{"scikit_learn":"{\"_estimator_type\": \"regressor\"}"},"feature_names":["rolling1","rolling2","rolling3","temperature_2m_mean","precipitation_sum","wind_speed_10m_max","wind_direction_10m_dominant"],"feature_types":["float","float","float","float","float","float","float"],"gradient_booster":{"model":{"gbtree_model_param":{"num_parallel_tree":"1","num_trees":"100"},"iteration_indptr":[0,1,2,3,4,5,6,7,8,9,10,11,12,13,14,15,16,17,18,19,20,21,22,23,24,25,26,27,28,29,30,31,32,33,34,35,36,37,38,39,40,41,42,43,44,45,46,47,48,49,50,51,52,53,54,55,56,57,58,59,60,61,62,63,64,65,66,67,68,69,70,71,72,73,74,75,76,77,78,79,80,81,82,83,84,85,86,87,88,89,90,91,92,93,94,95,96,97,98,99,100],"tree_info":[0,0,0,0,0,0,0,0,0,0,0,0,0,0,0,0,0,0,0,0,0,0,0,0,0,0,0,0,0,0,0,0,0,0,0,0,0,0,0,0,0,0,0,0,0,0,0,0,0,0,0,0,0,0,0,0,0,0,0,0,0,0,0,0,0,0,0,0,0,0,0,0,0,0,0,0,0,0,0,0,0,0,0,0,0,0,0,0,0,0,0,0,0,0,0,0,0,0,0,0],"trees":[{"base_weights":[6.1642453E-7,-6.3460565E0,1.0183877E1,-9.576987E0,-2.9376159E0,7.1282387E0,2.3637445E1,-1.2221763E1,-8.1566925E0,-8.484344E-1,-4.695837E0,3.8181841E0,1.0511249E1,1.9337921E1,3.41528E1,-8.940313E0,-1.2744894E1,-7.0737634E0,-9.565922E0,-2.8331878E0,1.1416551E0,-3.1855192E0,-6.229755E0,6.2470336E0,1.4080828E0,1.40199585E1,7.5754657E0,2.1662956E1,1.2412424E1,3.6705917E1,5.8760667E0,-1.3239334E0,-9.79742E0,-1.168913E1,-4.23247E0,-8.602067E0,-6.0521927E0,-8.455275E0,-1.1216247E1,6.040985E0,-3.4693134E0,7.4424314E0,3.8462812E-1,-2.2428968E0,-6.108071E0,-4.019518E0,-7.6670346E0,-4.073548E-1,8.005881E0,8.607353E0,-1.5390423E-1,7.5281816E0,1.6792894E1,1.1431093E1,4.327999E0,2.3635998E1,1.21483135E1,1.4760666E0,1.3922045E1,3.9693676E1,2.467735E1,-2.3237515E-2,2.215144E0,4.267625E-1,-7.098563E-1,-3.1293979E0,6.901665E-2,-3.5607314E0,-1.4771801E0,-2.697461E0,2.369017E0,-1.9665704E0,-9.2161065E-1,-2.686071E0,-8.9260215E-1,-3.4761267E0,-4.098563E-1,2.5868887E-1,5.8690166E0,-1.1569897E-1,-1.45282E0,2.9166234E0,-1.9309834E0,5.116389E-1,-5.87889E-1,-1.7189363E0,-3.0201197E-1,-2.1317825E0,3.1690168E0,-1.8054423E0,-2.9658875E-1,-2.3662324E0,8.6901665E-1,4.4247732E-1,-2.365666E0,3.9647286E0,2.1026835E0,2.9861622E0,-2.7718002E-1,6.123433E-1,-1.8599757E0,3.1237273E0,6.8228686E-1,6.4177103E0,4.3541207E0,-3.0371802E0,3.769366E0,4.2039382E-1,2.565945E0,7.297503E0,2.90282E0,4.216624E0,-4.3098336E-1,6.901665E-2,6.690167E-1,7.1514374E-1,4.563384E0,8.132399E0,1.3498596E1,4.0612707E0,9.511271E0],"categories":[],"categories_nodes":[],"categories_segments":[],"categories_sizes":[],"default_left":[0,0,0,0,0,0,0,0,0,0,0,0,0,0,0,0,0,0,0,0,0,0,0,0,0,0,0,0,0,0,0,0,0,0,0,0,0,0,0,0,0,0,0,0,0,0,0,0,0,0,0,0,0,0,0,0,0,0,0,0,0,0,0,0,0,0,0,0,0,0,0,0,0,0,0,0,0,0,0,0,0,0,0,0,0,0,0,0,0,0,0,0,0,0,0,0,0,0,0,0,0,0,0,0,0,0,0,0,0,0,0,0,0,0,0,0,0,0,0,0,0],"id":0,"left_children":[1,3,5,7,9,11,13,15,17,19,21,23,25,27,29,31,33,35,37,39,41,43,45,47,49,51,53,55,57,59,61,63,65,67,-1,69,71,73,75,77,79,81,83,85,87,89,91,93,95,97,99,101,103,105,107,109,111,113,115,117,119,-1,-1,-1,-1,-1,-1,-1,-1,-1,-1,-1,-1,-1,-1,-1,-1,-1,-1,-1,-1,-1,-1,-1,-1,-1,-1,-1,-1,-1,-1,-1,-1,-1,-1,-1,-1,-1,-1,-1,-1,-1,-1,-1,-1,-1,-1,-1,-1,-1,-1,-1,-1,-1,-1,-1,-1,-1,-1,-1,-1],"loss_changes":[1.4864316E5,1.5576492E4,3.613097E4,2.6311797E3,2.534227E3,8.033586E3,6.708953E3,3.1864844E2,6.587539E2,1.2553328E3,8.4891895E2,2.1336846E3,3.5608828E3,1.6311484E3,3.1052266E3,2.3509424E2,1.4455078E2,3.7416504E2,2.7908008E2,9.18527E2,7.555448E2,5.124789E2,5.5687695E2,2.1333994E3,2.0816804E3,2.771791E3,2.4046465E3,1.3460938E3,5.077622E2,5.298828E2,4.545395E1,1.7678625E1,2.1852002E2,9.61875E1,0E0,7.585615E2,2.3021924E2,3.1741797E2,2.727422E2,7.5344214E2,6.291692E2,6.0044543E2,4.46124E2,6.23559E2,8.40317E2,4.4837073E2,2.8129102E2,5.605968E2,6.552959E2,4.3272095E2,2.0431633E3,7.339939E2,8.636035E2,2.301628E3,1.323509E3,4.4754688E2,4.6062476E2,4.1843557E0,3.8025342E2,9.1546484E2,4.3185938E2,0E0,0E0,0E0,0E0,0E0,0E0,0E0,0E0,0E0,0E0,0E0,0E0,0E0,0E0,0E0,0E0,0E0,0E0,0E0,0E0,0E0,0E0,0E0,0E0,0E0,0E0,0E0,0E0,0E0,0E0,0E0,0E0,0E0,0E0,0E0,0E0,0E0,0E0,0E0,0E0,0E0,0E0,0E0,0E0,0E0,0E0,0E0,0E0,0E0,0E0,0E0,0E0,0E0,0E0,0E0,0E0,0E0,0E0,0E0,0E0],"parents":[2147483647,0,0,1,1,2,2,3,3,4,4,5,5,6,6,7,7,8,8,9,9,10,10,11,11,12,12,13,13,14,14,15,15,16,16,17,17,18,18,19,19,20,20,21,21,22,22,23,23,24,24,25,25,26,26,27,27,28,28,29,29,30,30,31,31,32,32,33,33,35,35,36,36,37,37,38,38,39,39,40,40,41,41,42,42,43,43,44,44,45,45,46,46,47,47,48,48,49,49,50,50,51,51,52,52,53,53,54,54,55,55,56,56,57,57,58,58,59,59,60,60],"right_children":[2,4,6,8,10,12,14,16,18,20,22,24,26,28,30,32,34,36,38,40,42,44,46,48,50,52,54,56,58,60,62,64,66,68,-1,70,72,74,76,78,80,82,84,86,88,90,92,94,96,98,100,102,104,106,108,110,112,114,116,118,120,-1,-1,-1,-1,-1,-1,-1,-1,-1,-1,-1,-1,-1,-1,-1,-1,-1,-1,-1,-1,-1,-1,-1,-1,-1,-1,-1,-1,-1,-1,-1,-1,-1,-1,-1,-1,-1,-1,-1,-1,-1,-1,-1,-1,-1,-1,-1,-1,-1,-1,-1,-1,-1,-1,-1,-1,-1,-1,-1,-1],"split_conditions":[2.5E1,1.6E1,4.8E1,1.1E1,1.6394829E1,3.3E1,6.2E1,1.259E0,1.8335276E1,2E1,2.3893173E2,2.1480249E2,1E-1,1.964228E1,2.3233252E1,1.5273505E1,2.7157083E2,1.3E1,2.615991E2,1.4E1,1.75E1,4.9999995E0,3.559E0,6.0844105E1,1.3527572E1,3.4548333E0,1.9126056E2,2.5988608E2,3.4666668E1,7E-1,1E-1,9.5E0,5.0900006E-1,2.674345E2,-4.23247E0,1.8398584E1,1.7283749E1,1.7161085E1,2.7333334E1,1.5E1,3.2214997E0,3.1486902E2,2.2117912E2,1.103032E2,1.89965E1,2.1E1,3.1765793E1,1.9164719E1,1.259E0,3.7E1,9.000001E-1,1.758481E1,8.309001E0,2.2550898E1,4E1,6.05E1,5.65E1,3.85E1,4.433002E1,6.5E1,5.0333332E1,-2.3237515E-2,2.215144E0,4.267625E-1,-7.098563E-1,-3.1293979E0,6.901665E-2,-3.5607314E0,-1.4771801E0,-2.697461E0,2.369017E0,-1.9665704E0,-9.2161065E-1,-2.686071E0,-8.9260215E-1,-3.4761267E0,-4.098563E-1,2.5868887E-1,5.8690166E0,-1.1569897E-1,-1.45282E0,2.9166234E0,-1.9309834E0,5.116389E-1,-5.87889E-1,-1.7189363E0,-3.0201197E-1,-2.1317825E0,3.1690168E0,-1.8054423E0,-2.9658875E-1,-2.3662324E0,8.6901665E-1,4.4247732E-1,-2.365666E0,3.9647286E0,2.1026835E0,2.9861622E0,-2.7718002E-1,6.123433E-1,-1.8599757E0,3.1237273E0,6.8228686E-1,6.4177103E0,4.3541207E0,-3.0371802E0,3.769366E0,4.2039382E-1,2.565945E0,7.297503E0,2.90282E0,4.216624E0,-4.3098336E-1,6.901665E-2,6.690167E-1,7.1514374E-1,4.563384E0,8.132399E0,1.3498596E1,4.0612707E0,9.511271E0],"split_indices":[0,0,0,0,5,0,0,3,5,0,6,6,4,5,5,5,6,0,6,1,1,4,3,6,5,3,6,6,2,4,4,1,3,6,0,3,5,3,2,2,3,6,6,6,3,0,5,5,3,1,4,5,3,6,0,1,1,1,6,0,2,0,0,0,0,0,0,0,0,0,0,0,0,0,0,0,0,0,0,0,0,0,0,0,0,0,0,0,0,0,0,0,0,0,0,0,0,0,0,0,0,0,0,0,0,0,0,0,0,0,0,0,0,0,0,0,0,0,0,0,0],"split_type":[0,0,0,0,0,0,0,0,0,0,0,0,0,0,0,0,0,0,0,0,0,0,0,0,0,0,0,0,0,0,0,0,0,0,0,0,0,0,0,0,0,0,0,0,0,0,0,0,0,0,0,0,0,0,0,0,0,0,0,0,0,0,0,0,0,0,0,0,0,0,0,0,0,0,0,0,0,0,0,0,0,0,0,0,0,0,0,0,0,0,0,0,0,0,0,0,0,0,0,0,0,0,0,0,0,0,0,0,0,0,0,0,0,0,0,0,0,0,0,0,0],"sum_hessian":[2.298E3,1.416E3,8.82E2,7.26E2,6.9E2,7.2E2,1.62E2,2.51E2,4.75E2,3.16E2,3.74E2,3.65E2,3.55E2,1.17E2,4.5E1,3.7E1,2.14E2,2.72E2,2.03E2,1.58E2,1.58E2,1.9E2,1.84E2,1.81E2,1.84E2,1.6E2,1.95E2,8.6E1,3.1E1,4.1E1,4E0,4E0,3.3E1,1.26E2,8.8E1,1.06E2,1.66E2,1.25E2,7.8E1,1E1,1.48E2,1.6E1,1.42E2,1.45E2,4.5E1,7.4E1,1.1E2,3.8E1,1.43E2,3.2E1,1.52E2,4.9E1,1.11E2,8.8E1,1.07E2,7E1,1.6E1,4E0,2.7E1,3.1E1,1E1,1E0,3E0,1E0,3E0,3.1E1,2E0,1.22E2,4E0,1.04E2,2E0,1.41E2,2.5E1,1.14E2,1.1E1,7.5E1,3E0,8E0,2E0,4.6E1,1.02E2,1.4E1,2E0,9.1E1,5.1E1,3.7E1,1.08E2,4.3E1,2E0,4.4E1,3E1,1.08E2,2E0,3.1E1,7E0,2.1E1,1.22E2,2.8E1,4E0,1.12E2,4E1,3.1E1,1.8E1,3.4E1,7.7E1,4E0,8.4E1,6.4E1,4.3E1,6.6E1,4E0,1.4E1,2E0,2E0,2E0,3E0,2.4E1,1.1E1,2E1,5E0,5E0],"tree_param":{"num_deleted":"0","num_feature":"7","num_nodes":"121","size_leaf_vector":"1"}},{"base_weights":[2.5616026E-2,-3.646878E0,8.922632E0,-6.4877896E0,-7.5574493E-1,6.998105E0,1.9990871E1,-8.6052885E0,-5.5402503E0,-1.931985E0,1.4936769E0,8.070307E0,3.7259975E-1,2.343432E1,1.384654E1,-8.851273E0,-4.6842537E0,-3.9888341E0,-6.263559E0,-4.359166E-1,-3.477972E0,5.1154003E0,4.7340706E-1,6.302224E0,1.1433175E1,-2.7451544E0,1.3970904E0,2.754027E1,1.578572E1,9.039862E0,1.8177437E1,-8.9463415E0,-2.669804E0,-5.36293E0,2.7054343E-1,-1.9043396E0,-5.5390315E0,-6.3738685E0,1.803402E0,-3.2071333E0,4.188612E-1,5.907285E0,-3.8754215E0,9.286559E0,2.8541875E0,2.42574E0,-1.9419572E0,7.0615115E0,-1.0407183E-2,1.5145454E1,8.846231E0,4.794619E0,-1.6106745E0,7.355719E0,2.9636913E1,-2.887249E-1,1.8095818E1,-1.3989357E0,1.1736994E1,1.9823359E1,2.1148176E0,-2.6960485E0,6.087227E-2,3.4958744E-1,-1.6844896E0,-7.959612E-1,-2.424219E0,-8.9127734E-2,2.1087228E-1,1.2106749E-1,-1.3397382E0,-1.9610981E0,-2.0336676E-1,-2.2137442E0,-1.6353272E0,-8.495621E-1,1.4487025E0,2.3261905E0,-1.1057345E0,-1.9879477E-1,6.069796E-1,-4.0531456E-1,2.030467E0,-6.0014415E-1,-1.4787874E0,4.5247558E-1,3.3084087E0,1.7787247E0,3.1206065E-1,4.1843003E-1,2.180616E0,-1.5444231E-1,-1.8265926E0,-4.7859526E-1,2.3326306E0,2.3949566E0,-6.645535E-1,1.8623966E0,4.9738092E0,3.1497357E0,1.083271E0,2.008912E0,-2.3865535E0,-1.0429626E0,2.3046618E0,-5.1015668E-2,3.7288752E0,9.153739E0,-1.975193E-2,1.0922551E0,-8.4366E-1,8.213711E-2,5.6919694E0,3.5427162E-1,-1.757745E0,4.029232E0,9.8938954E-1,1.444491E0,6.1508765E0],"categories":[],"categories_nodes":[],"categories_segments":[],"categories_sizes":[],"default_left":[0,0,0,0,0,0,0,0,0,0,0,0,0,0,0,0,0,0,0,0,0,0,0,0,0,0,0,0,0,0,0,0,0,0,0,0,0,0,0,0,0,0,0,0,0,0,0,0,0,0,0,0,0,0,0,0,0,0,0,0,0,0,0,0,0,0,0,0,0,0,0,0,0,0,0,0,0,0,0,0,0,0,0,0,0,0,0,0,0,0,0,0,0,0,0,0,0,0,0,0,0,0,0,0,0,0,0,0,0,0,0,0,0,0,0,0,0,0,0],"id":1,"left_children":[1,3,5,7,9,11,13,15,17,19,21,23,25,27,29,31,33,35,37,39,41,43,45,47,49,-1,51,53,55,57,59,61,63,65,67,69,71,73,75,77,79,81,83,85,87,89,91,93,95,97,99,101,103,105,107,109,111,113,115,117,-1,-1,-1,-1,-1,-1,-1,-1,-1,-1,-1,-1,-1,-1,-1,-1,-1,-1,-1,-1,-1,-1,-1,-1,-1,-1,-1,-1,-1,-1,-1,-1,-1,-1,-1,-1,-1,-1,-1,-1,-1,-1,-1,-1,-1,-1,-1,-1,-1,-1,-1,-1,-1,-1,-1,-1,-1,-1,-1],"loss_changes":[7.515062E4,1.3366596E4,1.4174461E4,1.5995938E3,2.1407407E3,4.074621E3,1.770125E3,2.0159375E2,6.146426E2,1.226635E3,1.0248259E3,2.8651836E3,8.030478E2,1.5123516E3,6.267334E2,1.1480469E2,5.861682E1,5.840254E2,3.558711E2,6.4328125E2,9.964668E2,5.4883923E2,1.0327104E3,1.562623E3,1.4890039E3,0E0,7.6392615E2,1.4324746E3,8.964297E2,5.7951575E2,2.0825977E2,8.775781E1,6.3017937E1,8.902759E1,9.451047E-1,4.747282E2,5.0494824E2,3.141377E2,9.782225E1,3.6435596E2,3.6225812E2,7.7882935E1,4.8610083E2,2.6782617E2,2.2252289E2,5.940127E2,5.768235E2,1.8108779E3,6.521499E2,7.685303E2,8.4473584E2,9.01915E2,7.202787E2,1.9303741E2,9.122207E2,4.9903538E1,3.23188E2,6.4452324E1,1.8440747E2,6.446484E1,0E0,0E0,0E0,0E0,0E0,0E0,0E0,0E0,0E0,0E0,0E0,0E0,0E0,0E0,0E0,0E0,0E0,0E0,0E0,0E0,0E0,0E0,0E0,0E0,0E0,0E0,0E0,0E0,0E0,0E0,0E0,0E0,0E0,0E0,0E0,0E0,0E0,0E0,0E0,0E0,0E0,0E0,0E0,0E0,0E0,0E0,0E0,0E0,0E0,0E0,0E0,0E0,0E0,0E0,0E0,0E0,0E0,0E0,0E0],"parents":[2147483647,0,0,1,1,2,2,3,3,4,4,5,5,6,6,7,7,8,8,9,9,10,10,11,11,12,12,13,13,14,14,15,15,16,16,17,17,18,18,19,19,20,20,21,21,22,22,23,23,24,24,26,26,27,27,28,28,29,29,30,30,31,31,32,32,33,33,34,34,35,35,36,36,37,37,38,38,39,39,40,40,41,41,42,42,43,43,44,44,45,45,46,46,47,47,48,48,49,49,50,50,51,51,52,52,53,53,54,54,55,55,56,56,57,57,58,58,59,59],"right_children":[2,4,6,8,10,12,14,16,18,20,22,24,26,28,30,32,34,36,38,40,42,44,46,48,50,-1,52,54,56,58,60,62,64,66,68,70,72,74,76,78,80,82,84,86,88,90,92,94,96,98,100,102,104,106,108,110,112,114,116,118,-1,-1,-1,-1,-1,-1,-1,-1,-1,-1,-1,-1,-1,-1,-1,-1,-1,-1,-1,-1,-1,-1,-1,-1,-1,-1,-1,-1,-1,-1,-1,-1,-1,-1,-1,-1,-1,-1,-1,-1,-1,-1,-1,-1,-1,-1,-1,-1,-1,-1,-1,-1,-1,-1,-1,-1,-1,-1,-1],"split_conditions":[2.9E1,1.7E1,5.3E1,1.1E1,2.4E1,2.3233252E1,1.9830762E2,1.8E1,1.5463244E1,2.2211848E2,1.3527572E1,4.1E1,1.3663646E2,6E-1,6.2E1,3.5852435E2,1.6338167E1,9.050667E0,2.027567E1,6.983732E1,1.0261579E1,2.4506667E0,2.3950798E2,3.014723E2,1.6509488E2,-2.7451544E0,2.3659216E2,1.0261579E1,5.5E1,4.8E1,2.4999998E0,1.4399999E1,9.740249E0,7.7506676E0,1E1,1.5333333E1,1.791525E1,1.4E1,1.2666667E1,9.346143E0,2.1E1,1.5E1,2.859E0,5.7574085E1,2.1E1,3.1E1,7E-1,4.433002E1,1.2594856E1,5.7574085E1,4.5666668E1,2.988217E1,4.4E1,5.9E1,2.1933426E1,5.4E1,8E-1,4.7902503E0,6E1,1.259E0,2.1148176E0,-2.6960485E0,6.087227E-2,3.4958744E-1,-1.6844896E0,-7.959612E-1,-2.424219E0,-8.9127734E-2,2.1087228E-1,1.2106749E-1,-1.3397382E0,-1.9610981E0,-2.0336676E-1,-2.2137442E0,-1.6353272E0,-8.495621E-1,1.4487025E0,2.3261905E0,-1.1057345E0,-1.9879477E-1,6.069796E-1,-4.0531456E-1,2.030467E0,-6.0014415E-1,-1.4787874E0,4.5247558E-1,3.3084087E0,1.7787247E0,3.1206065E-1,4.1843003E-1,2.180616E0,-1.5444231E-1,-1.8265926E0,-4.7859526E-1,2.3326306E0,2.3949566E0,-6.645535E-1,1.8623966E0,4.9738092E0,3.1497357E0,1.083271E0,2.008912E0,-2.3865535E0,-1.0429626E0,2.3046618E0,-5.1015668E-2,3.7288752E0,9.153739E0,-1.975193E-2,1.0922551E0,-8.4366E-1,8.213711E-2,5.6919694E0,3.5427162E-1,-1.757745E0,4.029232E0,9.8938954E-1,1.444491E0,6.1508765E0],"split_indices":[0,0,0,0,0,5,6,1,5,6,5,0,6,4,0,6,3,3,3,6,5,3,6,6,6,0,6,5,0,1,4,4,3,3,0,2,3,0,2,5,0,1,3,6,2,2,4,6,5,6,2,5,0,0,5,0,4,3,0,3,0,0,0,0,0,0,0,0,0,0,0,0,0,0,0,0,0,0,0,0,0,0,0,0,0,0,0,0,0,0,0,0,0,0,0,0,0,0,0,0,0,0,0,0,0,0,0,0,0,0,0,0,0,0,0,0,0,0,0],"split_type":[0,0,0,0,0,0,0,0,0,0,0,0,0,0,0,0,0,0,0,0,0,0,0,0,0,0,0,0,0,0,0,0,0,0,0,0,0,0,0,0,0,0,0,0,0,0,0,0,0,0,0,0,0,0,0,0,0,0,0,0,0,0,0,0,0,0,0,0,0,0,0,0,0,0,0,0,0,0,0,0,0,0,0,0,0,0,0,0,0,0,0,0,0,0,0,0,0,0,0,0,0,0,0,0,0,0,0,0,0,0,0,0,0,0,0,0,0,0,0],"sum_hessian":[2.298E3,1.627E3,6.71E2,8.2E2,8.07E2,5.73E2,9.8E1,2.51E2,5.69E2,5.3E2,2.77E2,4.93E2,8E1,6.1E1,3.7E1,2.35E2,1.6E1,1.83E2,3.86E2,2.7E2,2.6E2,6E1,2.17E2,3.25E2,1.68E2,7E0,7.3E1,3.8E1,2.3E1,1.9E1,1.8E1,2.31E2,4E0,1.4E1,2E0,7.9E1,1.04E2,3.81E2,5E0,6.3E1,2.07E2,1E1,2.5E2,2E1,4E1,1.2E2,9.7E1,2.9E2,3.5E1,6.7E1,1.01E2,3.4E1,3.9E1,4E0,3.4E1,3E0,2E1,4E0,1.5E1,1.5E1,3E0,2.3E2,1E0,2E0,2E0,8E0,6E0,1E0,1E0,4.2E1,3.7E1,8.6E1,1.8E1,1.79E2,2.02E2,2E0,3E0,2E0,6.1E1,1.24E2,8.3E1,1E0,9E0,9.1E1,1.59E2,4E0,1.6E1,1.4E1,2.6E1,1E2,2E1,7.3E1,2.4E1,2.2E1,2.68E2,7E0,2.8E1,1E1,5.7E1,7.6E1,2.5E1,3E1,4E0,3.3E1,6E0,2E0,2E0,3.3E1,1E0,1E0,2E0,1E0,1.9E1,3E0,1E0,1.2E1,3E0,1E0,1.4E1],"tree_param":{"num_deleted":"0","num_feature":"7","num_nodes":"119","size_leaf_vector":"1"}},{"base_weights":[3.484961E-2,-2.5565352E0,6.312736E0,-4.5581417E0,-5.195606E-1,4.823546E0,1.3960354E1,-5.3411617E0,-3.208923E0,1.7388996E0,-1.1195898E0,5.7521E0,9.822209E-1,1.11700535E1,1.9786898E1,-6.6178823E0,-4.703959E0,3.5799017E0,-3.404499E0,5.054234E0,9.3350154E-1,1.5426648E-1,-2.2332656E0,3.4119453E0,7.788054E0,4.6584215E0,-2.548724E-1,1.3104188E1,7.1746163E0,2.1540098E1,1.252873E0,-2.7505977E0,-6.8423963E0,-1.4018828E0,-4.900432E0,3.8197994E0,8.442235E-1,-2.7428727E0,-4.864835E0,7.035919E0,-3.3114421E0,-1.8355644E-1,4.103598E0,-1.7478949E0,1.3028759E0,-1.334474E0,-4.6513596E0,1.1953695E1,2.7969632E0,4.0658283E0,9.10354E0,9.550132E0,-2.1773644E-1,-5.8505273E0,1.1477895E0,1.4137127E1,4.739405E0,7.833661E0,-1.4940832E0,7.1153727E0,2.2831484E1,1.2278175E0,-1.0579859E0,1.7392637E-1,-1.066528E0,-2.1915374E0,-1.350073E0,-5.9914774E-1,1.5755463E0,-1.551347E0,-6.946248E-1,1.2052248E0,-9.999968E-1,-8.7708896E-1,1.5324881E0,-1.0164481E0,-2.1392128E0,6.473896E-1,2.6928654E0,-1.4106606E0,7.5496733E-1,-7.150346E-1,3.5827327E-1,1.5925674E0,-8.417888E-1,-1.1160406E-1,-1.3047009E0,8.854392E-1,-2.8170115E-1,-7.548071E-2,-9.87165E-1,-1.1788514E0,-2.6207242E0,3.849818E0,7.894364E-2,1.4877443E0,2.0128536E-1,2.9867487E0,3.08527E-1,3.4768043E0,1.9288625E0,3.3527558E0,-1.7376332E0,2.220967E0,-1.0986046E0,-3.501192E0,-7.358782E-1,-1.5567735E0,7.385296E-1,-6.6021055E-1,4.3704767E0,2.3807013E0,-2.1657286E0,1.0270121E0,2.8810806E0,2.8265877E0,2.934208E-2,7.726522E0,4.139338E0,-1.6789056E-2,-4.5930463E-1],"categories":[],"categories_nodes":[],"categories_segments":[],"categories_sizes":[],"default_left":[0,0,0,0,0,0,0,0,0,0,0,0,0,0,0,0,0,0,0,0,0,0,0,0,0,0,0,0,0,0,0,0,0,0,0,0,0,0,0,0,0,0,0,0,0,0,0,0,0,0,0,0,0,0,0,0,0,0,0,0,0,0,0,0,0,0,0,0,0,0,0,0,0,0,0,0,0,0,0,0,0,0,0,0,0,0,0,0,0,0,0,0,0,0,0,0,0,0,0,0,0,0,0,0,0,0,0,0,0,0,0,0,0,0,0,0,0,0,0,0,0],"id":2,"left_children":[1,3,5,7,9,11,13,15,17,19,21,23,25,27,29,31,33,35,37,39,41,43,45,47,49,51,53,55,57,59,61,63,65,67,69,-1,71,73,75,77,79,81,83,85,87,89,91,93,95,97,99,101,103,105,107,109,111,113,-1,115,117,-1,119,-1,-1,-1,-1,-1,-1,-1,-1,-1,-1,-1,-1,-1,-1,-1,-1,-1,-1,-1,-1,-1,-1,-1,-1,-1,-1,-1,-1,-1,-1,-1,-1,-1,-1,-1,-1,-1,-1,-1,-1,-1,-1,-1,-1,-1,-1,-1,-1,-1,-1,-1,-1,-1,-1,-1,-1,-1,-1],"loss_changes":[3.741723E4,6.6353467E3,7.5859062E3,8.5021875E2,1.0969016E3,2.0060693E3,1.551082E3,3.9027734E2,4.1581836E2,4.4920978E2,9.068702E2,2.1364844E3,5.0599347E2,4.932881E2,1.0778027E3,1.2878369E2,2.1955078E2,2.1460193E2,2.726504E2,5.703775E2,4.8943628E2,6.555446E2,7.349093E2,1.0854602E3,1.1479492E3,6.699565E2,6.660153E2,3.6501367E2,2.5530054E2,4.1500977E2,3.0580032E1,3.1532867E1,1.4052979E2,9.3665344E1,2.1826953E2,0E0,1.1944058E2,3.0728076E2,2.8032227E2,2.3617627E2,6.857079E1,3.1504074E2,3.1462244E2,4.0278836E2,6.939115E2,5.287168E2,2.369198E2,1.4049207E2,9.160386E2,1.1526318E3,1.1086602E3,4.1392236E2,4.208413E2,3.0753778E2,5.7899097E2,3.419834E2,3.248462E2,1.7007788E2,0E0,6.3824936E1,3.8413867E2,0E0,1.3362775E0,0E0,0E0,0E0,0E0,0E0,0E0,0E0,0E0,0E0,0E0,0E0,0E0,0E0,0E0,0E0,0E0,0E0,0E0,0E0,0E0,0E0,0E0,0E0,0E0,0E0,0E0,0E0,0E0,0E0,0E0,0E0,0E0,0E0,0E0,0E0,0E0,0E0,0E0,0E0,0E0,0E0,0E0,0E0,0E0,0E0,0E0,0E0,0E0,0E0,0E0,0E0,0E0,0E0,0E0,0E0,0E0,0E0,0E0],"parents":[2147483647,0,0,1,1,2,2,3,3,4,4,5,5,6,6,7,7,8,8,9,9,10,10,11,11,12,12,13,13,14,14,15,15,16,16,17,17,18,18,19,19,20,20,21,21,22,22,23,23,24,24,25,25,26,26,27,27,28,28,29,29,30,30,31,31,32,32,33,33,34,34,36,36,37,37,38,38,39,39,40,40,41,41,42,42,43,43,44,44,45,45,46,46,47,47,48,48,49,49,50,50,51,51,52,52,53,53,54,54,55,55,56,56,57,57,59,59,60,60,62,62],"right_children":[2,4,6,8,10,12,14,16,18,20,22,24,26,28,30,32,34,36,38,40,42,44,46,48,50,52,54,56,58,60,62,64,66,68,70,-1,72,74,76,78,80,82,84,86,88,90,92,94,96,98,100,102,104,106,108,110,112,114,-1,116,118,-1,120,-1,-1,-1,-1,-1,-1,-1,-1,-1,-1,-1,-1,-1,-1,-1,-1,-1,-1,-1,-1,-1,-1,-1,-1,-1,-1,-1,-1,-1,-1,-1,-1,-1,-1,-1,-1,-1,-1,-1,-1,-1,-1,-1,-1,-1,-1,-1,-1,-1,-1,-1,-1,-1,-1,-1,-1,-1,-1],"split_conditions":[2.9E1,1.7E1,5.2E1,1.4E1,1.337825E1,2.1461555E1,6.5E1,1.1333333E1,1.0666667E1,-3.389167E-1,2.2464098E2,3.7E1,2.9E1,1.9386593E1,2.3233252E1,-3.2805836E0,1.14862E1,1.9830762E2,2.642364E2,2.6E1,2.4E1,2.1E1,8.000001E-1,9.107359E0,2.6610835E0,2.2789922E2,3.15E1,6.1E1,6.9000006E0,4.8E1,6.8E1,9.666667E0,3.6000001E0,5.2999997E0,1.6961084E1,3.8197994E0,1.1E1,2.6213794E2,7.825667E0,1.4617523E2,-1.3430834E0,2E1,1.5000002E0,1.9E1,9.000001E-1,7.115249E0,2.6081993E1,2.027567E1,1E-1,1.2594856E1,1.7236774E2,3.7E1,1E-1,2.6333334E1,1.6321188E2,7.2E0,6.4E1,5.5E1,-1.4940832E0,6.6E1,6E-1,1.2278175E0,6.9E1,1.7392637E-1,-1.066528E0,-2.1915374E0,-1.350073E0,-5.9914774E-1,1.5755463E0,-1.551347E0,-6.946248E-1,1.2052248E0,-9.999968E-1,-8.7708896E-1,1.5324881E0,-1.0164481E0,-2.1392128E0,6.473896E-1,2.6928654E0,-1.4106606E0,7.5496733E-1,-7.150346E-1,3.5827327E-1,1.5925674E0,-8.417888E-1,-1.1160406E-1,-1.3047009E0,8.854392E-1,-2.8170115E-1,-7.548071E-2,-9.87165E-1,-1.1788514E0,-2.6207242E0,3.849818E0,7.894364E-2,1.4877443E0,2.0128536E-1,2.9867487E0,3.08527E-1,3.4768043E0,1.9288625E0,3.3527558E0,-1.7376332E0,2.220967E0,-1.0986046E0,-3.501192E0,-7.358782E-1,-1.5567735E0,7.385296E-1,-6.6021055E-1,4.3704767E0,2.3807013E0,-2.1657286E0,1.0270121E0,2.8810806E0,2.8265877E0,2.934208E-2,7.726522E0,4.139338E0,-1.6789056E-2,-4.5930463E-1],"split_indices":[0,0,0,0,5,5,0,2,2,3,6,0,1,5,5,3,5,6,6,1,2,0,4,5,3,6,1,2,4,1,1,2,4,4,3,0,1,6,3,6,3,0,4,1,4,3,5,3,4,5,6,0,4,2,6,5,0,0,0,0,4,0,0,0,0,0,0,0,0,0,0,0,0,0,0,0,0,0,0,0,0,0,0,0,0,0,0,0,0,0,0,0,0,0,0,0,0,0,0,0,0,0,0,0,0,0,0,0,0,0,0,0,0,0,0,0,0,0,0,0,0],"split_type":[0,0,0,0,0,0,0,0,0,0,0,0,0,0,0,0,0,0,0,0,0,0,0,0,0,0,0,0,0,0,0,0,0,0,0,0,0,0,0,0,0,0,0,0,0,0,0,0,0,0,0,0,0,0,0,0,0,0,0,0,0,0,0,0,0,0,0,0,0,0,0,0,0,0,0,0,0,0,0,0,0,0,0,0,0,0,0,0,0,0,0,0,0,0,0,0,0,0,0,0,0,0,0,0,0,0,0,0,0,0,0,0,0,0,0,0,0,0,0,0,0],"sum_hessian":[2.298E3,1.627E3,6.71E2,8.2E2,8.07E2,5.63E2,1.08E2,5.17E2,3.03E2,1.69E2,6.38E2,4.53E2,1.1E2,7.5E1,3.3E1,1.69E2,3.48E2,8E0,2.95E2,3.2E1,1.37E2,2.98E2,3.4E2,2.12E2,2.41E2,2.7E1,8.3E1,4.9E1,2.6E1,3E1,3E0,1E1,1.59E2,2E1,3.28E2,1E0,7E0,2.05E2,9E1,2.6E1,6E0,1.02E2,3.5E1,1.12E2,1.86E2,2.49E2,9.1E1,1.3E1,1.99E2,6.4E1,1.77E2,1.3E1,1.4E1,1.6E1,6.7E1,4.3E1,6E0,2.5E1,1E0,3E0,2.7E1,1E0,2E0,2E0,8E0,1.31E2,2.8E1,1.9E1,1E0,2.96E2,3.2E1,4E0,3E0,2.01E2,4E0,5.6E1,3.4E1,8E0,1.8E1,5E0,1E0,3.9E1,6.3E1,3E1,5E0,7.4E1,3.8E1,1.07E2,7.9E1,1.61E2,8.8E1,7.9E1,1.2E1,1.2E1,1E0,9.8E1,1.01E2,2.1E1,4.3E1,9E1,8.7E1,1.2E1,1E0,4E0,1E1,5E0,1.1E1,1.1E1,5.6E1,1E0,4.2E1,5E0,1E0,8E0,1.7E1,2E0,1E0,1.9E1,8E0,1E0,1E0],"tree_param":{"num_deleted":"0","num_feature":"7","num_nodes":"121","size_leaf_vector":"1"}},{"base_weights":[3.6156025E-2,-2.244331E0,3.6957414E0,-3.7498238E0,-1.3753425E0,2.542149E0,8.775768E0,-2.3977036E0,-4.196674E0,7.26098E-1,-1.7089374E0,1.5525588E0,4.209059E0,7.2619114E0,1.4305932E1,-8.100314E-1,-3.9973395E0,-3.1846876E0,-5.3246107E0,-2.7663524E0,1.3452533E0,-1.9677349E0,7.3964375E-1,4.614512E0,1.1013098E0,5.781231E0,1.5099974E0,7.797991E0,7.535969E-1,1.5552965E1,1.0649419E0,-3.0915194E0,9.115844E-2,-3.1922233E0,-6.082831E0,-3.2792554E0,2.4444373E0,-5.610749E0,-2.405869E0,-8.340999E-1,-6.8138824E0,3.5148554E0,4.4258332E-1,-1.4818157E0,-3.4253552E0,-8.0251224E-2,8.715802E0,8.037188E0,3.8709986E-1,2.4594185E0,-1.5714484E-1,7.882974E0,1.7291168E0,-6.8336105E0,2.3098068E0,1.774667E1,7.3019447E0,-1.6456333E0,5.102398E0,1.713324E1,6.1129518E0,1.0436449E0,-8.992882E-1,2.0005974E-1,-1.4632369E0,1.4773299E-1,-1.3639221E0,-1.0437058E0,2.711968E-1,-1.8944122E-1,-1.9152222E0,-1.4511837E0,-8.2062215E-1,-1.4276273E0,-2.026832E0,-1.2621989E0,1.1156187E-1,8.901342E-1,-6.421597E-1,-3.4247935E-1,-2.316006E0,2.7734532E0,6.9707E-1,-2.208588E-1,9.08184E-1,-4.8130816E-1,1.7330427E0,-1.8461928E0,-7.469596E-1,-2.5555834E-1,1.2197038E0,-1.2654114E-2,3.6682296E0,1.1644781E0,3.2028584E0,-1.0238433E-1,2.8987508E0,-3.2738644E-1,1.1493012E0,3.4481007E-1,-9.693704E-1,2.5454278E0,3.5999235E-2,-1.0341271E0,1.2821978E0,7.899428E-1,-2.5038295E0,-2.4410157E0,9.0111226E-1,-3.389786E-1,6.8244905E0,1.5685645E-1,2.3197508E0,2.3351488E0,3.436103E-1,2.1581225E0,5.9266205E0,1.2376499E-2,3.6512694E0,-1.4270783E-2,-3.904089E-1],"categories":[],"categories_nodes":[],"categories_segments":[],"categories_sizes":[],"default_left":[0,0,0,0,0,0,0,0,0,0,0,0,0,0,0,0,0,0,0,0,0,0,0,0,0,0,0,0,0,0,0,0,0,0,0,0,0,0,0,0,0,0,0,0,0,0,0,0,0,0,0,0,0,0,0,0,0,0,0,0,0,0,0,0,0,0,0,0,0,0,0,0,0,0,0,0,0,0,0,0,0,0,0,0,0,0,0,0,0,0,0,0,0,0,0,0,0,0,0,0,0,0,0,0,0,0,0,0,0,0,0,0,0,0,0,0,0,0,0,0,0],"id":3,"left_children":[1,3,5,7,9,11,13,15,17,19,21,23,25,27,29,31,33,35,37,39,41,43,45,47,49,51,53,55,57,59,61,63,65,67,69,71,-1,73,75,77,79,81,83,85,87,89,91,93,95,97,99,101,103,105,107,109,111,-1,113,115,117,-1,119,-1,-1,-1,-1,-1,-1,-1,-1,-1,-1,-1,-1,-1,-1,-1,-1,-1,-1,-1,-1,-1,-1,-1,-1,-1,-1,-1,-1,-1,-1,-1,-1,-1,-1,-1,-1,-1,-1,-1,-1,-1,-1,-1,-1,-1,-1,-1,-1,-1,-1,-1,-1,-1,-1,-1,-1,-1,-1],"loss_changes":[1.9194912E4,1.8486411E3,5.1523184E3,3.0291064E2,6.3216785E2,1.1827964E3,1.2607275E3,3.294624E2,4.2592822E2,2.7185522E2,4.9382983E2,6.222114E2,1.1284985E3,4.4768994E2,5.4484375E2,1.3803741E2,8.9721436E1,2.4856519E2,1.3850098E2,1.4291269E2,2.0603845E2,4.9284912E2,4.911704E2,8.3609424E2,6.7890656E2,1.4256592E3,6.83114E2,4.6261523E2,3.2644473E2,3.577168E2,2.2094074E1,1.3078516E2,9.342709E1,6.0709137E1,2.3885742E1,1.6131787E2,0E0,1.2886182E2,9.163648E1,7.58756E1,2.2026031E1,1.9012714E2,2.3378445E2,4.7981677E2,4.3138208E2,2.2419717E2,2.157992E2,3.0949194E2,1.8571034E2,9.3436914E2,8.35095E2,5.175337E2,7.919282E2,1.5084155E2,6.913345E2,4.9777283E2,3.3453662E2,0E0,6.5358185E1,5.35522E2,2.2018993E2,0E0,9.654591E-1,0E0,0E0,0E0,0E0,0E0,0E0,0E0,0E0,0E0,0E0,0E0,0E0,0E0,0E0,0E0,0E0,0E0,0E0,0E0,0E0,0E0,0E0,0E0,0E0,0E0,0E0,0E0,0E0,0E0,0E0,0E0,0E0,0E0,0E0,0E0,0E0,0E0,0E0,0E0,0E0,0E0,0E0,0E0,0E0,0E0,0E0,0E0,0E0,0E0,0E0,0E0,0E0,0E0,0E0,0E0,0E0,0E0,0E0],"parents":[2147483647,0,0,1,1,2,2,3,3,4,4,5,5,6,6,7,7,8,8,9,9,10,10,11,11,12,12,13,13,14,14,15,15,16,16,17,17,18,18,19,19,20,20,21,21,22,22,23,23,24,24,25,25,26,26,27,27,28,28,29,29,30,30,31,31,32,32,33,33,34,34,35,35,37,37,38,38,39,39,40,40,41,41,42,42,43,43,44,44,45,45,46,46,47,47,48,48,49,49,50,50,51,51,52,52,53,53,54,54,55,55,56,56,58,58,59,59,60,60,62,62],"right_children":[2,4,6,8,10,12,14,16,18,20,22,24,26,28,30,32,34,36,38,40,42,44,46,48,50,52,54,56,58,60,62,64,66,68,70,72,-1,74,76,78,80,82,84,86,88,90,92,94,96,98,100,102,104,106,108,110,112,-1,114,116,118,-1,120,-1,-1,-1,-1,-1,-1,-1,-1,-1,-1,-1,-1,-1,-1,-1,-1,-1,-1,-1,-1,-1,-1,-1,-1,-1,-1,-1,-1,-1,-1,-1,-1,-1,-1,-1,-1,-1,-1,-1,-1,-1,-1,-1,-1,-1,-1,-1,-1,-1,-1,-1,-1,-1,-1,-1,-1,-1,-1],"split_conditions":[2.5E1,1.4E1,4.8E1,2.32775E0,1.2397806E1,3.6E1,6.5E1,2E-1,2.5004388E2,4.69056E1,1.802775E1,1.1874544E1,8E-1,8.3E0,2.3233252E1,-4.3097506E0,2.3893261E1,2.9E1,1.6777754E1,3.3011578E1,1.1235832E0,2.1E0,4.7E0,8.309001E0,2.1309355E2,2.4333945E2,7.65607E1,3.9E1,1.03E1,2.2789922E2,6.8E1,1.5158522E1,2.4766848E1,2.3143827E1,7E0,9.969108E1,2.4444373E0,1.0473583E1,3E-1,-1.3430834E0,-3.8805838E0,1.5666667E1,1.1788281E1,1.8000002E0,2.5965002E0,2.0176065E1,1.8E1,1.5375871E2,9.4E0,8.789841E1,1.1098582E1,4.75E1,5.673333E-1,1.0464797E1,8.000001E-1,2.8333334E1,4.433002E1,-1.6456333E0,4.6666668E1,7.65607E1,5.7666668E1,1.0436449E0,6.9E1,2.0005974E-1,-1.4632369E0,1.4773299E-1,-1.3639221E0,-1.0437058E0,2.711968E-1,-1.8944122E-1,-1.9152222E0,-1.4511837E0,-8.2062215E-1,-1.4276273E0,-2.026832E0,-1.2621989E0,1.1156187E-1,8.901342E-1,-6.421597E-1,-3.4247935E-1,-2.316006E0,2.7734532E0,6.9707E-1,-2.208588E-1,9.08184E-1,-4.8130816E-1,1.7330427E0,-1.8461928E0,-7.469596E-1,-2.5555834E-1,1.2197038E0,-1.2654114E-2,3.6682296E0,1.1644781E0,3.2028584E0,-1.0238433E-1,2.8987508E0,-3.2738644E-1,1.1493012E0,3.4481007E-1,-9.693704E-1,2.5454278E0,3.5999235E-2,-1.0341271E0,1.2821978E0,7.899428E-1,-2.5038295E0,-2.4410157E0,9.0111226E-1,-3.389786E-1,6.8244905E0,1.5685645E-1,2.3197508E0,2.3351488E0,3.436103E-1,2.1581225E0,5.9266205E0,1.2376499E-2,3.6512694E0,-1.4270783E-2,-3.904089E-1],"split_indices":[0,0,0,3,5,0,0,4,6,6,3,5,4,4,5,3,5,1,3,6,3,4,4,3,6,6,6,1,4,6,1,5,5,5,0,6,0,3,4,3,3,2,5,4,3,5,0,6,4,6,3,1,3,5,4,2,6,0,2,6,2,0,0,0,0,0,0,0,0,0,0,0,0,0,0,0,0,0,0,0,0,0,0,0,0,0,0,0,0,0,0,0,0,0,0,0,0,0,0,0,0,0,0,0,0,0,0,0,0,0,0,0,0,0,0,0,0,0,0,0,0],"split_type":[0,0,0,0,0,0,0,0,0,0,0,0,0,0,0,0,0,0,0,0,0,0,0,0,0,0,0,0,0,0,0,0,0,0,0,0,0,0,0,0,0,0,0,0,0,0,0,0,0,0,0,0,0,0,0,0,0,0,0,0,0,0,0,0,0,0,0,0,0,0,0,0,0,0,0,0,0,0,0,0,0,0,0,0,0,0,0,0,0,0,0,0,0,0,0,0,0,0,0,0,0,0,0,0,0,0,0,0,0,0,0,0,0,0,0,0,0,0,0,0,0],"sum_hessian":[2.298E3,1.416E3,8.82E2,5.17E2,8.99E2,7.2E2,1.62E2,1.3E2,3.87E2,1.23E2,7.76E2,4.53E2,2.67E2,1.29E2,3.3E1,6.6E1,6.4E1,2.06E2,1.81E2,1.8E1,1.05E2,7.02E2,7.4E1,5.7E1,3.96E2,1.68E2,9.9E1,1.19E2,1E1,3E1,3E0,1.8E1,4.8E1,4.8E1,1.6E1,2.05E2,1E0,1.64E2,1.7E1,1.3E1,5E0,3E1,7.5E1,5.28E2,1.74E2,6.8E1,6E0,3.1E1,2.6E1,1.9E2,2.06E2,1.1E2,5.8E1,8E0,9.1E1,4E0,1.15E2,4E0,6E0,2.5E1,5E0,1E0,2E0,6E0,1.2E1,4.5E1,3E0,4.5E1,3E0,1E0,1.5E1,5.1E1,1.54E2,9.7E1,6.7E1,1E1,7E0,3E0,1E1,1E0,4E0,4E0,2.6E1,5.2E1,2.3E1,5.2E2,8E0,4.3E1,1.31E2,5.8E1,1E1,2E0,4E0,1.3E1,1.8E1,2.5E1,1E0,5.3E1,1.37E2,1.45E2,6.1E1,1.02E2,8E0,1.9E1,3.9E1,1E0,7E0,5E0,8.6E1,1E0,3E0,7E0,1.08E2,3E0,3E0,6E0,1.9E1,3E0,2E0,1E0,1E0],"tree_param":{"num_deleted":"0","num_feature":"7","num_nodes":"121","size_leaf_vector":"1"}},{"base_weights":[3.599025E-2,-1.6886377E0,2.4911392E0,-2.3141625E0,-7.183089E-1,1.6185805E0,6.0380445E0,-1.9248227E0,-3.2768364E0,1.5270416E-1,-1.6687945E0,2.117691E0,-1.1552924E0,5.532021E0,1.6668816E1,-3.294765E0,-1.5984397E0,-2.373021E0,-4.1680946E0,1.35055E0,-1.0207386E0,1.0024911E0,-2.143384E0,2.5855954E0,-8.068456E-1,-2.0593376E0,-6.732944E-1,6.3896303E0,2.7360091E0,-2.1905881E-1,5.7776113E0,-2.9297607E0,-2.3020797E0,-7.097135E-1,-2.3033888E0,-2.0441275E0,-6.6809006E0,-3.2348363E0,-5.5382357E0,-1.1351644E0,3.515697E0,-3.4740884E0,-5.379841E-1,-2.2256293E0,2.350168E0,-2.617387E0,1.4582403E-1,-1.1315138E0,2.9376595E0,3.7979178E0,-2.4442706E0,8.356624E0,-1.0968782E0,1.666837E1,5.7079415E0,1.3126597E0,8.125405E0,-9.2711395E-1,-7.188361E-2,-7.430554E-1,-3.1526987E-2,-3.1987798E-1,-9.959598E-1,7.960307E-2,-7.2119933E-1,-5.3221896E-2,-2.2753882E0,-7.4961996E-1,-1.438266E0,-1.757916E0,3.0688345E-1,-4.960877E-1,1.2715927E0,5.8727896E-1,2.376887E0,-7.077444E-1,-1.8719686E0,2.158508E-1,-4.378902E-1,4.9229252E-1,-1.1090484E0,1.2316482E0,9.047781E-2,-2.8713614E-1,-8.916884E-1,-5.0572103E-1,5.126368E-1,2.6516417E-1,-1.8699402E0,1.1286916E0,4.1352597E-1,7.6269335E-1,3.521919E0,-9.685572E-1,1.8201169E0,4.015908E0,1.6240425E-1,2.1050525E-1,-1.1119417E0,-2.8813192E-1,5.797193E0,9.759241E-1,2.190843E0,8.83056E-1,-1.759279E0,-3.6995888E-2,2.7515736E0],"categories":[],"categories_nodes":[],"categories_segments":[],"categories_sizes":[],"default_left":[0,0,0,0,0,0,0,0,0,0,0,0,0,0,0,0,0,0,0,0,0,0,0,0,0,0,0,0,0,0,0,0,0,0,0,0,0,0,0,0,0,0,0,0,0,0,0,0,0,0,0,0,0,0,0,0,0,0,0,0,0,0,0,0,0,0,0,0,0,0,0,0,0,0,0,0,0,0,0,0,0,0,0,0,0,0,0,0,0,0,0,0,0,0,0,0,0,0,0,0,0,0,0,0,0,0,0],"id":4,"left_children":[1,3,5,7,9,11,13,15,17,19,21,23,25,27,29,31,33,35,37,39,41,43,45,47,49,-1,51,53,55,-1,-1,57,-1,59,61,63,65,67,69,71,73,75,77,79,81,83,85,87,89,91,93,95,97,99,101,103,105,-1,-1,-1,-1,-1,-1,-1,-1,-1,-1,-1,-1,-1,-1,-1,-1,-1,-1,-1,-1,-1,-1,-1,-1,-1,-1,-1,-1,-1,-1,-1,-1,-1,-1,-1,-1,-1,-1,-1,-1,-1,-1,-1,-1,-1,-1,-1,-1,-1,-1],"loss_changes":[9.738676E3,8.183474E2,2.9272705E3,3.0140918E2,4.3986194E2,1.0587966E3,9.1373975E2,2.5719653E2,1.7940942E2,3.9213632E2,3.241609E2,8.874431E2,3.1733954E2,4.141377E2,3.745542E2,1.5652686E2,2.9658252E2,1.5494647E2,1.3169214E2,7.4669836E2,1.6512657E2,1.7489868E2,2.3476147E2,7.335571E2,6.878791E2,0E0,4.260832E2,8.648032E2,3.2685785E2,0E0,0E0,4.4628845E1,0E0,2.2625175E2,3.2970117E2,9.37222E1,4.5673523E1,7.066693E1,1.0302283E2,1.881063E2,4.9264465E2,5.62045E1,1.3896674E2,7.432892E1,9.9447495E1,1.0262927E2,1.1166186E2,5.093164E2,6.5058203E2,2.0947702E2,4.6681497E2,1.8929718E2,4.954201E2,3.9308105E2,4.852168E2,4.386256E2,7.882208E1,0E0,0E0,0E0,0E0,0E0,0E0,0E0,0E0,0E0,0E0,0E0,0E0,0E0,0E0,0E0,0E0,0E0,0E0,0E0,0E0,0E0,0E0,0E0,0E0,0E0,0E0,0E0,0E0,0E0,0E0,0E0,0E0,0E0,0E0,0E0,0E0,0E0,0E0,0E0,0E0,0E0,0E0,0E0,0E0,0E0,0E0,0E0,0E0,0E0,0E0],"parents":[2147483647,0,0,1,1,2,2,3,3,4,4,5,5,6,6,7,7,8,8,9,9,10,10,11,11,12,12,13,13,14,14,15,15,16,16,17,17,18,18,19,19,20,20,21,21,22,22,23,23,24,24,26,26,27,27,28,28,31,31,33,33,34,34,35,35,36,36,37,37,38,38,39,39,40,40,41,41,42,42,43,43,44,44,45,45,46,46,47,47,48,48,49,49,50,50,51,51,52,52,53,53,54,54,55,55,56,56],"right_children":[2,4,6,8,10,12,14,16,18,20,22,24,26,28,30,32,34,36,38,40,42,44,46,48,50,-1,52,54,56,-1,-1,58,-1,60,62,64,66,68,70,72,74,76,78,80,82,84,86,88,90,92,94,96,98,100,102,104,106,-1,-1,-1,-1,-1,-1,-1,-1,-1,-1,-1,-1,-1,-1,-1,-1,-1,-1,-1,-1,-1,-1,-1,-1,-1,-1,-1,-1,-1,-1,-1,-1,-1,-1,-1,-1,-1,-1,-1,-1,-1,-1,-1,-1,-1,-1,-1,-1,-1,-1],"split_conditions":[2.4E1,1.7E1,4.6E1,2.8303546E2,2E1,2.34E1,8E1,8.633059E1,5.7798333E0,2.0937096E2,-5.349994E-2,2.9490472E2,1.3663646E2,2.1000001E0,2.3819168E0,2.440046E1,2.2117912E2,3.6000001E0,1.8335276E1,1.2226437E2,1.4666667E1,-3.4410002E0,1.70465E1,4.8477856E1,1.337825E1,-2.0593376E0,1.567567E2,3.9E1,5.1666668E1,-2.1905881E-1,5.7776113E0,1.70465E1,-2.3020797E0,1.15E1,6.3881664E0,1.4319901E1,-4.0826674E0,1.5333333E1,2.1E1,1.8709002E1,2.1E1,2.2392464E1,4.719416E0,2.870977E2,1.5617529E1,1.337825E1,2.0138286E2,1.8171976E1,8E-1,4.4E1,2.2007162E1,3.5E1,1.4E0,2.8333334E1,5.2E1,5.4E1,5E1,-9.2711395E-1,-7.188361E-2,-7.430554E-1,-3.1526987E-2,-3.1987798E-1,-9.959598E-1,7.960307E-2,-7.2119933E-1,-5.3221896E-2,-2.2753882E0,-7.4961996E-1,-1.438266E0,-1.757916E0,3.0688345E-1,-4.960877E-1,1.2715927E0,5.8727896E-1,2.376887E0,-7.077444E-1,-1.8719686E0,2.158508E-1,-4.378902E-1,4.9229252E-1,-1.1090484E0,1.2316482E0,9.047781E-2,-2.8713614E-1,-8.916884E-1,-5.0572103E-1,5.126368E-1,2.6516417E-1,-1.8699402E0,1.1286916E0,4.1352597E-1,7.6269335E-1,3.521919E0,-9.685572E-1,1.8201169E0,4.015908E0,1.6240425E-1,2.1050525E-1,-1.1119417E0,-2.8813192E-1,5.797193E0,9.759241E-1,2.190843E0,8.83056E-1,-1.759279E0,-3.6995888E-2,2.7515736E0],"split_indices":[0,0,0,6,1,5,0,6,3,6,3,6,6,4,3,5,6,4,5,6,2,3,3,6,5,0,6,1,2,0,0,3,0,1,3,5,3,2,1,3,0,5,3,6,5,5,6,5,4,1,5,0,4,2,0,1,0,0,0,0,0,0,0,0,0,0,0,0,0,0,0,0,0,0,0,0,0,0,0,0,0,0,0,0,0,0,0,0,0,0,0,0,0,0,0,0,0,0,0,0,0,0,0,0,0,0,0],"split_type":[0,0,0,0,0,0,0,0,0,0,0,0,0,0,0,0,0,0,0,0,0,0,0,0,0,0,0,0,0,0,0,0,0,0,0,0,0,0,0,0,0,0,0,0,0,0,0,0,0,0,0,0,0,0,0,0,0,0,0,0,0,0,0,0,0,0,0,0,0,0,0,0,0,0,0,0,0,0,0,0,0,0,0,0,0,0,0,0,0,0,0,0,0,0,0,0,0,0,0,0,0,0,0,0,0,0,0],"sum_hessian":[2.298E3,1.35E3,9.48E2,8.2E2,5.3E2,7.62E2,1.86E2,5.86E2,2.34E2,2.77E2,2.53E2,6.46E2,1.16E2,1.79E2,7E0,1.11E2,4.75E2,1.18E2,1.16E2,1.37E2,1.4E2,3.8E1,2.15E2,5.57E2,8.9E1,8E0,1.08E2,1.36E2,4.3E1,1E0,6E0,1.04E2,7E0,2.11E2,2.64E2,1.11E2,7E0,7.1E1,4.5E1,6.4E1,7.3E1,2.2E1,1.18E2,1.1E1,2.7E1,1.78E2,3.7E1,4.8E1,5.09E2,2.3E1,6.6E1,4E0,1.04E2,7E0,1.29E2,3.5E1,8E0,9.8E1,6E0,5.3E1,1.58E2,1.2E2,1.44E2,1.5E1,9.6E1,1E0,6E0,5E1,2.1E1,4.3E1,2E0,5.9E1,5E0,5.5E1,1.8E1,1.7E1,5E0,5E1,6.8E1,3E0,8E0,1.4E1,1.3E1,3.2E1,1.46E2,1.7E1,2E1,3.5E1,1.3E1,3.32E2,1.77E2,2.1E1,2E0,6.1E1,5E0,2E0,2E0,6.2E1,4.2E1,1E0,6E0,5.2E1,7.7E1,2.9E1,6E0,1E0,7E0],"tree_param":{"num_deleted":"0","num_feature":"7","num_nodes":"107","size_leaf_vector":"1"}},{"base_weights":[2.9906066E-2,-7.504408E-1,2.8974614E0,-1.4565835E0,2.5219008E-1,4.3391256E0,1.3406469E0,-1.0665511E0,-2.185136E0,7.816044E-1,-8.379201E-1,-1.9685216E0,5.094718E0,9.99156E0,9.5702344E-1,-2.1559455E0,-7.71839E-1,-1.5010325E0,-3.0792286E0,-8.517815E-1,1.1729808E0,4.3930796E-1,-2.545075E0,2.976385E0,-3.1729095E0,5.3585453E0,-7.7437043E0,1.2753208E1,-7.0335454E-1,-4.9628634E0,1.3362892E0,-1.5872147E0,-3.5876102E0,-1.6504085E0,-3.3643597E-1,-1.0525836E0,-3.1791778E0,2.4956098E0,-3.2024345E0,-1.7233039E0,4.0855293E0,4.6132693E0,7.95849E-1,1.2401327E0,-2.9878829E0,-2.7235153E0,2.4019096E0,5.61388E0,-1.5324033E0,-4.8647623E0,1.3891485E0,6.7278594E-1,5.9704494E0,-2.9982743E0,1.8877031E-1,1.3079419E0,4.4473124E0,6.766548E-1,-9.9316436E-1,-2.3442354E0,-3.2770123E0,2.2413964E0,-1.4205405E0,-5.3137493E-1,1.6149241E0,-1.2740763E0,2.8985736E-1,-5.7107747E-1,5.303771E-1,9.4668984E-1,-1.5767539E-1,-3.9816388E-1,4.918042E-1,1.2462387E-1,-1.127303E0,-3.200426E-1,1.9774299E0,-1.0025495E0,2.518376E-1,2.9176146E-1,-9.265775E-1,1.460973E0,-1.0343691E0,4.569949E-1,3.0728836E0,6.638785E-1,-1.6248934E-2,4.7025E-1,-1.4904873E0,-1.1201879E0,1.2676146E0,8.6216944E-1,-8.928453E-1,2.213546E0,7.698547E-1,-9.8824315E-2,-5.907572E-1,-1.9355776E0,7.0444226E-2,-3.3175308E-1,1.061056E0,-1.5308613E0,7.6979023E-1,1.6012669E0,2.934326E0,-2.1330562E0,9.9530846E-2,-5.1571947E-2,1.5018766E0,-8.870317E-1,1.4560578E0],"categories":[],"categories_nodes":[],"categories_segments":[],"categories_sizes":[],"default_left":[0,0,0,0,0,0,0,0,0,0,0,0,0,0,0,0,0,0,0,0,0,0,0,0,0,0,0,0,0,0,0,0,0,0,0,0,0,0,0,0,0,0,0,0,0,0,0,0,0,0,0,0,0,0,0,0,0,0,0,0,0,0,0,0,0,0,0,0,0,0,0,0,0,0,0,0,0,0,0,0,0,0,0,0,0,0,0,0,0,0,0,0,0,0,0,0,0,0,0,0,0,0,0,0,0,0,0,0,0,0,0],"id":5,"left_children":[1,3,5,7,9,11,13,15,17,19,21,23,25,27,29,31,33,35,37,39,41,43,45,47,49,51,53,55,57,59,61,63,65,67,69,71,73,75,77,79,81,83,85,87,89,91,-1,93,95,97,99,101,103,-1,-1,-1,-1,-1,-1,105,-1,107,109,-1,-1,-1,-1,-1,-1,-1,-1,-1,-1,-1,-1,-1,-1,-1,-1,-1,-1,-1,-1,-1,-1,-1,-1,-1,-1,-1,-1,-1,-1,-1,-1,-1,-1,-1,-1,-1,-1,-1,-1,-1,-1,-1,-1,-1,-1,-1,-1],"loss_changes":[5.1466187E3,1.2804324E3,1.0984297E3,2.9916235E2,4.3234067E2,1.2253608E3,7.80287E2,2.2082904E2,2.2107751E2,3.2319058E2,5.353224E2,1.762002E2,8.1376074E2,3.0432587E2,5.207849E2,1.139978E2,2.0868967E2,1.5544437E2,1.1720154E2,4.2873236E2,5.243875E2,3.9069107E2,2.1949982E2,7.995416E1,1.842795E2,6.3824365E2,1.0050702E2,7.444165E1,3.0610039E1,1.9291006E2,5.4215295E2,1.4679202E2,1.2720056E2,1.6001422E2,2.4406938E2,1.263754E2,9.3057465E1,6.539594E1,9.069995E1,3.1217416E2,1.05427E2,6.802141E2,4.4338858E2,2.4151784E2,1.610819E2,1.5562006E2,0E0,2.5774155E0,9.2767143E-1,1.391106E2,4.1420753E1,3.0832166E2,4.2531445E2,0E0,0E0,0E0,0E0,0E0,0E0,1.4264973E2,0E0,1.0884686E3,5.348254E2,0E0,0E0,0E0,0E0,0E0,0E0,0E0,0E0,0E0,0E0,0E0,0E0,0E0,0E0,0E0,0E0,0E0,0E0,0E0,0E0,0E0,0E0,0E0,0E0,0E0,0E0,0E0,0E0,0E0,0E0,0E0,0E0,0E0,0E0,0E0,0E0,0E0,0E0,0E0,0E0,0E0,0E0,0E0,0E0,0E0,0E0,0E0,0E0],"parents":[2147483647,0,0,1,1,2,2,3,3,4,4,5,5,6,6,7,7,8,8,9,9,10,10,11,11,12,12,13,13,14,14,15,15,16,16,17,17,18,18,19,19,20,20,21,21,22,22,23,23,24,24,25,25,26,26,27,27,28,28,29,29,30,30,31,31,32,32,33,33,34,34,35,35,36,36,37,37,38,38,39,39,40,40,41,41,42,42,43,43,44,44,45,45,47,47,48,48,49,49,50,50,51,51,52,52,59,59,61,61,62,62],"right_children":[2,4,6,8,10,12,14,16,18,20,22,24,26,28,30,32,34,36,38,40,42,44,46,48,50,52,54,56,58,60,62,64,66,68,70,72,74,76,78,80,82,84,86,88,90,92,-1,94,96,98,100,102,104,-1,-1,-1,-1,-1,-1,106,-1,108,110,-1,-1,-1,-1,-1,-1,-1,-1,-1,-1,-1,-1,-1,-1,-1,-1,-1,-1,-1,-1,-1,-1,-1,-1,-1,-1,-1,-1,-1,-1,-1,-1,-1,-1,-1,-1,-1,-1,-1,-1,-1,-1,-1,-1,-1,-1,-1,-1],"split_conditions":[3.4E1,2E1,2.0037648E2,2.642364E2,9.000001E-1,4.69056E1,9.659814E0,8.633059E1,6.636083E0,1.2226437E2,2.1597514E2,1.0636766E1,1.5E1,3.3195828E2,2.083468E2,1.9222954E1,1.3666667E1,8.000001E-1,9.346143E0,1.8265251E1,1.6321188E2,2.3664352E1,2.31E1,4.3E1,5.2E1,1.1235832E0,4.8E1,3.7E1,3.6E1,2.6000001E0,1.1431916E1,2.6333334E1,1.464025E1,7.4000006E0,1.4E1,2.6574244E1,1.5315873E1,1.7E1,1.24E1,1.3009903E1,2.1322214E1,1.5375871E2,2.859E0,1.5E1,1.3706914E1,-3.64725E0,2.4019096E0,-3.389167E-1,4.5E1,1.5013167E1,4.719416E0,2.9666666E1,5.3333332E1,-2.9982743E0,1.8877031E-1,1.3079419E0,4.4473124E0,6.766548E-1,-9.9316436E-1,1.5137133E1,-3.2770123E0,4.073583E0,2.1E0,-5.3137493E-1,1.6149241E0,-1.2740763E0,2.8985736E-1,-5.7107747E-1,5.303771E-1,9.4668984E-1,-1.5767539E-1,-3.9816388E-1,4.918042E-1,1.2462387E-1,-1.127303E0,-3.200426E-1,1.9774299E0,-1.0025495E0,2.518376E-1,2.9176146E-1,-9.265775E-1,1.460973E0,-1.0343691E0,4.569949E-1,3.0728836E0,6.638785E-1,-1.6248934E-2,4.7025E-1,-1.4904873E0,-1.1201879E0,1.2676146E0,8.6216944E-1,-8.928453E-1,2.213546E0,7.698547E-1,-9.8824315E-2,-5.907572E-1,-1.9355776E0,7.0444226E-2,-3.3175308E-1,1.061056E0,-1.5308613E0,7.6979023E-1,1.6012669E0,2.934326E0,-2.1330562E0,9.9530846E-2,-5.1571947E-2,1.5018766E0,-8.870317E-1,1.4560578E0],"split_indices":[0,0,6,6,4,6,5,6,3,6,6,5,4,6,6,5,2,4,5,3,6,5,4,0,0,3,0,0,0,4,3,2,3,4,2,5,5,0,4,5,5,6,3,4,3,3,0,3,0,3,3,2,2,0,0,0,0,0,0,5,0,3,4,0,0,0,0,0,0,0,0,0,0,0,0,0,0,0,0,0,0,0,0,0,0,0,0,0,0,0,0,0,0,0,0,0,0,0,0,0,0,0,0,0,0,0,0,0,0,0,0],"split_type":[0,0,0,0,0,0,0,0,0,0,0,0,0,0,0,0,0,0,0,0,0,0,0,0,0,0,0,0,0,0,0,0,0,0,0,0,0,0,0,0,0,0,0,0,0,0,0,0,0,0,0,0,0,0,0,0,0,0,0,0,0,0,0,0,0,0,0,0,0,0,0,0,0,0,0,0,0,0,0,0,0,0,0,0,0,0,0,0,0,0,0,0,0,0,0,0,0,0,0,0,0,0,0,0,0,0,0,0,0,0,0],"sum_hessian":[2.298E3,1.807E3,4.91E2,1.06E3,7.47E2,2.54E2,2.37E2,6.92E2,3.68E2,5.03E2,2.44E2,2.7E1,2.27E2,9E0,2.28E2,1.46E2,5.46E2,2.1E2,1.58E2,9.7E1,4.06E2,1.4E2,1.04E2,5E0,2.2E1,2.23E2,4E0,7E0,2E0,1.3E1,2.15E2,1.06E2,4E1,1.8E2,3.66E2,1.67E2,4.3E1,3E0,1.55E2,8.3E1,1.4E1,3.9E1,3.67E2,1.14E2,2.6E1,1.03E2,1E0,3E0,2E0,1.6E1,6E0,2.6E1,1.97E2,3E0,1E0,2E0,5E0,1E0,1E0,1E1,3E0,1.62E2,5.3E1,1.04E2,2E0,3.5E1,5E0,1.68E2,1.2E1,1.8E1,3.48E2,1.52E2,1.5E1,6E0,3.7E1,2E0,1E0,1.5E2,5E0,2.8E1,5.5E1,1.3E1,1E0,2.6E1,1.3E1,1.37E2,2.3E2,1.09E2,5E0,2.4E1,2E0,4E0,9.9E1,1E0,2E0,1E0,1E0,1.2E1,4E0,3E0,3E0,6E0,2E1,1.71E2,2.6E1,3E0,7E0,8.7E1,7.5E1,4.3E1,1E1],"tree_param":{"num_deleted":"0","num_feature":"7","num_nodes":"111","size_leaf_vector":"1"}},{"base_weights":[2.5537714E-2,-6.9891304E-1,1.583568E0,8.57376E-1,-8.798174E-1,1.3183693E0,5.6882954E0,4.4678044E-1,4.9061728E0,-3.4171858E-1,-1.2590075E0,1.8508354E0,-3.3758807E-1,6.630887E0,-1.3865992E0,4.9724948E-2,5.4595976E0,7.9965425E0,3.0554438E0,-7.432362E-1,8.8751376E-1,-1.6291684E-2,-1.4956918E0,2.706155E0,1.9226566E-1,-1.5704066E0,3.6466913E0,5.313573E0,3.897156E0,7.983875E-1,-1.1513146E0,2.652061E0,-9.813955E-1,5.5164707E-1,1.123881E1,5.684E-1,2.7145035E0,-8.935108E-1,4.64799E0,-8.870239E-1,4.047872E0,4.0891757E0,-1.3926512E-1,-7.775027E-1,2.740379E0,-1.3640578E0,-3.4062915E0,1.2240574E1,2.471091E0,1.7765176E0,-2.39662E0,-2.7066164E0,1.0253258E0,1.0344199E1,1.3685696E0,-1.0574036E0,6.1982837E0,-5.7255936E-1,7.010613E-1,1.4281789E0,-3.5386145E-1,-3.9333007E-1,1.6833463E0,-1.0839615E0,8.820687E-1,4.877712E0,7.4169314E-1,-4.6595347E-1,1.6282368E-1,2.8353501E-2,1.8450196E0,-2.1448351E-1,-1.2090496E0,1.6110269E0,-1.7728106E0,6.200809E-1,3.1967602E0,1.328826E-1,-1.0762248E0,2.999458E-1,-5.0413406E-1,2.5488594E0,2.608384E-1,-3.337087E-1,-7.300252E-1,-1.2847047E0,5.508179E-1,7.0351195E0,2.4737962E-1,1.0530988E0,2.9732516E-1,-5.491732E-1,1.3072182E0,-3.0237773E-1,-1.4234573E0,-1.4577575E0,-2.895754E-1,7.875927E-1,-8.780233E-1,-4.092867E-1,4.0325575E0,1.1931188E0,-6.248887E-1,2.8204423E-1,-1.3571411E0,2.4078674E0,5.21934E-1],"categories":[],"categories_nodes":[],"categories_segments":[],"categories_sizes":[],"default_left":[0,0,0,0,0,0,0,0,0,0,0,0,0,0,0,0,0,0,0,0,0,0,0,0,0,0,0,0,0,0,0,0,0,0,0,0,0,0,0,0,0,0,0,0,0,0,0,0,0,0,0,0,0,0,0,0,0,0,0,0,0,0,0,0,0,0,0,0,0,0,0,0,0,0,0,0,0,0,0,0,0,0,0,0,0,0,0,0,0,0,0,0,0,0,0,0,0,0,0,0,0,0,0,0,0,0,0],"id":6,"left_children":[1,3,5,7,9,11,13,15,17,19,21,23,25,27,29,31,33,35,37,39,41,43,45,47,49,51,53,55,-1,57,-1,59,61,63,65,-1,-1,67,69,71,73,75,77,79,81,83,85,87,89,91,93,95,97,99,101,103,105,-1,-1,-1,-1,-1,-1,-1,-1,-1,-1,-1,-1,-1,-1,-1,-1,-1,-1,-1,-1,-1,-1,-1,-1,-1,-1,-1,-1,-1,-1,-1,-1,-1,-1,-1,-1,-1,-1,-1,-1,-1,-1,-1,-1,-1,-1,-1,-1,-1,-1],"loss_changes":[2.5960254E3,4.4277142E2,7.871561E2,2.7044458E2,2.866565E2,6.063811E2,3.0261853E2,2.982835E2,6.135855E1,2.8840417E2,2.4263403E2,7.371555E2,8.309248E2,2.5770166E2,3.5197918E1,3.782678E2,3.0580505E2,1.4946259E1,7.333088E1,3.067078E2,4.739549E2,2.8121893E2,1.6964294E2,7.384834E2,7.343152E2,3.832344E2,5.961528E2,1.9819409E2,0E0,2.1118189E1,0E0,3.2877777E2,2.2688983E2,8.026028E1,1.7985187E2,0E0,0E0,4.6327868E0,5.4136047E1,2.2861026E2,2.0288713E2,4.427547E2,2.2241815E2,1.7018651E2,3.049041E2,1.7224255E2,2.0993698E2,1.00443164E3,5.133159E2,1.041327E3,2.1696445E2,3.3266742E2,2.6061343E2,3.8102747E2,2.873863E2,3.8874596E1,2.3053235E2,0E0,0E0,0E0,0E0,0E0,0E0,0E0,0E0,0E0,0E0,0E0,0E0,0E0,0E0,0E0,0E0,0E0,0E0,0E0,0E0,0E0,0E0,0E0,0E0,0E0,0E0,0E0,0E0,0E0,0E0,0E0,0E0,0E0,0E0,0E0,0E0,0E0,0E0,0E0,0E0,0E0,0E0,0E0,0E0,0E0,0E0,0E0,0E0,0E0,0E0],"parents":[2147483647,0,0,1,1,2,2,3,3,4,4,5,5,6,6,7,7,8,8,9,9,10,10,11,11,12,12,13,13,14,14,15,15,16,16,17,17,18,18,19,19,20,20,21,21,22,22,23,23,24,24,25,25,26,26,27,27,29,29,31,31,32,32,33,33,34,34,37,37,38,38,39,39,40,40,41,41,42,42,43,43,44,44,45,45,46,46,47,47,48,48,49,49,50,50,51,51,52,52,53,53,54,54,55,55,56,56],"right_children":[2,4,6,8,10,12,14,16,18,20,22,24,26,28,30,32,34,36,38,40,42,44,46,48,50,52,54,56,-1,58,-1,60,62,64,66,-1,-1,68,70,72,74,76,78,80,82,84,86,88,90,92,94,96,98,100,102,104,106,-1,-1,-1,-1,-1,-1,-1,-1,-1,-1,-1,-1,-1,-1,-1,-1,-1,-1,-1,-1,-1,-1,-1,-1,-1,-1,-1,-1,-1,-1,-1,-1,-1,-1,-1,-1,-1,-1,-1,-1,-1,-1,-1,-1,-1,-1,-1,-1,-1,-1],"split_conditions":[2.75E1,1.191812E1,6.3E1,2.5666666E1,2.2033714E2,1.8000002E0,7.8E1,1.1788281E1,2.6666666E1,1.9460176E2,-6.6391665E-1,1.1431916E1,1.5013167E1,8E1,1.872346E1,2.1923335E0,1.8E1,1.5E1,2E1,2.9333334E1,2.0037648E2,2.3E1,2.8E1,2.4E1,2.0730902E2,4.2E1,1.4617523E2,7.65607E1,3.897156E0,7.2E1,-1.1513146E0,2.1666666E1,1.0900001E1,1.1874544E1,2.2333334E1,5.684E-1,2.7145035E0,1.8E1,2.7666666E1,2.6574244E1,1.547223E2,1.964228E1,2.431666E1,1.5646544E1,1.8333334E1,3.194609E2,2.8E1,1.9543051E2,3.9E1,1.3849477E1,3.8E1,1.8171976E1,8.3E0,2.8E1,1.48257065E1,6.6E1,6.5E1,-5.7255936E-1,7.010613E-1,1.4281789E0,-3.5386145E-1,-3.9333007E-1,1.6833463E0,-1.0839615E0,8.820687E-1,4.877712E0,7.4169314E-1,-4.6595347E-1,1.6282368E-1,2.8353501E-2,1.8450196E0,-2.1448351E-1,-1.2090496E0,1.6110269E0,-1.7728106E0,6.200809E-1,3.1967602E0,1.328826E-1,-1.0762248E0,2.999458E-1,-5.0413406E-1,2.5488594E0,2.608384E-1,-3.337087E-1,-7.300252E-1,-1.2847047E0,5.508179E-1,7.0351195E0,2.4737962E-1,1.0530988E0,2.9732516E-1,-5.491732E-1,1.3072182E0,-3.0237773E-1,-1.4234573E0,-1.4577575E0,-2.895754E-1,7.875927E-1,-8.780233E-1,-4.092867E-1,4.0325575E0,1.1931188E0,-6.248887E-1,2.8204423E-1,-1.3571411E0,2.4078674E0,5.21934E-1],"split_indices":[1,5,0,2,6,4,2,5,2,6,3,3,3,0,5,3,0,0,0,2,6,0,0,2,6,0,6,6,0,0,0,2,4,5,2,0,0,0,2,5,6,5,5,5,2,6,2,6,1,5,0,5,4,0,5,0,1,0,0,0,0,0,0,0,0,0,0,0,0,0,0,0,0,0,0,0,0,0,0,0,0,0,0,0,0,0,0,0,0,0,0,0,0,0,0,0,0,0,0,0,0,0,0,0,0,0,0],"split_type":[0,0,0,0,0,0,0,0,0,0,0,0,0,0,0,0,0,0,0,0,0,0,0,0,0,0,0,0,0,0,0,0,0,0,0,0,0,0,0,0,0,0,0,0,0,0,0,0,0,0,0,0,0,0,0,0,0,0,0,0,0,0,0,0,0,0,0,0,0,0,0,0,0,0,0,0,0,0,0,0,0,0,0,0,0,0,0,0,0,0,0,0,0,0,0,0,0,0,0,0,0,0,0,0,0,0,0],"sum_hessian":[2.298E3,1.569E3,7.29E2,1.63E2,1.406E3,6.86E2,4.3E1,1.49E2,1.4E1,5.82E2,8.24E2,5.19E2,1.67E2,3.8E1,5E0,1.39E2,1E1,4E0,1E1,4.39E2,1.43E2,1.32E2,6.92E2,3.42E2,1.77E2,1.28E2,3.9E1,3.3E1,5E0,3E0,2E0,3.9E1,1E2,6E0,4E0,1E0,3E0,3E0,7E0,4.27E2,1.2E1,3.4E1,1.09E2,1.04E2,2.8E1,6.49E2,4.3E1,7E0,3.35E2,1.1E2,6.7E1,8.9E1,3.9E1,9E0,3E1,4E0,2.9E1,1E0,2E0,2.5E1,1.4E1,9.6E1,4E0,2E0,4E0,2E0,2E0,2E0,1E0,2E0,5E0,4.06E2,2.1E1,1.1E1,1E0,2.7E1,7E0,9.4E1,1.5E1,3.5E1,6.9E1,6E0,2.2E1,5.27E2,1.22E2,3.7E1,6E0,3E0,4E0,1.96E2,1.39E2,4.6E1,6.4E1,4.3E1,2.4E1,3.9E1,5E1,2.8E1,1.1E1,2E0,7E0,1.7E1,1.3E1,3E0,1E0,2E1,9E0],"tree_param":{"num_deleted":"0","num_feature":"7","num_nodes":"107","size_leaf_vector":"1"}},{"base_weights":[3.0698666E-2,-3.6961114E-1,1.7715094E0,-8.565203E-1,8.4012896E-2,2.0962188E0,-1.4468114E0,-8.948794E-1,3.5419638E0,1.766996E-1,-2.6354914E0,7.9262483E-1,2.7962177E0,3.2655787E-1,-5.6118865E0,-2.4042895E0,-7.951024E-1,1.4049149E-1,2.072494E0,6.465081E-2,3.3470607E0,-7.6535493E-1,-8.150232E0,3.8995051E0,-2.6058128E-1,5.0630407E0,1.5640281E0,-4.0292612E-1,3.1128166E0,-3.6702864E0,-7.714001E-1,-3.0115445E0,-7.358835E-1,-4.3843102E-1,-1.2350327E0,-9.8657084E-1,6.9731116E-1,2.8945515E-2,5.4215717E0,-7.8278446E-1,7.0370874E0,2.091377E0,-3.1593142E0,-7.090371E-1,-3.1537373E0,-1.3868574E0,6.380207E0,2.2190068E0,-2.1159291E0,1.0132508E1,2.443923E0,-9.141383E0,2.1639311E0,-3.215043E0,1.9071019E0,2.3894148E0,-1.3588706E0,2.54348E-1,-9.710942E-1,-2.5831155E-2,-1.0568682E0,-4.414653E-2,-5.1712596E-1,-2.2959623E-1,-5.345321E-1,3.2793332E-2,-4.1649058E-1,3.9536085E-2,-1.2875319E0,5.031949E-1,3.6214275E0,-1.4330467E0,1.5104431E0,1.0953933E0,4.3298073E0,1.5228083E0,-1.5440793E0,-1.8233773E0,-6.318498E-2,3.8882905E-1,-7.0789576E-1,7.4378085E-1,-1.0889488E0,2.2289138E-1,2.9139054E0,-1.0487479E0,1.2512225E0,-1.4916555E0,-2.3203032E-1,4.3670487E0,1.2109107E0,-2.11439E-1,1.5663234E0,-3.268715E0,-6.002438E-1,5.0738597E-1,2.3320506E0,-4.4633284E-1,-2.018835E0,-1.1785336E0,1.4750265E0,-2.4575968E-1,1.4404671E0],"categories":[],"categories_nodes":[],"categories_segments":[],"categories_sizes":[],"default_left":[0,0,0,0,0,0,0,0,0,0,0,0,0,0,0,0,0,0,0,0,0,0,0,0,0,0,0,0,0,0,0,0,0,0,0,0,0,0,0,0,0,0,0,0,0,0,0,0,0,0,0,0,0,0,0,0,0,0,0,0,0,0,0,0,0,0,0,0,0,0,0,0,0,0,0,0,0,0,0,0,0,0,0,0,0,0,0,0,0,0,0,0,0,0,0,0,0,0,0,0,0,0,0],"id":7,"left_children":[1,3,5,7,9,11,13,15,17,19,21,23,25,27,29,31,33,35,-1,37,39,41,43,45,47,49,51,53,-1,-1,55,57,59,61,63,65,-1,67,69,71,73,75,77,79,-1,81,83,85,87,89,91,93,95,97,99,101,-1,-1,-1,-1,-1,-1,-1,-1,-1,-1,-1,-1,-1,-1,-1,-1,-1,-1,-1,-1,-1,-1,-1,-1,-1,-1,-1,-1,-1,-1,-1,-1,-1,-1,-1,-1,-1,-1,-1,-1,-1,-1,-1,-1,-1,-1,-1],"loss_changes":[1.6027443E3,4.131058E2,4.5239087E2,1.5535663E2,2.4471367E2,3.545769E2,2.9728125E2,1.3287921E2,9.0633804E1,3.3299414E2,3.2378833E2,4.5257773E2,7.0154285E2,2.1677826E2,3.7523013E2,5.350702E1,1.3142023E2,1.4599994E1,0E0,1.7332536E2,4.9316418E2,1.775798E2,1.3316852E2,4.678346E2,4.8314713E2,1.156937E3,1.0858678E3,1.8802133E2,0E0,0E0,1.0585402E2,3.754602E1,2.867175E1,1.7420898E2,9.5197266E1,1.9127555E0,0E0,4.013683E2,1.2914488E2,3.958215E2,3.7297937E2,2.853718E2,1.19205246E2,1.29874525E1,0E0,1.1305869E2,4.4369153E2,5.165029E2,2.2622482E2,7.503816E2,5.283487E2,9.094214E1,4.0576355E2,6.890225E1,3.0032272E2,4.263159E1,0E0,0E0,0E0,0E0,0E0,0E0,0E0,0E0,0E0,0E0,0E0,0E0,0E0,0E0,0E0,0E0,0E0,0E0,0E0,0E0,0E0,0E0,0E0,0E0,0E0,0E0,0E0,0E0,0E0,0E0,0E0,0E0,0E0,0E0,0E0,0E0,0E0,0E0,0E0,0E0,0E0,0E0,0E0,0E0,0E0,0E0,0E0],"parents":[2147483647,0,0,1,1,2,2,3,3,4,4,5,5,6,6,7,7,8,8,9,9,10,10,11,11,12,12,13,13,14,14,15,15,16,16,17,17,19,19,20,20,21,21,22,22,23,23,24,24,25,25,26,26,27,27,30,30,31,31,32,32,33,33,34,34,35,35,37,37,38,38,39,39,40,40,41,41,42,42,43,43,45,45,46,46,47,47,48,48,49,49,50,50,51,51,52,52,53,53,54,54,55,55],"right_children":[2,4,6,8,10,12,14,16,18,20,22,24,26,28,30,32,34,36,-1,38,40,42,44,46,48,50,52,54,-1,-1,56,58,60,62,64,66,-1,68,70,72,74,76,78,80,-1,82,84,86,88,90,92,94,96,98,100,102,-1,-1,-1,-1,-1,-1,-1,-1,-1,-1,-1,-1,-1,-1,-1,-1,-1,-1,-1,-1,-1,-1,-1,-1,-1,-1,-1,-1,-1,-1,-1,-1,-1,-1,-1,-1,-1,-1,-1,-1,-1,-1,-1,-1,-1,-1,-1],"split_conditions":[3.6E1,1.8E1,2.4149532E1,2.105067E1,3.5E1,4.159E0,1.1431916E1,8.5E0,1E-1,3.4E1,1.2000002E0,1.2879752E1,8.309001E0,1.0554833E1,4.6E1,1.9000001E0,1.8335276E1,1.6E1,2.072494E0,5.3333332E1,8.4215E0,1.5745627E1,2.7E1,1.0765435E2,1.839839E2,4.05E1,8.873584E0,4E1,3.1128166E0,-3.6702864E0,2.4766848E1,2.8048332E0,1.1E1,2.0666666E1,6E-1,1.2333333E1,6.9731116E-1,3.9E1,1.2909E1,2.0780453E1,1.6854767E1,1.42715E1,1.90392E1,2.5E1,-3.1537373E0,3.75E1,4.4E1,7.65607E1,3.5E1,1.757744E1,1.6039202E1,6.1E1,2.1261345E1,3.8E1,2.7169865E1,3.2E1,-1.3588706E0,2.54348E-1,-9.710942E-1,-2.5831155E-2,-1.0568682E0,-4.414653E-2,-5.1712596E-1,-2.2959623E-1,-5.345321E-1,3.2793332E-2,-4.1649058E-1,3.9536085E-2,-1.2875319E0,5.031949E-1,3.6214275E0,-1.4330467E0,1.5104431E0,1.0953933E0,4.3298073E0,1.5228083E0,-1.5440793E0,-1.8233773E0,-6.318498E-2,3.8882905E-1,-7.0789576E-1,7.4378085E-1,-1.0889488E0,2.2289138E-1,2.9139054E0,-1.0487479E0,1.2512225E0,-1.4916555E0,-2.3203032E-1,4.3670487E0,1.2109107E0,-2.11439E-1,1.5663234E0,-3.268715E0,-6.002438E-1,5.0738597E-1,2.3320506E0,-4.4633284E-1,-2.018835E0,-1.1785336E0,1.4750265E0,-2.4575968E-1,1.4404671E0],"split_indices":[0,0,5,3,0,3,3,1,4,0,4,5,3,3,0,4,5,0,0,2,3,5,1,6,6,1,3,0,0,0,5,3,2,2,4,2,0,1,3,5,5,3,5,1,0,1,0,6,1,5,5,0,5,0,5,2,0,0,0,0,0,0,0,0,0,0,0,0,0,0,0,0,0,0,0,0,0,0,0,0,0,0,0,0,0,0,0,0,0,0,0,0,0,0,0,0,0,0,0,0,0,0,0],"split_type":[0,0,0,0,0,0,0,0,0,0,0,0,0,0,0,0,0,0,0,0,0,0,0,0,0,0,0,0,0,0,0,0,0,0,0,0,0,0,0,0,0,0,0,0,0,0,0,0,0,0,0,0,0,0,0,0,0,0,0,0,0,0,0,0,0,0,0,0,0,0,0,0,0,0,0,0,0,0,0,0,0,0,0,0,0,0,0,0,0,0,0,0,0,0,0,0,0,0,0,0,0,0,0],"sum_hessian":[2.298E3,1.869E3,4.29E2,9.01E2,9.68E2,3.9E2,3.9E1,8.94E2,7E0,9.37E2,3.1E1,1.37E2,2.53E2,2.8E1,1.1E1,5.4E1,8.4E2,4E0,3E0,9.06E2,3.1E1,2.4E1,7E0,3.4E1,1.03E2,8.8E1,1.65E2,2.7E1,1E0,4E0,7E0,3.9E1,1.5E1,4.65E2,3.75E2,3E0,1E0,9.01E2,5E0,1.5E1,1.6E1,1.1E1,1.3E1,2E0,5E0,1.1E1,2.3E1,4.4E1,5.9E1,2.9E1,5.9E1,8E0,1.57E2,1.2E1,1.5E1,4E0,3E0,2E0,3.7E1,1.3E1,2E0,3.8E2,8.5E1,2.03E2,1.72E2,1E0,2E0,8.81E2,2E1,4E0,1E0,9E0,6E0,1.2E1,4E0,8E0,3E0,6E0,7E0,1E0,1E0,4E0,7E0,9E0,1.4E1,1.1E1,3.3E1,1.8E1,4.1E1,1.6E1,1.3E1,2.8E1,3.1E1,6E0,2E0,1.46E2,1.1E1,9E0,3E0,5E0,1E1,2E0,2E0],"tree_param":{"num_deleted":"0","num_feature":"7","num_nodes":"103","size_leaf_vector":"1"}},{"base_weights":[2.4335412E-2,-4.8663142E-1,7.517241E-1,-3.9760756E-1,-1.9344488E0,5.7002795E-1,3.0973756E0,-9.07489E-1,-1.640645E-1,-5.055165E0,-9.818695E-1,6.404905E-1,-5.6383533E0,5.758219E0,1.2046688E0,-8.2415804E-2,-1.4571944E0,3.2611813E-2,-8.111352E-1,-6.033259E0,-3.0783901E0,-2.182663E0,9.602979E-1,4.121214E0,5.287785E-1,1.342994E0,-7.2596474E0,1.4757509E0,8.442418E0,-6.063165E-1,4.384131E0,-1.1022835E0,9.3846935E-1,-8.9156294E-1,-3.1392295E0,-1.3366511E0,1.8898024E-1,3.465198E-1,-1.3798169E0,-2.011771E0,-2.00424E0,-1.5936106E0,-6.7579615E-1,-3.579174E0,4.6701145E-1,4.90443E0,-1.7331433E0,5.1003437E0,-2.7838664E0,-7.5637736E0,5.858171E-1,-7.292771E-1,-8.292008E0,2.7778726E0,-1.0069714E0,3.220521E0,1.1775695E1,-3.077184E0,3.2674165E0,7.103428E0,-8.7871903E-1,2.2396292E-1,-4.3039143E-1,1.957988E-1,1.8831248E0,-7.406848E-2,-4.8024762E-1,-1.6822201E0,-7.9550296E-1,-1.24212794E-1,-9.491599E-1,-1.2847487E0,8.374402E-2,-3.3109855E-2,1.5258209E0,4.0909875E-2,-5.586674E-1,-7.150755E-1,-1.8683253E-1,-5.414505E-1,2.0355244E-1,8.3864254E-1,-1.2765101E0,1.1329541E0,-3.7033224E-1,-4.5708227E-1,2.3630884E0,1.21143825E-1,-8.526008E-1,6.4007096E-2,1.7364975E0,6.634386E-1,-1.5558391E0,-3.7581851E0,4.7264943E-1,2.4162757E-1,-3.1551874E-1,-2.652521E0,-7.4904674E-1,-2.821976E-1,1.3517725E0,-3.9663908E-1,1.217504E0,2.1633531E-1,4.33476E0,-1.6394647E0,-1.0427291E-1,1.9292675E0,-1.3218842E-1,3.1987977E0,8.8604933E-1,4.1445467E-1,-1.0798377E0],"categories":[],"categories_nodes":[],"categories_segments":[],"categories_sizes":[],"default_left":[0,0,0,0,0,0,0,0,0,0,0,0,0,0,0,0,0,0,0,0,0,0,0,0,0,0,0,0,0,0,0,0,0,0,0,0,0,0,0,0,0,0,0,0,0,0,0,0,0,0,0,0,0,0,0,0,0,0,0,0,0,0,0,0,0,0,0,0,0,0,0,0,0,0,0,0,0,0,0,0,0,0,0,0,0,0,0,0,0,0,0,0,0,0,0,0,0,0,0,0,0,0,0,0,0,0,0,0,0,0,0,0,0],"id":8,"left_children":[1,3,5,7,9,11,13,15,17,19,21,23,25,27,29,31,33,35,37,39,41,43,45,47,49,-1,51,53,55,57,59,61,63,65,67,69,71,73,75,-1,77,-1,79,81,83,85,87,89,91,93,95,-1,97,99,-1,101,103,105,107,109,111,-1,-1,-1,-1,-1,-1,-1,-1,-1,-1,-1,-1,-1,-1,-1,-1,-1,-1,-1,-1,-1,-1,-1,-1,-1,-1,-1,-1,-1,-1,-1,-1,-1,-1,-1,-1,-1,-1,-1,-1,-1,-1,-1,-1,-1,-1,-1,-1,-1,-1,-1,-1],"loss_changes":[8.5483856E2,1.733616E2,4.0269446E2,1.5155812E2,2.269094E2,3.894495E2,3.355246E2,1.812988E2,1.11381996E2,1.6229736E1,1.4435666E2,3.3727676E2,1.9649283E2,3.0940094E2,2.387345E2,1.6866248E2,2.255401E2,1.4413417E2,1.3477893E2,1.637085E1,3.9342476E1,1.422829E2,2.6345898E2,1.9674478E2,3.9539615E2,0E0,2.470758E1,8.483138E1,2.5797852E2,2.6848444E2,2.209107E2,5.084275E1,1.1949389E2,8.236499E1,5.7332825E1,1.150105E2,2.4471452E2,1.4781082E2,1.0045831E2,0E0,8.771896E-2,0E0,8.869905E0,1.19604065E2,8.349532E1,2.0307684E2,3.669139E1,7.9456726E1,5.9469307E1,2.919139E2,3.036458E2,0E0,2.2418213E-1,6.849606E1,0E0,3.581327E1,2.8512512E2,1.0889769E2,1.31867E2,1.1621344E2,4.1869766E1,0E0,0E0,0E0,0E0,0E0,0E0,0E0,0E0,0E0,0E0,0E0,0E0,0E0,0E0,0E0,0E0,0E0,0E0,0E0,0E0,0E0,0E0,0E0,0E0,0E0,0E0,0E0,0E0,0E0,0E0,0E0,0E0,0E0,0E0,0E0,0E0,0E0,0E0,0E0,0E0,0E0,0E0,0E0,0E0,0E0,0E0,0E0,0E0,0E0,0E0,0E0,0E0],"parents":[2147483647,0,0,1,1,2,2,3,3,4,4,5,5,6,6,7,7,8,8,9,9,10,10,11,11,12,12,13,13,14,14,15,15,16,16,17,17,18,18,19,19,20,20,21,21,22,22,23,23,24,24,26,26,27,27,28,28,29,29,30,30,31,31,32,32,33,33,34,34,35,35,36,36,37,37,38,38,40,40,42,42,43,43,44,44,45,45,46,46,47,47,48,48,49,49,50,50,52,52,53,53,55,55,56,56,57,57,58,58,59,59,60,60],"right_children":[2,4,6,8,10,12,14,16,18,20,22,24,26,28,30,32,34,36,38,40,42,44,46,48,50,-1,52,54,56,58,60,62,64,66,68,70,72,74,76,-1,78,-1,80,82,84,86,88,90,92,94,96,-1,98,100,-1,102,104,106,108,110,112,-1,-1,-1,-1,-1,-1,-1,-1,-1,-1,-1,-1,-1,-1,-1,-1,-1,-1,-1,-1,-1,-1,-1,-1,-1,-1,-1,-1,-1,-1,-1,-1,-1,-1,-1,-1,-1,-1,-1,-1,-1,-1,-1,-1,-1,-1,-1,-1,-1,-1,-1,-1],"split_conditions":[2.4E1,2.65E1,5.2E1,1.3666667E1,2.7333334E1,5.6E1,1.5375871E2,1.622498E1,2.8303546E2,2.2E1,7.7506676E0,9.107359E0,1.191812E1,7.661083E0,5E-1,1.2E1,1.25E1,4.433002E1,4.6499986E-2,1.0263167E1,2.75E1,3.5E1,3.2666668E1,4.5E1,9.346143E0,1.342994E0,5.8E1,6.1E1,6.800713E1,7E1,2.1096123E1,3.3006666E0,1.6039202E1,2.689456E2,1.6854767E1,7.2131667E0,-4.0826674E0,2.45E1,1.6E1,-2.011771E0,1.1E1,-1.5936106E0,2.4E1,2.7666666E1,1.4044615E1,2.8333334E1,2.1597514E2,2.8E1,3.6E1,2E-1,2.974137E2,-7.292771E-1,7.5E1,4.433002E1,-1.0069714E0,8.786083E0,1.1570515E1,2.6986023E2,7.1666664E1,5.2360826E0,6.3666668E1,2.2396292E-1,-4.3039143E-1,1.957988E-1,1.8831248E0,-7.406848E-2,-4.8024762E-1,-1.6822201E0,-7.9550296E-1,-1.24212794E-1,-9.491599E-1,-1.2847487E0,8.374402E-2,-3.3109855E-2,1.5258209E0,4.0909875E-2,-5.586674E-1,-7.150755E-1,-1.8683253E-1,-5.414505E-1,2.0355244E-1,8.3864254E-1,-1.2765101E0,1.1329541E0,-3.7033224E-1,-4.5708227E-1,2.3630884E0,1.21143825E-1,-8.526008E-1,6.4007096E-2,1.7364975E0,6.634386E-1,-1.5558391E0,-3.7581851E0,4.7264943E-1,2.4162757E-1,-3.1551874E-1,-2.652521E0,-7.4904674E-1,-2.821976E-1,1.3517725E0,-3.9663908E-1,1.217504E0,2.1633531E-1,4.33476E0,-1.6394647E0,-1.0427291E-1,1.9292675E0,-1.3218842E-1,3.1987977E0,8.8604933E-1,4.1445467E-1,-1.0798377E0],"split_indices":[0,1,2,2,2,1,6,5,6,0,3,5,5,3,4,0,1,6,3,3,1,2,2,2,5,0,1,2,6,1,5,3,5,6,5,3,3,1,2,0,0,0,2,2,5,2,6,0,0,4,6,0,0,6,0,3,5,6,2,3,2,0,0,0,0,0,0,0,0,0,0,0,0,0,0,0,0,0,0,0,0,0,0,0,0,0,0,0,0,0,0,0,0,0,0,0,0,0,0,0,0,0,0,0,0,0,0,0,0,0,0,0,0],"split_type":[0,0,0,0,0,0,0,0,0,0,0,0,0,0,0,0,0,0,0,0,0,0,0,0,0,0,0,0,0,0,0,0,0,0,0,0,0,0,0,0,0,0,0,0,0,0,0,0,0,0,0,0,0,0,0,0,0,0,0,0,0,0,0,0,0,0,0,0,0,0,0,0,0,0,0,0,0,0,0,0,0,0,0,0,0,0,0,0,0,0,0,0,0,0,0,0,0,0,0,0,0,0,0,0,0,0,0,0,0,0,0,0,0],"sum_hessian":[2.298E3,1.35E3,9.48E2,1.273E3,7.7E1,8.81E2,6.7E1,3.99E2,8.74E2,1.7E1,6E1,8.72E2,9E0,2.7E1,4E1,1.6E2,2.39E2,6.71E2,2.03E2,1E1,7E0,3.7E1,2.3E1,2.6E1,8.46E2,1E0,8E0,1.1E1,1.6E1,2.6E1,1.4E1,8E1,8E1,1.8E2,5.9E1,6.8E1,6.03E2,6.7E1,1.36E2,8E0,2E0,3E0,4E0,2.4E1,1.3E1,9E0,1.4E1,2.3E1,3E0,5E0,8.41E2,2E0,6E0,9E0,2E0,7E0,9E0,1.6E1,1E1,9E0,5E0,1.2E1,6.8E1,7.7E1,3E0,9.5E1,8.5E1,8E0,5.1E1,4.6E1,2.2E1,1.1E1,5.92E2,6.2E1,5E0,3.3E1,1.03E2,1E0,1E0,2E0,2E0,2E0,2.2E1,4E0,9E0,3E0,6E0,5E0,9E0,3E0,2E1,1E0,2E0,3E0,2E0,7.42E2,9.9E1,5E0,1E0,3E0,6E0,1E0,6E0,2E0,7E0,8E0,8E0,5E0,5E0,4E0,5E0,3E0,2E0],"tree_param":{"num_deleted":"0","num_feature":"7","num_nodes":"113","size_leaf_vector":"1"}},{"base_weights":[1.6105639E-2,-1.6374569E-1,1.272511E0,-2.0941047E-1,4.1756825E0,3.0019436E0,5.929122E-1,-1.357349E-1,-1.9238567E0,2.530955E0,3.159911E0,4.151538E-1,5.06215E0,1.5394444E0,-1.2951005E0,-1.9947061E-1,2.7052536E0,-3.1424851E0,3.2993908E0,7.0457023E-1,4.725865E0,1.87463E0,-7.4379115E0,3.8201287E-1,8.790979E0,3.9606822E0,1.3469647E-1,-5.8286195E0,-3.5107797E-1,-2.4151367E-1,3.1872704E0,3.4824586E0,-1.6646428E0,-1.9111935E0,-6.9477777E0,-7.320339E-1,4.7042017E0,-1.4330581E0,2.7247703E0,2.076456E0,2.056848E0,-2.0542138E0,4.0304155E0,-3.8695931E0,-1.4828844E0,2.8854597E0,-2.1561623E0,1.5281387E1,5.417965E0,-5.759628E-1,6.245945E0,-5.4392266E0,9.091073E-1,-7.12921E0,1.2716813E0,-8.0607635E-1,1.8320007E0,-5.9190985E-2,-7.577925E-1,1.6463913E0,-8.5664064E-1,1.142507E-1,1.6215316E0,-7.8970015E-1,1.618198E0,-2.4609272E0,-7.6364124E-1,-1.022903E0,2.3693877E-1,2.668217E0,4.4925538E-1,-7.419869E-1,1.2948094E-1,-2.8174984E-1,1.0936173E0,7.5242746E-1,5.2487183E-2,-1.8074842E-1,-1.1898365E0,1.4380014E0,-6.434693E-1,-8.786816E-1,4.282917E-1,-4.6227083E-1,1.6904815E0,-1.2610329E0,7.514363E-2,6.5803747E0,2.0707664E0,9.770227E-1,2.7592862E0,1.9426113E0,-1.3923732E0,2.132738E0,-1.5129943E0,-2.7053175E0,-6.3183707E-1,-1.9428518E0,4.486886E-1,-6.065998E-1,-2.4118438E0,8.835749E-2,-1.4598476E0],"categories":[],"categories_nodes":[],"categories_segments":[],"categories_sizes":[],"default_left":[0,0,0,0,0,0,0,0,0,0,0,0,0,0,0,0,0,0,0,0,0,0,0,0,0,0,0,0,0,0,0,0,0,0,0,0,0,0,0,0,0,0,0,0,0,0,0,0,0,0,0,0,0,0,0,0,0,0,0,0,0,0,0,0,0,0,0,0,0,0,0,0,0,0,0,0,0,0,0,0,0,0,0,0,0,0,0,0,0,0,0,0,0,0,0,0,0,0,0,0,0,0,0],"id":9,"left_children":[1,3,5,7,9,11,13,15,17,19,-1,21,23,25,27,29,31,33,35,37,39,41,43,45,47,49,51,53,55,57,59,61,-1,63,65,67,69,71,73,75,-1,77,79,-1,81,83,85,87,89,91,93,95,97,99,-1,101,-1,-1,-1,-1,-1,-1,-1,-1,-1,-1,-1,-1,-1,-1,-1,-1,-1,-1,-1,-1,-1,-1,-1,-1,-1,-1,-1,-1,-1,-1,-1,-1,-1,-1,-1,-1,-1,-1,-1,-1,-1,-1,-1,-1,-1,-1,-1],"loss_changes":[5.197046E2,3.9957047E2,3.367124E2,2.5135394E2,1.929198E2,4.2957336E2,3.7370322E2,3.4656903E2,5.3231445E2,6.8827805E1,0E0,4.380137E2,7.819562E2,4.7223734E2,2.975358E2,2.670371E2,2.8875763E2,3.0064496E2,9.405788E1,5.1407562E1,3.0915665E1,2.793112E2,1.7598563E2,1.3965944E2,4.6451184E2,5.323361E2,3.891139E2,1.8734549E2,1.7828003E2,1.8614392E2,3.3542902E2,2.3051117E2,0E0,2.8813818E2,6.753961E1,2.306753E1,1.479075E2,1.2705553E1,2.3662197E1,3.6649609E0,0E0,3.0917072E1,1.0921817E2,0E0,2.1016567E1,1.4255496E2,5.525063E1,2.9456348E2,1.1708191E2,5.460355E2,3.6717297E2,1.1221011E2,3.5188416E2,3.4882446E1,0E0,2.5167099E2,0E0,0E0,0E0,0E0,0E0,0E0,0E0,0E0,0E0,0E0,0E0,0E0,0E0,0E0,0E0,0E0,0E0,0E0,0E0,0E0,0E0,0E0,0E0,0E0,0E0,0E0,0E0,0E0,0E0,0E0,0E0,0E0,0E0,0E0,0E0,0E0,0E0,0E0,0E0,0E0,0E0,0E0,0E0,0E0,0E0,0E0,0E0],"parents":[2147483647,0,0,1,1,2,2,3,3,4,4,5,5,6,6,7,7,8,8,9,9,11,11,12,12,13,13,14,14,15,15,16,16,17,17,18,18,19,19,20,20,21,21,22,22,23,23,24,24,25,25,26,26,27,27,28,28,29,29,30,30,31,31,33,33,34,34,35,35,36,36,37,37,38,38,39,39,41,41,42,42,44,44,45,45,46,46,47,47,48,48,49,49,50,50,51,51,52,52,53,53,55,55],"right_children":[2,4,6,8,10,12,14,16,18,20,-1,22,24,26,28,30,32,34,36,38,40,42,44,46,48,50,52,54,56,58,60,62,-1,64,66,68,70,72,74,76,-1,78,80,-1,82,84,86,88,90,92,94,96,98,100,-1,102,-1,-1,-1,-1,-1,-1,-1,-1,-1,-1,-1,-1,-1,-1,-1,-1,-1,-1,-1,-1,-1,-1,-1,-1,-1,-1,-1,-1,-1,-1,-1,-1,-1,-1,-1,-1,-1,-1,-1,-1,-1,-1,-1,-1,-1,-1,-1],"split_conditions":[4.1E1,2.2454834E1,1.4346329E2,3.9E1,3.55E1,1.4241629E1,1.0263167E1,3.8E1,4.8666668E1,2.4036089E1,3.159911E0,1.3755579E1,7.65607E1,4.35E1,1.2773582E1,3.9E1,3.9E1,4.3E1,1.8506665E0,1.48257065E1,1E-1,2.8048332E0,4.4E1,1.710284E1,1E-1,1.5610834E0,3.8666668E1,5.9E1,3.4790527E2,3.55E1,3.55E1,3.35E1,-1.6646428E0,3.119534E2,4.6666668E1,4.3E1,1.4346329E2,2.7E1,1.3E1,3.1E1,2.056848E0,4.6E1,1.9592333E1,-3.8695931E0,7.115249E0,3.6152503E0,5.0333332E1,1.2397658E2,1.2397658E2,1.612583E1,8.900002E0,1.6610792E1,4.4E1,1.3472372E1,1.2716813E0,2.4489728E2,1.8320007E0,-5.9190985E-2,-7.577925E-1,1.6463913E0,-8.5664064E-1,1.142507E-1,1.6215316E0,-7.8970015E-1,1.618198E0,-2.4609272E0,-7.6364124E-1,-1.022903E0,2.3693877E-1,2.668217E0,4.4925538E-1,-7.419869E-1,1.2948094E-1,-2.8174984E-1,1.0936173E0,7.5242746E-1,5.2487183E-2,-1.8074842E-1,-1.1898365E0,1.4380014E0,-6.434693E-1,-8.786816E-1,4.282917E-1,-4.6227083E-1,1.6904815E0,-1.2610329E0,7.514363E-2,6.5803747E0,2.0707664E0,9.770227E-1,2.7592862E0,1.9426113E0,-1.3923732E0,2.132738E0,-1.5129943E0,-2.7053175E0,-6.3183707E-1,-1.9428518E0,4.486886E-1,-6.065998E-1,-2.4118438E0,8.835749E-2,-1.4598476E0],"split_indices":[0,3,6,1,1,5,3,2,2,3,0,5,6,1,3,0,0,1,3,5,4,3,0,5,4,3,2,1,6,1,1,1,0,6,2,1,6,0,0,0,0,2,3,0,3,3,2,6,6,5,4,5,0,5,0,6,0,0,0,0,0,0,0,0,0,0,0,0,0,0,0,0,0,0,0,0,0,0,0,0,0,0,0,0,0,0,0,0,0,0,0,0,0,0,0,0,0,0,0,0,0,0,0],"split_type":[0,0,0,0,0,0,0,0,0,0,0,0,0,0,0,0,0,0,0,0,0,0,0,0,0,0,0,0,0,0,0,0,0,0,0,0,0,0,0,0,0,0,0,0,0,0,0,0,0,0,0,0,0,0,0,0,0,0,0,0,0,0,0,0,0,0,0,0,0,0,0,0,0,0,0,0,0,0,0,0,0,0,0,0,0,0,0,0,0,0,0,0,0,0,0,0,0,0,0,0,0,0,0],"sum_hessian":[2.298E3,2.011E3,2.87E2,1.991E3,2E1,8E1,2.07E2,1.91E3,8.1E1,1.7E1,3E0,3.6E1,4.4E1,1.38E2,6.9E1,1.869E3,4.1E1,6.6E1,1.5E1,1E1,7E0,3.1E1,5E0,2E1,2.4E1,5E1,8.8E1,1.1E1,5.8E1,1.847E3,2.2E1,3.8E1,3E0,5.1E1,1.5E1,4E0,1.1E1,5E0,5E0,4E0,3E0,1.1E1,2E1,2E0,3E0,1E1,1E1,7E0,1.7E1,1.7E1,3.3E1,1E1,7.8E1,1E1,1E0,5.5E1,3E0,1.813E3,3.4E1,1.6E1,6E0,1.5E1,2.3E1,4.7E1,4E0,1.1E1,4E0,1E0,3E0,4E0,7E0,3E0,2E0,1E0,4E0,3E0,1E0,7E0,4E0,1.8E1,2E0,2E0,1E0,4E0,6E0,5E0,5E0,3E0,4E0,1.2E1,5E0,6E0,1.1E1,3.1E1,2E0,4E0,6E0,5E0,7.3E1,2E0,8E0,4.4E1,1.1E1],"tree_param":{"num_deleted":"0","num_feature":"7","num_nodes":"103","size_leaf_vector":"1"}},{"base_weights":[1.5095768E-2,-2.891903E-1,4.4826266E-1,-1.6917884E-1,-9.55423E-1,5.9173673E-1,-1.4492879E0,-3.1221336E-1,6.653447E-1,-1.2905203E0,1.313945E0,5.392917E-1,1.1981716E1,-4.1406693E0,2.5131232E-1,1.1950471E0,-4.049562E-1,1.057438E0,-3.1256316E0,-2.197831E0,-3.987686E-1,7.964044E0,1.5084751E-1,6.430866E-1,-2.324095E0,4.675257E0,1.7614432E-1,-1.0743839E0,-5.989949E0,3.5381687E0,-2.6177504E0,5.3337417E-3,2.42706E0,-1.4238814E-1,-8.383879E-1,-7.820892E-1,1.855572E0,-4.6079617E0,2.4733486E0,-1.7485756E0,-4.297585E0,2.0235604E-2,-3.1938162E0,3.5274048E0,-5.1268077E-1,1.5220578E0,-1.9210526E0,-9.849173E-1,7.6134783E-1,-4.246514E0,3.733673E0,-2.388681E0,1.8102883E0,-6.848286E0,1.2273788E-2,-2.0041018E0,4.427582E0,1.7961847E0,-4.2812676E0,-2.7499324E-1,6.7753947E-1,9.364045E-1,-7.557025E-1,-4.20055E-1,3.0808486E-2,-4.2745134E-1,6.932021E-4,3.9613077E-1,-8.5560817E-1,1.0505612E0,7.062037E-2,-2.7026874E-1,-1.8466341E0,1.2378176E0,1.6412774E-1,-8.126882E-1,2.06464E-1,-1.4099979E0,2.0041981E-1,-2.4793002E-1,4.9571234E-1,-1.2325726E0,-1.0114661E-1,7.0054936E-1,-3.8933316E-1,3.438801E-2,-9.89183E-1,1.1761432E0,-5.2052367E-1,3.9622587E-1,9.355312E-2,6.788764E-1,-1.3883762E0,1.9829942E0,2.0576775E-1,-1.3154647E0,-9.811993E-2,-1.2328057E0,-2.944592E0,3.3551732E-1,-3.299941E-1,1.82978E0,-6.328383E-2,-5.69932E-1,2.207216E0,-4.4170418E-1,-2.177178E0],"categories":[],"categories_nodes":[],"categories_segments":[],"categories_sizes":[],"default_left":[0,0,0,0,0,0,0,0,0,0,0,0,0,0,0,0,0,0,0,0,0,0,0,0,0,0,0,0,0,0,0,0,0,0,0,0,0,0,0,0,0,0,0,0,0,0,0,0,0,0,0,0,0,0,0,0,0,0,0,0,0,0,0,0,0,0,0,0,0,0,0,0,0,0,0,0,0,0,0,0,0,0,0,0,0,0,0,0,0,0,0,0,0,0,0,0,0,0,0,0,0,0,0,0,0,0,0],"id":10,"left_children":[1,3,5,7,9,11,13,15,17,19,21,23,25,27,29,31,33,35,37,39,41,43,45,47,49,-1,-1,51,53,55,57,59,61,63,65,67,69,71,73,75,77,79,81,-1,-1,83,85,87,89,91,93,95,-1,97,99,-1,101,103,105,-1,-1,-1,-1,-1,-1,-1,-1,-1,-1,-1,-1,-1,-1,-1,-1,-1,-1,-1,-1,-1,-1,-1,-1,-1,-1,-1,-1,-1,-1,-1,-1,-1,-1,-1,-1,-1,-1,-1,-1,-1,-1,-1,-1,-1,-1,-1,-1],"loss_changes":[3.031531E2,1.0785831E2,2.5922226E2,1.3700078E2,1.5835028E2,5.209968E2,3.076972E2,1.3733601E2,2.5302313E2,1.447608E2,2.0763591E2,2.630351E2,1.5504437E2,1.4099542E2,4.0533032E2,8.353436E1,1.0492296E2,2.2608417E2,1.4418968E2,7.6441284E1,1.07809204E2,1.6688972E2,7.11082E1,1.6440009E2,3.7686768E2,0E0,0E0,1.17186066E2,8.251495E1,2.1134718E2,1.7657106E2,6.439031E1,1.0401463E2,1.7770406E2,1.7157686E2,2.0831445E2,2.8457507E2,6.903079E1,1.0476833E1,1.7738345E2,3.311322E1,1.13297966E2,2.9972641E1,0E0,0E0,3.7422928E1,2.8393463E1,2.2023294E2,1.9899179E2,7.005841E1,6.559711E1,3.9719837E1,0E0,7.3436035E1,4.9210587E0,0E0,1.4861557E2,1.5785513E2,1.3142331E2,0E0,0E0,0E0,0E0,0E0,0E0,0E0,0E0,0E0,0E0,0E0,0E0,0E0,0E0,0E0,0E0,0E0,0E0,0E0,0E0,0E0,0E0,0E0,0E0,0E0,0E0,0E0,0E0,0E0,0E0,0E0,0E0,0E0,0E0,0E0,0E0,0E0,0E0,0E0,0E0,0E0,0E0,0E0,0E0,0E0,0E0,0E0,0E0],"parents":[2147483647,0,0,1,1,2,2,3,3,4,4,5,5,6,6,7,7,8,8,9,9,10,10,11,11,12,12,13,13,14,14,15,15,16,16,17,17,18,18,19,19,20,20,21,21,22,22,23,23,24,24,27,27,28,28,29,29,30,30,31,31,32,32,33,33,34,34,35,35,36,36,37,37,38,38,39,39,40,40,41,41,42,42,45,45,46,46,47,47,48,48,49,49,50,50,51,51,53,53,54,54,56,56,57,57,58,58],"right_children":[2,4,6,8,10,12,14,16,18,20,22,24,26,28,30,32,34,36,38,40,42,44,46,48,50,-1,-1,52,54,56,58,60,62,64,66,68,70,72,74,76,78,80,82,-1,-1,84,86,88,90,92,94,96,-1,98,100,-1,102,104,106,-1,-1,-1,-1,-1,-1,-1,-1,-1,-1,-1,-1,-1,-1,-1,-1,-1,-1,-1,-1,-1,-1,-1,-1,-1,-1,-1,-1,-1,-1,-1,-1,-1,-1,-1,-1,-1,-1,-1,-1,-1,-1,-1,-1,-1,-1,-1,-1],"split_conditions":[2.4E1,2.2E1,2.6282465E1,2E1,1.6604836E1,2.6081993E1,2.8488375E1,1.1165805E1,2.2E1,2.6666666E1,2.25E1,1.07E1,3.7E1,4.52775E0,2.988217E1,1.45E1,1.1136082E1,2.6610835E0,2.6333334E1,2.5161398E1,6.2E0,1.7819416E1,2.4489728E2,4.8477856E1,1.5769417E1,4.675257E0,1.7614432E-1,2.804305E1,1.6384E1,1.9E1,1.259E0,1.5152751E1,2.1E1,1.0765435E2,5E-1,1.6610792E1,2.1705388E2,2.1E1,2.2E1,2.006334E1,2.3E1,2.153089E1,3.15E1,3.5274048E0,-5.1268077E-1,2.0704838E1,2.55E1,2.2666666E1,2.0138286E2,1.9E1,3.5E1,3.0666666E1,1.8102883E0,2.9666666E1,3.6E1,-2.0041018E0,3.1E1,3.1394394E1,4E-1,-2.7499324E-1,6.7753947E-1,9.364045E-1,-7.557025E-1,-4.20055E-1,3.0808486E-2,-4.2745134E-1,6.932021E-4,3.9613077E-1,-8.5560817E-1,1.0505612E0,7.062037E-2,-2.7026874E-1,-1.8466341E0,1.2378176E0,1.6412774E-1,-8.126882E-1,2.06464E-1,-1.4099979E0,2.0041981E-1,-2.4793002E-1,4.9571234E-1,-1.2325726E0,-1.0114661E-1,7.0054936E-1,-3.8933316E-1,3.438801E-2,-9.89183E-1,1.1761432E0,-5.2052367E-1,3.9622587E-1,9.355312E-2,6.788764E-1,-1.3883762E0,1.9829942E0,2.0576775E-1,-1.3154647E0,-9.811993E-2,-1.2328057E0,-2.944592E0,3.3551732E-1,-3.299941E-1,1.82978E0,-6.328383E-2,-5.69932E-1,2.207216E0,-4.4170418E-1,-2.177178E0],"split_indices":[0,1,5,0,3,5,5,5,2,2,1,4,0,3,5,1,3,3,2,5,4,3,6,6,3,0,0,5,3,1,3,3,1,6,4,5,6,0,0,5,0,5,1,0,0,3,1,2,6,2,1,2,0,2,0,0,2,5,4,0,0,0,0,0,0,0,0,0,0,0,0,0,0,0,0,0,0,0,0,0,0,0,0,0,0,0,0,0,0,0,0,0,0,0,0,0,0,0,0,0,0,0,0,0,0,0,0],"split_type":[0,0,0,0,0,0,0,0,0,0,0,0,0,0,0,0,0,0,0,0,0,0,0,0,0,0,0,0,0,0,0,0,0,0,0,0,0,0,0,0,0,0,0,0,0,0,0,0,0,0,0,0,0,0,0,0,0,0,0,0,0,0,0,0,0,0,0,0,0,0,0,0,0,0,0,0,0,0,0,0,0,0,0,0,0,0,0,0,0,0,0,0,0,0,0,0,0,0,0,0,0,0,0,0,0,0,0],"sum_hessian":[2.298E3,1.35E3,9.48E2,1.145E3,2.05E2,8.82E2,6.6E1,9.78E2,1.67E2,1.79E2,2.6E1,8.79E2,3E0,2.5E1,4.1E1,5.6E1,9.22E2,1.52E2,1.5E1,8.8E1,9.1E1,3E0,2.3E1,8.49E2,3E1,2E0,1E0,1E1,1.5E1,1.9E1,2.2E1,2.9E1,2.7E1,5.75E2,3.47E2,4.6E1,1.06E2,1.2E1,3E0,7.4E1,1.4E1,8E1,1.1E1,2E0,1E0,1.4E1,9E0,5.7E1,7.92E2,2.3E1,7E0,9E0,1E0,1.3E1,2E0,1E0,1.8E1,6E0,1.6E1,2.1E1,8E0,2.4E1,3E0,9.3E1,4.82E2,2.04E2,1.43E2,2.3E1,2.3E1,5.2E1,5.4E1,4E0,8E0,1E0,2E0,5.3E1,2.1E1,1.3E1,1E0,5.3E1,2.7E1,8E0,3E0,1.1E1,3E0,4E0,5E0,7E0,5E1,3.52E2,4.4E2,1E0,2.2E1,3E0,4E0,4E0,5E0,8E0,5E0,1E0,1E0,1.3E1,5E0,4E0,2E0,9E0,7E0],"tree_param":{"num_deleted":"0","num_feature":"7","num_nodes":"107","size_leaf_vector":"1"}},{"base_weights":[1.129143E-2,-8.140711E-2,1.0586749E0,-1.00361176E-1,3.5496671E0,2.7392852E0,5.973027E-1,1.15333274E-1,-4.611861E-1,1.2414218E0,1.8213831E0,4.152895E0,1.0640914E-1,-9.318816E-1,1.1529914E0,-1.0285484E0,3.494413E-1,9.636475E-1,-7.5768334E-1,1.7864786E0,-3.043379E-1,6.055987E-1,8.935063E0,1.6056273E0,-3.2131526E0,-5.2161086E-2,-8.836327E0,9.419118E-1,1.6065193E0,-5.877447E-1,-4.0931835E0,1.2393296E0,-2.1991763E-1,-5.1260406E-1,3.2851849E0,-5.501304E-1,-1.88453E0,-1.4819527E-2,2.1635337E0,3.6988194E0,-1.6202157E0,1.0210434E1,-5.727963E-1,2.3881178E0,1.7411165E-1,-1.1858867E0,-3.809109E-2,-1.0566776E0,3.1904097E0,-3.4458601E0,-1.2372905E0,1.5433463E0,-7.671526E-1,2.0156027E-1,-4.4752362E-1,-1.4185789E0,8.3343625E-1,7.258386E-1,1.3478489E-1,2.0436911E-1,-2.344523E-1,-1.8049744E0,1.976848E-2,2.458411E-1,2.1010327E0,-2.3430856E-1,3.9636403E-1,-8.50883E-1,3.3666933E-1,1.3107434E-1,7.4578804E-1,1.356962E0,-1.871252E-1,-6.9569373E-1,7.002983E-1,1.4972277E-1,3.370206E0,5.557516E-1,-3.760705E-1,6.632996E-3,-2.3413882E0,2.5776153E0,-8.547938E-1,1.18625216E-1,1.0100557E0,-2.8324174E-2,-1.4339944E0],"categories":[],"categories_nodes":[],"categories_segments":[],"categories_sizes":[],"default_left":[0,0,0,0,0,0,0,0,0,0,0,0,0,0,0,0,0,0,0,0,0,0,0,0,0,0,0,0,0,0,0,0,0,0,0,0,0,0,0,0,0,0,0,0,0,0,0,0,0,0,0,0,0,0,0,0,0,0,0,0,0,0,0,0,0,0,0,0,0,0,0,0,0,0,0,0,0,0,0,0,0,0,0,0,0,0,0],"id":11,"left_children":[1,3,5,7,9,11,13,15,17,19,-1,21,23,25,27,29,31,33,35,37,-1,39,41,43,45,47,49,51,-1,53,55,57,59,61,63,65,67,-1,69,71,73,75,-1,-1,77,-1,-1,79,81,-1,-1,83,85,-1,-1,-1,-1,-1,-1,-1,-1,-1,-1,-1,-1,-1,-1,-1,-1,-1,-1,-1,-1,-1,-1,-1,-1,-1,-1,-1,-1,-1,-1,-1,-1,-1,-1],"loss_changes":[2.2329819E2,1.457806E2,1.4336119E2,1.6372533E2,5.648842E1,1.4843246E2,1.2683751E2,3.5304126E2,3.332055E2,1.0419395E1,0E0,4.3564688E2,7.981033E1,2.7768716E2,9.163594E1,3.001964E2,5.54565E2,4.677795E2,1.5145322E2,4.2602367E0,0E0,1.1615184E2,1.7163165E2,9.86804E1,1.0913925E1,1.23888214E2,2.5725403E0,1.0911246E2,0E0,2.2532425E2,1.3538782E2,3.9703064E2,3.38591E2,2.6785626E2,4.8017334E2,2.3954541E2,2.922121E2,0E0,1.6973839E0,2.7765633E1,3.3046158E1,9.379761E1,0E0,0E0,2.628433E1,0E0,0E0,2.1128107E2,3.181011E2,0E0,0E0,1.6194257E2,7.513708E1,0E0,0E0,0E0,0E0,0E0,0E0,0E0,0E0,0E0,0E0,0E0,0E0,0E0,0E0,0E0,0E0,0E0,0E0,0E0,0E0,0E0,0E0,0E0,0E0,0E0,0E0,0E0,0E0,0E0,0E0,0E0,0E0,0E0,0E0],"parents":[2147483647,0,0,1,1,2,2,3,3,4,4,5,5,6,6,7,7,8,8,9,9,11,11,12,12,13,13,14,14,15,15,16,16,17,17,18,18,19,19,21,21,22,22,23,23,24,24,25,25,26,26,27,27,29,29,30,30,31,31,32,32,33,33,34,34,35,35,36,36,38,38,39,39,40,40,41,41,44,44,47,47,48,48,51,51,52,52],"right_children":[2,4,6,8,10,12,14,16,18,20,-1,22,24,26,28,30,32,34,36,38,-1,40,42,44,46,48,50,52,-1,54,56,58,60,62,64,66,68,-1,70,72,74,76,-1,-1,78,-1,-1,80,82,-1,-1,84,86,-1,-1,-1,-1,-1,-1,-1,-1,-1,-1,-1,-1,-1,-1,-1,-1,-1,-1,-1,-1,-1,-1,-1,-1,-1,-1,-1,-1,-1,-1,-1,-1,-1,-1],"split_conditions":[4.6E1,2.4036089E1,4.35E1,1.1025666E1,1E-1,2E0,4.4333332E1,1.0765435E2,1.1553159E2,4E1,1.8213831E0,4E-1,4.9E1,4.3333332E1,8.4E1,8.789841E1,2.3893173E2,8.01148E1,3.05E1,6.983732E1,-3.043379E-1,1.3324863E1,1.735275E1,2.32775E0,4.2E1,5.8E1,1.4241629E1,1.964228E1,1.6065193E0,1.4693999E1,3.95E1,4E-1,1.692383E1,1.2146501E1,1.4118243E1,2.3532547E1,4.1666668E1,-1.4819527E-2,1.3089354E1,3.8666668E1,2.1096123E1,2.8333334E1,-5.727963E-1,2.3881178E0,1.3869847E2,-1.1858867E0,-3.809109E-2,5.6E1,1.9830762E2,-3.4458601E0,-1.2372905E0,1.5941944E1,7.35E1,2.0156027E-1,-4.4752362E-1,-1.4185789E0,8.3343625E-1,7.258386E-1,1.3478489E-1,2.0436911E-1,-2.344523E-1,-1.8049744E0,1.976848E-2,2.458411E-1,2.1010327E0,-2.3430856E-1,3.9636403E-1,-8.50883E-1,3.3666933E-1,1.3107434E-1,7.4578804E-1,1.356962E0,-1.871252E-1,-6.9569373E-1,7.002983E-1,1.4972277E-1,3.370206E0,5.557516E-1,-3.760705E-1,6.632996E-3,-2.3413882E0,2.5776153E0,-8.547938E-1,1.18625216E-1,1.0100557E0,-2.8324174E-2,-1.4339944E0],"split_indices":[0,3,1,3,4,4,2,6,6,1,0,4,0,2,0,6,6,6,1,6,0,5,3,3,1,0,5,5,0,5,1,4,5,3,5,5,2,0,5,2,5,2,0,0,6,0,0,0,6,0,0,5,1,0,0,0,0,0,0,0,0,0,0,0,0,0,0,0,0,0,0,0,0,0,0,0,0,0,0,0,0,0,0,0,0,0,0],"split_type":[0,0,0,0,0,0,0,0,0,0,0,0,0,0,0,0,0,0,0,0,0,0,0,0,0,0,0,0,0,0,0,0,0,0,0,0,0,0,0,0,0,0,0,0,0,0,0,0,0,0,0,0,0,0,0,0,0,0,0,0,0,0,0,0,0,0,0,0,0,0,0,0,0,0,0,0,0,0,0,0,0,0,0,0,0,0,0],"sum_hessian":[2.298E3,2.112E3,1.86E2,2.102E3,1E1,3.9E1,1.47E2,1.316E3,7.86E2,6E0,4E0,2.5E1,1.4E1,3.9E1,1.08E2,2.23E2,1.093E3,1.35E2,6.51E2,5E0,1E0,1.5E1,1E1,1E1,4E0,3.6E1,3E0,1.04E2,4E0,1.96E2,2.7E1,4.26E2,6.67E2,8.3E1,5.2E1,5.51E2,1E2,1E0,4E0,6E0,9E0,9E0,1E0,1E0,9E0,3E0,1E0,2.8E1,8E0,1E0,2E0,7.7E1,2.7E1,8.2E1,1.14E2,2.5E1,2E0,1.7E2,2.56E2,2.56E2,4.11E2,7E0,7.6E1,3.2E1,2E1,4.91E2,6E1,7.6E1,2.4E1,1E0,3E0,5E0,1E0,8E0,1E0,1E0,8E0,4E0,5E0,2.5E1,3E0,4E0,4E0,4.8E1,2.9E1,2.4E1,3E0],"tree_param":{"num_deleted":"0","num_feature":"7","num_nodes":"87","size_leaf_vector":"1"}},{"base_weights":[9.657614E-3,9.315929E-2,-7.5293547E-1,-8.7393954E-2,4.421312E-1,-1.3946477E0,-5.7708412E-2,-1.1813829E-1,3.3939989E0,1.4065323E0,2.0786893E-1,-7.1930873E-1,-2.7441983E0,1.2974589E0,-1.0158621E0,-1.7142166E-1,1.5950091E0,2.1253667E0,6.631514E-1,1.6460505E-1,3.8868084E0,4.8964736E-1,-9.1125137E-1,1.1029717E0,-1.8347363E0,9.640588E-2,-3.4803672E0,-1.5070928E0,2.4479518E0,-1.4116234E0,3.1110609E0,1.284069E-2,-1.2839619E0,4.9166017E0,-1.2182634E0,1.8445808E0,-1.9207579E0,-6.930926E-1,1.8212503E0,1.9226716E0,7.449398E0,1.4925742E-1,2.3333216E0,-7.1603246E0,-5.6210876E-1,2.8070211E0,-2.7562342E0,-3.1173096E0,-3.1539407E-1,-8.595097E-1,1.1615596E0,-4.014585E0,-1.075251E0,-2.3583472E0,1.4338818E0,4.6655184E-1,4.5240297E0,4.7615156E-2,-2.528912E0,2.791675E0,-2.3125956E0,2.0824802E-1,-7.1625486E-2,-1.1299061E-1,-7.035491E-1,2.028279E0,-1.1069586E0,-8.031756E-1,2.8202233E0,1.5329312E-1,9.0235776E-1,-7.023196E-1,-1.6202146E-1,2.3947059E-1,-6.083527E-1,9.4423187E-1,-1.9540551E-1,-4.7698602E-1,1.180234E0,2.7796764E0,4.8019904E-1,8.369054E-2,-1.0781734E0,-3.9180478E-1,9.286986E-1,-2.7621787E0,-6.132901E-1,3.446398E-1,-4.786154E-1,-1.9521808E-2,2.3523958E0,-1.8421173E-3,-1.65153E0,-3.993045E-1,-1.4815878E0,4.2732933E-1,-8.6807775E-1,3.4741622E-1,-5.17512E-1,-1.726325E0,-8.572038E-1,-4.2389673E-1,-4.6181202E-2,-1.9819222E-1,-1.1157441E0,-8.057473E-1,6.7996764E-1,1.7832068E0,3.5001126E-1,-1.850927E-1,1.2069769E0,-8.399702E-1,9.6205676E-1,-8.628785E-1,-9.323974E-2],"categories":[],"categories_nodes":[],"categories_segments":[],"categories_sizes":[],"default_left":[0,0,0,0,0,0,0,0,0,0,0,0,0,0,0,0,0,0,0,0,0,0,0,0,0,0,0,0,0,0,0,0,0,0,0,0,0,0,0,0,0,0,0,0,0,0,0,0,0,0,0,0,0,0,0,0,0,0,0,0,0,0,0,0,0,0,0,0,0,0,0,0,0,0,0,0,0,0,0,0,0,0,0,0,0,0,0,0,0,0,0,0,0,0,0,0,0,0,0,0,0,0,0,0,0,0,0,0,0,0,0,0,0,0,0],"id":12,"left_children":[1,3,5,7,9,11,13,15,17,19,21,23,25,27,29,31,33,-1,35,37,39,41,43,45,47,49,51,53,55,57,59,61,63,65,67,69,71,73,75,77,79,81,83,85,87,89,91,93,95,97,-1,99,101,103,-1,105,107,109,111,-1,113,-1,-1,-1,-1,-1,-1,-1,-1,-1,-1,-1,-1,-1,-1,-1,-1,-1,-1,-1,-1,-1,-1,-1,-1,-1,-1,-1,-1,-1,-1,-1,-1,-1,-1,-1,-1,-1,-1,-1,-1,-1,-1,-1,-1,-1,-1,-1,-1,-1,-1,-1,-1,-1,-1],"loss_changes":[1.4646541E2,1.3065424E2,1.0119232E2,1.4671524E2,1.59435E2,1.0557175E2,1.4414847E2,1.2405216E2,1.16242004E2,4.2444476E2,1.8019226E2,1.6463339E2,8.189096E1,1.5211365E2,1.1055461E2,2.6979553E2,3.8911603E2,0E0,2.7964645E1,1.3340607E2,3.075583E2,2.8582285E2,2.4688419E2,2.1160143E2,9.6450226E1,3.580909E1,3.5513824E1,8.619407E1,1.3363614E2,9.794386E1,2.231018E2,1.9386433E2,1.7917087E2,3.2653662E2,3.8150745E2,7.771166E0,4.7659492E-1,1.2503277E2,1.0698252E2,2.2528366E2,1.5512744E2,1.884173E2,2.010263E2,4.401065E1,1.9629517E2,3.1860773E2,7.5562584E1,8.1268585E1,1.1177647E2,1.5967791E1,0E0,3.389267E1,1.9606276E0,2.7576073E1,0E0,1.08224945E2,6.934317E1,7.382097E1,6.1826035E1,0E0,3.6194382E0,0E0,0E0,0E0,0E0,0E0,0E0,0E0,0E0,0E0,0E0,0E0,0E0,0E0,0E0,0E0,0E0,0E0,0E0,0E0,0E0,0E0,0E0,0E0,0E0,0E0,0E0,0E0,0E0,0E0,0E0,0E0,0E0,0E0,0E0,0E0,0E0,0E0,0E0,0E0,0E0,0E0,0E0,0E0,0E0,0E0,0E0,0E0,0E0,0E0,0E0,0E0,0E0,0E0,0E0],"parents":[2147483647,0,0,1,1,2,2,3,3,4,4,5,5,6,6,7,7,8,8,9,9,10,10,11,11,12,12,13,13,14,14,15,15,16,16,18,18,19,19,20,20,21,21,22,22,23,23,24,24,25,25,26,26,27,27,28,28,29,29,30,30,31,31,32,32,33,33,34,34,35,35,36,36,37,37,38,38,39,39,40,40,41,41,42,42,43,43,44,44,45,45,46,46,47,47,48,48,49,49,51,51,52,52,53,53,55,55,56,56,57,57,58,58,60,60],"right_children":[2,4,6,8,10,12,14,16,18,20,22,24,26,28,30,32,34,-1,36,38,40,42,44,46,48,50,52,54,56,58,60,62,64,66,68,70,72,74,76,78,80,82,84,86,88,90,92,94,96,98,-1,100,102,104,-1,106,108,110,112,-1,114,-1,-1,-1,-1,-1,-1,-1,-1,-1,-1,-1,-1,-1,-1,-1,-1,-1,-1,-1,-1,-1,-1,-1,-1,-1,-1,-1,-1,-1,-1,-1,-1,-1,-1,-1,-1,-1,-1,-1,-1,-1,-1,-1,-1,-1,-1,-1,-1,-1,-1,-1,-1,-1,-1],"split_conditions":[2.5305208E1,2.6333334E1,2.8488375E1,2.4967499E1,2.9E1,2.6999998E0,2.988217E1,2.8E1,2E-1,2.6E1,2.0176065E1,2.478751E2,1.1838412E2,1.5333333E1,9.4E0,2.2666666E1,4E-1,2.1253667E0,1.7E1,1.8359999E1,2.5258282E2,1.8043148E1,2.0326454E1,3.0666666E1,2.73755E2,1.4436084E1,2.5988608E2,1.5881917E1,2.9379177E1,8.000001E-1,9.700001E0,2.8048332E0,2.45E1,1.7447933E1,2.3532547E1,1.4E1,1.8E1,1.477755E1,1.2E0,2.6E1,3.165188E2,1.7782688E1,7.65607E1,3.3666668E1,1.839839E2,2.5E1,2.6574244E1,2.7E1,3.3298328E0,4.6499986E-2,1.1615596E0,3.3298328E0,2.15E1,5.2360826E0,1.4338818E0,3.3006666E0,2.5948077E2,5E-1,4.4E1,2.791675E0,2.35E1,2.0824802E-1,-7.1625486E-2,-1.1299061E-1,-7.035491E-1,2.028279E0,-1.1069586E0,-8.031756E-1,2.8202233E0,1.5329312E-1,9.0235776E-1,-7.023196E-1,-1.6202146E-1,2.3947059E-1,-6.083527E-1,9.4423187E-1,-1.9540551E-1,-4.7698602E-1,1.180234E0,2.7796764E0,4.8019904E-1,8.369054E-2,-1.0781734E0,-3.9180478E-1,9.286986E-1,-2.7621787E0,-6.132901E-1,3.446398E-1,-4.786154E-1,-1.9521808E-2,2.3523958E0,-1.8421173E-3,-1.65153E0,-3.993045E-1,-1.4815878E0,4.2732933E-1,-8.6807775E-1,3.4741622E-1,-5.17512E-1,-1.726325E0,-8.572038E-1,-4.2389673E-1,-4.6181202E-2,-1.9819222E-1,-1.1157441E0,-8.057473E-1,6.7996764E-1,1.7832068E0,3.5001126E-1,-1.850927E-1,1.2069769E0,-8.399702E-1,9.6205676E-1,-8.628785E-1,-9.323974E-2],"split_indices":[5,2,5,5,1,4,5,1,4,0,5,6,6,2,4,2,4,0,0,5,6,5,5,2,6,3,6,3,5,4,4,3,1,5,5,0,0,5,4,1,6,5,6,2,6,1,5,0,3,3,0,3,1,3,0,3,6,4,0,0,1,0,0,0,0,0,0,0,0,0,0,0,0,0,0,0,0,0,0,0,0,0,0,0,0,0,0,0,0,0,0,0,0,0,0,0,0,0,0,0,0,0,0,0,0,0,0,0,0,0,0,0,0,0,0],"split_type":[0,0,0,0,0,0,0,0,0,0,0,0,0,0,0,0,0,0,0,0,0,0,0,0,0,0,0,0,0,0,0,0,0,0,0,0,0,0,0,0,0,0,0,0,0,0,0,0,0,0,0,0,0,0,0,0,0,0,0,0,0,0,0,0,0,0,0,0,0,0,0,0,0,0,0,0,0,0,0,0,0,0,0,0,0,0,0,0,0,0,0,0,0,0,0,0,0,0,0,0,0,0,0,0,0,0,0,0,0,0,0,0,0,0,0],"sum_hessian":[2.298E3,2.072E3,2.26E2,1.366E3,7.06E2,1.17E2,1.09E2,1.355E3,1.1E1,1.37E2,5.69E2,7.9E1,3.8E1,4.5E1,6.4E1,1.315E3,4E1,4E0,7E0,9.2E1,4.5E1,4.55E2,1.14E2,3E1,4.9E1,8E0,3E1,1.3E1,3.2E1,5.9E1,5E0,1.129E3,1.86E2,1.8E1,2.2E1,5E0,2E0,6.1E1,3.1E1,3E1,1.5E1,3.85E2,7E1,5E0,1.09E2,2.1E1,9E0,2.6E1,2.3E1,7E0,1E0,2.4E1,6E0,1.2E1,1E0,1.7E1,1.5E1,2.6E1,3.3E1,2E0,3E0,3.04E2,8.25E2,1.01E2,8.5E1,1.5E1,3E0,2E1,2E0,3E0,2E0,1E0,1E0,2.9E1,3.2E1,2E1,1.1E1,1.1E1,1.9E1,1.1E1,4E0,3.73E2,1.2E1,1.2E1,5.8E1,3E0,2E0,4.1E1,6.8E1,1.4E1,7E0,5E0,4E0,1.4E1,1.2E1,1.4E1,9E0,2E0,5E0,8E0,1.6E1,4E0,2E0,6E0,6E0,6E0,1.1E1,1E1,5E0,2.3E1,3E0,3.2E1,1E0,2E0,1E0],"tree_param":{"num_deleted":"0","num_feature":"7","num_nodes":"115","size_leaf_vector":"1"}},{"base_weights":[9.523881E-3,1.04434565E-1,-5.3202057E-1,-1.7305299E0,1.4754432E-1,-2.2258089E0,-2.68778E-1,-9.8059155E-2,-3.2877603E0,1.4522141E0,8.683111E-2,-3.1233945E0,-1.625723E-1,1.4700626E0,-5.285703E-1,1.3118284E0,-2.9055767E0,-1.102817E0,-4.174747E0,7.365834E-2,3.7331455E0,4.3168787E-2,1.3959689E0,-3.638225E0,3.0660431E0,2.4716432E0,-2.193343E0,4.681611E0,9.6926814E-1,-6.245009E-1,3.0278487E0,2.2260189E-1,1.7872828E0,-4.076177E0,4.0414906E-1,-1.7024733E0,4.6421644E-1,-4.7845182E0,-3.4479076E-1,6.269956E0,-9.825979E-1,1.752153E0,6.888787E0,9.2542104E-2,-4.284092E0,-6.2455714E-1,2.9000192E0,-9.1239735E-2,-4.1804056E0,-6.271411E-1,2.0068607E0,1.1417418E0,5.195699E-1,-1.3637779E0,-1.0193642E0,-2.085866E-1,1.8598975E0,-7.1170545E-1,2.5963936E0,-4.577898E-1,-3.4497056E0,-8.465367E-2,1.087965E0,6.3895893E-1,-3.2209176E-1,-4.977585E-1,-1.4609609E0,3.01257E-1,-1.1938992E-1,-1.440161E-1,-7.497824E-1,-8.1016314E-1,-1.7248305E0,1.10018186E-1,3.624451E0,-6.6858363E-1,1.1551548E0,7.233609E-1,-4.9548283E-1,2.7337018E-1,2.3979523E0,1.9557815E-2,2.070312E0,5.150265E-1,-1.6332152E0,-7.1302E-1,8.8475716E-1,9.5849335E-1,-1.0250416E0,2.863248E-1,-3.3194464E-1,-6.5771765E-1,-1.439233E0,3.260681E-1,-1.7736025E-1,-6.374819E-1,1.07825376E-1,3.6352953E-1,-8.3094496E-1,3.9509767E-1,2.0235152E0,-1.933725E-1,1.1764216E0,-1.885774E0,4.1386703E-1],"categories":[],"categories_nodes":[],"categories_segments":[],"categories_sizes":[],"default_left":[0,0,0,0,0,0,0,0,0,0,0,0,0,0,0,0,0,0,0,0,0,0,0,0,0,0,0,0,0,0,0,0,0,0,0,0,0,0,0,0,0,0,0,0,0,0,0,0,0,0,0,0,0,0,0,0,0,0,0,0,0,0,0,0,0,0,0,0,0,0,0,0,0,0,0,0,0,0,0,0,0,0,0,0,0,0,0,0,0,0,0,0,0,0,0,0,0,0,0,0,0,0,0,0,0],"id":13,"left_children":[1,3,5,7,9,11,13,15,17,19,21,23,25,27,29,31,33,35,37,39,41,43,45,47,49,51,53,55,57,59,61,63,-1,65,67,69,-1,71,-1,73,75,77,79,81,83,85,87,89,91,-1,-1,-1,93,95,-1,-1,-1,97,99,101,103,-1,-1,-1,-1,-1,-1,-1,-1,-1,-1,-1,-1,-1,-1,-1,-1,-1,-1,-1,-1,-1,-1,-1,-1,-1,-1,-1,-1,-1,-1,-1,-1,-1,-1,-1,-1,-1,-1,-1,-1,-1,-1,-1,-1],"loss_changes":[1.1822038E2,1.5506357E2,1.523376E2,1.1407359E2,1.5140399E2,8.4681076E1,1.3539479E2,9.485216E1,3.9970367E1,2.6699823E2,1.0448537E2,1.1312335E2,8.5663475E1,5.818696E1,9.05949E1,7.963874E1,3.264231E1,1.5348083E1,2.4018463E1,3.595843E2,1.8797144E2,3.7877277E2,1.8111063E2,5.73118E1,7.003803E1,1.6253296E1,4.359226E0,4.5122482E1,9.7578285E1,1.1805294E2,1.4895355E1,3.6898487E1,0E0,3.4299698E0,1.8435401E0,5.618393E0,0E0,1.06145935E1,0E0,2.700245E2,2.9162134E2,5.109059E1,7.193475E1,3.2578687E2,1.4856076E2,1.6981715E2,7.426544E1,6.3640146E0,2.1375763E1,0E0,0E0,0E0,3.163239E0,9.945159E0,0E0,0E0,0E0,7.461325E1,8.665718E1,1.9965813E2,2.0042683E2,0E0,0E0,0E0,0E0,0E0,0E0,0E0,0E0,0E0,0E0,0E0,0E0,0E0,0E0,0E0,0E0,0E0,0E0,0E0,0E0,0E0,0E0,0E0,0E0,0E0,0E0,0E0,0E0,0E0,0E0,0E0,0E0,0E0,0E0,0E0,0E0,0E0,0E0,0E0,0E0,0E0,0E0,0E0,0E0],"parents":[2147483647,0,0,1,1,2,2,3,3,4,4,5,5,6,6,7,7,8,8,9,9,10,10,11,11,12,12,13,13,14,14,15,15,16,16,17,17,18,18,19,19,20,20,21,21,22,22,23,23,24,24,25,25,26,26,27,27,28,28,29,29,30,30,31,31,33,33,34,34,35,35,37,37,39,39,40,40,41,41,42,42,43,43,44,44,45,45,46,46,47,47,48,48,52,52,53,53,57,57,58,58,59,59,60,60],"right_children":[2,4,6,8,10,12,14,16,18,20,22,24,26,28,30,32,34,36,38,40,42,44,46,48,50,52,54,56,58,60,62,64,-1,66,68,70,-1,72,-1,74,76,78,80,82,84,86,88,90,92,-1,-1,-1,94,96,-1,-1,-1,98,100,102,104,-1,-1,-1,-1,-1,-1,-1,-1,-1,-1,-1,-1,-1,-1,-1,-1,-1,-1,-1,-1,-1,-1,-1,-1,-1,-1,-1,-1,-1,-1,-1,-1,-1,-1,-1,-1,-1,-1,-1,-1,-1,-1,-1,-1],"split_conditions":[3.0250223E2,-4.905584E0,3.1005508E2,-6.788918E0,-2.0014162E0,2.0617662E1,-3.64725E0,1.6704155E1,1.4666667E1,1.757744E1,5.2666668E1,4.1666668E1,3.0624265E2,3.1486902E2,1.9740253E1,2.35E1,1E-1,1.6E1,3.1E1,1.5333333E1,2.4E1,5.4E1,2E-1,1.3E1,2.5E1,2.7881668E0,1.1E1,1.9E1,1.4494192E1,4.35E1,3.1486902E2,1.3089354E1,1.7872828E0,1.1E1,9E0,1.1333333E1,4.6421644E-1,1.6E1,-3.4479076E-1,1.3666667E1,3.4333332E1,2.8E1,2.1E1,5.25E1,4.5666668E1,7.2E1,8.5333336E1,1.3E1,1.4019216E1,-6.271411E-1,2.0068607E0,1.1417418E0,2.5E1,1.2E1,-1.0193642E0,-2.085866E-1,1.8598975E0,1.337825E1,2.6E1,3.85E1,5.25E1,-8.465367E-2,1.087965E0,6.3895893E-1,-3.2209176E-1,-4.977585E-1,-1.4609609E0,3.01257E-1,-1.1938992E-1,-1.440161E-1,-7.497824E-1,-8.1016314E-1,-1.7248305E0,1.10018186E-1,3.624451E0,-6.6858363E-1,1.1551548E0,7.233609E-1,-4.9548283E-1,2.7337018E-1,2.3979523E0,1.9557815E-2,2.070312E0,5.150265E-1,-1.6332152E0,-7.1302E-1,8.8475716E-1,9.5849335E-1,-1.0250416E0,2.863248E-1,-3.3194464E-1,-6.5771765E-1,-1.439233E0,3.260681E-1,-1.7736025E-1,-6.374819E-1,1.07825376E-1,3.6352953E-1,-8.3094496E-1,3.9509767E-1,2.0235152E0,-1.933725E-1,1.1764216E0,-1.885774E0,4.1386703E-1],"split_indices":[6,3,6,3,3,5,3,5,2,5,2,2,6,6,3,1,4,0,0,2,2,1,4,1,0,3,0,0,5,1,6,5,0,1,0,2,0,0,0,2,2,0,0,1,2,0,2,2,5,0,0,0,0,1,0,0,0,5,0,1,1,0,0,0,0,0,0,0,0,0,0,0,0,0,0,0,0,0,0,0,0,0,0,0,0,0,0,0,0,0,0,0,0,0,0,0,0,0,0,0,0,0,0,0,0],"split_type":[0,0,0,0,0,0,0,0,0,0,0,0,0,0,0,0,0,0,0,0,0,0,0,0,0,0,0,0,0,0,0,0,0,0,0,0,0,0,0,0,0,0,0,0,0,0,0,0,0,0,0,0,0,0,0,0,0,0,0,0,0,0,0,0,0,0,0,0,0,0,0,0,0,0,0,0,0,0,0,0,0,0,0,0,0,0,0,0,0,0,0,0,0,0,0,0,0,0,0,0,0,0,0,0,0],"sum_hessian":[2.298E3,1.956E3,3.42E2,4.4E1,1.912E3,4.5E1,2.97E2,2.2E1,2.2E1,8.4E1,1.828E3,3.1E1,1.4E1,3.8E1,2.59E2,1.5E1,7E0,7E0,1.5E1,5.3E1,3.1E1,1.77E3,5.8E1,2.9E1,2E0,6E0,8E0,4E0,3.4E1,2.53E2,6E0,1.3E1,2E0,5E0,2E0,6E0,1E0,1.2E1,3E0,7E0,4.6E1,2E1,1.1E1,1.751E3,1.9E1,2.5E1,3.3E1,4E0,2.5E1,1E0,1E0,3E0,3E0,6E0,2E0,1E0,3E0,1.7E1,1.7E1,2.4E2,1.3E1,1E0,5E0,5E0,8E0,2E0,3E0,1E0,1E0,3E0,3E0,5E0,7E0,4E0,3E0,3.7E1,9E0,1.7E1,3E0,2E0,9E0,1.745E3,6E0,3E0,1.6E1,1.7E1,8E0,3.2E1,1E0,2E0,2E0,7E0,1.8E1,2E0,1E0,4E0,2E0,9E0,8E0,1.4E1,3E0,2.31E2,9E0,8E0,5E0],"tree_param":{"num_deleted":"0","num_feature":"7","num_nodes":"105","size_leaf_vector":"1"}},{"base_weights":[1.0281496E-2,8.125949E-2,-4.9973574E-1,4.2999048E-2,2.902437E0,-8.113531E-1,1.4925368E-1,2.8022291E-2,2.738991E0,-8.1505406E-1,3.7180495E0,-3.3801678E-1,-1.5653576E0,1.9547274E0,-6.3078505E-1,1.85323E-1,-2.297204E-1,9.04544E-1,1.4278256E0,4.316184E0,-1.9076195E0,-9.1983384E-1,1.5649606E0,3.3755531E0,-1.7520812E0,3.664418E0,2.2870103E-1,-6.934812E-2,-2.8711984E0,-7.558632E-1,4.0443408E-1,-3.0912962E0,-1.1066508E-1,1.3599399E0,-2.741747E-1,4.136826E-1,5.439644E0,-1.0382464E0,1.7981759E-1,7.3136187E-1,-1.556368E0,-2.538894E-1,4.3989916E0,1.11110695E-1,1.4078883E0,-2.4097888E0,-5.910096E-1,4.9467263E0,-7.780342E-1,-9.11714E-1,8.0756223E-1,-2.2683332E0,6.2958246E-1,-3.8070345E0,-6.1245364E-1,-1.24810345E-1,-8.408473E-1,3.5034734E-1,3.8282774E-2,-3.592947E-1,-1.6426433E0,-1.0376781E-1,4.5193478E-1,-2.8083803E-2,5.008119E-1,4.5123985E-1,-3.5344353E-1,1.7983547E0,-5.157443E-1,3.6582404E-1,-4.687012E-1,-1.749545E0,-3.559413E-1,7.2407305E-1,-3.5652632E-1,2.0190332E0,7.668818E-2,-3.6801624E-1,-9.459201E-1,-1.794262E-2,-1.4462042E0,2.0926523E0,6.280474E-1,-9.049479E-1,2.920849E-1,-5.590346E-1,1.8091713E-1,-3.4486634E-1,-8.471627E-1,5.44607E-1,-1.4310339E-1,-3.119259E-1,-1.505215E0,-2.842204E-1,1.09100536E-1],"categories":[],"categories_nodes":[],"categories_segments":[],"categories_sizes":[],"default_left":[0,0,0,0,0,0,0,0,0,0,0,0,0,0,0,0,0,0,0,0,0,0,0,0,0,0,0,0,0,0,0,0,0,0,0,0,0,0,0,0,0,0,0,0,0,0,0,0,0,0,0,0,0,0,0,0,0,0,0,0,0,0,0,0,0,0,0,0,0,0,0,0,0,0,0,0,0,0,0,0,0,0,0,0,0,0,0,0,0,0,0,0,0,0,0],"id":14,"left_children":[1,3,5,7,9,11,13,15,17,-1,19,21,23,25,27,29,31,33,-1,35,37,39,41,43,45,47,49,51,53,55,57,59,61,63,-1,65,67,-1,-1,69,71,73,75,-1,-1,77,79,81,83,85,-1,87,89,91,93,-1,-1,-1,-1,-1,-1,-1,-1,-1,-1,-1,-1,-1,-1,-1,-1,-1,-1,-1,-1,-1,-1,-1,-1,-1,-1,-1,-1,-1,-1,-1,-1,-1,-1,-1,-1,-1,-1,-1,-1],"loss_changes":[8.32644E1,2.1780501E2,5.6949516E1,8.039505E1,1.3384665E2,6.728145E1,1.3080025E2,8.043955E1,3.6464943E1,0E0,8.899136E1,1.320873E2,7.3262924E1,8.178914E1,8.156119E1,2.5437408E2,2.5585367E2,7.0397034E0,0E0,9.420438E1,1.3756072E1,9.6783134E1,1.4544781E2,1.0139027E1,5.2794647E1,8.360103E1,4.4589813E1,8.288582E1,2.5147964E1,1.6091249E2,2.1117639E2,1.2888623E2,2.75543E2,2.8549385E0,0E0,1.2186939E1,7.783301E1,0E0,0E0,3.1010664E1,9.7458084E1,4.773931E1,1.04525024E2,0E0,0E0,3.570276E1,6.0375412E1,4.907132E1,1.8620895E1,1.6982025E1,0E0,4.833679E0,5.466492E1,2.4927551E1,1.9792887E0,0E0,0E0,0E0,0E0,0E0,0E0,0E0,0E0,0E0,0E0,0E0,0E0,0E0,0E0,0E0,0E0,0E0,0E0,0E0,0E0,0E0,0E0,0E0,0E0,0E0,0E0,0E0,0E0,0E0,0E0,0E0,0E0,0E0,0E0,0E0,0E0,0E0,0E0,0E0,0E0],"parents":[2147483647,0,0,1,1,2,2,3,3,4,4,5,5,6,6,7,7,8,8,10,10,11,11,12,12,13,13,14,14,15,15,16,16,17,17,19,19,20,20,21,21,22,22,23,23,24,24,25,25,26,26,27,27,28,28,29,29,30,30,31,31,32,32,33,33,35,35,36,36,39,39,40,40,41,41,42,42,45,45,46,46,47,47,48,48,49,49,51,51,52,52,53,53,54,54],"right_children":[2,4,6,8,10,12,14,16,18,-1,20,22,24,26,28,30,32,34,-1,36,38,40,42,44,46,48,50,52,54,56,58,60,62,64,-1,66,68,-1,-1,70,72,74,76,-1,-1,78,80,82,84,86,-1,88,90,92,94,-1,-1,-1,-1,-1,-1,-1,-1,-1,-1,-1,-1,-1,-1,-1,-1,-1,-1,-1,-1,-1,-1,-1,-1,-1,-1,-1,-1,-1,-1,-1,-1,-1,-1,-1,-1,-1,-1,-1,-1],"split_conditions":[2.431666E1,2.3893261E1,2.9144438E1,2.4036089E1,1.1333333E1,2.6574244E1,2.988217E1,1.131525E1,1E-1,-8.1505406E-1,3.8E1,2.5890606E1,-3.2805836E0,2.3832178E2,9.119416E0,1.0765435E2,1.19298315E1,4E1,1.4278256E0,1.7089633E2,4E1,1.6E1,2.5E1,7E0,2.804305E1,3.0666666E1,2.7666666E1,-4.305832E-1,3.1765793E1,8.789841E1,2.0555989E2,2.4E1,4.5E0,6.983732E1,-2.741747E-1,2.2E1,3.1794257E2,-1.0382464E0,1.7981759E-1,2.8789902E2,4.6499986E-2,1.7496187E2,2.6282465E1,1.11110695E-1,1.4078883E0,1.9E1,4.4E1,2.7E1,3.1E1,6.9152493E0,8.0756223E-1,1.65E1,2.1E1,2E-1,1.2683998E1,-1.24810345E-1,-8.408473E-1,3.5034734E-1,3.8282774E-2,-3.592947E-1,-1.6426433E0,-1.0376781E-1,4.5193478E-1,-2.8083803E-2,5.008119E-1,4.5123985E-1,-3.5344353E-1,1.7983547E0,-5.157443E-1,3.6582404E-1,-4.687012E-1,-1.749545E0,-3.559413E-1,7.2407305E-1,-3.5652632E-1,2.0190332E0,7.668818E-2,-3.6801624E-1,-9.459201E-1,-1.794262E-2,-1.4462042E0,2.0926523E0,6.280474E-1,-9.049479E-1,2.920849E-1,-5.590346E-1,1.8091713E-1,-3.4486634E-1,-8.471627E-1,5.44607E-1,-1.4310339E-1,-3.119259E-1,-1.505215E0,-2.842204E-1,1.09100536E-1],"split_indices":[5,5,5,3,2,5,5,3,4,0,2,5,3,6,3,6,3,1,0,6,0,2,0,0,5,2,2,3,5,6,6,0,4,6,0,0,6,0,0,6,3,6,5,0,0,2,0,0,2,3,0,1,2,4,3,0,0,0,0,0,0,0,0,0,0,0,0,0,0,0,0,0,0,0,0,0,0,0,0,0,0,0,0,0,0,0,0,0,0,0,0,0,0,0,0],"split_type":[0,0,0,0,0,0,0,0,0,0,0,0,0,0,0,0,0,0,0,0,0,0,0,0,0,0,0,0,0,0,0,0,0,0,0,0,0,0,0,0,0,0,0,0,0,0,0,0,0,0,0,0,0,0,0,0,0,0,0,0,0,0,0,0,0,0,0,0,0,0,0,0,0,0,0,0,0,0,0,0,0,0,0,0,0,0,0,0,0,0,0,0,0,0,0],"sum_hessian":[2.298E3,2.018E3,2.8E2,1.992E3,2.6E1,1.89E2,9.1E1,1.982E3,1E1,3E0,2.3E1,1.17E2,7.2E1,2.7E1,6.4E1,1.231E3,7.51E2,6E0,4E0,2.1E1,2E0,9E1,2.7E1,2E0,7E1,1.3E1,1.4E1,5.2E1,1.2E1,2.32E2,9.99E2,2.9E1,7.22E2,5E0,1E0,5E0,1.6E1,1E0,1E0,2.5E1,6.5E1,1.7E1,1E1,1E0,1E0,4.4E1,2.6E1,1E1,3E0,1E1,4E0,1.2E1,4E1,8E0,4E0,2E2,3.2E1,2.65E2,7.34E2,1.7E1,1.2E1,6.31E2,9.1E1,1E0,4E0,3E0,2E0,1.5E1,1E0,2.1E1,4E0,4E0,6.1E1,4E0,1.3E1,6E0,4E0,1.8E1,2.6E1,2.4E1,2E0,5E0,5E0,1E0,2E0,6E0,4E0,5E0,7E0,1.9E1,2.1E1,3E0,5E0,3E0,1E0],"tree_param":{"num_deleted":"0","num_feature":"7","num_nodes":"95","size_leaf_vector":"1"}},{"base_weights":[6.263065E-3,2.5338115E-2,-1.8824393E0,1.1900078E0,-3.488772E-3,-5.7974267E-1,-1.6430367E0,1.04544766E-1,2.3966956E0,-3.3978994E0,1.1844379E-2,-1.1760188E0,1.4335431E0,8.922073E-1,-1.5714942E0,3.2473035E0,-9.7988063E-1,-6.9396977E0,1.5318382E0,2.4773657E-1,-1.5512623E-1,-2.2410994E0,-2.0635262E-1,-4.0591803E-1,4.025995E0,-5.656843E-1,3.59823E0,6.392555E-1,-8.436307E-1,-6.52476E-1,-2.9760568E0,1.2591615E0,-4.9324226E-1,7.3836304E-2,1.5513049E0,1.6756728E-1,-4.2298427E-1,-2.9139216E0,-4.452658E-2,1.035228E0,-1.206611E0,1.1964214E-1,-1.529689E0,3.085891E-1,1.6856064E0,1.3128545E0,1.1674187E-1,2.1911469E-1,5.488129E-2,2.9148504E-1,-5.850992E-1,6.931546E-2,-4.7811005E-1,2.3683266E-1,1.674922E0,8.459879E-2,-6.405492E-1,-1.4477368E-1,1.1372814E0,-1.4310952E-1,-9.91768E-1,-1.9939071E-1,4.8790586E-1,-1.2124825E-1,-4.520388E-1],"categories":[],"categories_nodes":[],"categories_segments":[],"categories_sizes":[],"default_left":[0,0,0,0,0,0,0,0,0,0,0,0,0,0,0,0,0,0,0,0,0,0,0,0,0,0,0,0,0,0,0,0,0,0,0,0,0,0,0,0,0,0,0,0,0,0,0,0,0,0,0,0,0,0,0,0,0,0,0,0,0,0,0,0,0],"id":15,"left_children":[1,3,5,7,9,11,-1,13,15,17,19,21,-1,23,-1,25,27,29,31,33,35,37,39,41,43,-1,45,47,-1,49,-1,-1,-1,51,53,55,57,59,-1,61,63,-1,-1,-1,-1,-1,-1,-1,-1,-1,-1,-1,-1,-1,-1,-1,-1,-1,-1,-1,-1,-1,-1,-1,-1],"loss_changes":[8.287398E1,7.645169E1,1.0451887E2,7.178926E1,1.15740746E2,6.3129196E1,0E0,1.3092476E2,7.7857666E1,1.8523186E2,8.724139E1,1.7094679E1,0E0,1.1147154E2,0E0,4.461171E1,1.9597347E1,1.05961365E2,4.9226532E1,2.079877E2,1.1217844E2,1.0831509E1,1.3668131E1,7.756573E1,3.2411484E1,0E0,4.8227356E1,3.2716632E-2,0E0,8.218483E0,0E0,0E0,0E0,2.129817E2,3.273311E2,1.5580269E2,1.7987857E2,4.154133E0,0E0,6.1050897E0,8.3631325E-1,0E0,0E0,0E0,0E0,0E0,0E0,0E0,0E0,0E0,0E0,0E0,0E0,0E0,0E0,0E0,0E0,0E0,0E0,0E0,0E0,0E0,0E0,0E0,0E0],"parents":[2147483647,0,0,1,1,2,2,3,3,4,4,5,5,7,7,8,8,9,9,10,10,11,11,13,13,15,15,16,16,17,17,18,18,19,19,20,20,21,21,22,22,23,23,24,24,26,26,27,27,29,29,33,33,34,34,35,35,36,36,37,37,39,39,40,40],"right_children":[2,4,6,8,10,12,-1,14,16,18,20,22,-1,24,-1,26,28,30,32,34,36,38,40,42,44,-1,46,48,-1,50,-1,-1,-1,52,54,56,58,60,-1,62,64,-1,-1,-1,-1,-1,-1,-1,-1,-1,-1,-1,-1,-1,-1,-1,-1,-1,-1,-1,-1,-1,-1,-1,-1],"split_conditions":[1.6800001E1,9.107359E0,2.7333334E1,2.8E1,9.346143E0,1.5623586E1,-1.6430367E0,2.55E1,4.5E1,2E-1,2.0555989E2,6.406369E1,1.4335431E0,2.2666666E1,-1.5714942E0,2.6252327E1,8.633059E1,2.2E1,2.9506664E0,1.9382986E2,1E-1,1.4046498E1,1.9E1,2.2E1,4.5274988E-1,-5.656843E-1,2.6644534E2,3.6E1,-8.436307E-1,1.7E1,-2.9760568E0,1.2591615E0,-4.9324226E-1,1.8521817E2,4.1E0,4.5666668E1,2.0600668E1,1.3E1,-4.452658E-2,6.9152493E0,2.1E1,1.1964214E-1,-1.529689E0,3.085891E-1,1.6856064E0,1.3128545E0,1.1674187E-1,2.1911469E-1,5.488129E-2,2.9148504E-1,-5.850992E-1,6.931546E-2,-4.7811005E-1,2.3683266E-1,1.674922E0,8.459879E-2,-6.405492E-1,-1.4477368E-1,1.1372814E0,-1.4310952E-1,-9.91768E-1,-1.9939071E-1,4.8790586E-1,-1.2124825E-1,-4.520388E-1],"split_indices":[4,5,2,0,5,3,0,1,2,4,6,6,0,2,0,6,6,0,3,6,4,3,0,2,3,0,6,0,0,0,0,0,0,6,4,2,3,0,0,3,0,0,0,0,0,0,0,0,0,0,0,0,0,0,0,0,0,0,0,0,0,0,0,0,0],"split_type":[0,0,0,0,0,0,0,0,0,0,0,0,0,0,0,0,0,0,0,0,0,0,0,0,0,0,0,0,0,0,0,0,0,0,0,0,0,0,0,0,0,0,0,0,0,0,0,0,0,0,0,0,0,0,0,0,0,0,0,0,0,0,0,0,0],"sum_hessian":[2.298E3,2.276E3,2.2E1,5.4E1,2.222E3,1.7E1,5E0,2.9E1,2.5E1,9E0,2.213E3,1.6E1,1E0,2.6E1,3E0,2E1,5E0,5E0,4E0,9.17E2,1.296E3,7E0,9E0,1.9E1,7E0,1E0,1.9E1,3E0,2E0,2E0,3E0,2E0,2E0,8.1E2,1.07E2,5.88E2,7.08E2,5E0,2E0,4E0,5E0,1.7E1,2E0,3E0,4E0,1.5E1,4E0,2E0,1E0,1E0,1E0,7.41E2,6.9E1,9.1E1,1.6E1,5.61E2,2.7E1,6.99E2,9E0,1E0,4E0,1E0,3E0,2E0,3E0],"tree_param":{"num_deleted":"0","num_feature":"7","num_nodes":"65","size_leaf_vector":"1"}},{"base_weights":[3.1092046E-3,-6.2054355E-2,4.5833826E-1,-1.0291842E-2,-1.2500048E0,1.5366678E0,3.6208306E-2,-7.7253245E-2,9.3247956E-1,-2.0204492E0,1.3164397E0,-4.1075984E-1,3.103738E0,-4.4661665E0,3.3465046E-1,-5.045468E-2,-3.761267E0,2.0764086E0,-5.7536507E-1,-2.841957E0,9.073742E-1,-6.5794415E0,3.0968566E0,7.968975E-1,-6.7831388E0,5.4843454E0,2.343316E0,-7.074864E0,-1.2194449E0,4.391234E0,1.6117258E-1,2.059239E0,-7.1844436E-2,-5.251689E0,2.1185699E0,9.237658E0,1.5273846E0,1.0424442E0,-1.8212985E0,-1.9473299E0,-6.315195E0,1.9543833E0,-5.6840515E-1,-4.544927E-1,-2.3287816E0,-2.361136E0,4.9578648E0,1.9372349E0,2.04279E-1,-3.3312583E0,-1.8465633E0,4.5412505E-1,4.587639E0,-8.770803E0,4.6511593E-1,-2.3653672E0,8.484135E-1,4.9934306E0,2.6378633E-2,4.692664E-1,-2.082864E0,-2.0309614E-1,1.2947756E0,-1.2667493E-2,-5.5549246E-1,-2.379119E0,-6.6162395E-1,-3.2731992E-1,4.946149E0,-5.982822E-1,6.065804E-1,2.063673E0,-1.9834522E-2,-1.5136888E0,-1.6088614E-1,-2.6234168E-1,-1.2091749E0,-9.139335E-1,-2.1842644E0,6.750715E-2,1.6014284E0,3.9265368E-2,-4.6332592E-1,-1.6102182E0,4.2965013E-1,1.75372E0,-8.54484E-1,-3.2269636E-1,9.9309236E-1,-9.2295915E-1,2.765007E-1,1.4727048E0,-1.1294913E-1,-6.0697746E-1,1.630376E0,-5.799128E-1,-2.9255242E0,-1.004155E0,-8.034707E-2,1.716735E0,9.2897415E-2,7.226974E-1,1.3255993E-2,-1.812879E0,-9.891823E-2],"categories":[],"categories_nodes":[],"categories_segments":[],"categories_sizes":[],"default_left":[0,0,0,0,0,0,0,0,0,0,0,0,0,0,0,0,0,0,0,0,0,0,0,0,0,0,0,0,0,0,0,0,0,0,0,0,0,0,0,0,0,0,0,0,0,0,0,0,0,0,0,0,0,0,0,0,0,0,0,0,0,0,0,0,0,0,0,0,0,0,0,0,0,0,0,0,0,0,0,0,0,0,0,0,0,0,0,0,0,0,0,0,0,0,0,0,0,0,0,0,0,0,0,0,0],"id":16,"left_children":[1,3,5,7,9,11,13,15,17,19,21,23,25,27,29,31,33,35,37,39,41,43,45,47,49,-1,51,53,55,57,59,61,63,65,-1,67,69,71,73,75,77,79,81,-1,-1,83,85,-1,87,-1,89,91,93,95,-1,97,-1,99,-1,101,103,-1,-1,-1,-1,-1,-1,-1,-1,-1,-1,-1,-1,-1,-1,-1,-1,-1,-1,-1,-1,-1,-1,-1,-1,-1,-1,-1,-1,-1,-1,-1,-1,-1,-1,-1,-1,-1,-1,-1,-1,-1,-1,-1,-1],"loss_changes":[6.822677E1,1.2370764E2,1.3104059E2,1.2184846E2,1.6875323E2,2.484671E2,2.8098386E2,1.7771498E2,2.219777E2,1.5891864E2,3.015348E2,2.9014453E2,4.7651715E2,1.0147891E2,1.3722284E2,8.092317E1,2.4679103E2,2.7290445E2,1.1477683E2,1.4617215E2,2.4288197E1,1.2208206E1,1.8438144E2,1.0602641E2,1.074827E2,0E0,1.8447466E2,1.1599347E2,3.9156136E1,2.0292404E1,1.316471E2,1.1406796E2,9.338839E1,8.043115E1,0E0,3.9237927E2,1.2420517E2,1.622065E2,1.2987971E2,9.034679E1,9.385071E0,5.1463673E1,4.9797583E0,0E0,0E0,6.470523E1,1.067511E2,0E0,1.22826065E2,0E0,1.6454882E1,9.43565E1,1.2297717E2,2.1394165E1,0E0,1.1459953E1,0E0,2.2129913E1,0E0,1.3759135E2,1.5768582E2,0E0,0E0,0E0,0E0,0E0,0E0,0E0,0E0,0E0,0E0,0E0,0E0,0E0,0E0,0E0,0E0,0E0,0E0,0E0,0E0,0E0,0E0,0E0,0E0,0E0,0E0,0E0,0E0,0E0,0E0,0E0,0E0,0E0,0E0,0E0,0E0,0E0,0E0,0E0,0E0,0E0,0E0,0E0,0E0],"parents":[2147483647,0,0,1,1,2,2,3,3,4,4,5,5,6,6,7,7,8,8,9,9,10,10,11,11,12,12,13,13,14,14,15,15,16,16,17,17,18,18,19,19,20,20,21,21,22,22,23,23,24,24,26,26,27,27,28,28,29,29,30,30,31,31,32,32,33,33,35,35,36,36,37,37,38,38,39,39,40,40,41,41,42,42,45,45,46,46,48,48,50,50,51,51,52,52,53,53,55,55,57,57,59,59,60,60],"right_children":[2,4,6,8,10,12,14,16,18,20,22,24,26,28,30,32,34,36,38,40,42,44,46,48,50,-1,52,54,56,58,60,62,64,66,-1,68,70,72,74,76,78,80,82,-1,-1,84,86,-1,88,-1,90,92,94,96,-1,98,-1,100,-1,102,104,-1,-1,-1,-1,-1,-1,-1,-1,-1,-1,-1,-1,-1,-1,-1,-1,-1,-1,-1,-1,-1,-1,-1,-1,-1,-1,-1,-1,-1,-1,-1,-1,-1,-1,-1,-1,-1,-1,-1,-1,-1,-1,-1,-1],"split_conditions":[4.1E1,3.9E1,1.4346329E2,3.3666668E1,1.4365251E1,1.4241629E1,1.511893E2,3.55E1,6.804834E0,4.8666668E1,1.2429127E1,1.3755579E1,4.2E1,7.023583E0,1.5375871E2,8.287822E0,1.9088167E1,3.4E1,1.5192682E1,1.0263167E1,4.8E1,3.2E1,4E1,2.9333334E1,4.4E1,5.4843454E0,9.608841E1,6.2E1,4.5E1,1.6E0,1.7521503E1,2.1E1,3.35E1,1.4617523E2,2.1185699E0,3.35E1,2.85E1,1.0295759E2,1.7057314E1,1.5000001E0,3.3E1,3.7E1,9.000001E-1,-4.544927E-1,-2.3287816E0,1E-1,4.7999997E0,1.9372349E0,4.7333332E1,-3.3312583E0,7.115249E0,1.5379206E1,3.25E1,4.8E1,4.6511593E-1,1.491483E2,8.484135E-1,1.9088167E1,2.6378633E-2,1.3324863E1,4.3E1,-2.0309614E-1,1.2947756E0,-1.2667493E-2,-5.5549246E-1,-2.379119E0,-6.6162395E-1,-3.2731992E-1,4.946149E0,-5.982822E-1,6.065804E-1,2.063673E0,-1.9834522E-2,-1.5136888E0,-1.6088614E-1,-2.6234168E-1,-1.2091749E0,-9.139335E-1,-2.1842644E0,6.750715E-2,1.6014284E0,3.9265368E-2,-4.6332592E-1,-1.6102182E0,4.2965013E-1,1.75372E0,-8.54484E-1,-3.2269636E-1,9.9309236E-1,-9.2295915E-1,2.765007E-1,1.4727048E0,-1.1294913E-1,-6.0697746E-1,1.630376E0,-5.799128E-1,-2.9255242E0,-1.004155E0,-8.034707E-2,1.716735E0,9.2897415E-2,7.226974E-1,1.3255993E-2,-1.812879E0,-9.891823E-2],"split_indices":[0,1,6,2,3,5,6,1,3,2,5,5,0,3,6,5,3,2,5,3,1,0,1,2,0,0,6,0,2,4,3,0,1,6,0,1,1,6,5,4,0,0,4,0,0,4,4,0,2,0,3,5,1,0,0,6,0,3,0,5,1,0,0,0,0,0,0,0,0,0,0,0,0,0,0,0,0,0,0,0,0,0,0,0,0,0,0,0,0,0,0,0,0,0,0,0,0,0,0,0,0,0,0,0,0],"split_type":[0,0,0,0,0,0,0,0,0,0,0,0,0,0,0,0,0,0,0,0,0,0,0,0,0,0,0,0,0,0,0,0,0,0,0,0,0,0,0,0,0,0,0,0,0,0,0,0,0,0,0,0,0,0,0,0,0,0,0,0,0,0,0,0,0,0,0,0,0,0,0,0,0,0,0,0,0,0,0,0,0,0,0,0,0,0,0,0,0,0,0,0,0,0,0,0,0,0,0,0,0,0,0,0,0],"sum_hessian":[2.298E3,2.011E3,2.87E2,1.928E3,8.3E1,8E1,2.07E2,1.801E3,1.27E2,6.4E1,1.9E1,3.6E1,4.4E1,1.2E1,1.95E2,1.789E3,1.2E1,7.2E1,5.5E1,5E1,1.4E1,3E0,1.6E1,3.1E1,5E0,1E0,4.3E1,6E0,6E0,7E0,1.88E2,1.7E1,1.772E3,1.1E1,1E0,4E0,6.8E1,2.4E1,