{"learner":{"attributes":{"scikit_learn":"{\"_estimator_type\": \"regressor\"}"},"feature_names":["lagging1","lagging2","lagging3","temperature_2m_mean","precipitation_sum","wind_speed_10m_max","wind_direction_10m_dominant"],"feature_types":["float","float","float","float","float","float","float"],"gradient_booster":{"model":{"gbtree_model_param":{"num_parallel_tree":"1","num_trees":"100"},"iteration_indptr":[0,1,2,3,4,5,6,7,8,9,10,11,12,13,14,15,16,17,18,19,20,21,22,23,24,25,26,27,28,29,30,31,32,33,34,35,36,37,38,39,40,41,42,43,44,45,46,47,48,49,50,51,52,53,54,55,56,57,58,59,60,61,62,63,64,65,66,67,68,69,70,71,72,73,74,75,76,77,78,79,80,81,82,83,84,85,86,87,88,89,90,91,92,93,94,95,96,97,98,99,100],"tree_info":[0,0,0,0,0,0,0,0,0,0,0,0,0,0,0,0,0,0,0,0,0,0,0,0,0,0,0,0,0,0,0,0,0,0,0,0,0,0,0,0,0,0,0,0,0,0,0,0,0,0,0,0,0,0,0,0,0,0,0,0,0,0,0,0,0,0,0,0,0,0,0,0,0,0,0,0,0,0,0,0,0,0,0,0,0,0,0,0,0,0,0,0,0,0,0,0,0,0,0,0],"trees":[{"base_weights":[-3.7985333E-7,-4.2181697E0,1.2460366E1,-7.4652333E0,-1.1984973E0,9.571903E0,2.2416636E1,-3.3490763E0,-8.2478285E0,1.388138E0,-4.4802775E0,5.1597776E0,1.2681866E1,2.5794804E1,5.3110285E0,-4.5526223E0,4.4412775E0,-6.340063E0,-9.325469E0,3.6788282E0,-2.7476716E0,3.3914554E0,-4.8047767E0,1.0603256E1,1.610643E0,1.4002768E1,3.470696E0,2.882364E1,1.0813361E1,-2.967975E0,1.13250265E1,1.8425236E0,-5.009752E0,-1.622243E0,1.1432025E1,-7.289284E0,-4.1155577E0,-1.0000177E1,-6.447537E0,5.6277957E0,2.2288793E-1,-4.0320325E0,4.2241955E0,2.127757E0,-1.1574764E0,2.032025E0,-4.9980607E0,1.3715446E1,-5.8722496E-2,6.11843E0,-2.9615698E0,1.4848571E1,1.2485983E0,1.3632025E1,-1.4636078E0,1.780912E1,9.712509E0,5.4096074E0,1.4320252E0,7.185047E-1,-1.472243E0,1.6027571E0,4.6580067E0,-3.1495288E-2,7.5800633E-1,-1.7264159E0,-1.1134774E-2,1.1580063E0,4.558007E0,1.1685047E0,-2.249616E0,-1.4932168E0,1.0777571E0,-2.6012082E0,-3.3226883E0,3.5685048E0,-2.186241E0,9.082418E-1,2.4291723E0,4.991934E-1,-1.3077414E0,-3.9643204E-1,-2.0908911E0,1.5933086E0,-2.4199371E-1,-6.314953E-1,-4.1993715E-2,-8.72243E-1,3.2685049E0,9.277571E-1,-1.5545142E0,1.1850472E-1,4.2832265E0,-1.2419937E0,5.975079E-1,-6.968491E-1,2.6719036E0,-1.6390824E0,-2.7879122E-1,5.043162E0,3.1906545E0,-1.472243E0,2.127757E0,8.580063E-1,5.958007E0,2.9580064E0,-1.5226583E0,5.8533087E0,1.1850472E-1,2.5185049E0,-7.2224295E-1],"categories":[],"categories_nodes":[],"categories_segments":[],"categories_sizes":[],"default_left":[0,0,0,0,0,0,0,0,0,0,0,0,0,0,0,0,0,0,0,0,0,0,0,0,0,0,0,0,0,0,0,0,0,0,0,0,0,0,0,0,0,0,0,0,0,0,0,0,0,0,0,0,0,0,0,0,0,0,0,0,0,0,0,0,0,0,0,0,0,0,0,0,0,0,0,0,0,0,0,0,0,0,0,0,0,0,0,0,0,0,0,0,0,0,0,0,0,0,0,0,0,0,0,0,0,0,0,0,0,0,0],"id":0,"left_children":[1,3,5,7,9,11,13,15,17,19,21,23,25,27,29,31,33,35,37,39,41,43,45,47,49,51,53,55,57,59,61,63,65,-1,67,69,71,73,75,77,79,81,83,-1,85,87,89,91,93,95,97,99,101,103,105,107,-1,-1,109,-1,-1,-1,-1,-1,-1,-1,-1,-1,-1,-1,-1,-1,-1,-1,-1,-1,-1,-1,-1,-1,-1,-1,-1,-1,-1,-1,-1,-1,-1,-1,-1,-1,-1,-1,-1,-1,-1,-1,-1,-1,-1,-1,-1,-1,-1,-1,-1,-1,-1,-1,-1],"loss_changes":[4.966914E4,6.9134307E3,6.658672E3,1.0676133E3,3.1215972E3,2.5004902E3,2.9256406E3,5.4527814E2,5.2680273E2,1.9617231E3,4.3010327E2,1.5091733E3,1.2776094E3,1.6848789E3,5.315115E2,1.5247772E2,6.126196E2,1.9382422E2,2.85042E2,8.945692E2,6.796573E2,1.26060776E2,2.16302E2,1.0294507E3,1.0280377E3,1.0062715E3,7.7203815E2,8.316367E2,5.836642E2,6.3761124E1,6.7867004E1,5.594921E0,1.7019116E2,0E0,8.3757385E1,2.0020166E2,2.4374554E2,1.09856445E2,6.567252E2,5.21301E2,3.3080597E2,4.9243677E2,6.989632E1,0E0,3.5616932E0,2.505708E2,2.4187524E2,1.7401758E2,7.5191734E1,6.0902594E2,1.22042816E2,5.56875E2,2.8663586E2,2.7864E2,4.9994522E2,3.18302E2,0E0,0E0,1.5388287E2,0E0,0E0,0E0,0E0,0E0,0E0,0E0,0E0,0E0,0E0,0E0,0E0,0E0,0E0,0E0,0E0,0E0,0E0,0E0,0E0,0E0,0E0,0E0,0E0,0E0,0E0,0E0,0E0,0E0,0E0,0E0,0E0,0E0,0E0,0E0,0E0,0E0,0E0,0E0,0E0,0E0,0E0,0E0,0E0,0E0,0E0,0E0,0E0,0E0,0E0,0E0,0E0],"parents":[2147483647,0,0,1,1,2,2,3,3,4,4,5,5,6,6,7,7,8,8,9,9,10,10,11,11,12,12,13,13,14,14,15,15,16,16,17,17,18,18,19,19,20,20,21,21,22,22,23,23,24,24,25,25,26,26,27,27,28,28,29,29,30,30,31,31,32,32,34,34,35,35,36,36,37,37,38,38,39,39,40,40,41,41,42,42,44,44,45,45,46,46,47,47,48,48,49,49,50,50,51,51,52,52,53,53,54,54,55,55,58,58],"right_children":[2,4,6,8,10,12,14,16,18,20,22,24,26,28,30,32,34,36,38,40,42,44,46,48,50,52,54,56,58,60,62,64,66,-1,68,70,72,74,76,78,80,82,84,-1,86,88,90,92,94,96,98,100,102,104,106,108,-1,-1,110,-1,-1,-1,-1,-1,-1,-1,-1,-1,-1,-1,-1,-1,-1,-1,-1,-1,-1,-1,-1,-1,-1,-1,-1,-1,-1,-1,-1,-1,-1,-1,-1,-1,-1,-1,-1,-1,-1,-1,-1,-1,-1,-1,-1,-1,-1,-1,-1,-1,-1,-1,-1],"split_conditions":[2.5E1,1.3E1,4.5E1,1.0739832E1,2.5453648E2,3.1E1,1.9171478E1,2E1,2.5300195E2,2.4999995E0,-1.6927168E1,1.3049689E1,4.6E1,2.4999995E0,6.4686666E0,7.386582E0,1.9998317E2,1.1E1,2.1E1,2.0243962E2,1.5520752E1,8.707238E0,6E0,2.6788327E2,2E-1,2.2608458E1,1.4092752E2,4.9E1,1.5696165E1,2.6E1,5E1,1E1,1.8E1,-1.622243E0,1E1,2E0,2.3721649E2,1.6179987E1,2.2E1,1.8E1,1.835647E1,1.4986553E1,2E1,2.127757E0,1.4E1,1.7E1,7.2E0,8E0,2.6E1,-8.688336E-1,4.431167E0,4E-1,1.5374917E1,8.0238266E1,-2.9375832E0,1.7339897E1,9.712509E0,5.4096074E0,4.6E1,7.185047E-1,-1.472243E0,1.6027571E0,4.6580067E0,-3.1495288E-2,7.5800633E-1,-1.7264159E0,-1.1134774E-2,1.1580063E0,4.558007E0,1.1685047E0,-2.249616E0,-1.4932168E0,1.0777571E0,-2.6012082E0,-3.3226883E0,3.5685048E0,-2.186241E0,9.082418E-1,2.4291723E0,4.991934E-1,-1.3077414E0,-3.9643204E-1,-2.0908911E0,1.5933086E0,-2.4199371E-1,-6.314953E-1,-4.1993715E-2,-8.72243E-1,3.2685049E0,9.277571E-1,-1.5545142E0,1.1850472E-1,4.2832265E0,-1.2419937E0,5.975079E-1,-6.968491E-1,2.6719036E0,-1.6390824E0,-2.7879122E-1,5.043162E0,3.1906545E0,-1.472243E0,2.127757E0,8.580063E-1,5.958007E0,2.9580064E0,-1.5226583E0,5.8533087E0,1.1850472E-1,2.5185049E0,-7.2224295E-1],"split_indices":[0,0,0,5,6,0,5,1,6,4,3,5,1,4,3,5,6,0,2,6,3,5,1,6,4,5,6,0,5,1,0,2,2,0,0,2,6,5,2,0,5,5,1,0,0,0,5,1,0,3,3,4,3,6,3,5,0,0,0,0,0,0,0,0,0,0,0,0,0,0,0,0,0,0,0,0,0,0,0,0,0,0,0,0,0,0,0,0,0,0,0,0,0,0,0,0,0,0,0,0,0,0,0,0,0,0,0,0,0,0,0],"split_type":[0,0,0,0,0,0,0,0,0,0,0,0,0,0,0,0,0,0,0,0,0,0,0,0,0,0,0,0,0,0,0,0,0,0,0,0,0,0,0,0,0,0,0,0,0,0,0,0,0,0,0,0,0,0,0,0,0,0,0,0,0,0,0,0,0,0,0,0,0,0,0,0,0,0,0,0,0,0,0,0,0,0,0,0,0,0,0,0,0,0,0,0,0,0,0,0,0,0,0,0,0,0,0,0,0,0,0,0,0,0,0],"sum_hessian":[9.43E2,7.05E2,2.38E2,3.39E2,3.66E2,1.86E2,5.2E1,5.5E1,2.84E2,2.05E2,1.61E2,7.8E1,1.08E2,4.3E1,9E0,4.8E1,7E0,1.05E2,1.79E2,1.32E2,7.3E1,6E0,1.55E2,3E1,4.8E1,9.4E1,1.4E1,3.5E1,8E0,4E0,5E0,3E0,4.5E1,3E0,4E0,7.2E1,3.3E1,1.43E2,3.6E1,8.4E1,4.8E1,6.2E1,1.1E1,3E0,3E0,4E0,1.51E2,2.3E1,7E0,2.4E1,2.4E1,8.8E1,6E0,4E0,1E1,1E1,2.5E1,4E0,4E0,1E0,3E0,3E0,2E0,1E0,2E0,3.9E1,6E0,2E0,2E0,1E0,7.1E1,3E1,3E0,6.8E1,7.5E1,1E0,3.5E1,4.2E1,4.2E1,3.7E1,1.1E1,3.3E1,2.9E1,9E0,2E0,1E0,2E0,3E0,1E0,3E0,1.48E2,1E0,2.2E1,2E0,5E0,6E0,1.8E1,1E1,1.4E1,5.8E1,3E1,3E0,3E0,2E0,2E0,2E0,8E0,9E0,1E0,1E0,3E0],"tree_param":{"num_deleted":"0","num_feature":"7","num_nodes":"111","size_leaf_vector":"1"}},{"base_weights":[5.403954E-2,-3.2582676E0,8.165368E0,-6.103723E0,-1.6801567E0,4.4049125E0,1.2746051E1,2.1035202E0,-6.252372E0,-2.5176883E-1,-3.7644973E0,8.305901E0,1.5502144E0,1.3983545E1,4.2073474E0,-2.6770879E-2,8.0220556E-1,1.7840221E0,-6.399253E0,1.3893938E0,-2.3046005E0,-5.3733034E0,-2.7972035E0,9.523211E0,7.801075E-1,6.415603E-2,9.5066595E0,1.0607331E1,1.8576593E1,4.462031E0,2.6111271E0,-9.7356796E-1,1.1840816E0,-2.0845993E0,-6.626154E0,1.1481882E0,5.382269E0,-2.7131014E0,4.3855715E0,-5.9299293E0,2.432082E0,-8.164094E-1,-4.21691E0,1.2371196E1,6.737516E0,-8.922899E-1,1.4939394E0,-5.8519524E-1,9.401983E0,4.298884E0,6.144516E0,1.2680769E1,4.6040587E0,2.0612225E1,8.370005E0,3.2242748E-1,3.726405E0,-4.4405282E-1,5.9472085E-3,9.0594727E-1,-8.28486E-1,-1.5135757E0,-2.169676E0,-2.670522E-1,9.182558E-1,3.6623245E-1,-9.501348E-1,4.251682E0,1.17722705E-1,-1.3494326E0,-2.2677176E0,-5.729905E-1,1.4670393E0,-1.8397634E0,-8.3477265E-1,4.4625087E0,2.2813814E0,4.1645403E0,1.311911E0,4.7887862E-1,-4.4275042E-1,3.678236E-1,-9.0609056E-1,7.773659E-1,3.9236257E0,2.0442345E0,1.7719174E-2,3.265185E0,6.02393E0,1.6334183E0,-1.4530964E0,3.9027824E0,6.9108243E0,4.1113024E0,4.0850088E-1,3.9973596E-1,-1.1475452E0],"categories":[],"categories_nodes":[],"categories_segments":[],"categories_sizes":[],"default_left":[0,0,0,0,0,0,0,0,0,0,0,0,0,0,0,0,0,0,0,0,0,0,0,0,0,0,0,0,0,0,0,0,0,0,0,0,0,0,0,0,0,0,0,0,0,0,0,0,0,0,0,0,0,0,0,0,0,0,0,0,0,0,0,0,0,0,0,0,0,0,0,0,0,0,0,0,0,0,0,0,0,0,0,0,0,0,0,0,0,0,0,0,0,0,0,0,0],"id":1,"left_children":[1,3,5,7,9,11,13,15,17,19,21,23,25,27,29,-1,-1,31,33,35,37,39,41,43,45,47,49,51,53,-1,55,57,-1,59,61,63,-1,65,67,69,-1,71,73,75,77,79,-1,81,83,-1,85,87,89,91,93,95,-1,-1,-1,-1,-1,-1,-1,-1,-1,-1,-1,-1,-1,-1,-1,-1,-1,-1,-1,-1,-1,-1,-1,-1,-1,-1,-1,-1,-1,-1,-1,-1,-1,-1,-1,-1,-1,-1,-1,-1,-1],"loss_changes":[2.5389256E4,3.0028315E3,4.663629E3,3.0473145E2,1.2882001E3,1.6798179E3,1.2408555E3,6.493437E0,2.8881055E2,8.7241187E2,2.588589E2,5.7888916E2,1.051703E3,1.4622148E3,2.5059576E2,0E0,0E0,3.3664795E1,2.1233496E2,5.542937E2,3.2618683E2,5.3579785E2,3.1151764E2,3.5299756E2,7.467894E1,4.6633026E2,1.3896802E2,7.38251E2,7.416572E2,0E0,3.5523746E2,1.5391238E0,0E0,5.3264996E1,1.7335547E2,5.6023914E2,0E0,1.9854431E2,2.679979E2,1.1295386E2,0E0,3.0888104E2,1.6153369E2,1.9718481E2,4.460697E2,1.3973272E1,0E0,3.212696E2,9.1318085E1,0E0,4.0345673E1,4.0630176E2,1.6933557E2,3.6373926E2,3.1780243E2,6.3745075E1,0E0,0E0,0E0,0E0,0E0,0E0,0E0,0E0,0E0,0E0,0E0,0E0,0E0,0E0,0E0,0E0,0E0,0E0,0E0,0E0,0E0,0E0,0E0,0E0,0E0,0E0,0E0,0E0,0E0,0E0,0E0,0E0,0E0,0E0,0E0,0E0,0E0,0E0,0E0,0E0,0E0],"parents":[2147483647,0,0,1,1,2,2,3,3,4,4,5,5,6,6,7,7,8,8,9,9,10,10,11,11,12,12,13,13,14,14,17,17,18,18,19,19,20,20,21,21,22,22,23,23,24,24,25,25,26,26,27,27,28,28,30,30,31,31,33,33,34,34,35,35,37,37,38,38,39,39,41,41,42,42,43,43,44,44,45,45,47,47,48,48,50,50,51,51,52,52,53,53,54,54,55,55],"right_children":[2,4,6,8,10,12,14,16,18,20,22,24,26,28,30,-1,-1,32,34,36,38,40,42,44,46,48,50,52,54,-1,56,58,-1,60,62,64,-1,66,68,70,-1,72,74,76,78,80,-1,82,84,-1,86,88,90,92,94,96,-1,-1,-1,-1,-1,-1,-1,-1,-1,-1,-1,-1,-1,-1,-1,-1,-1,-1,-1,-1,-1,-1,-1,-1,-1,-1,-1,-1,-1,-1,-1,-1,-1,-1,-1,-1,-1,-1,-1,-1,-1],"split_conditions":[2.3E1,1.1E1,3.5E1,7.42159E0,1.5077082E1,1.255879E1,1.9484116E1,1E1,1.1512083E1,2.4922757E2,1.8394998E0,2.930426E2,1.7456167E1,4.5E1,7E0,-2.6770879E-2,8.0220556E-1,7E0,-1.2254252E1,5.1E1,1.4186923E1,4.4E1,2.5340184E2,1E-1,3.535278E2,2.6052162E1,1.8122835E1,4.1E1,2.4999995E0,4.462031E0,6E1,4E0,1.1840816E0,2.4444008E2,2.3842075E2,1.5E1,5.382269E0,-1.2810501E1,1.1E1,-1.3875833E0,2.432082E0,2.1E1,1.4E1,1.559589E2,1.4E1,1.7E1,1.4939394E0,4E-1,2.3E1,4.298884E0,3.172203E2,3.6E1,4.4E1,4.9E1,1.5696165E1,5E1,3.726405E0,-4.4405282E-1,5.9472085E-3,9.0594727E-1,-8.28486E-1,-1.5135757E0,-2.169676E0,-2.670522E-1,9.182558E-1,3.6623245E-1,-9.501348E-1,4.251682E0,1.17722705E-1,-1.3494326E0,-2.2677176E0,-5.729905E-1,1.4670393E0,-1.8397634E0,-8.3477265E-1,4.4625087E0,2.2813814E0,4.1645403E0,1.311911E0,4.7887862E-1,-4.4275042E-1,3.678236E-1,-9.0609056E-1,7.773659E-1,3.9236257E0,2.0442345E0,1.7719174E-2,3.265185E0,6.02393E0,1.6334183E0,-1.4530964E0,3.9027824E0,6.9108243E0,4.1113024E0,4.0850088E-1,3.9973596E-1,-1.1475452E0],"split_indices":[0,0,0,5,5,5,5,2,6,6,3,6,3,0,2,0,0,1,3,2,5,2,6,4,6,5,3,1,4,0,0,0,0,6,6,1,0,3,1,3,0,0,2,6,2,2,0,4,1,0,6,1,0,0,5,0,0,0,0,0,0,0,0,0,0,0,0,0,0,0,0,0,0,0,0,0,0,0,0,0,0,0,0,0,0,0,0,0,0,0,0,0,0,0,0,0,0],"split_type":[0,0,0,0,0,0,0,0,0,0,0,0,0,0,0,0,0,0,0,0,0,0,0,0,0,0,0,0,0,0,0,0,0,0,0,0,0,0,0,0,0,0,0,0,0,0,0,0,0,0,0,0,0,0,0,0,0,0,0,0,0,0,0,0,0,0,0,0,0,0,0,0,0,0,0,0,0,0,0,0,0,0,0,0,0,0,0,0,0,0,0,0,0,0,0,0,0],"sum_hessian":[9.43E2,6.7E2,2.73E2,2.38E2,4.32E2,1.51E2,1.22E2,4E0,2.34E2,2.57E2,1.75E2,6.3E1,8.8E1,1.06E2,1.6E1,1E0,3E0,4E0,2.3E2,1.43E2,1.14E2,6.4E1,1.11E2,5.4E1,9E0,7.5E1,1.3E1,6.3E1,4.3E1,1E0,1.5E1,2E0,2E0,1.2E1,2.18E2,1.42E2,1E0,1.08E2,6E0,6.2E1,2E0,4.7E1,6.4E1,2.5E1,2.9E1,7E0,2E0,7.1E1,4E0,4E0,9E0,4.6E1,1.7E1,3.5E1,8E0,1.3E1,2E0,1E0,1E0,1E0,1.1E1,6.3E1,1.55E2,6.9E1,7.3E1,1.1E1,9.7E1,1E0,5E0,3.5E1,2.7E1,4E1,7E0,2.6E1,3.8E1,1.5E1,1E1,6E0,2.3E1,1E0,6E0,4.1E1,3E1,2E0,2E0,8E0,1E0,3.9E1,7E0,1.6E1,1E0,1E1,2.5E1,4E0,4E0,1.1E1,2E0],"tree_param":{"num_deleted":"0","num_feature":"7","num_nodes":"97","size_leaf_vector":"1"}},{"base_weights":[1.02749676E-1,-2.071376E0,6.5246325E0,-3.736568E0,-5.2304715E-1,4.518825E0,1.0685957E1,-1.3583553E0,-4.1907554E0,7.919844E-1,-2.4523683E0,6.2047734E0,1.8814747E0,1.216897E1,2.4488926E0,-2.215124E0,4.0591464E0,-6.2185464E0,-3.814682E0,2.4005017E0,-1.2939339E0,-2.7030253E0,7.3097057E0,9.533871E0,3.2539732E0,5.6220574E0,-4.45258E-1,1.2638096E1,-5.2169555E-1,1.8403296E-1,2.9811242E0,-5.2347536E0,-1.5872152E0,-3.6635695E0,9.425489E0,-6.9231577E0,-2.2704763E0,-3.9975088E0,8.449302E-1,6.3021216E0,9.163746E-1,5.7733817E0,-1.5839912E0,-2.9902184E0,4.496513E0,-1.2712699E-1,3.0086339E0,7.675511E0,1.3233298E1,-2.669092E-1,5.1729355E0,7.5491343E0,-1.7385416E0,-2.274858E0,3.6704082E0,1.6534521E1,1.0296205E1,2.8040643E0,-1.7137083E0,-7.875267E-1,-1.8826605E0,-7.157712E-1,1.8249945E-1,-3.1112224E-1,-1.258013E0,1.063152E0,3.649593E0,-2.28055E0,1.2201162E-1,9.3283844E-1,-1.8360995E0,-8.4244835E-1,-1.4286168E0,2.8479402E0,-1.2652814E0,1.4468439E0,5.994213E0,9.6601176E-1,-3.3717299E-1,3.6218664E-1,2.9207492E0,4.562673E-1,-6.460426E-1,-6.947028E-1,-1.4272934E0,2.6897622E-2,1.6079856E0,2.7340047E0,1.1914045E0,4.5129566E0,1.4843329E0,-8.331421E-1,7.5631076E-1,2.5253096E0,-8.864181E-2,3.7579882E-1,2.575977E0,-8.809348E-1,1.3145466E-1,-9.0734977E-1,9.4995695E-1,2.7265805E-1,2.372134E0,8.502551E0,3.9535599E0,2.0016446E0,4.912409E0,1.3580525E0,-6.130569E-1,7.45933E-1,-1.1673173E0],"categories":[],"categories_nodes":[],"categories_segments":[],"categories_sizes":[],"default_left":[0,0,0,0,0,0,0,0,0,0,0,0,0,0,0,0,0,0,0,0,0,0,0,0,0,0,0,0,0,0,0,0,0,0,0,0,0,0,0,0,0,0,0,0,0,0,0,0,0,0,0,0,0,0,0,0,0,0,0,0,0,0,0,0,0,0,0,0,0,0,0,0,0,0,0,0,0,0,0,0,0,0,0,0,0,0,0,0,0,0,0,0,0,0,0,0,0,0,0,0,0,0,0,0,0,0,0,0,0,0,0],"id":2,"left_children":[1,3,5,7,9,11,13,15,17,19,21,23,25,27,29,31,33,35,37,39,41,43,45,47,49,51,53,55,-1,57,-1,59,61,63,65,67,69,71,73,75,77,79,81,83,85,-1,-1,87,89,91,93,95,97,99,101,103,105,107,109,-1,-1,-1,-1,-1,-1,-1,-1,-1,-1,-1,-1,-1,-1,-1,-1,-1,-1,-1,-1,-1,-1,-1,-1,-1,-1,-1,-1,-1,-1,-1,-1,-1,-1,-1,-1,-1,-1,-1,-1,-1,-1,-1,-1,-1,-1,-1,-1,-1,-1,-1,-1],"loss_changes":[1.3193624E4,1.8183008E3,1.9466006E3,3.6155957E2,9.3306464E2,7.1309546E2,9.108076E2,2.6891803E2,1.9361865E2,7.379027E2,3.8435126E2,9.415034E2,5.682201E2,4.4607422E2,2.1864728E2,8.4597855E1,3.6607288E2,1.0390088E2,2.103899E2,7.1224695E2,2.0593791E2,3.153235E2,8.836116E1,2.1467139E2,3.6622845E2,3.6773547E2,3.170806E2,4.0463184E2,0E0,5.94989E1,0E0,5.2548676E0,7.5100876E1,1.2173004E0,3.7461395E1,1.8217725E2,1.8472678E2,1.9940625E2,4.7785663E2,5.916218E2,4.31331E2,6.0617676E1,1.6771602E2,1.570835E2,2.234974E1,0E0,0E0,1.3956506E2,1.3551196E2,1.46969E2,6.2351624E2,1.19890015E2,1.6931784E1,1.27870544E2,1.4491179E2,4.9825098E2,8.1595557E2,5.100727E1,7.369127E1,0E0,0E0,0E0,0E0,0E0,0E0,0E0,0E0,0E0,0E0,0E0,0E0,0E0,0E0,0E0,0E0,0E0,0E0,0E0,0E0,0E0,0E0,0E0,0E0,0E0,0E0,0E0,0E0,0E0,0E0,0E0,0E0,0E0,0E0,0E0,0E0,0E0,0E0,0E0,0E0,0E0,0E0,0E0,0E0,0E0,0E0,0E0,0E0,0E0,0E0,0E0,0E0],"parents":[2147483647,0,0,1,1,2,2,3,3,4,4,5,5,6,6,7,7,8,8,9,9,10,10,11,11,12,12,13,13,14,14,15,15,16,16,17,17,18,18,19,19,20,20,21,21,22,22,23,23,24,24,25,25,26,26,27,27,29,29,31,31,32,32,33,33,34,34,35,35,36,36,37,37,38,38,39,39,40,40,41,41,42,42,43,43,44,44,47,47,48,48,49,49,50,50,51,51,52,52,53,53,54,54,55,55,56,56,57,57,58,58],"right_children":[2,4,6,8,10,12,14,16,18,20,22,24,26,28,30,32,34,36,38,40,42,44,46,48,50,52,54,56,-1,58,-1,60,62,64,66,68,70,72,74,76,78,80,82,84,86,-1,-1,88,90,92,94,96,98,100,102,104,106,108,110,-1,-1,-1,-1,-1,-1,-1,-1,-1,-1,-1,-1,-1,-1,-1,-1,-1,-1,-1,-1,-1,-1,-1,-1,-1,-1,-1,-1,-1,-1,-1,-1,-1,-1,-1,-1,-1,-1,-1,-1,-1,-1,-1,-1,-1,-1,-1,-1,-1,-1,-1,-1],"split_conditions":[2.5E1,1.3E1,4.1E1,1.0739832E1,1.5077082E1,4E-1,1.9171478E1,2E1,6E0,2.4444008E2,1.8722836E1,2.3398563E2,1.1384199E1,1.11E1,6E1,8E0,1.9998317E2,2.1E1,3.505592E2,1E-1,6E0,4.4E1,7E0,3.4E1,1.3379461E1,3.8E1,1.5374917E1,3.4E1,-5.2169555E-1,2.2027763E1,2.9811242E0,9.290511E0,1.0086427E1,2.3E1,1E1,9.062416E0,2.5E1,2.5300195E2,3.535278E2,3.8E1,1.1304229E1,-3.26675E0,-1.1600083E1,2.2E1,1.4E1,-1.2712699E-1,3.0086339E0,1.3049689E1,3.2E1,1.8E1,8.299916E0,1.7E1,1.0703569E1,3.1936295E2,3.4E1,-5.950084E0,1.5470749E1,4.9E1,3.1E1,-7.875267E-1,-1.8826605E0,-7.157712E-1,1.8249945E-1,-3.1112224E-1,-1.258013E0,1.063152E0,3.649593E0,-2.28055E0,1.2201162E-1,9.3283844E-1,-1.8360995E0,-8.4244835E-1,-1.4286168E0,2.8479402E0,-1.2652814E0,1.4468439E0,5.994213E0,9.6601176E-1,-3.3717299E-1,3.6218664E-1,2.9207492E0,4.562673E-1,-6.460426E-1,-6.947028E-1,-1.4272934E0,2.6897622E-2,1.6079856E0,2.7340047E0,1.1914045E0,4.5129566E0,1.4843329E0,-8.331421E-1,7.5631076E-1,2.5253096E0,-8.864181E-2,3.7579882E-1,2.575977E0,-8.809348E-1,1.3145466E-1,-9.0734977E-1,9.4995695E-1,2.7265805E-1,2.372134E0,8.502551E0,3.9535599E0,2.0016446E0,4.912409E0,1.3580525E0,-6.130569E-1,7.45933E-1,-1.1673173E0],"split_indices":[0,0,0,5,5,4,5,1,0,6,3,6,5,4,0,2,6,2,6,4,1,1,2,0,5,2,3,1,0,5,0,5,5,1,0,3,2,6,6,2,5,3,3,1,0,0,0,5,2,2,3,1,5,6,0,3,3,1,1,0,0,0,0,0,0,0,0,0,0,0,0,0,0,0,0,0,0,0,0,0,0,0,0,0,0,0,0,0,0,0,0,0,0,0,0,0,0,0,0,0,0,0,0,0,0,0,0,0,0,0,0],"split_type":[0,0,0,0,0,0,0,0,0,0,0,0,0,0,0,0,0,0,0,0,0,0,0,0,0,0,0,0,0,0,0,0,0,0,0,0,0,0,0,0,0,0,0,0,0,0,0,0,0,0,0,0,0,0,0,0,0,0,0,0,0,0,0,0,0,0,0,0,0,0,0,0,0,0,0,0,0,0,0,0,0,0,0,0,0,0,0,0,0,0,0,0,0,0,0,0,0,0,0,0,0,0,0,0,0,0,0,0,0,0,0],"sum_hessian":[9.43E2,7.05E2,2.38E2,3.39E2,3.66E2,1.62E2,7.6E1,5.5E1,2.84E2,2.18E2,1.48E2,9.8E1,6.4E1,6.4E1,1.2E1,4.8E1,7E0,4.2E1,2.42E2,1.23E2,9.5E1,1.45E2,3E0,4.5E1,5.3E1,2.4E1,4E1,6.2E1,2E0,1E1,2E0,7E0,4.1E1,3E0,4E0,3.5E1,7E0,2.33E2,9E0,3.3E1,9E1,3E0,9.2E1,1.4E2,5E0,1E0,2E0,3.2E1,1.3E1,1.9E1,3.4E1,1.9E1,5E0,2.8E1,1.2E1,2.1E1,4.1E1,4E0,6E0,3E0,4E0,3E1,1.1E1,1E0,2E0,2E0,2E0,3.2E1,3E0,3E0,4E0,9.3E1,1.4E2,3E0,6E0,3.1E1,2E0,4.2E1,4.8E1,2E0,1E0,1.4E1,7.8E1,1.03E2,3.7E1,1E0,4E0,2.2E1,1E1,1E1,3E0,1E1,9E0,2.1E1,1.3E1,3E0,1.6E1,3E0,2E0,2.5E1,3E0,8E0,4E0,3E0,1.8E1,2.7E1,1.4E1,3E0,1E0,2E0,4E0],"tree_param":{"num_deleted":"0","num_feature":"7","num_nodes":"111","size_leaf_vector":"1"}},{"base_weights":[1.2390862E-1,-1.0573212E0,6.3836E0,-1.9812933E0,1.2633724E0,8.398603E0,3.8302355E0,-3.0945237E0,-1.1714947E0,6.812205E-1,5.5503793E0,7.139319E0,1.2867628E1,5.636149E0,2.8508825E0,-2.3808372E0,-4.336538E0,-3.9612192E-1,-2.3084521E0,2.8643339E0,1.48491645E-2,8.002304E0,2.701999E0,8.348405E0,1.965751E0,2.4570887E0,1.7000595E1,2.5321007E-1,4.2673883E0,-2.7643228E0,4.5728207E-2,3.8632607E-1,-4.511898E0,-7.572564E-1,3.7591112E0,-1.9915875E0,-2.053611E0,5.145917E0,-1.0974342E0,-2.281871E0,1.2653915E0,9.206051E0,1.559639E-1,4.7211447E0,-7.770532E-1,-1.7362099E0,8.975661E0,3.7295775E0,-3.3762093E0,1.8179474E0,-8.592353E-1,1.815935E1,6.381432E-1,-1.4579968E0,4.617284E0,1.1464546E1,2.984947E0,-1.8954245E0,-7.079006E-1,-5.4532635E-1,7.3910487E-1,-3.5362244E-2,1.7810526E-1,-1.1377767E0,-1.7368132E0,-3.6223158E-1,4.736762E-1,2.0092719E0,-2.9271194E-1,-6.862402E-1,5.220491E-1,7.357591E-1,2.414668E0,-9.615853E-1,1.5072099E0,4.2339757E-2,-1.1704452E0,2.436419E0,2.6968315E-1,4.6543695E-2,3.004427E0,1.7163821E0,2.4413891E-1,-5.337379E-1,2.4541856E-1,3.6231425E-2,-7.186383E-1,1.1910529E0,2.9861212E0,1.7400211E0,2.5491716E-2,-2.7524185E-1,-1.1669892E0,2.321726E-1,-4.9847588E-1,5.9358025E0,2.1678784E0,1.6155356E0,-7.949869E-1,-2.7188632E-1,2.6959603E0,5.1442283E-1,3.9214675E0,5.829509E-1,2.7791069E0],"categories":[],"categories_nodes":[],"categories_segments":[],"categories_sizes":[],"default_left":[0,0,0,0,0,0,0,0,0,0,0,0,0,0,0,0,0,0,0,0,0,0,0,0,0,0,0,0,0,0,0,0,0,0,0,0,0,0,0,0,0,0,0,0,0,0,0,0,0,0,0,0,0,0,0,0,0,0,0,0,0,0,0,0,0,0,0,0,0,0,0,0,0,0,0,0,0,0,0,0,0,0,0,0,0,0,0,0,0,0,0,0,0,0,0,0,0,0,0,0,0,0,0,0,0],"id":3,"left_children":[1,3,5,7,9,11,13,15,17,19,21,23,25,-1,27,29,31,33,35,37,39,41,43,45,47,49,51,53,55,57,59,61,63,65,67,-1,69,71,73,75,77,79,-1,81,83,85,87,89,91,-1,93,95,-1,97,99,101,103,-1,-1,-1,-1,-1,-1,-1,-1,-1,-1,-1,-1,-1,-1,-1,-1,-1,-1,-1,-1,-1,-1,-1,-1,-1,-1,-1,-1,-1,-1,-1,-1,-1,-1,-1,-1,-1,-1,-1,-1,-1,-1,-1,-1,-1,-1,-1,-1],"loss_changes":[6.9868125E3,1.7071866E3,7.395869E2,5.0932422E2,5.627405E2,3.7523877E2,9.425115E2,2.0152686E2,2.9088388E2,2.9236505E2,1.669461E2,4.0269336E2,6.8967725E2,0E0,2.3809467E2,1.4343164E2,7.296875E1,2.99965E2,1.3423663E2,4.3048514E2,4.4807007E2,1.2131128E2,1.02014565E2,3.5716797E2,1.445039E2,7.6893845E1,1.6818872E2,1.8595998E2,3.534361E2,1.7635126E2,1.0360634E2,4.8817998E-1,5.431201E1,1.943685E2,2.2914412E2,0E0,1.1754181E2,2.1482495E2,2.4835985E2,2.1638864E2,2.4644832E2,8.628046E1,0E0,3.051471E1,1.1045964E1,5.1861687E0,2.1016504E2,8.251456E1,1.4838142E0,0E0,6.5273333E0,5.2649414E1,0E0,1.610912E2,1.7708147E2,7.1593994E1,2.24018E2,0E0,0E0,0E0,0E0,0E0,0E0,0E0,0E0,0E0,0E0,0E0,0E0,0E0,0E0,0E0,0E0,0E0,0E0,0E0,0E0,0E0,0E0,0E0,0E0,0E0,0E0,0E0,0E0,0E0,0E0,0E0,0E0,0E0,0E0,0E0,0E0,0E0,0E0,0E0,0E0,0E0,0E0,0E0,0E0,0E0,0E0,0E0,0E0],"parents":[2147483647,0,0,1,1,2,2,3,3,4,4,5,5,6,6,7,7,8,8,9,9,10,10,11,11,12,12,14,14,15,15,16,16,17,17,18,18,19,19,20,20,21,21,22,22,23,23,24,24,25,25,26,26,27,27,28,28,29,29,30,30,31,31,32,32,33,33,34,34,36,36,37,37,38,38,39,39,40,40,41,41,43,43,44,44,45,45,46,46,47,47,48,48,50,50,51,51,53,53,54,54,55,55,56,56],"right_children":[2,4,6,8,10,12,14,16,18,20,22,24,26,-1,28,30,32,34,36,38,40,42,44,46,48,50,52,54,56,58,60,62,64,66,68,-1,70,72,74,76,78,80,-1,82,84,86,88,90,92,-1,94,96,-1,98,100,102,104,-1,-1,-1,-1,-1,-1,-1,-1,-1,-1,-1,-1,-1,-1,-1,-1,-1,-1,-1,-1,-1,-1,-1,-1,-1,-1,-1,-1,-1,-1,-1,-1,-1,-1,-1,-1,-1,-1,-1,-1,-1,-1,-1,-1,-1,-1,-1,-1],"split_conditions":[3.2E1,1.9E1,2.2928706E2,1.1E1,1.70645E1,4.2E1,1.2E1,1.70763E1,1.5077082E1,1.1132385E1,1.3849477E1,3.4E1,1.2804084E1,5.636149E0,2.8368646E2,1.0620749E1,-8.612583E0,1.4345898E1,4.763143E1,2.4E1,2.174917E0,4.6000004E0,8E-1,-6.602167E0,4.9E1,4.6E1,6E1,1.52874155E1,1.6E1,5E0,1.2522619E1,4E0,3.0071448E2,2.2E1,5.0249166E0,-1.9915875E0,3.3133276E2,9.085988E0,1.02742E1,-2.077167E0,7E0,1.2E1,1.559639E-1,2.8E1,2.4E1,3.3E1,2.2E1,1.5018666E1,4.8E1,1.8179474E0,5E1,5.9E1,6.381432E-1,9.290511E0,2.4541843E2,1.4E1,1.9068668E1,-1.8954245E0,-7.079006E-1,-5.4532635E-1,7.3910487E-1,-3.5362244E-2,1.7810526E-1,-1.1377767E0,-1.7368132E0,-3.6223158E-1,4.736762E-1,2.0092719E0,-2.9271194E-1,-6.862402E-1,5.220491E-1,7.357591E-1,2.414668E0,-9.615853E-1,1.5072099E0,4.2339757E-2,-1.1704452E0,2.436419E0,2.6968315E-1,4.6543695E-2,3.004427E0,1.7163821E0,2.4413891E-1,-5.337379E-1,2.4541856E-1,3.6231425E-2,-7.186383E-1,1.1910529E0,2.9861212E0,1.7400211E0,2.5491716E-2,-2.7524185E-1,-1.1669892E0,2.321726E-1,-4.9847588E-1,5.9358025E0,2.1678784E0,1.6155356E0,-7.949869E-1,-2.7188632E-1,2.6959603E0,5.1442283E-1,3.9214675E0,5.829509E-1,2.7791069E0],"split_indices":[0,0,6,0,3,2,1,5,5,5,5,2,3,0,6,3,3,5,6,2,3,4,4,3,0,1,1,3,1,0,5,0,6,1,3,0,6,5,5,3,1,2,0,2,0,1,1,3,1,0,1,0,0,5,6,1,3,0,0,0,0,0,0,0,0,0,0,0,0,0,0,0,0,0,0,0,0,0,0,0,0,0,0,0,0,0,0,0,0,0,0,0,0,0,0,0,0,0,0,0,0,0,0,0,0],"split_type":[0,0,0,0,0,0,0,0,0,0,0,0,0,0,0,0,0,0,0,0,0,0,0,0,0,0,0,0,0,0,0,0,0,0,0,0,0,0,0,0,0,0,0,0,0,0,0,0,0,0,0,0,0,0,0,0,0,0,0,0,0,0,0,0,0,0,0,0,0,0,0,0,0,0,0,0,0,0,0,0,0,0,0,0,0,0,0,0,0,0,0,0,0,0,0,0,0,0,0,0,0,0,0,0,0],"sum_hessian":[9.43E2,7.94E2,1.49E2,5.68E2,2.26E2,8.2E1,6.7E1,2.38E2,3.3E2,2E2,2.6E1,6.6E1,1.6E1,3E0,6.4E1,1.53E2,8.5E1,1.97E2,1.33E2,4.6E1,1.54E2,1.3E1,1.3E1,5.3E1,1.3E1,5E0,1.1E1,2.3E1,4.1E1,1.32E2,2.1E1,3E0,8.2E1,1.82E2,1.5E1,6E0,1.27E2,2.9E1,1.7E1,5.4E1,1E2,1.1E1,2E0,8E0,5E0,3E0,5E1,1E1,3E0,2E0,3E0,1E1,1E0,1.7E1,6E0,5E0,3.6E1,1.2E1,1.2E2,1.2E1,9E0,1E0,2E0,5.5E1,2.7E1,1.53E2,2.9E1,9E0,6E0,1.2E2,7E0,1.6E1,1.3E1,1.3E1,4E0,2.2E1,3.2E1,4E0,9.6E1,1E0,1E1,6E0,2E0,3E0,2E0,1E0,2E0,9E0,4.1E1,6E0,4E0,1E0,2E0,1E0,2E0,8E0,2E0,2E0,1.5E1,3E0,3E0,1E0,4E0,3.2E1,4E0],"tree_param":{"num_deleted":"0","num_feature":"7","num_nodes":"105","size_leaf_vector":"1"}},{"base_weights":[1.2431468E-1,-1.1422526E0,3.2255638E0,-2.1876783E0,-5.62578E-1,2.3729653E0,6.735966E0,-1.6373111E0,-3.019231E0,2.3465304E-1,-1.4422194E0,4.1588945E0,1.255741E0,1.2436577E1,5.446156E0,2.4107037E0,-1.7683165E0,-2.0604315E0,-2.8168714E0,1.271932E0,-1.5586815E0,-2.935143E0,-1.1088053E0,5.844605E0,1.3255138E0,1.8271887E0,-1.4002899E0,5.789693E0,3.0868638E0,2.9354637E0,1.0795871E1,1.9079562E-1,8.086161E-1,-3.5108027E0,-1.3841599E0,1.3692248E0,-3.0250738E0,4.7752357E0,6.4012057E-1,-4.105847E0,-5.309659E-1,-1.2304794E0,-4.322583E0,8.76186E0,-1.3385888E0,2.7825227E0,6.9800973E0,-1.8045543E0,3.2000554E0,5.305359E-1,3.114534E0,-2.9473286E0,2.9988563E0,-1.2432963E0,1.9164208E0,-4.8170552E-1,5.2988796E0,6.1503043E0,1.5964908E1,1.189513E0,-1.196252E0,-4.6171308E-1,1.0244354E0,-8.328262E-1,9.298724E-1,-9.9780977E-1,-2.6007414E-1,2.5776606E0,2.6352426E-1,-1.070657E0,5.714743E-1,-1.4773518E0,-2.4873583E-1,-2.7245227E-1,1.5213889E0,4.849944E-1,-9.5677674E-1,-1.4654017E-2,-1.3634838E0,6.112381E-1,3.0972521E0,-7.590411E-1,-1.7209351E-1,-2.4229993E-1,2.2541583E0,3.2959619E0,1.4822805E0,3.72733E-1,-8.528694E-1,2.515926E0,5.6092477E-1,-1.409385E-2,1.9984785E0,1.3441948E0,-2.8292054E-2,3.1264603E-1,-1.3339748E0,-5.255E-1,2.0998998E0,6.74017E-2,-6.2688506E-1,-1.9621785E0,3.2194766E-1,3.082308E-1,3.3131058E0,1.9503869E0,5.013634E-1,5.5303984E0,5.4242194E-1],"categories":[],"categories_nodes":[],"categories_segments":[],"categories_sizes":[],"default_left":[0,0,0,0,0,0,0,0,0,0,0,0,0,0,0,0,0,0,0,0,0,0,0,0,0,0,0,0,0,0,0,0,0,0,0,0,0,0,0,0,0,0,0,0,0,0,0,0,0,0,0,0,0,0,0,0,0,0,0,0,0,0,0,0,0,0,0,0,0,0,0,0,0,0,0,0,0,0,0,0,0,0,0,0,0,0,0,0,0,0,0,0,0,0,0,0,0,0,0,0,0,0,0,0,0,0,0,0,0],"id":4,"left_children":[1,3,5,7,9,11,13,15,17,19,21,23,25,27,29,31,33,-1,35,37,39,41,43,45,47,49,51,-1,53,55,57,-1,-1,59,61,63,65,67,69,71,73,75,77,79,81,83,85,87,89,91,93,95,97,99,-1,101,103,105,107,-1,-1,-1,-1,-1,-1,-1,-1,-1,-1,-1,-1,-1,-1,-1,-1,-1,-1,-1,-1,-1,-1,-1,-1,-1,-1,-1,-1,-1,-1,-1,-1,-1,-1,-1,-1,-1,-1,-1,-1,-1,-1,-1,-1,-1,-1,-1,-1,-1,-1],"loss_changes":[3.7116604E3,4.0539966E2,8.0408813E2,1.04437256E2,3.0399152E2,4.3773035E2,3.219619E2,8.1688385E1,5.3866028E1,4.261054E2,9.9284454E1,3.98235E2,2.1201259E2,5.178799E2,5.727262E2,8.119354E-1,9.019354E1,0E0,8.345355E1,3.178902E2,2.1771187E2,8.219055E1,3.9730835E2,1.6485706E2,1.9940028E2,1.8864096E2,1.7897984E2,0E0,7.9416E1,2.609906E2,2.3799426E2,0E0,0E0,1.04904724E2,9.296231E1,4.446889E1,5.3624573E1,3.196812E2,6.6691095E2,6.0297546E1,1.3351204E2,1.0553984E2,1.8784363E1,2.0987396E1,1.5076367E2,2.7785107E2,2.561682E2,4.466194E1,1.2920801E2,2.0567825E2,2.5029034E2,1.1827774E2,1.4530263E2,4.1965947E0,0E0,1.389096E2,4.5488702E2,3.283844E0,1.7645215E2,0E0,0E0,0E0,0E0,0E0,0E0,0E0,0E0,0E0,0E0,0E0,0E0,0E0,0E0,0E0,0E0,0E0,0E0,0E0,0E0,0E0,0E0,0E0,0E0,0E0,0E0,0E0,0E0,0E0,0E0,0E0,0E0,0E0,0E0,0E0,0E0,0E0,0E0,0E0,0E0,0E0,0E0,0E0,0E0,0E0,0E0,0E0,0E0,0E0,0E0],"parents":[2147483647,0,0,1,1,2,2,3,3,4,4,5,5,6,6,7,7,8,8,9,9,10,10,11,11,12,12,13,13,14,14,15,15,16,16,18,18,19,19,20,20,21,21,22,22,23,23,24,24,25,25,26,26,28,28,29,29,30,30,33,33,34,34,35,35,36,36,37,37,38,38,39,39,40,40,41,41,42,42,43,43,44,44,45,45,46,46,47,47,48,48,49,49,50,50,51,51,52,52,53,53,55,55,56,56,57,57,58,58],"right_children":[2,4,6,8,10,12,14,16,18,20,22,24,26,28,30,32,34,-1,36,38,40,42,44,46,48,50,52,-1,54,56,58,-1,-1,60,62,64,66,68,70,72,74,76,78,80,82,84,86,88,90,92,94,96,98,100,-1,102,104,106,108,-1,-1,-1,-1,-1,-1,-1,-1,-1,-1,-1,-1,-1,-1,-1,-1,-1,-1,-1,-1,-1,-1,-1,-1,-1,-1,-1,-1,-1,-1,-1,-1,-1,-1,-1,-1,-1,-1,-1,-1,-1,-1,-1,-1,-1,-1,-1,-1,-1,-1],"split_conditions":[2.3E1,1.1E1,4.5E1,1.65776E1,2.5340184E2,1.570639E2,-4.358417E0,7.42159E0,3E0,2.4999995E0,2.7316382E2,1.5000001E0,3.9E1,3.6E1,1.6577002E1,1E1,6E0,-2.0604315E0,5E0,-2.077167E0,6.3612953E1,1.2E1,2.746709E2,1.0440001E1,1.7124166E0,3E1,3.2266672E2,5.789693E0,-6.602167E0,3E-1,5.1E1,1.9079562E-1,8.086161E-1,2E0,3.505592E2,4E0,2.1E1,1.0105681E1,1.7124166E0,1.098325E1,1.6979086E1,2.4145E0,7.386582E0,1.2E1,-3.5424995E-1,1.0022209E2,1.1659777E1,-1.7084166E0,1.1E1,2.535637E1,2E-1,2.29584E2,2.5624163E0,4.8E1,1.9164208E0,1.1679603E2,6.5499167E0,5.4E1,5.8E1,1.189513E0,-1.196252E0,-4.6171308E-1,1.0244354E0,-8.328262E-1,9.298724E-1,-9.9780977E-1,-2.6007414E-1,2.5776606E0,2.6352426E-1,-1.070657E0,5.714743E-1,-1.4773518E0,-2.4873583E-1,-2.7245227E-1,1.5213889E0,4.849944E-1,-9.5677674E-1,-1.4654017E-2,-1.3634838E0,6.112381E-1,3.0972521E0,-7.590411E-1,-1.7209351E-1,-2.4229993E-1,2.2541583E0,3.2959619E0,1.4822805E0,3.72733E-1,-8.528694E-1,2.515926E0,5.6092477E-1,-1.409385E-2,1.9984785E0,1.3441948E0,-2.8292054E-2,3.1264603E-1,-1.3339748E0,-5.255E-1,2.0998998E0,6.74017E-2,-6.2688506E-1,-1.9621785E0,3.2194766E-1,3.082308E-1,3.3131058E0,1.9503869E0,5.013634E-1,5.5303984E0,5.4242194E-1],"split_indices":[0,0,0,5,6,6,3,5,0,4,6,4,2,1,3,2,0,0,2,3,6,1,6,5,3,0,6,0,3,4,1,0,0,2,6,1,2,5,3,3,3,3,5,2,3,6,5,3,2,5,4,6,3,0,0,6,3,2,1,0,0,0,0,0,0,0,0,0,0,0,0,0,0,0,0,0,0,0,0,0,0,0,0,0,0,0,0,0,0,0,0,0,0,0,0,0,0,0,0,0,0,0,0,0,0,0,0,0,0],"split_type":[0,0,0,0,0,0,0,0,0,0,0,0,0,0,0,0,0,0,0,0,0,0,0,0,0,0,0,0,0,0,0,0,0,0,0,0,0,0,0,0,0,0,0,0,0,0,0,0,0,0,0,0,0,0,0,0,0,0,0,0,0,0,0,0,0,0,0,0,0,0,0,0,0,0,0,0,0,0,0,0,0,0,0,0,0,0,0,0,0,0,0,0,0,0,0,0,0,0,0,0,0,0,0,0,0,0,0,0,0],"sum_hessian":[9.43E2,6.7E2,2.73E2,2.38E2,4.32E2,2.21E2,5.2E1,1.45E2,9.3E1,2.27E2,2.05E2,8.4E1,1.37E2,8E0,4.4E1,4E0,1.41E2,3E0,9E1,1.44E2,8.3E1,3.6E1,1.69E2,5.2E1,3.2E1,1.13E2,2.4E1,4E0,4E0,3.1E1,1.3E1,1E0,3E0,2.4E1,1.17E2,4E0,8.6E1,2.1E1,1.23E2,2.3E1,6E1,1.7E1,1.9E1,3E0,1.66E2,1.5E1,3.7E1,1.2E1,2E1,5.7E1,5.6E1,1.8E1,6E0,2E0,2E0,1.3E1,1.8E1,8E0,5E0,1E0,2.3E1,1.14E2,3E0,1E0,3E0,7.5E1,1.1E1,1E1,1.1E1,2.8E1,9.5E1,1.8E1,5E0,5.7E1,3E0,7E0,1E1,1E0,1.8E1,1E0,2E0,6.4E1,1.02E2,9E0,6E0,1.1E1,2.6E1,3E0,9E0,3E0,1.7E1,5.3E1,4E0,3.9E1,1.7E1,5E0,1.3E1,3E0,3E0,1E0,1E0,2E0,1.1E1,1.1E1,7E0,7E0,1E0,4E0,1E0],"tree_param":{"num_deleted":"0","num_feature":"7","num_nodes":"109","size_leaf_vector":"1"}},{"base_weights":[1.2093845E-1,-5.126164E-1,3.4779727E0,-1.012393E0,7.42386E-1,3.0186348E0,7.4107733E0,-1.223005E-1,-1.4689504E0,1.6992681E0,-2.7290773E-1,3.24406E0,-1.569424E0,8.990177E0,1.0629913E0,-7.824522E-1,1.9590772E0,7.288498E0,-1.5589259E0,3.084521E0,-6.6909534E-1,-4.4267082E-1,2.7601547E0,9.933094E0,2.9596474E0,5.768402E0,3.714222E0,-5.1763463E-1,-3.0959926E0,8.237522E0,1.015512E0,2.0726824E0,3.440392E0,-1.7655274E0,1.8175584E0,4.777669E0,1.0613662E0,-2.3747444E0,1.4964209E0,2.0704005E0,-5.73362E-1,-1.4496231E-2,3.7321584E0,4.3120294E0,1.2298E0,2.4103346E0,2.060255E0,-2.983489E-1,9.1841286E-1,-1.4329121E0,-1.4796561E-1,1.4185821E0,3.8673146E0,6.4878255E-1,-3.5803065E-1,1.19613506E-1,8.130936E-1,-4.866563E-1,-1.2577099E0,1.9815763E0,-4.1702148E-1,2.329588E0,8.610848E-1,-1.533116E0,6.0677177E-1,5.3274626E-1,-9.0643495E-1,9.298023E-1,5.085874E-2,-2.618581E-1,8.5541433E-1,3.4117506E0,1.15207E0,7.734587E-1,-3.8061473E-1,1.1073304E-1,7.502801E-1],"categories":[],"categories_nodes":[],"categories_segments":[],"categories_sizes":[],"default_left":[0,0,0,0,0,0,0,0,0,0,0,0,0,0,0,0,0,0,0,0,0,0,0,0,0,0,0,0,0,0,0,0,0,0,0,0,0,0,0,0,0,0,0,0,0,0,0,0,0,0,0,0,0,0,0,0,0,0,0,0,0,0,0,0,0,0,0,0,0,0,0,0,0,0,0,0,0],"id":5,"left_children":[1,3,5,7,9,11,13,15,17,19,21,23,-1,25,-1,27,29,31,33,35,37,39,-1,41,43,45,-1,47,49,51,53,55,-1,57,59,61,63,65,67,-1,69,-1,-1,71,73,-1,75,-1,-1,-1,-1,-1,-1,-1,-1,-1,-1,-1,-1,-1,-1,-1,-1,-1,-1,-1,-1,-1,-1,-1,-1,-1,-1,-1,-1,-1,-1],"loss_changes":[2.009544E3,4.9939218E2,2.486023E2,2.3104956E2,2.2099794E2,2.6989966E2,5.976953E1,2.6809375E2,3.0763342E2,3.8591544E2,1.8258719E2,2.2362671E2,0E0,3.7819214E1,0E0,8.907201E1,2.7006848E2,6.3428024E1,2.634088E2,2.4841614E2,1.660725E2,1.09534615E2,0E0,1.2573987E2,2.9648157E2,4.226683E1,0E0,2.3174138E2,6.3248962E1,3.7016266E1,1.0900369E2,2.1214848E0,0E0,1.1564673E2,3.470392E2,2.056535E2,2.1796759E2,7.247037E1,4.2012596E1,0E0,1.14290665E2,0E0,0E0,1.9616638E2,1.9867227E2,0E0,2.0578823E0,0E0,0E0,0E0,0E0,0E0,0E0,0E0,0E0,0E0,0E0,0E0,0E0,0E0,0E0,0E0,0E0,0E0,0E0,0E0,0E0,0E0,0E0,0E0,0E0,0E0,0E0,0E0,0E0,0E0,0E0],"parents":[2147483647,0,0,1,1,2,2,3,3,4,4,5,5,6,6,7,7,8,8,9,9,10,10,11,11,13,13,15,15,16,16,17,17,18,18,19,19,20,20,21,21,23,23,24,24,25,25,27,27,28,28,29,29,30,30,31,31,33,33,34,34,35,35,36,36,37,37,38,38,40,40,43,43,44,44,46,46],"right_children":[2,4,6,8,10,12,14,16,18,20,22,24,-1,26,-1,28,30,32,34,36,38,40,-1,42,44,46,-1,48,50,52,54,56,-1,58,60,62,64,66,68,-1,70,-1,-1,72,74,-1,76,-1,-1,-1,-1,-1,-1,-1,-1,-1,-1,-1,-1,-1,-1,-1,-1,-1,-1,-1,-1,-1,-1,-1,-1,-1,-1,-1,-1,-1,-1],"split_conditions":[3.2E1,1.9E1,1.9068668E1,1.24811535E1,2.2232623E2,1.8839502E1,4.4E1,1.8E0,2.7349217E0,2.4999995E0,3.1154043E1,1.2E1,-1.569424E0,2.1056168E1,1.0629913E0,1.2000002E0,2.3E0,8E0,3.8E1,2E1,6.0999994E0,2E0,2.7601547E0,7E0,2.2928706E2,3E1,3.714222E0,2.2E1,1.6000001E0,1.3E1,1.8E1,4E0,3.440392E0,3.1E1,2.504442E2,2.2E1,7.405455E1,1.1090103E1,7.6000004E0,2.0704005E0,3.9E1,-1.4496231E-2,3.7321584E0,7.880021E0,1.662249E1,2.4103346E0,4.5E1,-2.983489E-1,9.1841286E-1,-1.4329121E0,-1.4796561E-1,1.4185821E0,3.8673146E0,6.4878255E-1,-3.5803065E-1,1.19613506E-1,8.130936E-1,-4.866563E-1,-1.2577099E0,1.9815763E0,-4.1702148E-1,2.329588E0,8.610848E-1,-1.533116E0,6.0677177E-1,5.3274626E-1,-9.0643495E-1,9.298023E-1,5.085874E-2,-2.618581E-1,8.5541433E-1,3.4117506E0,1.15207E0,7.734587E-1,-3.8061473E-1,1.1073304E-1,7.502801E-1],"split_indices":[0,0,3,5,6,3,2,4,6,4,5,1,0,3,0,4,4,0,2,2,4,1,0,1,6,1,0,1,4,0,2,0,0,2,6,0,6,5,4,0,1,0,0,6,5,0,0,0,0,0,0,0,0,0,0,0,0,0,0,0,0,0,0,0,0,0,0,0,0,0,0,0,0,0,0,0,0],"split_type":[0,0,0,0,0,0,0,0,0,0,0,0,0,0,0,0,0,0,0,0,0,0,0,0,0,0,0,0,0,0,0,0,0,0,0,0,0,0,0,0,0,0,0,0,0,0,0,0,0,0,0,0,0,0,0,0,0,0,0,0,0,0,0,0,0,0,0,0,0,0,0,0,0,0,0,0,0],"sum_hessian":[9.43E2,7.94E2,1.49E2,5.68E2,2.26E2,1.35E2,1.4E1,1.93E2,3.75E2,1.16E2,1.1E2,1.32E2,3E0,9E0,5E0,1.47E2,4.6E1,3E0,3.72E2,7.3E1,4.3E1,1.09E2,1E0,4E0,1.28E2,6E0,3E0,1.33E2,1.4E1,5E0,4.1E1,2E0,1E0,3.51E2,2.1E1,3.9E1,3.4E1,2.4E1,1.9E1,1E0,1.08E2,1E0,3E0,7.1E1,5.7E1,3E0,3E0,1.18E2,1.5E1,8E0,6E0,4E0,1E0,2.7E1,1.4E1,1E0,1E0,3.33E2,1.8E1,8E0,1.3E1,1.4E1,2.5E1,4E0,3E1,3E0,2.1E1,8E0,1.1E1,1E2,8E0,3E0,6.8E1,3.7E1,2E1,1E0,2E0],"tree_param":{"num_deleted":"0","num_feature":"7","num_nodes":"77","size_leaf_vector":"1"}},{"base_weights":[1.1882852E-1,-3.0363554E-1,2.7902381E0,-1.0076735E0,1.9883102E-1,7.2009873E0,2.2338526E0,1.7570885E0,-1.1229609E0,-9.308295E-1,7.665884E-1,8.910686E0,6.990719E-1,9.4628537E-1,4.6565733E0,-1.6642036E0,2.4659874E0,2.285414E0,-1.1829836E0,7.5190105E-2,-2.4023225E0,1.4614248E0,-4.1408982E-2,4.643108E0,1.1693149E1,-1.6986452E0,1.1838336E0,-2.1711733E0,1.934174E0,3.2584574E0,8.525074E0,-6.163373E-1,-1.3255435E-1,1.4775723E0,1.4816127E0,2.4789734E-1,1.0407187E0,-1.1045122E0,-3.5208373E0,1.4845525E0,-1.8516266E0,4.2005026E-1,-2.9231186E0,1.1958514E0,7.5125947E0,2.924333E0,-1.743135E-1,-3.6435586E-1,6.057537E0,3.8560002E0,8.838335E-1,-5.8727648E-2,-7.056627E-1,1.4220605E0,-5.54729E0,3.6083078E0,-1.8362586E-1,1.135447E-1,4.170993E0,1.0697796E1,-1.1053976E-1,5.566608E-1,-2.8255436E-1,-4.40468E-1,-1.4479923E-1,-1.559496E0,8.848987E-2,1.5984436E0,-9.824357E-2,-6.800315E-1,1.2487398E0,4.2240083E-1,-1.4189212E0,-1.0184941E0,-4.02483E-2,8.8745576E-1,1.3426766E-1,-7.7546865E-1,3.620571E0,-4.845778E-1,9.227165E-2,-1.5117589E-1,2.3471644E0,1.9315205E0,-4.9427146E-1,-1.7764652E0,-3.2684156E-1,1.5101812E0,-5.2209895E-2,1.2022668E0,-6.4777744E-1,7.5679785E-1,-8.7787044E-1,-2.0742257E-1,1.553413E0,3.6602614E0,1.237714E0,-3.513525E-1,3.0160964E-1],"categories":[],"categories_nodes":[],"categories_segments":[],"categories_sizes":[],"default_left":[0,0,0,0,0,0,0,0,0,0,0,0,0,0,0,0,0,0,0,0,0,0,0,0,0,0,0,0,0,0,0,0,0,0,0,0,0,0,0,0,0,0,0,0,0,0,0,0,0,0,0,0,0,0,0,0,0,0,0,0,0,0,0,0,0,0,0,0,0,0,0,0,0,0,0,0,0,0,0,0,0,0,0,0,0,0,0,0,0,0,0,0,0,0,0,0,0,0,0],"id":6,"left_children":[1,3,5,7,9,11,13,15,17,19,21,23,25,27,29,31,33,35,37,39,41,43,45,47,49,51,-1,53,55,57,59,-1,-1,-1,61,-1,-1,63,65,67,69,71,73,75,77,-1,79,-1,81,-1,-1,-1,-1,83,85,87,89,91,93,95,97,-1,-1,-1,-1,-1,-1,-1,-1,-1,-1,-1,-1,-1,-1,-1,-1,-1,-1,-1,-1,-1,-1,-1,-1,-1,-1,-1,-1,-1,-1,-1,-1,-1,-1,-1,-1,-1,-1],"loss_changes":[1.0662216E3,2.8886487E2,3.0049E2,1.1034558E2,3.0664856E2,1.4939917E2,3.5744568E2,3.805882E1,6.9601135E1,2.3703679E2,1.78594E2,7.632568E1,3.7844975E1,2.4133646E2,1.8856598E2,5.2332973E-1,2.1752625E1,7.495718E0,5.5183563E1,2.634448E2,9.677008E1,2.658181E2,1.9425117E2,5.7068207E1,2.3021667E1,2.4862309E0,0E0,2.383809E2,2.0984595E2,8.849158E1,1.8881036E2,0E0,0E0,0E0,1.0809511E1,0E0,0E0,7.008414E1,6.5542755E1,3.917685E2,1.1180089E2,6.2624687E1,7.192462E1,2.162684E2,3.5322336E2,0E0,1.0256937E2,0E0,6.1891556E1,0E0,0E0,0E0,0E0,1.6459091E2,1.0232513E1,1.7881915E2,2.3221967E2,6.596731E1,1.21100555E2,2.8689392E1,4.7281637E0,0E0,0E0,0E0,0E0,0E0,0E0,0E0,0E0,0E0,0E0,0E0,0E0,0E0,0E0,0E0,0E0,0E0,0E0,0E0,0E0,0E0,0E0,0E0,0E0,0E0,0E0,0E0,0E0,0E0,0E0,0E0,0E0,0E0,0E0,0E0,0E0,0E0,0E0],"parents":[2147483647,0,0,1,1,2,2,3,3,4,4,5,5,6,6,7,7,8,8,9,9,10,10,11,11,12,12,13,13,14,14,15,15,16,16,17,17,18,18,19,19,20,20,21,21,22,22,23,23,24,24,25,25,27,27,28,28,29,29,30,30,34,34,37,37,38,38,39,39,40,40,41,41,42,42,43,43,44,44,46,46,48,48,53,53,54,54,55,55,56,56,57,57,58,58,59,59,60,60],"right_children":[2,4,6,8,10,12,14,16,18,20,22,24,26,28,30,32,34,36,38,40,42,44,46,48,50,52,-1,54,56,58,60,-1,-1,-1,62,-1,-1,64,66,68,70,72,74,76,78,-1,80,-1,82,-1,-1,-1,-1,84,86,88,90,92,94,96,98,-1,-1,-1,-1,-1,-1,-1,-1,-1,-1,-1,-1,-1,-1,-1,-1,-1,-1,-1,-1,-1,-1,-1,-1,-1,-1,-1,-1,-1,-1,-1,-1,-1,-1,-1,-1,-1,-1],"split_conditions":[3.4E1,1.3E1,-4.358417E0,-1.2254252E1,6.249166E-1,4.6E1,1.5470749E1,6E0,1.1512083E1,-1.97925E0,1.4535487E1,4.1E1,-6.602167E0,2E1,5.1E1,6E0,2.5624847E2,1.1E1,1.3700002E1,2.845665E2,9E0,4.5E1,2.7349217E0,-6.9105E0,5.9E1,4.8E1,1.1838336E0,1.3E1,3.9E1,2.5E1,6E1,-6.163373E-1,-1.3255435E-1,1.4775723E0,-1.2810501E1,2.4789734E-1,1.0407187E0,9E-1,3.9853334E0,1.0137692E1,-2.9375832E0,1.2908342E-1,6.3000007E0,5.1999164E0,2.4582498E0,2.924333E0,1.3E1,-3.6435586E-1,1.6E1,3.8560002E0,8.838335E-1,-5.8727648E-2,-7.056627E-1,1.6E1,5.1E1,1.0000001E0,1.039094E2,2.1E1,1.03184685E2,5.9E1,4.3E1,5.566608E-1,-2.8255436E-1,-4.40468E-1,-1.4479923E-1,-1.559496E0,8.848987E-2,1.5984436E0,-9.824357E-2,-6.800315E-1,1.2487398E0,4.2240083E-1,-1.4189212E0,-1.0184941E0,-4.02483E-2,8.8745576E-1,1.3426766E-1,-7.7546865E-1,3.620571E0,-4.845778E-1,9.227165E-2,-1.5117589E-1,2.3471644E0,1.9315205E0,-4.9427146E-1,-1.7764652E0,-3.2684156E-1,1.5101812E0,-5.2209895E-2,1.2022668E0,-6.4777744E-1,7.5679785E-1,-8.7787044E-1,-2.0742257E-1,1.553413E0,3.6602614E0,1.237714E0,-3.513525E-1,3.0160964E-1],"split_indices":[0,0,3,3,3,1,3,2,6,3,5,0,3,2,1,0,6,1,4,6,2,2,6,3,0,0,0,2,1,1,1,0,0,0,3,0,0,4,3,5,3,3,4,3,3,0,2,0,2,0,0,0,0,1,0,4,6,1,6,0,0,0,0,0,0,0,0,0,0,0,0,0,0,0,0,0,0,0,0,0,0,0,0,0,0,0,0,0,0,0,0,0,0,0,0,0,0,0,0],"split_type":[0,0,0,0,0,0,0,0,0,0,0,0,0,0,0,0,0,0,0,0,0,0,0,0,0,0,0,0,0,0,0,0,0,0,0,0,0,0,0,0,0,0,0,0,0,0,0,0,0,0,0,0,0,0,0,0,0,0,0,0,0,0,0,0,0,0,0,0,0,0,0,0,0,0,0,0,0,0,0,0,0,0,0,0,0,0,0,0,0,0,0,0,0,0,0,0,0,0,0],"sum_hessian":[9.43E2,8.15E2,1.28E2,3.39E2,4.76E2,1.3E1,1.15E2,1.3E1,3.26E2,1.59E2,3.17E2,1E1,3E0,7.6E1,3.9E1,2E0,1.1E1,5E0,3.21E2,9.5E1,6.4E1,1.7E2,1.47E2,5E0,5E0,2E0,1E0,1.8E1,5.8E1,3E1,9E0,1E0,1E0,2E0,9E0,3E0,2E0,3.12E2,9E0,5.5E1,4E1,1E1,5.4E1,1.64E2,6E0,1E0,1.46E2,1E0,4E0,4E0,1E0,1E0,1E0,9E0,9E0,3.2E1,2.6E1,7E0,2.3E1,7E0,2E0,8E0,1E0,1.96E2,1.16E2,6E0,3E0,1.7E1,3.8E1,3.8E1,2E0,9E0,1E0,4.6E1,8E0,4.8E1,1.16E2,2E0,4E0,3.6E1,1.1E2,1E0,3E0,3E0,6E0,8E0,1E0,2.3E1,9E0,8E0,1.8E1,4E0,3E0,4E0,1.9E1,5E0,2E0,1E0,1E0],"tree_param":{"num_deleted":"0","num_feature":"7","num_nodes":"99","size_leaf_vector":"1"}},{"base_weights":[1.0548724E-1,-4.124583E-1,1.3735018E0,3.7542784E0,-4.811749E-1,1.119458E0,4.7241173E0,6.1363065E-1,1.3315666E0,-3.758172E-1,-2.1074574E0,6.4360604E0,9.4414765E-1,5.680858E0,1.7043699E0,-4.4484583E-1,4.9777365E0,-2.997613E0,5.118266E-1,2.6164865E-1,1.0088378E1,5.385865E-1,2.9884925E0,6.2212048E0,-2.0154792E-1,6.1023426E-1,7.785282E-1,-1.8288863E-1,-1.3928194E0,-1.6460924E0,9.281253E0,-2.3587982E-1,-4.5840964E0,-2.0492182E0,8.024352E0,1.0553569E0,-1.426046E0,-4.4903755E-3,3.785387E0,6.9745696E-1,-3.5402167E0,2.538811E0,3.1463633E0,1.3219929E-1,1.9998584E0,3.3698276E-2,2.216282E-1,4.855338E-2,-3.1641302E-1,-4.7732782E-1,1.2003589E0,-6.8991E-2,-6.12443E-1,3.4295743E0,1.01791196E-1,-4.9775288E-1,3.053357E-1,5.7690597E-1,-1.5157312E0,-1.5553056E0,1.1472221E-1,3.0431094E0,5.678493E-1,1.7994346E-1,2.0924017E0,1.0347886E0,-1.933481E0,1.2859536E0,-1.0519429E-1],"categories":[],"categories_nodes":[],"categories_segments":[],"categories_sizes":[],"default_left":[0,0,0,0,0,0,0,0,0,0,0,0,0,0,0,0,0,0,0,0,0,0,0,0,0,0,0,0,0,0,0,0,0,0,0,0,0,0,0,0,0,0,0,0,0,0,0,0,0,0,0,0,0,0,0,0,0,0,0,0,0,0,0,0,0,0,0,0,0],"id":7,"left_children":[1,3,5,7,9,11,13,-1,-1,15,17,19,21,23,25,27,29,31,33,35,37,39,41,43,-1,45,-1,47,49,51,53,55,57,59,61,-1,-1,-1,-1,63,65,67,-1,-1,-1,-1,-1,-1,-1,-1,-1,-1,-1,-1,-1,-1,-1,-1,-1,-1,-1,-1,-1,-1,-1,-1,-1,-1,-1],"loss_changes":[6.205503E2,1.9392975E2,2.2794116E2,3.7837524E0,1.124646E2,2.325296E2,4.5210907E1,0E0,0E0,2.320735E2,9.479706E1,1.7776764E2,2.0483807E2,5.2236725E1,4.2638226E0,1.5246733E2,2.4332382E2,1.3036203E2,2.2808272E2,8.204336E1,1.27974884E2,1.3790146E2,1.1163898E2,3.0502106E1,0E0,1.729933E-1,0E0,1.4533434E2,1.4860834E2,1.7701712E0,9.227661E1,2.3100737E1,6.761929E1,7.059378E1,1.9784134E1,0E0,0E0,0E0,0E0,1.1963074E2,1.8465106E2,2.0349942E2,0E0,0E0,0E0,0E0,0E0,0E0,0E0,0E0,0E0,0E0,0E0,0E0,0E0,0E0,0E0,0E0,0E0,0E0,0E0,0E0,0E0,0E0,0E0,0E0,0E0,0E0,0E0],"parents":[2147483647,0,0,1,1,2,2,3,3,4,4,5,5,6,6,9,9,10,10,11,11,12,12,13,13,14,14,15,15,16,16,17,17,18,18,19,19,20,20,21,21,22,22,23,23,25,25,27,27,28,28,29,29,30,30,31,31,32,32,33,33,34,34,39,39,40,40,41,41],"right_children":[2,4,6,8,10,12,14,-1,-1,16,18,20,22,24,26,28,30,32,34,36,38,40,42,44,-1,46,-1,48,50,52,54,56,58,60,62,-1,-1,-1,-1,64,66,68,-1,-1,-1,-1,-1,-1,-1,-1,-1,-1,-1,-1,-1,-1,-1,-1,-1,-1,-1,-1,-1,-1,-1,-1,-1,-1,-1],"split_conditions":[2.3E1,7.2E0,1.9412416E1,1.4E1,2.9E1,7.880021E0,4.4E1,6.1363065E-1,1.3315666E0,4.5E1,4.4E1,1.0440001E1,4.7E1,1.7088627E1,1.4685176E1,3.0312973E2,-5.6258327E-1,3.8332498E0,1.7E1,2.6E1,7E0,4.4E1,5.8E1,1.1240547E2,-2.0154792E-1,4.6E1,7.785282E-1,2.4999995E0,2.6E1,5.1E1,1.8E1,3.4E1,7E0,2.8590054E2,1.9E1,1.0553569E0,-1.426046E0,-4.4903755E-3,3.785387E0,3.1154043E1,1.039094E2,1.5696165E1,3.1463633E0,1.3219929E-1,1.9998584E0,3.3698276E-2,2.216282E-1,4.855338E-2,-3.1641302E-1,-4.7732782E-1,1.2003589E0,-6.8991E-2,-6.12443E-1,3.4295743E0,1.01791196E-1,-4.9775288E-1,3.053357E-1,5.7690597E-1,-1.5157312E0,-1.5553056E0,1.1472221E-1,3.0431094E0,5.678493E-1,1.7994346E-1,2.0924017E0,1.0347886E0,-1.933481E0,1.2859536E0,-1.0519429E-1],"split_indices":[0,5,3,0,1,6,2,0,0,2,1,5,0,5,5,6,3,3,0,0,1,0,2,6,0,0,0,4,1,2,0,1,0,6,0,0,0,0,0,5,6,5,0,0,0,0,0,0,0,0,0,0,0,0,0,0,0,0,0,0,0,0,0,0,0,0,0,0,0],"split_type":[0,0,0,0,0,0,0,0,0,0,0,0,0,0,0,0,0,0,0,0,0,0,0,0,0,0,0,0,0,0,0,0,0,0,0,0,0,0,0,0,0,0,0,0,0,0,0,0,0,0,0,0,0,0,0,0,0,0,0,0,0,0,0,0,0,0,0,0,0],"sum_hessian":[9.43E2,6.7E2,2.73E2,1E1,6.6E2,2.55E2,1.8E1,4E0,6E0,6.21E2,3.9E1,7E0,2.48E2,1.3E1,5E0,6.14E2,7E0,2.9E1,1E1,3E0,4E0,2.08E2,4E1,1.2E1,1E0,3E0,2E0,4.82E2,1.32E2,3E0,4E0,1.1E1,1.8E1,8E0,2E0,2E0,1E0,1E0,3E0,2.01E2,7E0,3.9E1,1E0,1E0,1.1E1,1E0,2E0,3.46E2,1.36E2,1.28E2,4E0,1E0,2E0,3E0,1E0,5E0,6E0,1E0,1.7E1,3E0,5E0,1E0,1E0,1.99E2,2E0,2E0,5E0,2.4E1,1.5E1],"tree_param":{"num_deleted":"0","num_feature":"7","num_nodes":"69","size_leaf_vector":"1"}},{"base_weights":[9.329532E-2,-3.9317518E-1,8.29222E-1,2.8766563E0,-4.4493154E-1,5.300215E-1,2.365585E0,4.6635923E-1,1.0870352E0,-3.2954705E-1,-1.5004771E0,2.3621256E0,3.2958356E-1,1.757156E0,6.8081584E0,-7.754879E-1,2.0538393E-2,2.2853434E0,-2.0106866E0,4.479513E0,-9.142199E-1,-2.6061383E-1,9.733793E-1,4.3698916E0,7.584196E-1,2.8827949E0,3.3243134E0,8.83909E-1,-1.2117374E0,1.155496E0,-7.428573E-1,-1.0892807E0,1.1559148E0,-8.9649796E-1,-3.1339457E0,1.7733582E0,7.9788065E0,-2.3661745E0,2.9442215E0,4.4107707E-3,-3.971399E0,1.7295564E0,-6.1101735E-1,1.3621867E0,6.2236743E0,-4.5578992E-1,2.8934355E0,9.694863E-1,2.2312374E-1,-7.592987E-2,1.5348452E0,-2.4271598E-1,-9.9770933E-1,-2.576807E-1,6.4823586E-1,-6.421033E-1,-3.4261364E-2,-5.65722E-1,7.55456E-2,3.0659595E-1,-7.8417367E-1,-1.2462053E0,-5.853805E-1,1.3398081E0,-3.9368823E-2,2.586846E0,5.2060664E-1,-1.0683279E0,9.4942905E-2,-1.5611516E-1,1.2817653E0,-6.0487676E-2,1.40215E0,3.8324645E-1,-1.6329921E0,-1.7031534E-1,7.2224396E-1,-4.4304377E-1,1.073366E0,-4.7485545E-1,6.350505E-1,2.581451E0,3.2880366E-1,3.8452607E-2,-1.5510712E0,1.3048259E0,1.824324E-1],"categories":[],"categories_nodes":[],"categories_segments":[],"categories_sizes":[],"default_left":[0,0,0,0,0,0,0,0,0,0,0,0,0,0,0,0,0,0,0,0,0,0,0,0,0,0,0,0,0,0,0,0,0,0,0,0,0,0,0,0,0,0,0,0,0,0,0,0,0,0,0,0,0,0,0,0,0,0,0,0,0,0,0,0,0,0,0,0,0,0,0,0,0,0,0,0,0,0,0,0,0,0,0,0,0,0,0],"id":8,"left_children":[1,3,5,7,9,11,13,-1,-1,15,17,19,21,23,25,27,29,31,33,35,37,39,41,43,45,47,-1,49,51,53,55,57,-1,59,61,63,65,67,69,71,73,75,77,79,81,83,85,-1,-1,-1,-1,-1,-1,-1,-1,-1,-1,-1,-1,-1,-1,-1,-1,-1,-1,-1,-1,-1,-1,-1,-1,-1,-1,-1,-1,-1,-1,-1,-1,-1,-1,-1,-1,-1,-1,-1,-1],"loss_changes":[3.3828433E2,9.757434E1,1.7158609E2,3.2534409E0,6.783172E1,1.15263985E2,1.5291943E2,0E0,0E0,7.916745E1,1.10831E2,2.1915137E2,1.08924126E2,1.4020468E2,8.546405E1,1.625032E2,2.4778856E2,4.1229977E1,5.8515E1,1.6577371E2,7.97962E1,1.4753491E2,1.6519435E2,7.515662E1,1.07605415E2,1.3272743E0,0E0,2.2746333E2,1.4798209E2,2.347411E2,1.499849E2,3.6792567E0,0E0,8.833703E1,2.0848373E1,6.2127155E1,1.7203247E1,3.3182487E1,2.0631924E1,1.3659435E2,8.421254E1,1.462027E2,1.6848686E2,1.890791E1,1.00457184E2,7.499568E1,4.726609E1,0E0,0E0,0E0,0E0,0E0,0E0,0E0,0E0,0E0,0E0,0E0,0E0,0E0,0E0,0E0,0E0,0E0,0E0,0E0,0E0,0E0,0E0,0E0,0E0,0E0,0E0,0E0,0E0,0E0,0E0,0E0,0E0,0E0,0E0,0E0,0E0,0E0,0E0,0E0,0E0],"parents":[2147483647,0,0,1,1,2,2,3,3,4,4,5,5,6,6,9,9,10,10,11,11,12,12,13,13,14,14,15,15,16,16,17,17,18,18,19,19,20,20,21,21,22,22,23,23,24,24,25,25,27,27,28,28,29,29,30,30,31,31,33,33,34,34,35,35,36,36,37,37,38,38,39,39,40,40,41,41,42,42,43,43,44,44,45,45,46,46],"right_children":[2,4,6,8,10,12,14,-1,-1,16,18,20,22,24,26,28,30,32,34,36,38,40,42,44,46,48,-1,50,52,54,56,58,-1,60,62,64,66,68,70,72,74,76,78,80,82,84,86,-1,-1,-1,-1,-1,-1,-1,-1,-1,-1,-1,-1,-1,-1,-1,-1,-1,-1,-1,-1,-1,-1,-1,-1,-1,-1,-1,-1,-1,-1,-1,-1,-1,-1,-1,-1,-1,-1,-1,-1],"split_conditions":[1.9E1,7.2E0,1.70645E1,1.4E1,2.2392462E1,-5.2792497E0,5.1E1,4.6635923E-1,1.0870352E0,5.3950006E-1,6E0,2.9E1,2.2E1,2.1E1,1.5937878E1,1.02742E1,6.737417E0,5E0,2E-1,2.6E1,-6.075083E0,1.630825E1,4E1,1.6E1,1.9412416E1,5.7E1,3.3243134E0,1.0009036E1,1.7E1,1.1E1,1.1370749E1,8E0,1.1559148E0,2.9552713E2,2.535637E1,1.1246759E1,2.5E1,3.4E1,4.1E1,1.6174917E1,1.7E1,1.0661107E1,1.5374917E1,9.6932955E0,1.8529083E1,2.867842E2,3.3E1,9.694863E-1,2.2312374E-1,-7.592987E-2,1.5348452E0,-2.4271598E-1,-9.9770933E-1,-2.576807E-1,6.4823586E-1,-6.421033E-1,-3.4261364E-2,-5.65722E-1,7.55456E-2,3.0659595E-1,-7.8417367E-1,-1.2462053E0,-5.853805E-1,1.3398081E0,-3.9368823E-2,2.586846E0,5.2060664E-1,-1.0683279E0,9.4942905E-2,-1.5611516E-1,1.2817653E0,-6.0487676E-2,1.40215E0,3.8324645E-1,-1.6329921E0,-1.7031534E-1,7.2224396E-1,-4.4304377E-1,1.073366E0,-4.7485545E-1,6.350505E-1,2.581451E0,3.2880366E-1,3.8452607E-2,-1.5510712E0,1.3048259E0,1.824324E-1],"split_indices":[0,5,3,0,5,3,1,0,0,3,2,1,2,1,5,5,3,1,4,0,3,3,2,2,3,1,0,5,1,2,3,0,0,6,5,5,1,2,0,3,1,5,3,5,3,6,1,0,0,0,0,0,0,0,0,0,0,0,0,0,0,0,0,0,0,0,0,0,0,0,0,0,0,0,0,0,0,0,0,0,0,0,0,0,0,0,0],"split_type":[0,0,0,0,0,0,0,0,0,0,0,0,0,0,0,0,0,0,0,0,0,0,0,0,0,0,0,0,0,0,0,0,0,0,0,0,0,0,0,0,0,0,0,0,0,0,0,0,0,0,0,0,0,0,0,0,0,0,0,0,0,0,0,0,0,0,0,0,0,0,0,0,0,0,0,0,0,0,0,0,0,0,0,0,0,0,0],"sum_hessian":[9.43E2,5.68E2,3.75E2,8E0,5.6E2,3.15E2,6E1,4E0,4E0,5.06E2,5.4E1,3E1,2.85E2,5.4E1,6E0,2.22E2,2.84E2,6E0,4.8E1,1.8E1,1.2E1,1.49E2,1.36E2,1.4E1,4E1,4E0,2E0,4.6E1,1.76E2,1.14E2,1.7E2,2E0,4E0,2.5E1,2.3E1,1.1E1,7E0,9E0,3E0,1.4E2,9E0,9.2E1,4.4E1,6E0,8E0,2.6E1,1.4E1,3E0,1E0,3.7E1,9E0,1.49E2,2.7E1,3.8E1,7.6E1,5.2E1,1.18E2,1E0,1E0,1.2E1,1.3E1,1.1E1,1.2E1,4E0,7E0,6E0,1E0,6E0,3E0,1E0,2E0,1.35E2,5E0,2E0,7E0,2.1E1,7.1E1,3.7E1,7E0,1E0,5E0,5E0,3E0,2.4E1,2E0,8E0,6E0],"tree_param":{"num_deleted":"0","num_feature":"7","num_nodes":"87","size_leaf_vector":"1"}},{"base_weights":[7.933107E-2,-1.021404E-1,1.2266287E0,-2.0091893E-1,1.3530079E0,6.96656E0,1.0346735E0,2.1027114E0,-2.52936E-1,6.416229E-2,2.4554412E0,-1.1215354E-1,2.861393E0,1.775393E0,8.674549E-1,6.299337E-1,3.0706625E0,-1.2707046E-1,-1.3497487E0,-8.46182E-1,3.0879495E0,4.798169E0,1.8650628E0,3.8231415E-1,2.3586473E0,1.1189591E0,-4.1898653E-1,1.2454948E0,1.6580629E0,-2.2033353E-1,1.7479908E0,1.9884536E0,-1.7656049E0,8.270205E-1,-3.4593632E0,1.800939E0,1.2957716E-1,1.9597892E0,-3.2095158E-1,4.1113315E0,1.0575538E0,7.6041746E-1,-1.3750019E0,5.934092E-2,4.366832E0,-3.5306454E-2,4.034045E-1,1.11000255E-1,5.525026E-1,-8.7869294E-2,9.939554E-1,1.9786683E0,1.818038E-1,1.2086861E0,-1.0306593E0,-7.759482E-1,1.1246951E-1,-1.4238264E-1,9.0136474E-1,-1.2890489E0,-1.8939267E-1,-2.8595334E-1,5.066763E-1,1.6484611E0,2.688507E-1,-2.9087588E-1,4.9882907E-1,1.1673042E-1,8.310693E-1,1.6652886E0,-6.4644295E-1,1.1876845E0,-6.8590724E-1,5.62035E-1,2.1914918E0],"categories":[],"categories_nodes":[],"categories_segments":[],"categories_sizes":[],"default_left":[0,0,0,0,0,0,0,0,0,0,0,0,0,0,0,0,0,0,0,0,0,0,0,0,0,0,0,0,0,0,0,0,0,0,0,0,0,0,0,0,0,0,0,0,0,0,0,0,0,0,0,0,0,0,0,0,0,0,0,0,0,0,0,0,0,0,0,0,0,0,0,0,0,0,0],"id":9,"left_children":[1,3,5,7,9,11,13,15,17,19,21,-1,-1,-1,23,25,27,29,31,33,35,37,39,41,43,45,-1,-1,47,49,51,53,55,57,59,-1,61,-1,-1,63,65,67,69,71,73,-1,-1,-1,-1,-1,-1,-1,-1,-1,-1,-1,-1,-1,-1,-1,-1,-1,-1,-1,-1,-1,-1,-1,-1,-1,-1,-1,-1,-1,-1],"loss_changes":[1.9666776E2,1.1756156E2,1.3492532E2,9.220038E1,7.372751E1,7.9066666E1,9.775537E1,2.2300484E1,1.0322865E2,7.1430145E1,2.9777786E1,0E0,0E0,0E0,8.808116E1,9.491058E0,8.386322E0,1.1807532E2,1.1040314E2,9.0308586E1,5.096725E1,5.787802E1,3.9185226E1,6.3503593E1,1.3826381E2,2.1122274E0,0E0,0E0,7.3760414E-1,1.6558348E2,1.7314922E2,1.1345036E2,1.2221068E2,3.827234E1,1.6234589E1,0E0,8.363391E0,0E0,0E0,2.1765472E1,2.4922243E1,5.7131626E1,1.037769E2,1.462611E2,1.0352899E2,0E0,0E0,0E0,0E0,0E0,0E0,0E0,0E0,0E0,0E0,0E0,0E0,0E0,0E0,0E0,0E0,0E0,0E0,0E0,0E0,0E0,0E0,0E0,0E0,0E0,0E0,0E0,0E0,0E0,0E0],"parents":[2147483647,0,0,1,1,2,2,3,3,4,4,5,5,6,6,7,7,8,8,9,9,10,10,14,14,15,15,16,16,17,17,18,18,19,19,20,20,21,21,22,22,23,23,24,24,25,25,28,28,29,29,30,30,31,31,32,32,33,33,34,34,36,36,39,39,40,40,41,41,42,42,43,43,44,44],"right_children":[2,4,6,8,10,12,14,16,18,20,22,-1,-1,-1,24,26,28,30,32,34,36,38,40,42,44,46,-1,-1,48,50,52,54,56,58,60,-1,62,-1,-1,64,66,68,70,72,74,-1,-1,-1,-1,-1,-1,-1,-1,-1,-1,-1,-1,-1,-1,-1,-1,-1,-1,-1,-1,-1,-1,-1,-1,-1,-1,-1,-1,-1,-1],"split_conditions":[3.4E1,1.7235334E1,7.880021E0,7.2E0,1E-1,7E0,1.2E1,4.853333E-1,2.9E1,2.8E1,9E0,-1.1215354E-1,2.861393E0,1.775393E0,5E1,2.9E1,5E-1,2.7E1,1.7E1,1.7E1,2.1E1,1.7E1,8E-1,4.6E1,1.2089499E1,6E0,-4.1898653E-1,1.2454948E0,7E0,2.8E1,1.0739832E1,2.7E1,4.4E1,1.9068668E1,2.8E1,1.800939E0,2.8E1,1.9597892E0,-3.2095158E-1,2.5E1,1.3E1,4.7E1,6.989936E0,-4.358417E0,1.4386494E1,-3.5306454E-2,4.034045E-1,1.11000255E-1,5.525026E-1,-8.7869294E-2,9.939554E-1,1.9786683E0,1.818038E-1,1.2086861E0,-1.0306593E0,-7.759482E-1,1.1246951E-1,-1.4238264E-1,9.0136474E-1,-1.2890489E0,-1.8939267E-1,-2.8595334E-1,5.066763E-1,1.6484611E0,2.688507E-1,-2.9087588E-1,4.9882907E-1,1.1673042E-1,8.310693E-1,1.6652886E0,-6.4644295E-1,1.1876845E0,-6.8590724E-1,5.62035E-1,2.1914918E0],"split_indices":[0,3,6,5,4,1,1,3,1,0,1,0,0,0,0,0,4,0,2,1,1,2,4,1,3,2,0,0,0,1,5,0,1,3,1,0,1,0,0,0,2,0,5,3,5,0,0,0,0,0,0,0,0,0,0,0,0,0,0,0,0,0,0,0,0,0,0,0,0,0,0,0,0,0,0],"split_type":[0,0,0,0,0,0,0,0,0,0,0,0,0,0,0,0,0,0,0,0,0,0,0,0,0,0,0,0,0,0,0,0,0,0,0,0,0,0,0,0,0,0,0,0,0,0,0,0,0,0,0,0,0,0,0,0,0,0,0,0,0,0,0,0,0,0,0,0,0,0,0,0,0,0,0],"sum_hessian":[9.43E2,8.15E2,1.28E2,7.64E2,5.1E1,3E0,1.25E2,1.6E1,7.48E2,2.4E1,2.7E1,1E0,2E0,3E0,1.22E2,7E0,9E0,6.72E2,7.6E1,1.9E1,5E0,4E0,2.3E1,9.3E1,2.9E1,6E0,1E0,4E0,5E0,6.41E2,3.1E1,8E0,6.8E1,1.2E1,7E0,2E0,3E0,3E0,1E0,5E0,1.8E1,7.7E1,1.6E1,1.4E1,1.5E1,1E0,5E0,1E0,4E0,6.29E2,1.2E1,5E0,2.6E1,6E0,2E0,4.9E1,1.9E1,8E0,4E0,5E0,2E0,2E0,1E0,3E0,2E0,4E0,1.4E1,6.6E1,1.1E1,1E0,1.5E1,5E0,9E0,9E0,6E0],"tree_param":{"num_deleted":"0","num_feature":"7","num_nodes":"75","size_leaf_vector":"1"}},{"base_weights":[7.592615E-2,-5.4091968E-2,1.1497433E0,-1.2499491E-2,-2.9333293E0,7.307143E-1,3.9622712E0,-6.705193E-1,1.8063442E-1,5.0913334E-2,-3.933734E0,1.8205712E0,-5.581834E-1,2.947966E0,2.002715E0,-7.816747E-1,2.3311887E0,4.3414852E-1,-4.9069452E-1,-5.705929E-1,2.873148E-1,-1.5438576E0,-1.1316142E0,-3.3660576E0,2.1128972E0,-1.6601961E0,1.0034E0,3.1486607E-1,3.3567784E0,8.761283E-2,-1.1558812E0,-8.898083E-2,2.5278308E0,8.226913E-1,-9.1693467E-1,-3.627169E0,-1.778903E-1,-2.8655149E-2,-2.2811165E-1,9.803811E-2,-5.180044E-1,-3.0491525E-1,-1.2098107E0,2.439385E0,-1.1174786E0,-3.2501318E0,1.049721E0,4.8456758E-1,1.4735327E0,-4.2975113E-1,9.508408E-1,1.1663004E0,1.05349734E-1,4.9211037E-1,-3.384645E-1,-4.4198713E-1,-4.728401E-2,3.1095472E-1,-4.679948E-1,6.666276E-3,6.265578E-1,-1.2692083E-1,-9.3901736E-1,-6.7530614E-1,-2.157858E0,1.7463681E-1,-3.7926272E-1,2.9086304E-1,9.346594E-1,4.3985225E-2,-4.410471E-1,-2.2353439E-1,-1.2963115E0,6.0740906E-1,-5.7003653E-1,4.9458906E-1,-9.007533E-2,3.5551375E-1,1.1990662E-1],"categories":[],"categories_nodes":[],"categories_segments":[],"categories_sizes":[],"default_left":[0,0,0,0,0,0,0,0,0,0,0,0,0,0,0,0,0,0,0,0,0,0,0,0,0,0,0,0,0,0,0,0,0,0,0,0,0,0,0,0,0,0,0,0,0,0,0,0,0,0,0,0,0,0,0,0,0,0,0,0,0,0,0,0,0,0,0,0,0,0,0,0,0,0,0,0,0,0,0],"id":10,"left_children":[1,3,5,7,9,11,13,15,17,19,21,23,25,-1,27,29,31,33,35,37,-1,-1,39,41,43,45,47,49,51,53,55,57,-1,59,61,63,65,-1,-1,-1,-1,-1,-1,67,69,71,73,75,-1,-1,77,-1,-1,-1,-1,-1,-1,-1,-1,-1,-1,-1,-1,-1,-1,-1,-1,-1,-1,-1,-1,-1,-1,-1,-1,-1,-1,-1,-1],"loss_changes":[1.3185939E2,1.0091648E2,1.1731485E2,1.0585663E2,3.602569E1,1.2744046E2,1.2970825E2,6.488322E1,1.0981626E2,2.8008E0,2.475357E1,8.140524E1,7.3943E1,0E0,2.4083057E1,5.9629883E1,1.0400484E2,2.4643268E2,1.730099E2,1.9784999E-1,0E0,0E0,4.0356703E0,6.004219E-1,5.2295837E1,1.1112658E2,3.412017E1,8.02978E0,8.208679E0,1.0757211E2,4.032579E1,1.1550591E1,0E0,3.6878137E2,1.13439156E2,6.2319427E1,1.3448578E2,0E0,0E0,0E0,0E0,0E0,0E0,3.9713974E1,2.4446468E0,3.970256E1,3.260742E1,1.602583E1,0E0,0E0,1.717639E-1,0E0,0E0,0E0,0E0,0E0,0E0,0E0,0E0,0E0,0E0,0E0,0E0,0E0,0E0,0E0,0E0,0E0,0E0,0E0,0E0,0E0,0E0,0E0,0E0,0E0,0E0,0E0,0E0],"parents":[2147483647,0,0,1,1,2,2,3,3,4,4,5,5,6,6,7,7,8,8,9,9,10,10,11,11,12,12,14,14,15,15,16,16,17,17,18,18,19,19,22,22,23,23,24,24,25,25,26,26,27,27,28,28,29,29,30,30,31,31,33,33,34,34,35,35,36,36,43,43,44,44,45,45,46,46,47,47,50,50],"right_children":[2,4,6,8,10,12,14,16,18,20,22,24,26,-1,28,30,32,34,36,38,-1,-1,40,42,44,46,48,50,52,54,56,58,-1,60,62,64,66,-1,-1,-1,-1,-1,-1,68,70,72,74,76,-1,-1,78,-1,-1,-1,-1,-1,-1,-1,-1,-1,-1,-1,-1,-1,-1,-1,-1,-1,-1,-1,-1,-1,-1,-1,-1,-1,-1,-1,-1],"split_conditions":[1.6614502E1,1.6383251E1,4.4E1,1E1,1.127553E1,2.1E1,1.7166586E1,3.520566E2,8.631166E0,1.3E1,2.4E1,3.4341156E1,4E-1,2.947966E0,5.1E1,2.4541843E2,2.6E1,2.4999995E0,9.9395E0,1.1E1,2.873148E-1,-1.5438576E0,3E1,1.2E1,3.2306622E2,1.9068668E1,3.7E1,3.7E1,5.7E1,1E1,2.1068459E1,-3.0750835E0,2.5278308E0,1.7124166E0,4.962416E0,2.9E1,2.2232623E2,-2.8655149E-2,-2.2811165E-1,9.803811E-2,-5.180044E-1,-3.0491525E-1,-1.2098107E0,1.2E1,9E0,1.9544835E2,1.3783817E1,1.2298854E2,1.4735327E0,-4.2975113E-1,5.2E1,1.1663004E0,1.05349734E-1,4.9211037E-1,-3.384645E-1,-4.4198713E-1,-4.728401E-2,3.1095472E-1,-4.679948E-1,6.666276E-3,6.265578E-1,-1.2692083E-1,-9.3901736E-1,-6.7530614E-1,-2.157858E0,1.7463681E-1,-3.7926272E-1,2.9086304E-1,9.346594E-1,4.3985225E-2,-4.410471E-1,-2.2353439E-1,-1.2963115E0,6.0740906E-1,-5.7003653E-1,4.9458906E-1,-9.007533E-2,3.5551375E-1,1.1990662E-1],"split_indices":[3,3,1,0,5,2,3,6,3,0,0,6,4,0,1,6,1,4,3,0,0,0,0,1,6,3,2,2,1,1,5,3,0,3,3,1,6,0,0,0,0,0,0,2,0,6,5,6,0,0,2,0,0,0,0,0,0,0,0,0,0,0,0,0,0,0,0,0,0,0,0,0,0,0,0,0,0,0,0],"split_type":[0,0,0,0,0,0,0,0,0,0,0,0,0,0,0,0,0,0,0,0,0,0,0,0,0,0,0,0,0,0,0,0,0,0,0,0,0,0,0,0,0,0,0,0,0,0,0,0,0,0,0,0,0,0,0,0,0,0,0,0,0,0,0,0,0,0,0,0,0,0,0,0,0,0,0,0,0,0,0],"sum_hessian":[9.43E2,8.42E2,1.01E2,8.31E2,1.1E1,8.9E1,1.2E1,1.88E2,6.43E2,3E0,8E0,4.8E1,4.1E1,2E0,1E1,1.82E2,6E0,4.67E2,1.76E2,2E0,1E0,5E0,3E0,2E0,4.6E1,2.4E1,1.7E1,5E0,5E0,5.5E1,1.27E2,5E0,1E0,3.63E2,1.04E2,1.5E1,1.61E2,1E0,1E0,1E0,2E0,1E0,1E0,4.2E1,4E0,1.5E1,9E0,1.6E1,1E0,1E0,4E0,4E0,1E0,2.4E1,3.1E1,9.6E1,3.1E1,3E0,2E0,2.23E2,1.4E2,8.6E1,1.8E1,1.2E1,3E0,9.5E1,6.6E1,1.4E1,2.8E1,1E0,3E0,5E0,1E1,7E0,2E0,6E0,1E1,2E0,2E0],"tree_param":{"num_deleted":"0","num_feature":"7","num_nodes":"79","size_leaf_vector":"1"}},{"base_weights":[5.3790182E-2,-6.072604E-2,7.7775484E-1,1.2835015E0,-1.3349614E-1,5.592298E0,6.1873955E-1,3.6576946E0,7.862E-1,-5.6139565E-1,1.8676542E-1,-7.629233E-2,2.287781E0,2.5937662E0,3.2847682E-1,-2.8502655E-1,4.5840063E0,1.8041156E-1,2.146591E0,7.642252E-1,-7.5079316E-1,9.8691756E-1,-1.02545656E-1,-2.1505828E0,3.8540454E0,-4.168357E0,4.9198475E-1,1.5382686E0,2.799348E-1,1.003136E0,-8.6302835E-1,2.3325496E0,4.3050386E-2,-2.7693753E0,1.6771128E0,-4.5462626E-1,-1.5537281E0,1.55333E0,-1.555306E0,-3.0741784E-1,1.3340608E0,-1.9495441E-1,-7.3026353E-1,4.2647085E0,-1.6108704E-1,-1.4987142E0,-2.5294304E-1,-6.950234E-1,1.0235354E0,6.970388E-1,-4.057325E-2,1.0720829E-1,-7.9291373E-1,1.14418894E-1,7.5209016E-1,3.5366634E-1,-1.219759E0,3.0508018E-1,2.4479952E0,-1.701447E-1,8.8615584E-1,8.014555E-2,-8.281255E-1,7.4085355E-1,-2.7402583E-1,-1.480806E0,-8.1187315E-2,-1.6852032E-1,2.5580993E-1,2.204571E0,1.9975433E-1,1.408899E0,-7.246857E-2,1.0156859E-1,-1.4190228E0,1.732058E0,2.4429277E-1],"categories":[],"categories_nodes":[],"categories_segments":[],"categories_sizes":[],"default_left":[0,0,0,0,0,0,0,0,0,0,0,0,0,0,0,0,0,0,0,0,0,0,0,0,0,0,0,0,0,0,0,0,0,0,0,0,0,0,0,0,0,0,0,0,0,0,0,0,0,0,0,0,0,0,0,0,0,0,0,0,0,0,0,0,0,0,0,0,0,0,0,0,0,0,0,0,0],"id":11,"left_children":[1,3,5,7,9,11,13,15,17,19,21,-1,-1,23,25,-1,27,29,31,33,35,37,39,41,43,45,47,-1,-1,49,51,53,-1,55,57,59,61,63,65,67,69,-1,-1,71,-1,-1,-1,73,75,-1,-1,-1,-1,-1,-1,-1,-1,-1,-1,-1,-1,-1,-1,-1,-1,-1,-1,-1,-1,-1,-1,-1,-1,-1,-1,-1,-1],"loss_changes":[7.831021E1,7.999211E1,9.530043E1,4.6713295E1,1.0631066E2,4.9498863E1,7.138086E1,3.4232925E1,2.9280655E1,8.3928764E1,1.0288404E2,0E0,0E0,1.0395572E2,8.366552E1,0E0,7.122139E0,2.3185787E1,3.7626877E0,1.4012732E2,6.849423E1,1.7232962E2,9.6652985E1,1.2073898E-1,2.5731873E1,6.79245E0,6.885451E1,0E0,0E0,2.285974E1,2.7012291E1,2.4470062E0,0E0,5.086306E1,1.3721689E2,8.375098E1,1.72122E2,2.2147481E2,9.4213295E1,8.5154625E1,1.5988489E2,0E0,0E0,2.4474457E1,0E0,0E0,0E0,1.4340085E2,6.983524E1,0E0,0E0,0E0,0E0,0E0,0E0,0E0,0E0,0E0,0E0,0E0,0E0,0E0,0E0,0E0,0E0,0E0,0E0,0E0,0E0,0E0,0E0,0E0,0E0,0E0,0E0,0E0,0E0],"parents":[2147483647,0,0,1,1,2,2,3,3,4,4,5,5,6,6,7,7,8,8,9,9,10,10,13,13,14,14,16,16,17,17,18,18,19,19,20,20,21,21,22,22,23,23,24,24,25,25,26,26,29,29,30,30,31,31,33,33,34,34,35,35,36,36,37,37,38,38,39,39,40,40,43,43,47,47,48,48],"right_children":[2,4,6,8,10,12,14,16,18,20,22,-1,-1,24,26,-1,28,30,32,34,36,38,40,42,44,46,48,-1,-1,50,52,54,-1,56,58,60,62,64,66,68,70,-1,-1,72,-1,-1,-1,74,76,-1,-1,-1,-1,-1,-1,-1,-1,-1,-1,-1,-1,-1,-1,-1,-1,-1,-1,-1,-1,-1,-1,-1,-1,-1,-1,-1,-1],"split_conditions":[3.4E1,-1.0114666E1,7.880021E0,2.5624847E2,2.2395E0,7E0,-2.9375832E0,3.1410513E1,1.4E1,9.220499E0,5.4394994E0,-7.629233E-2,2.287781E0,8.8959816E1,-1.5875832E0,-2.8502655E-1,1.8E1,2.896324E2,2.9E1,1E1,1.9E1,2.1868332E1,3.4E1,-6.9105E0,7E1,3.6E1,1.1792404E1,1.5382686E0,2.799348E-1,1.1792404E1,1.2E1,2.666123E2,4.3050386E-2,6.8777895E0,1.552E0,3.2E1,-3.1604998E0,1.5999999E0,2.3584808E1,1.7110334E1,1.4E1,-1.9495441E-1,-7.3026353E-1,1.5000001E0,-1.6108704E-1,-1.4987142E0,-2.5294304E-1,1.1212135E1,7E0,6.970388E-1,-4.057325E-2,1.0720829E-1,-7.9291373E-1,1.14418894E-1,7.5209016E-1,3.5366634E-1,-1.219759E0,3.0508018E-1,2.4479952E0,-1.701447E-1,8.8615584E-1,8.014555E-2,-8.281255E-1,7.4085355E-1,-2.7402583E-1,-1.480806E0,-8.1187315E-2,-1.6852032E-1,2.5580993E-1,2.204571E0,1.9975433E-1,1.408899E0,-7.246857E-2,1.0156859E-1,-1.4190228E0,1.732058E0,2.4429277E-1],"split_indices":[0,3,6,6,3,1,3,6,2,5,3,0,0,6,3,0,0,6,1,1,1,5,2,3,1,2,5,0,0,5,0,6,0,5,3,2,3,4,5,3,1,0,0,4,0,0,0,5,2,0,0,0,0,0,0,0,0,0,0,0,0,0,0,0,0,0,0,0,0,0,0,0,0,0,0,0,0],"split_type":[0,0,0,0,0,0,0,0,0,0,0,0,0,0,0,0,0,0,0,0,0,0,0,0,0,0,0,0,0,0,0,0,0,0,0,0,0,0,0,0,0,0,0,0,0,0,0,0,0,0,0,0,0,0,0,0,0,0,0,0,0,0,0,0,0,0,0,0,0,0,0,0,0,0,0,0,0],"sum_hessian":[9.43E2,8.15E2,1.28E2,4.1E1,7.74E2,3E0,1.25E2,6E0,3.5E1,3.31E2,4.43E2,1E0,2E0,1.5E1,1.1E2,1E0,5E0,2.5E1,1E1,4.1E1,2.9E2,1.17E2,3.26E2,3E0,1.2E1,3E0,1.07E2,4E0,1E0,1.4E1,1.1E1,9E0,1E0,8E0,3.3E1,2.13E2,7.7E1,9.6E1,2.1E1,2.86E2,4E1,1E0,2E0,1.1E1,1E0,2E0,1E0,3.3E1,7.4E1,6E0,8E0,7E0,4E0,1E0,8E0,2E0,6E0,3.1E1,2E0,2.07E2,6E0,3.1E1,4.6E1,7E1,2.6E1,5E0,1.6E1,2.35E2,5.1E1,3E0,3.7E1,1E1,1E0,2.7E1,6E0,2E0,7.2E1],"tree_param":{"num_deleted":"0","num_feature":"7","num_nodes":"77","size_leaf_vector":"1"}},{"base_weights":[4.5104083E-2,3.5716683E-1,-1.8600886E-1,2.3958044E-1,1.9814377E0,3.2840257E0,-2.1785332E-1,4.322058E-1,-7.242916E-1,-1.2504468E0,3.408044E0,5.359981E0,-7.529695E-1,-2.0911226E0,-1.4538555E-1,-4.7479147E-1,7.339879E-1,9.906831E-1,-2.1245766E0,1.8125896E0,-3.0840633E0,1.7933197E-1,4.2570786E0,1.886423E0,3.8635427E-1,-5.3242403E-1,-4.909788E0,1.0292501E0,-2.2709444E-1,2.0256643E0,-9.528681E-1,5.8494097E-1,3.0556648E0,-5.1768047E-1,3.1706715E0,-3.2089458E0,2.2120969E-1,1.1234803E0,-5.9766656E-1,-1.1510702E0,1.0201865E-1,-5.772051E-1,1.1861734E0,7.077722E0,2.5879607E0,1.3321213E0,-1.4114543E0,-1.7952406E0,-7.823983E-1,1.9162858E0,-2.2208054E-1,-6.632301E-1,-3.5975755E-3,1.4703801E0,-1.1527366E-1,2.2321983E-1,-4.7742504E-1,1.5869537E-1,1.9510901E0,2.3799417E0,9.34084E-2,6.1179373E-2,-1.917762E0,1.8354012E0,5.7430092E-2,-2.4566852E-1,-1.376515E0,-1.2398627E-1,6.787392E-1,7.4311644E-2,4.249283E-1,2.4518435E0,4.0460473E-1,9.054909E-2,1.3328294E0,-1.5825492E-1,8.243156E-1,-5.258701E-1,-9.134198E-3,1.10773094E-1,6.839906E-1,-3.2564944E-1,3.7618867E-1,4.0720585E-1,-2.5349194E-1,1.385227E0,-2.7232599E-2],"categories":[],"categories_nodes":[],"categories_segments":[],"categories_sizes":[],"default_left":[0,0,0,0,0,0,0,0,0,0,0,0,0,0,0,0,0,0,0,0,0,0,0,0,0,0,0,0,0,0,0,0,0,0,0,0,0,0,0,0,0,0,0,0,0,0,0,0,0,0,0,0,0,0,0,0,0,0,0,0,0,0,0,0,0,0,0,0,0,0,0,0,0,0,0,0,0,0,0,0,0,0,0,0,0,0,0],"id":12,"left_children":[1,3,5,7,9,11,13,15,17,19,21,23,-1,25,27,29,31,33,35,37,39,41,43,-1,-1,45,47,49,51,53,55,57,59,61,63,65,67,-1,-1,-1,-1,-1,69,71,73,75,77,-1,-1,79,81,83,85,-1,-1,-1,-1,-1,-1,-1,-1,-1,-1,-1,-1,-1,-1,-1,-1,-1,-1,-1,-1,-1,-1,-1,-1,-1,-1,-1,-1,-1,-1,-1,-1,-1,-1],"loss_changes":[6.814935E1,7.630412E1,6.071768E1,7.0123535E1,1.2874852E2,7.3592636E1,7.286613E1,8.6295166E1,1.5339635E2,5.6138046E1,5.1321014E1,7.019226E0,0E0,8.525491E1,5.0142387E1,9.636754E1,7.987777E1,9.699964E1,8.973929E1,3.6869564E1,1.677164E1,1.2870912E1,5.2302917E1,0E0,0E0,2.4826113E1,1.7038727E0,3.8164715E1,4.746792E1,9.1972534E1,7.3783646E1,7.04148E1,1.8492366E2,7.761225E1,1.0419846E2,7.5368805E1,1.647709E1,0E0,0E0,0E0,0E0,0E0,5.1348734E-1,2.0346512E1,4.530259E1,1.4611956E1,4.6620197E0,0E0,0E0,1.04107895E1,2.0477795E1,6.1739326E1,1.3053975E2,0E0,0E0,0E0,0E0,0E0,0E0,0E0,0E0,0E0,0E0,0E0,0E0,0E0,0E0,0E0,0E0,0E0,0E0,0E0,0E0,0E0,0E0,0E0,0E0,0E0,0E0,0E0,0E0,0E0,0E0,0E0,0E0,0E0,0E0],"parents":[2147483647,0,0,1,1,2,2,3,3,4,4,5,5,6,6,7,7,8,8,9,9,10,10,11,11,13,13,14,14,15,15,16,16,17,17,18,18,19,19,20,20,21,21,22,22,25,25,26,26,27,27,28,28,29,29,30,30,31,31,32,32,33,33,34,34,35,35,36,36,42,42,43,43,44,44,45,45,46,46,49,49,50,50,51,51,52,52],"right_children":[2,4,6,8,10,12,14,16,18,20,22,24,-1,26,28,30,32,34,36,38,40,42,44,-1,-1,46,48,50,52,54,56,58,60,62,64,66,68,-1,-1,-1,-1,-1,70,72,74,76,78,-1,-1,80,82,84,86,-1,-1,-1,-1,-1,-1,-1,-1,-1,-1,-1,-1,-1,-1,-1,-1,-1,-1,-1,-1,-1,-1,-1,-1,-1,-1,-1,-1,-1,-1,-1,-1,-1,-1],"split_conditions":[2.2579935E2,4.4E1,2E0,3E1,1.2089499E1,1E-1,5E0,6.3612953E1,1.1726277E1,4.8E1,1.1019764E1,2.8E1,-7.529695E-1,2.4582498E0,-1.1600083E1,1E-1,2.7E1,1.0661107E1,1.5374917E1,4.6E1,4.8E1,5E1,1.3379461E1,1.886423E0,3.8635427E-1,1.02742E1,2.5809717E2,2.896324E2,2.7953656E2,7.880021E0,-2.8959167E0,4.8E1,1.9E1,1.0538843E1,-6.333202E-3,4.099917E0,3.7E1,1.1234803E0,-5.9766656E-1,-1.1510702E0,1.0201865E-1,-5.772051E-1,5.1E1,4.9E1,4.4E1,1E1,1.1E1,-1.7952406E0,-7.823983E-1,8E0,1.3E1,9.346143E0,2.801934E2,1.4703801E0,-1.1527366E-1,2.2321983E-1,-4.7742504E-1,1.5869537E-1,1.9510901E0,2.3799417E0,9.34084E-2,6.1179373E-2,-1.917762E0,1.8354012E0,5.7430092E-2,-2.4566852E-1,-1.376515E0,-1.2398627E-1,6.787392E-1,7.4311644E-2,4.249283E-1,2.4518435E0,4.0460473E-1,9.054909E-2,1.3328294E0,-1.5825492E-1,8.243156E-1,-5.258701E-1,-9.134198E-3,1.10773094E-1,6.839906E-1,-3.2564944E-1,3.7618867E-1,4.0720585E-1,-2.5349194E-1,1.385227E0,-2.7232599E-2],"split_indices":[6,1,2,1,3,4,1,6,5,1,5,0,0,3,3,4,1,5,3,0,2,0,5,0,0,5,6,6,6,6,3,2,2,5,3,3,2,0,0,0,0,0,0,0,0,2,0,0,0,1,2,5,6,0,0,0,0,0,0,0,0,0,0,0,0,0,0,0,0,0,0,0,0,0,0,0,0,0,0,0,0,0,0,0,0,0,0],"split_type":[0,0,0,0,0,0,0,0,0,0,0,0,0,0,0,0,0,0,0,0,0,0,0,0,0,0,0,0,0,0,0,0,0,0,0,0,0,0,0,0,0,0,0,0,0,0,0,0,0,0,0,0,0,0,0,0,0,0,0,0,0,0,0,0,0,0,0,0,0,0,0,0,0,0,0,0,0,0,0,0,0,0,0,0,0,0,0],"sum_hessian":[9.43E2,4.01E2,5.42E2,3.75E2,2.6E1,4E0,5.38E2,3.13E2,6.2E1,8E0,1.8E1,3E0,1E0,1.9E1,5.19E2,7.8E1,2.35E2,2.8E1,3.4E1,3E0,5E0,4E0,1.4E1,2E0,1E0,1.3E1,6E0,3.3E1,4.86E2,1.2E1,6.6E1,2.22E2,1.3E1,1.7E1,1.1E1,2.3E1,1.1E1,2E0,1E0,4E0,1E0,1E0,3E0,4E0,1E1,4E0,9E0,3E0,3E0,1.9E1,1.4E1,1.64E2,3.22E2,5E0,7E0,1.8E1,4.8E1,2.21E2,1E0,4E0,9E0,1.6E1,1E0,5E0,6E0,9E0,1.4E1,9E0,2E0,1E0,2E0,3E0,1E0,5E0,5E0,2E0,2E0,7E0,2E0,4E0,1.5E1,9E0,5E0,1.3E1,1.51E2,5E0,3.17E2],"tree_param":{"num_deleted":"0","num_feature":"7","num_nodes":"87","size_leaf_vector":"1"}},{"base_weights":[4.191369E-2,1.6471189E-2,2.4165962E0,3.0608252E-1,-1.3116373E-1,2.7901525E0,-1.4181176E-1,1.9344065E-1,3.1435566E0,-1.4870672E-2,-7.817518E-1,3.099172E0,4.769955E-2,3.123873E-1,-1.6134605E0,-1.0270061E0,7.4852867E0,-8.663006E-2,3.703753E0,-1.3508253E0,1.1420717E0,1.3946381E0,1.1528895E0,-1.4565718E-1,7.317056E-1,-2.794885E0,9.776222E-3,-3.3472538E-2,-1.0482312E0,2.4520245E0,6.066977E-1,4.3915085E-2,-8.46431E-1,-2.4770308E-1,2.311425E0,-1.6870649E0,4.9898085E-1,1.8211522E0,3.4570283E-1,2.1118356E-2,5.4377633E-1,-1.3784297E-1,3.8735566E-1,4.8077494E-1,-8.98138E-3,-1.4541314E0,-4.258244E-1,3.3207345E-1,-2.1698299E-1,-3.1490755E-1,2.2111803E-1,-1.0625711E-1,1.4985144E-1,-4.0874553E-1,4.029063E-1,5.6665355E-1,-5.364566E-1,-1.0792379E0,-3.884345E-1,-1.2728623E-1,7.3547673E-1,-2.5117126E-1,1.2185915E0],"categories":[],"categories_nodes":[],"categories_segments":[],"categories_sizes":[],"default_left":[0,0,0,0,0,0,0,0,0,0,0,0,0,0,0,0,0,0,0,0,0,0,0,0,0,0,0,0,0,0,0,0,0,0,0,0,0,0,0,0,0,0,0,0,0,0,0,0,0,0,0,0,0,0,0,0,0,0,0,0,0,0,0],"id":13,"left_children":[1,3,5,7,9,11,-1,13,15,17,19,21,-1,23,25,27,29,31,33,35,37,39,-1,41,43,45,47,49,-1,-1,-1,51,53,55,-1,57,59,-1,61,-1,-1,-1,-1,-1,-1,-1,-1,-1,-1,-1,-1,-1,-1,-1,-1,-1,-1,-1,-1,-1,-1,-1,-1],"loss_changes":[5.699466E1,4.0017704E1,1.2112095E1,1.0039133E2,4.689688E1,6.824936E0,0E0,6.605609E1,2.2497693E2,1.4094878E2,1.04453674E2,4.7830124E0,0E0,5.5229645E1,3.6464222E1,1.7041058E1,6.0259705E0,5.1416725E1,1.600061E2,4.62462E1,8.424816E1,2.0862727E0,0E0,6.2818726E1,9.9542694E1,2.4170395E1,8.038925E0,5.4718666E0,0E0,0E0,0E0,8.052504E1,8.770038E1,2.3125538E1,0E0,4.1805847E1,2.2673553E1,0E0,9.132331E1,0E0,0E0,0E0,0E0,0E0,0E0,0E0,0E0,0E0,0E0,0E0,0E0,0E0,0E0,0E0,0E0,0E0,0E0,0E0,0E0,0E0,0E0,0E0,0E0],"parents":[2147483647,0,0,1,1,2,2,3,3,4,4,5,5,7,7,8,8,9,9,10,10,11,11,13,13,14,14,15,15,16,16,17,17,18,18,19,19,20,20,21,21,23,23,24,24,25,25,26,26,27,27,31,31,32,32,33,33,35,35,36,36,38,38],"right_children":[2,4,6,8,10,12,-1,14,16,18,20,22,-1,24,26,28,30,32,34,36,38,40,-1,42,44,46,48,50,-1,-1,-1,52,54,56,-1,58,60,-1,62,-1,-1,-1,-1,-1,-1,-1,-1,-1,-1,-1,-1,-1,-1,-1,-1,-1,-1,-1,-1,-1,-1,-1,-1],"split_conditions":[2.1056168E1,1.8375456E2,1.7088627E1,1.7745192E2,1.4141583E1,4.4E1,-1.4181176E-1,1.6362569E2,2.4040835E0,1.3689502E1,3.6E1,1.1966954E1,4.769955E-2,9.0576744E1,1.1718667E1,-1.5633339E-1,2.1E1,3E1,1.6E1,3.1999989E0,3.7E1,2.2E1,1.1528895E0,1.3616585E1,1.1560333E1,1E-1,1.4E1,-5.2792497E0,-1.0482312E0,2.4520245E0,6.066977E-1,1.9853334E0,1.8671474E1,1.3E1,2.311425E0,2.0564627E2,2.9788104E2,1.8211522E0,1.1000001E0,2.1118356E-2,5.4377633E-1,-1.3784297E-1,3.8735566E-1,4.8077494E-1,-8.98138E-3,-1.4541314E0,-4.258244E-1,3.3207345E-1,-2.1698299E-1,-3.1490755E-1,2.2111803E-1,-1.0625711E-1,1.4985144E-1,-4.0874553E-1,4.029063E-1,5.6665355E-1,-5.364566E-1,-1.0792379E0,-3.884345E-1,-1.2728623E-1,7.3547673E-1,-2.5117126E-1,1.2185915E0],"split_indices":[3,6,5,6,3,2,0,6,3,3,0,5,0,6,3,3,0,1,0,4,0,0,0,3,3,4,0,3,0,0,0,3,5,1,0,6,6,0,4,0,0,0,0,0,0,0,0,0,0,0,0,0,0,0,0,0,0,0,0,0,0,0,0],"split_type":[0,0,0,0,0,0,0,0,0,0,0,0,0,0,0,0,0,0,0,0,0,0,0,0,0,0,0,0,0,0,0,0,0,0,0,0,0,0,0,0,0,0,0,0,0,0,0,0,0,0,0,0,0,0,0,0,0,0,0,0,0,0,0],"sum_hessian":[9.43E2,9.34E2,9E0,3.15E2,6.19E2,8E0,1E0,3.04E2,1.1E1,5.26E2,9.3E1,7E0,1E0,2.86E2,1.8E1,6E0,5E0,5.17E2,9E0,7.2E1,2.1E1,3E0,4E0,1.37E2,1.49E2,1E1,8E0,5E0,1E0,4E0,1E0,4.42E2,7.5E1,5E0,4E0,6.1E1,1.1E1,2E0,1.9E1,1E0,2E0,1.13E2,2.4E1,6.9E1,8E1,3E0,7E0,3E0,5E0,2E0,3E0,2.36E2,2.06E2,6.1E1,1.4E1,2E0,3E0,9E0,5.2E1,8E0,3E0,1.5E1,4E0],"tree_param":{"num_deleted":"0","num_feature":"7","num_nodes":"63","size_leaf_vector":"1"}},{"base_weights":[3.6548503E-2,-1.0623626E-2,9.3705964E-1,1.2513541E0,-3.9325483E-2,1.6311505E0,-5.0968814E-1,7.043233E-1,1.7467409E0,-2.2939239E-3,-1.2541572E0,2.914246E0,5.9986144E-1,-1.0634987E0,1.1696205E0,1.9833707E0,-3.2736833E0,2.1698948E-2,-1.8429929E0,-2.0142567E0,2.3411117E0,9.091628E-1,4.3044133E0,-1.0209498E0,1.871447E0,-3.1156526E0,-2.908225E-1,-6.1526257E-1,3.7841554E0,-3.6792424E-1,-1.2689176E0,-3.8974942E-3,1.7967104E0,7.0974004E-1,-3.041147E0,-2.543842E0,2.9510194E-1,9.6614116E-1,6.813825E-1,2.6922646E0,-3.303689E-1,1.3954624E0,2.811779E-1,-2.2130349E0,1.0224152E0,-3.1526586E-1,2.6376195E0,-1.0562671E0,-2.849908E-1,1.3161602E0,-1.2588339E0,-4.0207142E-1,-1.7167455E-2,4.5160756E-1,1.5918363E0,8.937631E-3,-6.393676E-1,6.748792E-1,9.85611E-2,-1.2488654E0,-1.7947626E-1,1.2339592E-3,-9.8163694E-1,-2.7174863E-1,4.1929963E-1,2.5283432E-1,5.3787805E-2,3.7880936E-1,1.0471448E0,-7.1527295E-2,-7.680817E-1,6.451207E-2,3.6595803E-1,9.330946E-1,-1.7159215E-1,7.7211255E-1,-1.14032365E-1,-4.236597E-1,-1.597477E-1],"categories":[],"categories_nodes":[],"categories_segments":[],"categories_sizes":[],"default_left":[0,0,0,0,0,0,0,0,0,0,0,0,0,0,0,0,0,0,0,0,0,0,0,0,0,0,0,0,0,0,0,0,0,0,0,0,0,0,0,0,0,0,0,0,0,0,0,0,0,0,0,0,0,0,0,0,0,0,0,0,0,0,0,0,0,0,0,0,0,0,0,0,0,0,0,0,0,0,0],"id":14,"left_children":[1,3,5,7,9,11,13,15,-1,17,19,21,23,25,-1,27,29,31,33,35,37,39,41,43,45,47,49,51,53,-1,-1,55,57,-1,59,61,63,-1,65,67,-1,-1,-1,69,71,-1,73,-1,-1,75,77,-1,-1,-1,-1,-1,-1,-1,-1,-1,-1,-1,-1,-1,-1,-1,-1,-1,-1,-1,-1,-1,-1,-1,-1,-1,-1,-1,-1],"loss_changes":[4.0110153E1,3.2575764E1,4.802757E1,4.590992E1,3.9540794E1,4.059562E1,4.32092E1,1.03166046E2,0E0,3.7755753E1,7.576742E1,3.511019E1,4.106966E1,2.2878654E1,0E0,7.252193E1,4.59898E0,3.835328E1,6.266535E1,2.7656738E1,5.1031113E0,2.8057943E1,4.990967E0,2.4185423E1,2.7400963E1,1.6572952E-1,2.032376E1,2.755251E0,2.3226654E1,0E0,0E0,5.976361E1,7.2399216E0,0E0,2.2172096E1,3.3414764E1,7.8865566E0,0E0,9.200537E-2,1.5699768E-1,0E0,0E0,0E0,3.5035229E0,3.7532902E-1,0E0,1.5433472E1,0E0,0E0,1.164398E1,1.3917828E-1,0E0,0E0,0E0,0E0,0E0,0E0,0E0,0E0,0E0,0E0,0E0,0E0,0E0,0E0,0E0,0E0,0E0,0E0,0E0,0E0,0E0,0E0,0E0,0E0,0E0,0E0,0E0,0E0],"parents":[2147483647,0,0,1,1,2,2,3,3,4,4,5,5,6,6,7,7,9,9,10,10,11,11,12,12,13,13,15,15,16,16,17,17,18,18,19,19,20,20,21,21,22,22,23,23,24,24,25,25,26,26,27,27,28,28,31,31,32,32,34,34,35,35,36,36,38,38,39,39,43,43,44,44,46,46,49,49,50,50],"right_children":[2,4,6,8,10,12,14,16,-1,18,20,22,24,26,-1,28,30,32,34,36,38,40,42,44,46,48,50,52,54,-1,-1,56,58,-1,60,62,64,-1,66,68,-1,-1,-1,70,72,-1,74,-1,-1,76,78,-1,-1,-1,-1,-1,-1,-1,-1,-1,-1,-1,-1,-1,-1,-1,-1,-1,-1,-1,-1,-1,-1,-1,-1,-1,-1,-1,-1],"split_conditions":[4.7E1,7.880021E0,1.7088627E1,3.6E1,1.39E1,3.9E1,5.8E1,2.5E1,1.7467409E0,4.4E1,1.5520752E1,2.8E1,1.1246759E1,1.8075441E1,1.1696205E0,1.1E1,2.7E1,1.9412416E1,1.039094E2,1.8E1,1.9E1,1.7E1,5.9E1,1.4797833E1,1.0022209E2,5E1,2.3842075E2,2E-1,3.5790837E0,-3.6792424E-1,-1.2689176E0,1.8722836E1,2.1518667E1,7.0974004E-1,1.5470749E1,1E1,1.5E1,9.6614116E-1,2E1,5E1,-3.303689E-1,1.3954624E0,2.811779E-1,4.8E1,5.1E1,-3.1526586E-1,4.4E1,-1.0562671E0,-2.849908E-1,3.4E1,5.2E1,-4.0207142E-1,-1.7167455E-2,4.5160756E-1,1.5918363E0,8.937631E-3,-6.393676E-1,6.748792E-1,9.85611E-2,-1.2488654E0,-1.7947626E-1,1.2339592E-3,-9.8163694E-1,-2.7174863E-1,4.1929963E-1,2.5283432E-1,5.3787805E-2,3.7880936E-1,1.0471448E0,-7.1527295E-2,-7.680817E-1,6.451207E-2,3.6595803E-1,9.330946E-1,-1.7159215E-1,7.7211255E-1,-1.14032365E-1,-4.236597E-1,-1.597477E-1],"split_indices":[0,6,5,1,4,1,2,1,0,0,3,1,5,5,0,1,1,3,6,0,0,1,0,3,6,0,6,4,3,0,0,3,3,0,3,1,1,0,0,0,0,0,0,0,0,0,2,0,0,1,0,0,0,0,0,0,0,0,0,0,0,0,0,0,0,0,0,0,0,0,0,0,0,0,0,0,0,0,0],"split_type":[0,0,0,0,0,0,0,0,0,0,0,0,0,0,0,0,0,0,0,0,0,0,0,0,0,0,0,0,0,0,0,0,0,0,0,0,0,0,0,0,0,0,0,0,0,0,0,0,0,0,0,0,0,0,0,0,0,0,0,0,0,0,0,0,0,0,0,0,0,0,0,0,0,0,0,0,0,0,0],"sum_hessian":[9.43E2,8.97E2,4.6E1,1.9E1,8.78E2,3.1E1,1.5E1,1.8E1,1E0,8.53E2,2.5E1,1.3E1,1.8E1,1.4E1,1E0,1.4E1,4E0,8.43E2,1E1,2.1E1,4E0,6E0,7E0,8E0,1E1,3E0,1.1E1,6E0,8E0,2E0,2E0,8.32E2,1.1E1,2E0,8E0,1.7E1,4E0,2E0,2E0,3E0,3E0,6E0,1E0,5E0,3E0,2E0,8E0,2E0,1E0,4E0,7E0,2E0,4E0,4E0,4E0,8.2E2,1.2E1,8E0,3E0,5E0,3E0,4E0,1.3E1,2E0,2E0,1E0,1E0,2E0,1E0,1E0,4E0,1E0,2E0,7E0,1E0,2E0,2E0,5E0,2E0],"tree_param":{"num_deleted":"0","num_feature":"7","num_nodes":"79","size_leaf_vector":"1"}},{"base_weights":[3.0150281E-2,-1.9204472E-1,1.8555263E-1,-4.0526164E-1,8.2042426E-1,3.785402E-1,-5.1879E-1,-4.7540087E-1,1.8306222E0,3.6451263E0,-1.18813425E-1,-4.5034185E-1,5.59886E-1,-1.0636818E0,3.8089857E-1,-3.0589065E-1,-1.4282482E0,5.8309097E0,-7.1677387E-1,1.9263998E0,8.749388E0,-3.1555684E0,2.7138534E-1,-8.7056136E-1,2.2265208E0,1.4068456E0,1.2337779E-1,1.1336938E0,-1.3429759E0,1.7932408E0,-6.123095E-2,-3.6993355E-1,3.1239426E0,-1.6485883E0,1.3061097E0,2.0935552E0,3.5821325E-1,3.0381632E-1,-4.6745118E-1,2.8145218E-1,1.4493046E0,3.2607083E0,3.585703E-1,-1.8995047E-2,-1.1284066E0,-1.9280765E0,7.044931E-1,8.214701E-1,-1.4838562E0,8.135227E0,-1.0061475E0,1.1148794E0,3.990295E0,-3.0216942E0,3.334345E-1,-5.2768975E-1,6.634347E-1,-5.872342E-1,-1.9042724E0,-5.5359536E-1,2.3416286E0,1.5961957E0,-3.80048E-1,-9.8291405E-2,-1.7177042E0,1.7429703E0,-1.80999E-1,2.4144191E-2,-7.463492E-1,1.442977E-1,2.5328064E-2,3.5828707E-1,-2.6107317E-1,-2.071134E-1,-7.59786E-1,4.5059425E-1,1.4922636E-2,4.3624747E-1,-5.7439494E-1,4.9477416E-1,-4.7385097E-1,2.8486595E0,6.081471E-1,1.2028556E-1,-1.0454892E0,9.2082985E-2,6.07702E-1,2.3950307E0,-7.317271E-4,5.467012E-1,-1.3153691E0,3.8831812E-1,-7.8085656E-3,-6.2983084E-1,3.19479E-1,-7.4003875E-1,-8.9783765E-2,9.1878843E-1,3.0243096E-1,5.2112103E-3,9.507692E-1,-4.8229474E-1,8.43236E-2],"categories":[],"categories_nodes":[],"categories_segments":[],"categories_sizes":[],"default_left":[0,0,0,0,0,0,0,0,0,0,0,0,0,0,0,0,0,0,0,0,0,0,0,0,0,0,0,0,0,0,0,0,0,0,0,0,0,0,0,0,0,0,0,0,0,0,0,0,0,0,0,0,0,0,0,0,0,0,0,0,0,0,0,0,0,0,0,0,0,0,0,0,0,0,0,0,0,0,0,0,0,0,0,0,0,0,0,0,0,0,0,0,0,0,0,0,0,0,0,0,0,0,0],"id":15,"left_children":[1,3,5,7,9,11,13,15,17,19,21,23,25,27,29,31,33,35,37,39,41,43,45,47,49,51,53,55,57,59,61,63,65,67,-1,-1,-1,69,-1,71,-1,-1,-1,-1,-1,73,75,77,79,81,83,85,87,89,91,-1,-1,93,95,-1,97,99,101,-1,-1,-1,-1,-1,-1,-1,-1,-1,-1,-1,-1,-1,-1,-1,-1,-1,-1,-1,-1,-1,-1,-1,-1,-1,-1,-1,-1,-1,-1,-1,-1,-1,-1,-1,-1,-1,-1,-1,-1],"loss_changes":[3.26316E1,8.430806E1,7.577312E1,5.1367336E1,1.8084163E2,6.593948E1,5.9233105E1,5.0118034E1,1.0608261E2,1.322833E2,6.2473152E1,9.080305E1,1.3255043E2,4.7551064E1,2.8833958E1,5.98039E1,6.7055214E1,1.2952545E1,6.4844465E0,6.553146E1,5.105728E1,1.100132E1,4.6130703E1,7.282121E1,2.1829498E2,8.7573425E1,1.5824068E2,3.194807E1,2.7302834E1,2.6269794E1,1.9629604E1,5.7699894E1,5.356177E1,6.695119E1,0E0,0E0,0E0,1.148735E-1,0E0,1.1552442E1,0E0,0E0,0E0,0E0,0E0,4.2374783E0,2.0811523E1,3.56753E1,1.7888268E1,1.3986389E1,2.9300827E1,8.105907E1,1.91342E2,1.0701688E2,7.740986E1,0E0,0E0,7.718792E1,3.3569885E1,0E0,6.5272713E0,1.4846228E1,2.5611471E1,0E0,0E0,0E0,0E0,0E0,0E0,0E0,0E0,0E0,0E0,0E0,0E0,0E0,0E0,0E0,0E0,0E0,0E0,0E0,0E0,0E0,0E0,0E0,0E0,0E0,0E0,0E0,0E0,0E0,0E0,0E0,0E0,0E0,0E0,0E0,0E0,0E0,0E0,0E0,0E0],"parents":[2147483647,0,0,1,1,2,2,3,3,4,4,5,5,6,6,7,7,8,8,9,9,10,10,11,11,12,12,13,13,14,14,15,15,16,16,17,17,18,18,19,19,20,20,21,21,22,22,23,23,24,24,25,25,26,26,27,27,28,28,29,29,30,30,31,31,32,32,33,33,37,37,39,39,45,45,46,46,47,47,48,48,49,49,50,50,51,51,52,52,53,53,54,54,57,57,58,58,60,60,61,61,62,62],"right_children":[2,4,6,8,10,12,14,16,18,20,22,24,26,28,30,32,34,36,38,40,42,44,46,48,50,52,54,56,58,60,62,64,66,68,-1,-1,-1,70,-1,72,-1,-1,-1,-1,-1,74,76,78,80,82,84,86,88,90,92,-1,-1,94,96,-1,98,100,102,-1,-1,-1,-1,-1,-1,-1,-1,-1,-1,-1,-1,-1,-1,-1,-1,-1,-1,-1,-1,-1,-1,-1,-1,-1,-1,-1,-1,-1,-1,-1,-1,-1,-1,-1,-1,-1,-1,-1,-1],"split_conditions":[1.4E1,3.6999998E0,2.7E0,2.8E1,1.24811535E1,1.1E1,1.2804084E1,1.8E1,1.1659777E1,1.4E1,1.3207634E1,1.3000002E0,1.9E1,-3.5875835E0,8.6651474E1,3.1E1,2.9000003E0,2.6E1,2.7E1,1.2074766E1,2.4E1,1E1,4.841666E1,1.6E1,6.4686666E0,1.8E0,2E1,8E0,1.3580684E2,4.1E0,1.1090103E1,2.9E1,4.4E1,1.9998317E2,1.3061097E0,2.0935552E0,3.5821325E-1,7E0,-4.6745118E-1,4.8E0,1.4493046E0,3.2607083E0,3.585703E-1,-1.8995047E-2,-1.1284066E0,5E0,-8.688336E-1,2E1,7.42159E0,7E0,1.8899143E1,1.3202726E1,2.1000001E0,1.0739832E1,2.6E1,-5.2768975E-1,6.634347E-1,7.024556E1,3.1936295E2,-5.5359536E-1,2E1,8.197414E0,5E0,-9.8291405E-2,-1.7177042E0,1.7429703E0,-1.80999E-1,2.4144191E-2,-7.463492E-1,1.442977E-1,2.5328064E-2,3.5828707E-1,-2.6107317E-1,-2.071134E-1,-7.59786E-1,4.5059425E-1,1.4922636E-2,4.3624747E-1,-5.7439494E-1,4.9477416E-1,-4.7385097E-1,2.8486595E0,6.081471E-1,1.2028556E-1,-1.0454892E0,9.2082985E-2,6.07702E-1,2.3950307E0,-7.317271E-4,5.467012E-1,-1.3153691E0,3.8831812E-1,-7.8085656E-3,-6.2983084E-1,3.19479E-1,-7.4003875E-1,-8.9783765E-2,9.1878843E-1,3.0243096E-1,5.2112103E-3,9.507692E-1,-4.8229474E-1,8.43236E-2],"split_indices":[2,4,4,1,5,0,3,1,5,1,5,4,1,3,6,0,4,0,0,5,1,0,6,2,3,4,1,0,6,4,5,0,0,6,0,0,0,0,0,4,0,0,0,0,0,2,3,1,5,0,5,5,4,5,1,0,0,6,6,0,1,5,4,0,0,0,0,0,0,0,0,0,0,0,0,0,0,0,0,0,0,0,0,0,0,0,0,0,0,0,0,0,0,0,0,0,0,0,0,0,0,0,0],"split_type":[0,0,0,0,0,0,0,0,0,0,0,0,0,0,0,0,0,0,0,0,0,0,0,0,0,0,0,0,0,0,0,0,0,0,0,0,0,0,0,0,0,0,0,0,0,0,0,0,0,0,0,0,0,0,0,0,0,0,0,0,0,0,0,0,0,0,0,0,0,0,0,0,0,0,0,0,0,0,0,0,0,0,0,0,0,0,0,0,0,0,0,0,0,0,0,0,0,0,0,0,0,0,0],"sum_hessian":[9.43E2,3.88E2,5.55E2,3.21E2,6.7E1,4.36E2,1.19E2,3.12E2,9E0,1.6E1,5.1E1,7.8E1,3.58E2,7.4E1,4.5E1,2.66E2,4.6E1,3E0,6E0,1.3E1,3E0,5E0,4.6E1,6.8E1,1E1,1.21E2,2.37E2,8E0,6.6E1,1E1,3.5E1,2.62E2,4E0,4.5E1,1E0,2E0,1E0,3E0,3E0,9E0,4E0,2E0,1E0,1E0,4E0,7E0,3.9E1,1.8E1,5E1,3E0,7E0,1.1E2,1.1E1,1.4E1,2.23E2,2E0,6E0,2.9E1,3.7E1,1E0,9E0,5E0,3E1,2.61E2,1E0,2E0,2E0,1.5E1,3E1,1E0,2E0,5E0,4E0,3E0,4E0,1.7E1,2.2E1,1.5E1,3E0,1E0,4.9E1,2E0,1E0,5E0,2E0,5.9E1,5.1E1,5E0,6E0,3E0,1.1E1,6E1,1.63E2,1.5E1,1.4E1,2.7E1,1E1,5E0,4E0,3E0,2E0,1E1,2E1],"tree_param":{"num_deleted":"0","num_feature":"7","num_nodes":"103","size_leaf_vector":"1"}},{"base_weights":[3.3120375E-2,2.6839933E0,1.8984752E-2,1.3310469E0,-6.490987E-1,-1.0445526E0,3.390932E-2,-6.3139624E-3,7.9571855E-1,8.414628E-1,-4.8196677E-2,1.3049883E0,-2.725532E-1,2.289512E0,5.365237E-1,-2.1044466E0,-1.8729223E-2,2.2552273E0,5.361286E-1,-7.3310065E-1,9.9534875E-1,-2.4167605E-1,8.818879E-1,8.461285E-3,2.969554E-1,-9.042328E-1,-2.0772979E-1,3.5172728E-1,-1.4327672E-2,9.537755E-1,1.4799576E-1,-2.0522119E-1,4.4572034E-1,-8.4345216E-1,-5.9122823E-2],"categories":[],"categories_nodes":[],"categories_segments":[],"categories_sizes":[],"default_left":[0,0,0,0,0,0,0,0,0,0,0,0,0,0,0,0,0,0,0,0,0,0,0,0,0,0,0,0,0,0,0,0,0,0,0],"id":16,"left_children":[1,3,5,-1,-1,-1,7,9,11,13,15,17,19,21,23,25,27,29,31,33,-1,-1,-1,-1,-1,-1,-1,-1,-1,-1,-1,-1,-1,-1,-1],"loss_changes":[3.532237E1,5.2085358E1,4.9231487E1,0E0,0E0,0E0,2.8717016E1,3.1677464E1,2.5925486E1,1.7317429E1,5.146417E1,2.217012E1,2.8888964E1,1.64533E1,8.267751E0,1.3326405E1,2.9067612E1,2.1224266E1,2.3031803E1,1.6157072E1,0E0,0E0,0E0,0E0,0E0,0E0,0E0,0E0,0E0,0E0,0E0,0E0,0E0,0E0,0E0],"parents":[2147483647,0,0,1,1,2,2,6,6,7,7,8,8,9,9,10,10,11,11,12,12,13,13,14,14,15,15,16,16,17,17,18,18,19,19],"right_children":[2,4,6,-1,-1,-1,8,10,12,14,16,18,20,22,24,26,28,30,32,34,-1,-1,-1,-1,-1,-1,-1,-1,-1,-1,-1,-1,-1,-1,-1],"split_conditions":[2E0,1E-1,3E0,1.3310469E0,-6.490987E-1,-1.0445526E0,4.7E1,-1.0114666E1,1.7088627E1,2.5624847E2,-9.2542515E0,3.9E1,5.8E1,3.1410513E1,1.2E1,1.3E1,7.2E0,1.0990322E1,1.1246759E1,1.7974781E1,9.9534875E-1,-2.4167605E-1,8.818879E-1,8.461285E-3,2.969554E-1,-9.042328E-1,-2.0772979E-1,3.5172728E-1,-1.4327672E-2,9.537755E-1,1.4799576E-1,-2.0522119E-1,4.4572034E-1,-8.4345216E-1,-5.9122823E-2],"split_indices":[2,4,0,0,0,0,0,3,5,6,3,1,2,6,1,1,5,5,5,5,0,0,0,0,0,0,0,0,0,0,0,0,0,0,0],"split_type":[0,0,0,0,0,0,0,0,0,0,0,0,0,0,0,0,0,0,0,0,0,0,0,0,0,0,0,0,0,0,0,0,0,0,0],"sum_hessian":[9.43E2,4E0,9.39E2,3E0,1E0,3E0,9.36E2,8.9E2,4.6E1,4.1E1,8.49E2,3.1E1,1.5E1,6E0,3.5E1,1.1E1,8.38E2,1.3E1,1.8E1,1.4E1,1E0,1E0,5E0,1.7E1,1.8E1,6E0,5E0,1.9E1,8.19E2,8E0,5E0,8E0,1E1,2E0,1.2E1],"tree_param":{"num_deleted":"0","num_feature":"7","num_nodes":"35","size_leaf_vector":"1"}},{"base_weights":[2.4501843E-2,6.7245946E-3,1.6842244E0,6.13268E-2,-6.585942E-1,6.708853E-1,1.6206414E0,5.0072912E-2,2.4712083E0,-2.3872395E0,-1.5293494E-1,2.5553253E0,-2.3257248E-1,-4.715385E-1,1.130077E-1,1.7231942E0,-1.6031276E-1,-1.5044551E0,-7.3697543E-1,1.7679079E0,-4.634208E-1,1.15574E0,-5.8436394E-3,-1.7105594E-1,1.6510392E-2,2.3319274E-1,-1.228434E0,-7.565208E-2,3.2474375E-1,-2.2244165E0,8.73295E-1,-6.8782014E-1,2.7011206E0,5.135716E-1,-1.1549181E0,-1.352927E-1,4.8843008E-2,4.1032904E-1,-4.4409686E-1,-7.517425E-1,-5.9577256E-2,6.979505E-1,-3.8853426E-2,9.357607E-1,4.8399363E-2,-7.8519744E-1,-3.8981438E-2,-7.2187655E-2,6.202272E-1,-5.4073192E-2,-2.5544587E-1,9.2377186E-2,1.1462214E0,5.487193E-1,-3.3491302E-1,7.036363E-1,-4.0910926E-1,-9.96666E-3,-5.091505E-2],"categories":[],"categories_nodes":[],"categories_segments":[],"categories_sizes":[],"default_left":[0,0,0,0,0,0,0,0,0,0,0,0,0,0,0,0,0,0,0,0,0,0,0,0,0,0,0,0,0,0,0,0,0,0,0,0,0,0,0,0,0,0,0,0,0,0,0,0,0,0,0,0,0,0,0,0,0,0,0],"id":17,"left_children":[1,3,5,7,9,11,-1,13,15,17,19,21,23,25,27,-1,-1,-1,29,31,33,-1,-1,-1,35,37,39,41,43,45,47,49,51,53,55,57,-1,-1,-1,-1,-1,-1,-1,-1,-1,-1,-1,-1,-1,-1,-1,-1,-1,-1,-1,-1,-1,-1,-1],"loss_changes":[2.7841675E1,3.4006947E1,3.4050854E1,2.3335527E1,6.1696396E1,1.5916905E1,0E0,2.8350597E1,4.241581E1,6.568419E1,3.421738E1,1.0094696E1,5.980711E-1,4.989339E1,3.0783047E1,0E0,0E0,0E0,2.8289577E1,2.0191612E1,3.3696922E1,0E0,0E0,0E0,1.3307066E-1,9.728584E1,5.8699654E1,5.308769E1,1.6526056E2,4.597536E0,8.478464E0,9.5743656E-2,1.4900291E1,4.70698E1,2.4391865E1,4.9027056E-3,0E0,0E0,0E0,0E0,0E0,0E0,0E0,0E0,0E0,0E0,0E0,0E0,0E0,0E0,0E0,0E0,0E0,0E0,0E0,0E0,0E0,0E0,0E0],"parents":[2147483647,0,0,1,1,2,2,3,3,4,4,5,5,7,7,8,8,9,9,10,10,11,11,12,12,13,13,14,14,18,18,19,19,20,20,24,24,25,25,26,26,27,27,28,28,29,29,30,30,31,31,32,32,33,33,34,34,35,35],"right_children":[2,4,6,8,10,12,-1,14,16,18,20,22,24,26,28,-1,-1,-1,30,32,34,-1,-1,-1,36,38,40,42,44,46,48,50,52,54,56,58,-1,-1,-1,-1,-1,-1,-1,-1,-1,-1,-1,-1,-1,-1,-1,-1,-1,-1,-1,-1,-1,-1,-1],"split_conditions":[2.9949316E1,2.2608458E1,1.9E1,2.2545315E1,2.3584808E1,2.1145E0,1.6206414E0,8E0,1.6E1,4.466583E0,-1.97925E0,8E0,8E0,1.2908342E-1,3E-1,1.7231942E0,-1.6031276E-1,-1.5044551E0,2.8270242E2,2.3842075E2,2.5233406E1,1.15574E0,-5.8436394E-3,-1.7105594E-1,2.4E1,2.9039948E2,2.3955316E2,7.880021E0,4E-1,5.2E1,1.3E1,1.5E1,1.1E1,2.933152E2,4E0,1.7E1,4.8843008E-2,4.1032904E-1,-4.4409686E-1,-7.517425E-1,-5.9577256E-2,6.979505E-1,-3.8853426E-2,9.357607E-1,4.8399363E-2,-7.8519744E-1,-3.8981438E-2,-7.2187655E-2,6.202272E-1,-5.4073192E-2,-2.5544587E-1,9.2377186E-2,1.1462214E0,5.487193E-1,-3.3491302E-1,7.036363E-1,-4.0910926E-1,-9.96666E-3,-5.091505E-2],"split_indices":[5,5,2,5,5,3,0,2,1,3,3,1,0,3,4,0,0,0,6,6,5,0,0,0,0,6,6,6,4,0,2,0,0,6,2,0,0,0,0,0,0,0,0,0,0,0,0,0,0,0,0,0,0,0,0,0,0,0,0],"split_type":[0,0,0,0,0,0,0,0,0,0,0,0,0,0,0,0,0,0,0,0,0,0,0,0,0,0,0,0,0,0,0,0,0,0,0,0,0,0,0,0,0,0,0,0,0,0,0,0,0,0,0,0,0,0,0,0,0,0,0],"sum_hessian":[9.43E2,9.34E2,9E0,8.64E2,7E1,8E0,1E0,8.61E2,3E0,1.5E1,5.5E1,2E0,6E0,9.2E1,7.69E2,1E0,2E0,5E0,1E1,7E0,4.8E1,1E0,1E0,2E0,4E0,4.8E1,4.4E1,4.07E2,3.62E2,5E0,5E0,2E0,5E0,2E1,2.8E1,2E0,2E0,2.9E1,1.9E1,1.9E1,2.5E1,8E0,3.99E2,1.9E1,3.43E2,4E0,1E0,3E0,2E0,1E0,1E0,2E0,3E0,1.1E1,9E0,1E0,2.7E1,1E0,1E0],"tree_param":{"num_deleted":"0","num_feature":"7","num_nodes":"59","size_leaf_vector":"1"}},{"base_weights":[2.2029756E-2,2.2012804E0,1.0414561E-2,3.6562624E0,-5.427972E-1,-1.1688857E0,3.9949957E-2,1.2427453E0,3.2963964E-1,-2.388156E-1,-2.8829153E0,2.4440184E-2,1.6037214E0,-9.173817E-1,7.6468104E-1,3.9752987E-1,-1.1020081E0,-2.0223523E-2,5.5251163E-1,6.5623206E-1,1.3775454E0,1.8017493E-1,-1.3719459E0,1.6884549E0,-1.05078906E-1,4.11112E-2,-1.352464E0,9.078606E-1,-3.4484122E0,2.1720266E0,-2.1103723E-1,-4.6796098E-1,-8.471632E-3,1.274805E-1,8.218522E-1,2.9225537E-1,-3.091354E-3,2.5031885E-2,-8.618327E-1,-9.067925E-2,4.3217185E-1,-1.946456E0,-9.1943555E-2,9.82379E-1,-4.967022E-3,-1.242725E-1,3.9074328E-2],"categories":[],"categories_nodes":[],"categories_segments":[],"categories_sizes":[],"default_left":[0,0,0,0,0,0,0,0,0,0,0,0,0,0,0,0,0,0,0,0,0,0,0,0,0,0,0,0,0,0,0,0,0,0,0,0,0,0,0,0,0,0,0,0,0,0,0],"id":18,"left_children":[1,3,5,7,-1,9,11,-1,-1,13,15,17,19,21,23,-1,-1,25,27,29,-1,-1,31,33,-1,35,37,39,41,43,45,-1,-1,-1,-1,-1,-1,-1,-1,-1,-1,-1,-1,-1,-1,-1,-1],"loss_changes":[2.3871998E1,3.579215E1,3.278793E1,4.2221832E-1,0E0,3.597737E1,2.2225739E1,0E0,0E0,1.1596525E1,3.1477203E1,2.1474094E1,2.2467407E1,7.7240906E0,7.801097E0,0E0,0E0,6.869418E1,1.0407309E2,1.0975195E1,0E0,0E0,1.9760704E0,4.1479883E0,0E0,3.8581642E1,8.101145E1,4.2982216E1,5.531613E1,7.293415E0,4.7005782E-1,0E0,0E0,0E0,0E0,0E0,0E0,0E0,0E0,0E0,0E0,0E0,0E0,0E0,0E0,0E0,0E0],"parents":[2147483647,0,0,1,1,2,2,3,3,5,5,6,6,9,9,10,10,11,11,12,12,13,13,14,14,17,17,18,18,19,19,22,22,23,23,25,25,26,26,27,27,28,28,29,29,30,30],"right_children":[2,4,6,8,-1,10,12,-1,-1,14,16,18,20,22,24,-1,-1,26,28,30,-1,-1,32,34,-1,36,38,40,42,44,46,-1,-1,-1,-1,-1,-1,-1,-1,-1,-1,-1,-1,-1,-1,-1,-1],"split_conditions":[2E0,1E-1,5E0,2.8E1,-5.427972E-1,2.4582498E0,2.9949316E1,1.2427453E0,3.2963964E-1,9E0,1.9693697E2,3.2935883E2,1.9E1,4E0,1.02742E1,3.9752987E-1,-1.1020081E0,3.184845E2,4.6E1,2.1145E0,1.3775454E0,1.8017493E-1,1.5E1,7E0,-1.05078906E-1,7E0,1.4E1,1.1525623E1,4.9E1,8E0,2.4E1,-4.6796098E-1,-8.471632E-3,1.274805E-1,8.218522E-1,2.9225537E-1,-3.091354E-3,2.5031885E-2,-8.618327E-1,-9.067925E-2,4.3217185E-1,-1.946456E0,-9.1943555E-2,9.82379E-1,-4.967022E-3,-1.242725E-1,3.9074328E-2],"split_indices":[2,4,1,0,0,3,5,0,0,2,6,6,2,0,5,0,0,6,1,3,0,0,0,0,0,1,0,5,1,1,0,0,0,0,0,0,0,0,0,0,0,0,0,0,0,0,0],"split_type":[0,0,0,0,0,0,0,0,0,0,0,0,0,0,0,0,0,0,0,0,0,0,0,0,0,0,0,0,0,0,0,0,0,0,0,0,0,0,0,0,0,0,0,0,0,0,0],"sum_hessian":[9.43E2,4E0,9.39E2,3E0,1E0,2.2E1,9.17E2,2E0,1E0,1.5E1,7E0,9.09E2,8E0,9E0,6E0,1E0,6E0,8.39E2,7E1,7E0,1E0,2E0,7E0,3E0,3E0,8.03E2,3.6E1,6.5E1,5E0,2E0,5E0,6E0,1E0,2E0,1E0,4.1E1,7.62E2,1.9E1,1.7E1,2E1,4.5E1,2E0,3E0,1E0,1E0,3E0,2E0],"tree_param":{"num_deleted":"0","num_feature":"7","num_nodes":"47","size_leaf_vector":"1"}},{"base_weights":[1.637257E-2,-4.196839E-2,4.0612784E-1,-2.5440546E-2,-1.7204964E0,-1.2192764E0,4.7608387E-1,-5.5041343E-2,1.6720794E0,-7.536459E-1,4.363152E-1,1.108003E0,3.9168504E-1,-3.013345E-2,-1.1382445E0,1.644962E0,1.3420798E-1,2.4140912E-1,-4.5067266E-2,4.8952833E-2,1.0759256E0,-5.230983E-2,2.4420857E0,-2.4969487E0,1.9841376E-1,1.9611727E0,-2.4503841E0,-1.6408875E0,3.9614126E-1,3.6032515E0,3.3149248E-1,-3.0429373E-2,1.8674237E-1,1.241387E0,4.0708065E-2,-1.1929332E-1,-1.5065005E0,4.2136326E-1,-2.5192916E-1,-3.4598094E-1,8.017374E-1,-1.1725823E0,-5.2609827E-2,-1.8580069E-1,-8.699203E-1,1.1218346E0,5.5291433E-2,1.4184296E0,-6.674252E-2,7.466421E-1,-1.9674378E-2],"categories":[],"categories_nodes":[],"categories_segments":[],"categories_sizes":[],"default_left":[0,0,0,0,0,0,0,0,0,0,0,0,0,0,0,0,0,0,0,0,0,0,0,0,0,0,0,0,0,0,0,0,0,0,0,0,0,0,0,0,0,0,0,0,0,0,0,0,0,0,0],"id":19,"left_children":[1,3,5,7,9,-1,11,13,15,-1,17,-1,19,21,23,-1,25,-1,-1,27,29,31,33,35,37,39,41,43,45,47,49,-1,-1,-1,-1,-1,-1,-1,-1,-1,-1,-1,-1,-1,-1,-1,-1,-1,-1,-1,-1],"loss_changes":[2.1482374E1,2.276052E1,4.0400753E1,4.1044113E1,1.4755722E1,0E0,3.1680405E1,2.1603909E1,8.1318436E1,0E0,7.6909643E-1,0E0,2.8088682E1,4.3165276E1,3.3185646E1,0E0,5.674717E1,0E0,0E0,4.8172157E1,7.406256E1,2.5884153E1,2.681791E1,4.5704548E1,1.3701259E1,1.8588865E1,1.5901985E1,1.6207771E1,4.747074E1,3.978209E1,2.7574833E1,0E0,0E0,0E0,0E0,0E0,0E0,0E0,0E0,0E0,0E0,0E0,0E0,0E0,0E0,0E0,0E0,0E0,0E0,0E0,0E0],"parents":[2147483647,0,0,1,1,2,2,3,3,4,4,6,6,7,7,8,8,10,10,12,12,13,13,14,14,16,16,19,19,20,20,21,21,22,22,23,23,24,24,25,25,26,26,27,27,28,28,29,29,30,30],"right_children":[2,4,6,8,10,-1,12,14,16,-1,18,-1,20,22,24,-1,26,-1,-1,28,30,32,34,36,38,40,42,44,46,48,50,-1,-1,-1,-1,-1,-1,-1,-1,-1,-1,-1,-1,-1,-1,-1,-1,-1,-1,-1,-1],"split_conditions":[3.5E1,5E1,5.8048253E0,4.4E1,5E1,-1.2192764E0,8.089993E0,3.3E1,1.3379461E1,-7.536459E-1,1.4E1,1.108003E0,1.5986593E1,3.2E1,2.2E1,1.644962E0,2.5E1,2.4140912E-1,-4.5067266E-2,1.6E1,4E1,1.7110334E1,2.4E1,1.5E1,2.4040835E0,9E0,1.7339897E1,2.3398563E2,1.7E1,2.2608458E1,1.662249E1,-3.0429373E-2,1.8674237E-1,1.241387E0,4.0708065E-2,-1.1929332E-1,-1.5065005E0,4.2136326E-1,-2.5192916E-1,-3.4598094E-1,8.017374E-1,-1.1725823E0,-5.2609827E-2,-1.8580069E-1,-8.699203E-1,1.1218346E0,5.5291433E-2,1.4184296E0,-6.674252E-2,7.466421E-1,-1.9674378E-2],"split_indices":[0,1,5,1,2,0,5,0,5,0,0,0,5,0,2,0,0,0,0,2,0,3,1,2,3,0,5,6,2,5,5,0,0,0,0,0,0,0,0,0,0,0,0,0,0,0,0,0,0,0,0],"split_type":[0,0,0,0,0,0,0,0,0,0,0,0,0,0,0,0,0,0,0,0,0,0,0,0,0,0,0,0,0,0,0,0,0,0,0,0,0,0,0,0,0,0,0,0,0,0,0,0,0,0,0],"sum_hessian":[9.43E2,8.21E2,1.22E2,8.14E2,7E0,1E0,1.21E2,8.01E2,1.3E1,5E0,2E0,2E0,1.19E2,7.84E2,1.7E1,3E0,1E1,1E0,1E0,8E1,3.9E1,7.78E2,6E0,8E0,9E0,6E0,4E0,1.3E1,6.7E1,8E0,3.1E1,7.26E2,5.2E1,3E0,3E0,5E0,3E0,4E0,5E0,1E0,5E0,2E0,2E0,8E0,5E0,3E0,6.4E1,6E0,2E0,4E0,2.7E1],"tree_param":{"num_deleted":"0","num_feature":"7","num_nodes":"51","size_leaf_vector":"1"}},{"base_weights":[1.39919855E-2,1.8022324E0,4.4651837E-3,9.0424377E-1,-4.5681325E-1,-7.956232E-1,1.2956828E-2,-8.783003E-1,3.3330947E-2,-1.9095557E0,1.4570043E0,9.039486E-1,4.9250564E-3,-1.8429501E-1,-2.7537565E0,2.3108926E0,-4.5181116E-1,-2.0602133E0,1.9407371E0,-8.4896976E-1,5.4611422E-2,8.439548E-2,-3.7685424E-1,-2.6079848E-1,-1.0311537E0,8.428235E-1,4.7522593E-2,-2.166843E-1,1.3369274E-2,-1.1167884E0,1.5985738E-1,4.2699617E-1,1.4229805E0,1.0963302E-1,-6.713021E-1,7.3153365E-1,9.512068E-3],"categories":[],"categories_nodes":[],"categories_segments":[],"categories_sizes":[],"default_left":[0,0,0,0,0,0,0,0,0,0,0,0,0,0,0,0,0,0,0,0,0,0,0,0,0,0,0,0,0,0,0,0,0,0,0,0,0],"id":20,"left_children":[1,3,5,-1,-1,-1,7,9,11,13,15,17,19,21,23,25,27,29,31,33,35,-1,-1,-1,-1,-1,-1,-1,-1,-1,-1,-1,-1,-1,-1,-1,-1],"loss_changes":[1.6074137E1,2.4737389E1,2.123927E1,0E0,0E0,0E0,1.7062021E1,5.3356438E1,2.2698305E1,2.1339493E1,1.2453496E1,9.312139E1,3.7806335E1,3.3478923E0,9.890572E0,4.920233E0,4.349516E-1,3.6469696E1,2.5150482E1,8.3454285E1,4.5896385E1,0E0,0E0,0E0,0E0,0E0,0E0,0E0,0E0,0E0,0E0,0E0,0E0,0E0,0E0,0E0,0E0],"parents":[2147483647,0,0,1,1,2,2,6,6,7,7,8,8,9,9,10,10,11,11,12,12,13,13,14,14,15,15,16,16,17,17,18,18,19,19,20,20],"right_children":[2,4,6,-1,-1,-1,8,10,12,14,16,18,20,22,24,26,28,30,32,34,36,-1,-1,-1,-1,-1,-1,-1,-1,-1,-1,-1,-1,-1,-1,-1,-1],"split_conditions":[2E0,1E-1,2E0,9.0424377E-1,-4.5681325E-1,-7.956232E-1,5E0,2.1068459E1,7.5685663E0,6E0,9.0000004E-1,9.0576744E1,9.085988E0,-3.2000835E0,2.735266E2,1.7E1,8E0,2.7E1,2.9E1,8.686669E-1,9.220499E0,8.439548E-2,-3.7685424E-1,-2.6079848E-1,-1.0311537E0,8.428235E-1,4.7522593E-2,-2.166843E-1,1.3369274E-2,-1.1167884E0,1.5985738E-1,4.2699617E-1,1.4229805E0,1.0963302E-1,-6.713021E-1,7.3153365E-1,9.512068E-3],"split_indices":[2,4,0,0,0,0,2,5,5,1,4,6,5,3,6,1,0,1,0,3,5,0,0,0,0,0,0,0,0,0,0,0,0,0,0,0,0],"split_type":[0,0,0,0,0,0,0,0,0,0,0,0,0,0,0,0,0,0,0,0,0,0,0,0,0,0,0,0,0,0,0,0,0,0,0,0,0],"sum_hessian":[9.43E2,4E0,9.39E2,3E0,1E0,2E0,9.37E2,2E1,9.17E2,1.4E1,6E0,2.8E1,8.89E2,5E0,9E0,4E0,2E0,7E0,2.1E1,4.8E1,8.41E2,4E0,1E0,3E0,6E0,3E0,1E0,1E0,1E0,4E0,3E0,1.9E1,2E0,2.6E1,2.2E1,7E0,8.34E2],"tree_param":{"num_deleted":"0","num_feature":"7","num_nodes":"37","size_leaf_vector":"1"}},{"base_weights":[9.61088E-3,-4.3412964E-3,1.3131783E0,-1.8016856E-2,1.2624496E0,1.66639E0,-2.7985898E-1,3.8723215E-1,-5.9435878E-2,5.3305435E-1,1.1740512E0,1.829464E0,5.42696E-2,1.3412273E-1,4.46078E0,-2.9272905E-1,8.806996E-2,1.8601679E0,-1.1185919E-1,7.209439E-1,7.0511615E-1,1.0772082E0,-2.746921E-1,6.7686164E-1,2.9394684E0,-6.9791585E-1,8.407625E-3,7.215923E-1,-1.3381012E-1,8.3815986E-1,-1.0843277E-3,-1.0780678E-1,5.9010696E-2,-3.16432E-2,1.0315768E0,1.1733726E0,1.0534277E-1,1.4792512E-1,-3.0231568E-1,-2.3076203E-1,4.2458603E-1,-2.8995594E-1,2.3235041E-1,3.2522697E-2,-1.1019973E0,3.0471712E-1,-2.2262195E-1,-6.406703E-2,3.3710498E-1,-1.7041588E-2,4.6546936E-2,3.7282163E-1,9.138794E-2],"categories":[],"categories_nodes":[],"categories_segments":[],"categories_sizes":[],"default_left":[0,0,0,0,0,0,0,0,0,0,0,0,0,0,0,0,0,0,0,0,0,0,0,0,0,0,0,0,0,0,0,0,0,0,0,0,0,0,0,0,0,0,0,0,0,0,0,0,0,0,0,0,0],"id":21,"left_children":[1,3,5,7,9,11,-1,13,15,17,-1,19,-1,21,23,25,27,29,31,33,-1,35,37,39,-1,41,43,45,47,-1,-1,-1,49,-1,51,-1,-1,-1,-1,-1,-1,-1,-1,-1,-1,-1,-1,-1,-1,-1,-1,-1,-1],"loss_changes":[1.7174797E1,1.6220757E1,9.487793E0,1.5565943E1,1.7250551E1,1.8492584E0,0E0,8.80723E1,2.8966362E1,7.9109383E0,0E0,2.9251347E0,0E0,3.1910778E1,9.435027E1,3.9783287E1,7.262861E1,5.230728E0,3.1723404E-1,1.1356626E0,0E0,5.0068962E1,3.3139305E1,5.359901E0,0E0,5.5722656E1,6.961571E1,5.8442078E1,3.8647545E1,0E0,0E0,0E0,6.448978E-2,0E0,8.1941366E-2,0E0,0E0,0E0,0E0,0E0,0E0,0E0,0E0,0E0,0E0,0E0,0E0,0E0,0E0,0E0,0E0,0E0,0E0],"parents":[2147483647,0,0,1,1,2,2,3,3,4,4,5,5,7,7,8,8,9,9,11,11,13,13,14,14,15,15,16,16,17,17,18,18,19,19,21,21,22,22,23,23,25,25,26,26,27,27,28,28,32,32,34,34],"right_children":[2,4,6,8,10,12,-1,14,16,18,-1,20,-1,22,24,26,28,30,32,34,-1,36,38,40,-1,42,44,46,48,-1,-1,-1,50,-1,52,-1,-1,-1,-1,-1,-1,-1,-1,-1,-1,-1,-1,-1,-1,-1,-1,-1,-1],"split_conditions":[2.1056168E1,2.9949316E1,1.7088627E1,-7.683418E0,1.9E1,4.4E1,-2.7985898E-1,-7.8646674E0,2.2395E0,2.1145E0,1.1740512E0,1.1966954E1,5.42696E-2,9E0,1.1E1,2E-1,5.4394994E0,8E0,8E0,2.2E1,7.0511615E-1,2.2579935E2,-1.0114666E1,5E0,2.9394684E0,3.2E1,2.1145E0,3.1E1,4.9E1,8.3815986E-1,-1.0843277E-3,-1.0780678E-1,2.4E1,-3.16432E-2,3.2E1,1.1733726E0,1.0534277E-1,1.4792512E-1,-3.0231568E-1,-2.3076203E-1,4.2458603E-1,-2.8995594E-1,2.3235041E-1,3.2522697E-2,-1.1019973E0,3.0471712E-1,-2.2262195E-1,-6.406703E-2,3.3710498E-1,-1.7041588E-2,4.6546936E-2,3.7282163E-1,9.138794E-2],"split_indices":[3,5,5,3,2,2,0,3,3,3,0,5,0,2,0,4,3,1,0,0,0,6,3,1,0,2,3,2,2,0,0,0,0,0,0,0,0,0,0,0,0,0,0,0,0,0,0,0,0,0,0,0,0],"split_type":[0,0,0,0,0,0,0,0,0,0,0,0,0,0,0,0,0,0,0,0,0,0,0,0,0,0,0,0,0,0,0,0,0,0,0,0,0,0,0,0,0,0,0,0,0,0,0,0,0,0,0,0,0],"sum_hessian":[9.43E2,9.34E2,9E0,9.25E2,9E0,8E0,1E0,8.5E1,8.4E2,8E0,1E0,7E0,1E0,8.1E1,4E0,3.25E2,5.15E2,2E0,6E0,3E0,4E0,2.4E1,5.7E1,3E0,1E0,1.38E2,1.87E2,1.33E2,3.82E2,1E0,1E0,2E0,4E0,1E0,2E0,4E0,2E1,2.8E1,2.9E1,1E0,2E0,1.17E2,2.1E1,1.83E2,4E0,1.11E2,2.2E1,3.6E2,2.2E1,2E0,2E0,1E0,1E0],"tree_param":{"num_deleted":"0","num_feature":"7","num_nodes":"53","size_leaf_vector":"1"}},{"base_weights":[1.3433787E-2,-1.4024037E-2,5.26272E-1,3.2362393E-3,-1.029144E0,7.690215E-1,-6.110893E-1,-2.0926416E-2,9.498259E-1,7.422541E-1,-1.4561086E0,1.2316335E0,-1.7808893E-1,-1.3785031E0,2.7854234E-1,-6.869132E-2,7.399761E-1,2.015091E0,-3.075093E0,-1.8464348E0,5.90566E-1,8.0888665E-1,8.789827E-1,-9.496903E-1,1.988337E0,-4.7608268E-1,-8.171196E-2,1.1012319E0,-1.910984E-1,-9.928086E-4,-6.0506094E-1,-1.9448774E-1,1.719598E0,3.57011E0,1.1423827E0,-4.0558357E0,1.2718163E-1,-2.8506634E0,-7.218911E-1,2.196253E-1,4.612942E-2,1.2892445E0,-7.6700145E-1,-1.6057311E0,5.9981394E-1,7.715836E-1,3.562689E-2,5.882435E-2,4.3673003E-1,5.7988137E-2,-6.241319E-2,5.3853273E-2,-3.7560004E-1,-1.9723381E-1,7.895652E-1,6.773399E-1,-1.0830205E-1,1.6114479E0,3.9796358E-1,-2.45752E-1,5.4383004E-1,-3.4607637E-1,-1.3916168E0,-9.593242E-1,-1.6728659E-1,1.5320522E-1,-3.037303E-1,6.115161E-1,-5.3753227E-2,-3.344369E-1,1.4579087E-1,-8.302732E-1,-3.133155E-1,4.6257907E-1,-6.846047E-2],"categories":[],"categories_nodes":[],"categories_segments":[],"categories_sizes":[],"default_left":[0,0,0,0,0,0,0,0,0,0,0,0,0,0,0,0,0,0,0,0,0,0,0,0,0,0,0,0,0,0,0,0,0,0,0,0,0,0,0,0,0,0,0,0,0,0,0,0,0,0,0,0,0,0,0,0,0,0,0,0,0,0,0,0,0,0,0,0,0,0,0,0,0,0,0],"id":22,"left_children":[1,3,5,7,9,11,13,15,17,-1,19,21,23,25,27,29,31,33,35,37,39,41,-1,43,45,-1,-1,47,-1,49,51,53,55,57,59,61,-1,63,65,-1,-1,67,69,71,73,-1,-1,-1,-1,-1,-1,-1,-1,-1,-1,-1,-1,-1,-1,-1,-1,-1,-1,-1,-1,-1,-1,-1,-1,-1,-1,-1,-1,-1,-1],"loss_changes":[1.3300242E1,1.5719892E1,1.37224455E1,2.0215958E1,2.6039606E1,1.7745125E1,6.528411E0,3.1379734E1,1.005239E2,0E0,1.22746315E1,1.701479E1,2.5290947E1,7.205639E-1,4.4674926E0,2.9484276E1,4.7020927E1,2.0348969E1,1.8877682E1,1.1493717E1,7.287741E-2,1.839963E1,0E0,1.214506E1,4.0589743E0,0E0,0E0,6.772742E-1,0E0,2.9084297E1,4.6413647E1,3.705961E1,2.8809692E1,1.712358E1,1.8579922E1,1.4155502E0,0E0,2.9921303E0,3.023848E0,0E0,0E0,2.0166264E1,3.1563642E0,2.3271675E0,3.4722185E0,0E0,0E0,0E0,0E0,0E0,0E0,0E0,0E0,0E0,0E0,0E0,0E0,0E0,0E0,0E0,0E0,0E0,0E0,0E0,0E0,0E0,0E0,0E0,0E0,0E0,0E0,0E0,0E0,0E0,0E0],"parents":[2147483647,0,0,1,1,2,2,3,3,4,4,5,5,6,6,7,7,8,8,10,10,11,11,12,12,13,13,14,14,15,15,16,16,17,17,18,18,19,19,20,20,21,21,23,23,24,24,27,27,29,29,30,30,31,31,32,32,33,33,34,34,35,35,37,37,38,38,41,41,42,42,43,43,44,44],"right_children":[2,4,6,8,10,12,14,16,18,-1,20,22,24,26,28,30,32,34,36,38,40,42,-1,44,46,-1,-1,48,-1,50,52,54,56,58,60,62,-1,64,66,-1,-1,68,70,72,74,-1,-1,-1,-1,-1,-1,-1,-1,-1,-1,-1,-1,-1,-1,-1,-1,-1,-1,-1,-1,-1,-1,-1,-1,-1,-1,-1,-1,-1,-1],"split_conditions":[4.6E1,5E1,6.1E1,4.4E1,6.989936E0,1.7088627E1,2.0243962E2,3.3508606E2,3.3133276E2,7.422541E-1,1.6487421E1,1.4386494E1,5.2E1,7.7E1,3.0679825E2,3E1,1.6E1,2.5E1,9.9395E0,5.4E1,4E1,1.1966953E1,8.789827E-1,1.9000001E0,5.9E1,-4.7608268E-1,-8.171196E-2,7E1,-1.910984E-1,2.5340184E2,4.777E0,1.5E1,5.7999997E0,4.6E1,2.9E1,9E0,1.2718163E-1,1.1000001E0,1.4E1,2.196253E-1,4.612942E-2,4.5E1,4.4E1,4.8E1,5E1,7.715836E-1,3.562689E-2,5.882435E-2,4.3673003E-1,5.7988137E-2,-6.241319E-2,5.3853273E-2,-3.7560004E-1,-1.9723381E-1,7.895652E-1,6.773399E-1,-1.0830205E-1,1.6114479E0,3.9796358E-1,-2.45752E-1,5.4383004E-1,-3.4607637E-1,-1.3916168E0,-9.593242E-1,-1.6728659E-1,1.5320522E-1,-3.037303E-1,6.115161E-1,-5.3753227E-2,-3.344369E-1,1.4579087E-1,-8.302732E-1,-3.133155E-1,4.6257907E-1,-6.846047E-2],"split_indices":[0,1,0,1,5,5,6,6,6,0,3,5,0,0,6,1,1,0,3,1,0,5,0,4,0,0,0,0,0,6,3,0,4,1,0,0,0,4,0,0,0,1,1,0,0,0,0,0,0,0,0,0,0,0,0,0,0,0,0,0,0,0,0,0,0,0,0,0,0,0,0,0,0,0,0],"split_type":[0,0,0,0,0,0,0,0,0,0,0,0,0,0,0,0,0,0,0,0,0,0,0,0,0,0,0,0,0,0,0,0,0,0,0,0,0,0,0,0,0,0,0,0,0,0,0,0,0,0,0,0,0,0,0,0,0,0,0,0,0,0,0,0,0,0,0,0,0,0,0,0,0,0,0],"sum_hessian":[9.43E2,8.96E2,4.7E1,8.82E2,1.4E1,3.9E1,8E0,8.61E2,2.1E1,1E0,1.3E1,2.6E1,1.3E1,4E0,4E0,8.11E2,5E1,1.7E1,4E0,1.1E1,2E0,2.2E1,4E0,1E1,3E0,3E0,1E0,2E0,2E0,7.21E2,9E1,2.6E1,2.4E1,5E0,1.2E1,3E0,1E0,5E0,6E0,1E0,1E0,1.7E1,5E0,7E0,3E0,2E0,1E0,1E0,1E0,3.72E2,3.49E2,4.1E1,4.9E1,2.3E1,3E0,1.9E1,5E0,2E0,3E0,3E0,9E0,1E0,2E0,4E0,1E0,1E0,5E0,1.1E1,6E0,4E0,1E0,1E0,6E0,1E0,2E0],"tree_param":{"num_deleted":"0","num_feature":"7","num_nodes":"75","size_leaf_vector":"1"}},